
#include "network_evaluate.h"



float linear(float num) {
	return num;
}



float sigmoid(float num) {
	return 1 / (1 + exp(-num));
}



float relu(float num) {
	if (num > 0) {
		return num;
	} else {
		return 0;
	}
}

static const int structure[3][2] = {{18, 64},{64, 64},{64, 4}};
static float output_0[64];
static float output_1[64];
static float output_2[4];
static const float layer_0_weight[18][64] = {{-0.010712237,0.049747046,0.19720873,-0.41234508,0.06753129,0.48448268,-0.47784263,0.2819649,0.16524722,0.002814644,0.08718432,-0.2818335,0.36022562,-0.041521102,-0.04688162,-0.18213828,-0.6628814,0.10256685,0.4648984,-0.031456646,-0.13133396,0.12817031,-0.26694795,0.24673185,-0.40194046,-0.113425925,-0.2131933,-0.28798175,0.16848086,0.11586688,-1.4826578,-0.047145404,-0.4051885,0.3368365,-0.44859266,0.006399275,-0.16708006,0.43274558,0.051710207,-0.1801849,0.0035693834,-0.0908173,-0.6761558,-0.08342824,0.041908152,0.33382255,0.16908905,0.3188594,0.42325777,-0.18282093,0.28709465,-0.0068690623,-0.4918954,0.21846396,-0.29620203,-0.6114522,0.036175463,0.21339743,-0.053725995,-0.335826,-0.184594,-0.50459856,0.21828778,-0.25298482},{0.23096864,0.08790928,-0.35275033,-0.21601719,0.19068284,-0.26798365,0.21448572,-0.1149152,-0.12945583,-0.11368941,-0.45244858,0.25483254,-0.0665064,-0.32121223,-0.10290266,0.019456862,0.10753662,-0.06365243,0.26940244,-0.20270346,0.20751907,0.28763855,0.68060106,0.6739356,0.3291377,0.41460928,0.265591,0.36361015,-0.35192448,0.11108716,-0.08488914,0.47772804,0.1521528,0.16080903,-0.32420042,0.6629958,-0.042681687,-0.17494754,-0.4586956,0.4556023,-0.293636,0.28881595,-0.4398428,-0.46733397,0.5292143,0.02731192,0.22364953,0.47287706,0.5557199,-0.72638756,0.04313815,0.18835394,-0.41922596,-0.30335194,-0.6392248,-0.62793684,0.41040558,0.023224857,0.15459259,0.5900735,0.059598744,0.7718916,-0.053213827,0.13348162},{0.09926831,-0.4883683,-0.1694786,-0.076856636,0.04911738,0.17071614,0.12409799,-0.12694828,-0.058422055,0.06272508,0.01938904,-0.38297534,-0.10705995,0.05790716,-0.09746208,-0.23062396,-0.19208942,0.0803493,-0.77464473,0.0064039323,-0.1258167,-0.32868242,0.2444456,0.24537256,0.14463496,0.53793645,-0.0049660634,0.55222213,-0.12864216,0.38331407,-0.7253807,0.057740167,-0.16042235,0.0061115213,-0.17620276,0.5595175,0.033453245,0.21559268,-0.10114788,-0.09205013,0.3547296,-0.09413329,-0.2811635,-0.43297645,0.38804573,-0.15727378,0.26264495,-0.255972,-0.23153892,1.0503567,-0.40972707,0.098928675,0.22413316,-0.60915565,-0.051121145,-0.66918,0.04075903,0.035613827,-0.38766634,0.11043309,0.017622475,0.29307988,0.3546532,0.038724653},{-0.33513415,0.29192397,0.37807843,-0.019515092,-0.13062494,0.4268886,-0.30931425,0.43037277,0.533125,-0.04707265,0.18342601,0.0362367,0.02754616,-0.0021099164,-0.47133896,-0.46180364,0.20422457,0.30745476,0.0464909,-0.11637779,0.32689828,-0.16278765,0.14428408,0.23305097,-0.3718631,-0.124932595,-0.25295994,0.055930894,-0.03079545,0.117275134,-0.40587384,-0.11093485,-0.33198497,0.07128662,-0.4136485,-0.07334395,-0.6319681,0.39282462,0.2868091,0.03061958,0.15023609,-0.41038287,-0.37644705,-0.23689741,-0.1931974,0.24239273,0.001441908,0.28901452,0.08370271,-0.130598,-0.112819165,0.74355716,-0.14869046,-0.2824012,-0.0355936,-0.05589059,0.09171902,-0.43594566,0.0042085387,-0.123391844,0.002873506,-0.103019334,-0.23240824,-0.24546374},{-0.18404146,0.3938449,-0.2510936,0.15443222,0.42329374,-0.31305936,0.28994772,-0.053494893,-0.28357208,-0.31950584,-0.27705276,0.30768204,0.20597884,0.2562018,-0.66122043,0.0016304492,0.351889,0.09718667,0.3397645,0.019364264,-0.37291017,0.14832164,-0.076435216,0.6755176,0.025427172,0.06441105,0.15997785,0.2319782,-0.30698305,0.2961524,0.21585242,0.5938377,0.12986517,0.19477347,-0.41186184,0.3302091,-0.30476186,-0.2715284,-0.3371816,0.29931366,-0.00814823,-0.40520722,-0.050932847,0.119455986,0.27728152,-0.047411,0.0586873,0.12668899,0.04884097,-0.16195743,0.21224819,-0.32324785,-0.19201793,-0.11780681,-0.13331589,-0.34759393,0.22077438,-0.7964186,-0.0037178008,0.39823893,-0.09413788,0.072103135,0.25700414,-0.07477411},{0.36059308,-0.24497887,-0.17689607,-0.09074734,0.27910298,-0.06939641,0.22834499,0.15656753,0.22915955,-0.1168462,-0.14210233,-0.030894607,0.07921231,0.35263652,0.057735898,-0.035210624,-0.22905912,-0.0045203306,-0.52067155,0.18761213,-0.3126126,-0.11017191,0.07968258,-0.1992691,0.22173493,-0.22641388,-0.32198775,-5.0831033e-05,0.08852324,0.04849744,-0.30740583,0.048723675,-0.053715684,0.23706137,0.10319733,0.02277616,0.08122292,-0.03083012,0.08241985,0.26844198,-0.11360588,0.10089903,0.17335524,-0.15525556,0.24683966,-0.1246277,0.23392554,-0.2884978,0.17004602,0.37287134,0.0645159,0.24986623,0.18504442,-0.36573365,-0.13247618,-0.41620153,0.22844212,-0.017823,0.05092461,-0.005801364,0.14493406,-0.23086272,-0.14170972,0.10157317},{0.26073745,0.6005347,-0.19390146,0.28176644,0.31217858,0.5590102,-0.44679183,-0.07496527,-0.6882792,0.0628474,-0.20252821,-0.10176867,0.19701916,-0.369185,0.16177832,-0.13843754,-0.04609065,0.42459217,-0.041766003,-0.5519281,0.3695874,-0.4355485,0.10718615,-0.30397296,0.2173763,0.14515518,0.1839157,-0.016586699,-0.35128647,-0.9582763,0.5304602,-0.04896022,-0.08788243,0.22799031,0.30307004,-0.19527167,-0.31188148,-0.48317522,0.88503474,-0.69986856,0.68647563,0.477651,0.36919641,0.69785666,-0.06931785,0.058797807,-0.30159867,-0.2603908,-0.046494685,0.3645115,-0.6435935,-0.87298733,-0.29484525,0.076161444,0.039519485,0.40478244,-0.026031021,0.14417821,0.0061095185,0.14375769,0.44989896,0.327509,0.07096531,-0.49731117},{-0.43300277,0.21337728,0.07772703,-0.030474694,-0.014933688,-0.40997413,0.015948111,-0.0017001772,-0.05830587,0.5837679,0.10556622,0.011184726,-0.4226092,0.16696236,0.13141987,0.16435386,-0.039809994,-0.364319,0.6551805,0.26305124,-0.5184454,-0.3581898,-0.19463333,0.5721643,-0.14538063,0.47515863,0.17889367,0.2176106,0.33790177,-0.066331,-0.07921171,-0.09848339,-0.5332477,0.46459538,-0.285151,-0.03045191,-0.66307867,-0.88532114,-0.7697851,0.843891,0.06555183,0.34404767,0.2934959,-0.27069673,0.04828748,0.4273696,0.14324577,0.10708219,-0.13088612,0.18406987,-0.17435437,0.16319174,-0.15606645,-0.41475138,-0.15072413,-0.10019577,-1.0352969,0.5274569,-0.5103992,-0.059436418,-0.037761644,-0.14094019,-0.16463703,-0.43709764},{0.21705729,0.9866287,-0.47601333,0.6631339,1.204183,0.90889376,-0.74241525,-0.46257004,0.9468285,-0.020644477,-0.15958378,0.4369531,-1.3172113,0.020070681,0.23657206,-0.07495544,1.0748471,0.27363968,0.08739389,0.5239675,0.8431962,-0.46426478,1.1887761,0.5195809,-1.3516772,0.42874727,-0.73967046,0.7834929,0.33311138,1.302233,0.10918889,-0.5212627,-1.1294005,0.49899438,-0.8534263,0.23793456,-0.6425861,-0.5175477,1.1112791,-0.026210733,-0.96776336,0.32576323,-0.94975907,-0.7153596,1.3487736,-0.25932783,0.74886924,0.6157351,-0.18904808,-0.49547768,1.3172423,1.4812063,-0.5282957,0.33075234,-0.5435123,-0.5697347,0.36058882,-0.062237196,-0.067871414,0.18981862,-0.0032869475,-0.59646124,0.15367132,-0.98781115},{0.23605026,-0.01847679,0.2397683,0.04437187,0.47629687,-0.05114823,0.5107897,-0.3066594,0.0138793895,0.8224789,0.9491886,-0.3868496,0.39829904,-0.26090866,-0.7923114,0.09782285,0.33282432,0.40980807,0.016540641,0.3369136,-0.074717976,0.7727612,0.35125643,0.10834702,0.38078892,-0.22759664,-0.22732322,0.25011322,0.75,0.41429523,0.16155683,0.68953663,0.26905107,0.964308,-0.2882049,-0.87702763,-0.7692473,0.17623049,0.3450413,-0.046768498,0.17593093,-0.29792735,-0.7639978,1.0716347,-0.63381886,-0.2273942,-0.01991702,-0.62176704,-0.29286608,0.45602655,-0.75866926,-0.07961991,-0.46471536,-0.5417634,-0.25000095,-0.531578,-0.039388593,0.41367,-0.028857253,-0.48054522,-0.025567537,-1.2097903,0.36080438,-0.07692767},{-0.14969546,-0.023405187,0.12611277,0.39818096,1.0620522,0.11465483,0.4552906,0.29631543,-0.028634757,-0.25927114,0.10442856,0.20136736,-0.0770682,-0.004057583,0.97961307,0.44072235,-0.012745438,0.3219381,-0.40749866,-0.29551846,-0.14543238,0.6212406,-0.105936505,0.43499663,-0.2709941,-0.23461989,-0.113965325,0.09358894,-0.4514574,-0.31364328,-0.3200434,0.5217908,-0.052402027,-0.4348941,-0.66893876,-0.01772836,-0.10548087,0.18111917,0.9106469,-0.39871868,0.26576585,-0.33782408,-0.23459731,0.2811855,-0.64886206,-0.16823933,-0.20601468,0.048613355,0.33397502,-0.3588825,0.029935373,0.21381438,0.5584947,0.14727357,-1.1323003,-0.32863396,-0.12942304,-0.50474775,-0.118296936,0.07354921,-0.24731573,-0.15335397,0.3014986,-0.33168876},{1.0396758,0.21996902,-0.81669825,-0.37064227,-0.89471966,-0.4321335,0.6653352,-0.12509087,-0.8632582,0.50257754,-0.6615601,0.05484788,-0.5980093,-1.263717,-0.25330952,-0.55137247,-0.039025184,1.1236027,0.46080357,-0.46358767,-0.6655588,-0.58396435,0.07998263,0.5709211,0.48105443,0.42394108,-0.008312485,1.1897246,0.22311036,0.4476435,0.21407774,0.4191836,0.5855347,1.2284538,-0.5003426,0.032436796,-0.18451917,-0.09544579,0.6776225,1.0433096,-0.8746303,-0.22983773,-0.012358315,0.24228856,0.61016333,0.55403054,0.06623764,1.0813367,-0.39993727,-0.3415468,-1.1254389,0.5849847,0.15335369,0.40893537,0.5649837,0.010234031,0.94788027,0.66082156,0.6787964,0.11358725,0.98599094,-0.6139052,0.17570634,-0.9732688},{-0.33813605,0.55950433,0.38055596,-0.21784462,0.5001411,-0.41149724,0.0003248362,-0.88309175,0.011151592,-0.4995703,-0.5970749,-1.0701143,-0.41119176,0.118608154,0.6500265,1.3076606,1.2308285,-0.3967184,-0.24142084,1.0375493,0.11897329,-0.16781388,-0.24190839,0.122178234,-0.8593296,0.9165077,-0.41645157,0.8248406,0.38254845,1.0099033,-0.012235103,0.81544167,0.38033324,0.23463903,-0.53809243,-0.53349656,-0.3139498,0.5538807,0.4993672,-0.9450026,-0.20778368,-0.48071027,-1.0030549,0.075556844,0.28540403,-0.4690149,0.44110966,0.105464175,0.20238198,-0.37368712,1.161901,0.4370744,0.4526801,0.7247993,0.073597856,0.9803539,0.34323013,0.41922408,-0.3097008,0.22704282,0.48942548,0.33205473,0.14383963,-0.9672904},{0.33079597,0.28479418,0.1266918,-0.091623165,-0.3374632,0.066446416,0.15631749,0.6504574,-0.2855885,0.051715214,-0.462702,0.56561035,-0.18983105,-0.360648,0.564095,0.6090819,0.095839426,0.032054055,0.21214302,0.45451242,-0.57725835,0.15590948,0.18972684,0.48804477,0.1700016,0.73139495,-0.19890286,0.0853838,0.059649024,-0.15228958,-0.067140676,0.24435481,0.24929456,0.41902232,0.18342936,-1.3890357,0.046193,0.66801846,0.5666471,1.0969812,-1.291881,-0.35874975,-0.8016745,-0.20609577,0.23701088,1.1037838,0.59664714,1.1865678,-1.0576525,-0.13109687,0.068587415,0.2797471,-0.0071328687,0.71491957,0.82175887,-0.08908529,0.47806084,0.60927904,-0.5939997,-0.7509298,1.1169161,-0.5201083,0.35680714,-0.57558066},{-0.07481754,-0.08980664,-0.115764394,0.5378795,-0.2712474,0.34579045,-0.108786635,0.2239821,0.10177169,-0.4169105,-0.12014936,0.17202033,-0.25529936,0.72987676,0.14895244,0.19051968,0.3534953,-0.25457945,0.17043382,-0.3865337,0.69693947,0.024345577,-0.32843196,0.25044835,-0.31517512,0.21136947,-0.21469797,0.3611912,-0.6192594,0.14833854,-0.13863507,0.25801268,-0.2207375,-0.4449366,-0.1708087,0.18024558,0.17506538,-0.006605892,-0.6614184,0.09833647,-0.25980616,0.093750425,0.34465656,-0.62727314,0.0853595,-0.4222415,0.6690902,-0.38954479,0.3730394,0.076206595,0.6421531,0.054922335,-0.056733456,0.38293022,0.6101248,0.19102678,-0.35815838,-0.27054903,-0.102735266,0.52488184,-0.042243958,0.40603215,0.327637,0.3816016},{-0.068997055,0.34206837,0.20365204,0.37290314,-0.034799226,-0.10344212,0.030623788,-0.26355267,-0.1484887,0.26231807,-0.13100296,-0.23437679,-0.06194303,-0.028637314,0.12556973,-0.16838045,-0.1516608,0.032809265,-0.15647055,-0.019379858,-0.10832694,0.3093669,-0.23825052,0.13781518,0.057053313,0.035517033,0.060554016,-0.0875544,-0.017247997,0.30590072,0.0745116,0.025211148,0.17851375,0.16232097,0.110631645,-0.24327925,0.22412498,-0.1797786,-0.049970236,0.12311889,-0.062091827,-0.11377716,0.011451961,0.40390167,0.124297954,0.051140253,0.036862053,0.12899363,0.005382898,-0.0080132205,-0.084297456,-0.36787918,-0.3638652,0.12427555,-0.12230423,-0.1602271,0.55761427,0.16209954,-0.14439096,-0.09348436,-0.15322113,-0.19294758,0.12530887,0.08613915},{0.25135556,0.06690763,-0.171558,-0.10390651,0.102541976,0.058611017,0.14307025,-0.21257469,-0.008101021,0.17945181,-0.010511479,0.03102074,-0.22998716,0.04809203,0.02941359,-0.12995715,0.27981535,0.15293962,0.18678473,-0.2782322,0.2901319,0.028372554,-0.23040453,0.013297686,0.11887669,-0.058472697,0.081893675,0.11490444,0.07507989,-0.12801744,-0.044754077,-0.2546496,-0.08197285,0.1297739,0.3093662,0.072665356,-0.0068000667,-0.40985563,-0.05001485,0.079251565,0.05675976,-0.08392484,0.13148499,0.09191007,-0.13446029,0.0055732136,-0.07107772,0.014057177,-0.21566375,-0.079759665,-0.08074072,0.46836355,-0.1344793,0.0021133968,0.10956321,-0.19672216,-0.30775625,-0.089152545,-0.23784906,0.25001338,-0.3576081,-0.05512875,0.045920514,0.0119585125},{0.32834667,0.27884975,0.062252074,0.19549349,-0.47317827,-0.05313138,-0.13279884,-0.09607544,-0.047628555,-0.12954757,0.029814443,-0.13620307,-0.37061575,0.4480061,-0.4250243,0.2348585,0.36256063,0.065152474,-0.009432589,0.3044902,-0.05953569,-0.0984698,0.12415812,0.15621664,-0.21611562,0.18139192,0.13600041,0.13245443,-0.3825148,-0.19497944,-0.087758265,-0.017882701,-0.086271,-0.07152522,0.19327393,-0.23158725,-0.29119977,0.20471475,0.002759722,0.33162764,0.0031571065,-0.16631512,0.28763768,-0.09339625,-0.23006305,-0.08755861,0.13168037,0.103281416,-0.048230156,-0.032193333,-0.032603495,0.31848532,-0.32080624,0.3614168,-0.07460425,-0.097192265,-0.26906753,0.55022293,-0.14917715,0.043246873,0.09910235,0.13325304,-0.60246706,-0.100293316}};
static const float layer_1_weight[64][64] = {{0.031586494,-0.1417571,0.21920827,-0.1408584,-0.18041986,-0.21282037,0.20790079,-0.09362578,-0.11148015,0.038150012,-0.033040777,0.059498794,0.11839632,0.0076919696,-0.13615054,-0.031337205,-0.050698407,0.15154548,-0.10411313,0.2160125,-0.005438913,-0.047281966,-0.1651061,-0.08850663,-0.18881531,0.12920469,-0.22827643,-0.25113222,0.23199332,-0.04504528,0.17752631,-0.1418547,0.21432911,0.17695382,0.11774731,-0.19897638,0.096212424,-0.107589744,-0.2850435,0.2633904,-0.0275841,0.0027964525,-0.15333991,-0.029308937,0.12732296,-0.0024252764,-0.0014391444,0.0575635,0.24894536,0.30754617,0.10415701,0.070740074,0.123789586,-0.1897908,0.16827908,-0.27629846,-0.0957654,-0.20660833,0.048227027,0.105307706,0.0057154843,0.15710829,0.13526554,0.12897977},{-0.10562413,0.036422275,-0.2649609,0.12864253,0.30129743,-0.108704075,-0.007475812,-0.10032858,0.02941704,-0.18229352,-0.05433327,-0.24194618,0.13733898,0.22509646,0.060449053,0.12564327,-0.014693585,0.4950754,0.33960894,0.10079391,0.100999095,-0.06191305,0.3108038,-0.113534905,-0.08478725,0.03158974,0.085009225,0.17274247,-0.053445026,-0.20787503,0.010199815,-0.1415025,0.11464488,-0.1520023,0.19141077,0.22042775,0.15483606,-0.18562742,-0.042652152,-0.3058803,0.0070601944,-0.22891805,0.14835764,0.21570167,0.084427685,-0.12650372,0.08798414,0.071614854,-0.03621469,-0.14376634,-0.11919735,0.340115,-0.1071649,-0.28022727,0.10958604,0.30746463,0.07617849,-0.03297485,0.24283224,0.20157392,0.20762047,-0.3802045,0.15849625,-0.10157705},{-0.020449761,-0.15243529,-0.047150724,0.36618307,0.29789114,-0.06914465,-0.06206818,-0.09132549,0.0783513,-0.027539877,0.09077393,0.15631935,-0.28302065,-0.048193067,0.10846963,-0.18870719,-0.067681275,-0.114576004,0.041321494,-0.12662351,-0.052291237,0.074176796,0.077816516,-0.14399704,-0.15121473,0.09402195,-0.005387558,0.22835685,0.16703865,0.120659396,-0.05843238,-0.043509398,0.21530731,-0.07728409,0.2330544,0.1304453,-0.066353366,0.14020781,0.11048445,0.031562664,-0.0067442125,-0.16952051,-0.062630005,-0.10806864,-0.04106551,-0.2879426,0.09423376,0.11989765,-0.14812705,0.19508483,0.057819076,-0.05359494,0.055757295,0.14890577,-0.031092415,0.013740125,0.06914771,-0.069166,-0.022677008,-0.008606168,0.10414592,0.27502075,-0.053782575,0.1459463},{0.20702009,0.18976036,-0.026923599,0.14978988,0.19779758,-0.021722564,-0.10858156,-0.04603551,-0.09568687,0.14108129,-0.18435368,-0.202993,-0.24191016,-0.022842243,0.00920066,0.06002001,0.2649458,0.026700953,0.14770192,0.022823833,-0.038391735,0.08820878,0.21312727,-0.19205073,0.016907286,-0.0158882,0.008307327,-0.2723842,0.05919329,-0.14132152,-0.11519332,0.13525893,-0.18460266,0.10703088,0.020080972,0.20590605,-0.10433798,0.17866464,0.058936317,-0.17453675,-0.063576244,-0.14254692,-0.030248856,-0.0845923,0.12015768,-0.009678985,0.040556036,-0.06033345,0.26330668,-0.07545719,0.1042684,0.3149912,-0.20737803,0.05794826,-0.1426917,-0.06819908,-0.34429404,0.06529838,0.18806693,0.23938064,0.073329896,0.13482426,0.0492505,-0.07912852},{0.012709863,-0.17078607,-0.14461455,-0.22433494,-0.040765926,0.013078482,0.01633665,-0.102021806,0.03782896,-0.098541155,0.030861791,-0.100271426,0.07675736,0.1105243,0.030359428,-0.17156874,-0.053399455,0.20245752,-0.08626763,-0.17596306,0.15829039,-0.15600763,0.08941462,-0.100567944,0.16688325,-0.17040734,0.23897095,0.11794745,0.12170871,0.032750662,-0.058608316,-0.092160866,0.16710241,-0.21253082,0.04132618,-0.18035306,0.05709973,-0.15698567,-0.15917182,0.06457805,0.1616429,-0.019362519,0.19014625,-0.082683206,-0.18645549,0.10962211,0.17558618,-0.24179752,0.06663754,0.08542414,-0.113352776,0.065021686,-0.10462985,-0.20559604,0.015606589,0.16133887,0.08355757,-0.25849333,-0.034171425,0.16132504,0.15967788,-0.290667,-0.10979492,-0.15031773},{0.06307254,0.09131811,-0.09138889,-0.0058079413,0.085701235,-0.08920138,0.23834537,-0.31470114,0.14647527,-0.022123085,0.19541459,-0.03837998,0.03660287,-0.09478064,-0.3272997,-0.22476187,-0.012415568,0.07894388,-0.14657246,-0.03623328,0.2408582,-0.1826964,0.13268317,-0.19928119,0.26406333,-0.014784623,0.21273004,0.24520211,0.13037714,-0.10722058,0.014066747,-0.07386403,0.09681355,-0.114380546,-0.113855325,-0.17848402,0.02821611,-0.13904637,0.05415616,-0.045624834,-0.21389847,0.048758492,-0.16489191,0.17000663,-0.08793584,-0.22774155,0.1666322,-0.061831106,-0.114772104,-0.14966795,-0.089190595,0.17332898,-0.005584972,0.03289127,0.20590222,0.16000783,-0.023488814,0.0031089108,0.0030003604,0.06906289,0.076833226,-0.2874236,-0.1994016,0.33586323},{-0.20018704,0.014086534,0.23081096,-0.20123048,0.12719114,0.04292531,-0.06688054,-0.24968688,-0.14337765,-0.08872443,0.18151821,0.14256234,-0.21050778,0.09748944,0.08001073,0.2275809,-0.042309187,0.26125273,-0.58114606,-0.03204429,-0.14257355,-0.24821542,-0.13881756,0.14801101,-0.1972589,0.027607534,0.27935326,-0.303379,0.29497594,-0.08044398,0.107861765,-0.093620285,-0.15761039,-0.15143432,-0.20891288,0.1436839,-0.30632365,-0.13951036,-0.07308161,-0.13634181,-0.11188754,0.1250969,0.21285255,0.22229224,-0.25842085,0.30253646,-0.26823005,-0.083305575,-0.14168225,0.17415772,0.2352105,-0.107290395,-0.034256145,-0.07919803,-0.21162891,-0.20737918,-0.20405728,-0.00055281573,-0.37847063,0.06432814,0.040960178,0.24208614,-0.1183757,-0.22016095},{0.038368106,-0.2395394,-0.06305174,-0.041838642,0.0424141,0.080292046,0.24758486,0.08042137,0.08794697,0.22481214,0.21185589,-0.08297556,-0.29977882,-0.019312615,0.017747676,0.14318897,-0.20591569,-0.062263306,0.24959032,0.040124554,0.09180328,0.046923257,0.11619188,0.21367447,0.043387845,0.13002954,0.04414712,0.091074936,0.20762438,0.3648431,0.10287221,-0.23608424,-0.09730881,0.24301563,0.23105739,-0.14953119,-0.09987987,-0.18523803,-0.01756487,0.16146159,0.23295294,-0.02804737,-0.09083093,0.20843354,-0.018092271,0.16413039,-0.1867704,0.28544974,-0.05996677,-0.22601749,0.22680499,0.100750655,0.16563837,0.046763003,-0.0726456,-0.27652264,-0.094871424,0.081346385,0.075387426,0.06949924,0.20782709,0.29738942,0.13485081,0.054974202},{-0.06910733,0.121102355,-0.11988579,-0.09403703,-0.1595003,-0.26693377,0.21952851,0.08845747,0.09285715,0.26500693,-0.027902037,0.016560553,-0.20822912,-0.0839822,-0.025712216,0.14933267,0.07573434,-0.3472538,-0.21346223,-0.14619936,0.21104233,0.19965354,0.01485656,-0.081937976,-0.15489921,0.06980433,-0.30061075,-0.1835178,-0.10538907,-0.020631125,-0.013876592,0.08317957,-0.20369141,-0.057436727,-0.14190102,-0.20100932,-0.1342762,0.2186074,-0.021586556,0.026989436,0.027608432,-0.17371951,-0.16746455,-0.060953684,0.08154102,-0.24314442,-0.24872543,-0.17737888,0.06104176,-0.0671134,-0.21378823,0.09976778,0.17931409,0.016546303,-0.22196169,-0.15955415,0.33687317,0.31123444,0.2674825,0.13638633,0.20534961,0.060172845,-0.25468,0.24431312},{0.004349738,-0.03387152,0.12527765,0.31863937,0.19090088,-0.37554038,-0.29826438,-0.06105084,0.30093977,-0.28479552,0.0762023,0.02963199,0.083940886,0.0905029,0.24461569,-0.17417967,-0.18707444,0.18474331,-0.19192825,-0.09413891,-0.11461782,0.036767043,-0.010782206,0.29943475,-0.18691623,-0.08533428,-0.03701752,0.037779216,-0.16141607,-0.14454806,-0.25665712,0.31151867,0.1268643,0.1423799,0.011019051,-0.1776988,0.08912206,0.1573453,0.02204039,-0.22841558,-0.115212396,0.031009544,0.16613513,0.05887344,-0.009937076,-0.07192732,0.015085244,-0.22556686,0.19088204,0.13154104,0.22583851,0.0056699333,-0.10319789,0.16977899,0.019837039,0.051469255,-0.31975862,-0.14712092,0.07734193,0.15775646,0.070628904,-0.070677914,0.17875953,0.017205331},{0.19459173,0.29246613,0.019905372,-0.2333784,0.124711476,-0.18950163,-0.092809916,-0.122414485,0.24091434,0.07300036,0.35795715,-0.011563895,0.21355438,-0.015365704,-0.015634097,0.048953075,0.043972075,0.009685237,-0.083844535,0.045959372,-0.12922212,0.048549652,-0.03317329,-0.07246886,0.019320251,-0.15094003,0.24806115,-0.061831944,-0.02227244,0.1945419,0.12779143,0.09831743,0.23099923,-0.17195243,0.14063428,0.08622111,0.30703637,0.20982285,0.14864011,-0.1634631,-0.2941263,0.19720262,-0.16211136,0.35682213,-0.07172018,0.19355455,-0.0060416264,-0.013119277,-0.38684896,0.006313534,0.10271184,0.047194906,-0.16509645,-0.013316596,-0.047968864,-0.14980564,0.21879219,0.07467658,0.09608608,-0.11800867,0.072784394,-0.017675392,-0.005354468,-0.16953312},{-0.073145695,0.14057957,0.079388864,-0.32674778,-0.20159443,-0.037635304,0.16518606,0.045743644,-0.026426492,0.13247034,0.0058871266,-0.09402467,-0.010717813,-0.030109603,0.15938647,0.18348128,0.05787372,-0.09535141,0.47828823,0.14312108,-0.05326096,0.13618393,-0.26698625,-0.0010546991,0.21719687,-0.04534313,0.15859689,0.0038295507,-0.25432774,0.25543576,-0.16224602,-0.19358446,-0.30038986,-0.06965499,0.008916749,-0.009333809,0.027572758,0.21660447,0.19477902,0.19181913,-0.17753026,0.25918257,-0.015887054,-0.002561927,0.016708415,-0.008354811,-0.0130306035,-0.04270904,0.12657256,0.10695824,-0.14779209,-0.270488,0.18039499,-0.22852181,-0.056492347,0.09458425,-0.051879697,-0.22058754,0.12510023,0.159674,0.24158305,-0.21241893,-0.11416583,-0.11171577},{-0.1166372,0.18921185,-0.13589025,0.023665104,0.17816958,0.11170092,0.12560149,-0.050429836,0.10636881,-0.13019955,-0.3569682,-0.22931719,0.18232982,-0.073879026,-0.1594448,0.106837,-0.18341754,-0.15085788,0.12557174,-0.13800639,-0.25261593,0.010248538,0.060077846,-0.1280784,0.19694561,-0.07984228,0.07246934,0.05834803,-0.160058,0.3994823,-0.03518022,-0.24748325,-0.071572326,-0.055296183,0.05344954,0.12830509,0.14314006,-0.008768444,0.248257,0.1651386,-0.032376785,-0.18562791,0.14215286,0.30423772,0.17071454,-0.044430614,-0.109753124,0.17648323,0.04531341,0.029573843,0.12211559,-0.11064263,-0.15675162,0.26359284,-0.20079201,-0.13894805,-0.11408507,-0.1300696,0.1603331,-0.13378033,0.24865927,-0.10365159,0.018026715,-0.0905878},{-0.11512999,0.2115557,-0.11752255,0.058991984,0.033108704,-0.07932026,-0.034538142,0.14575084,-0.31913042,-0.02040057,0.14779794,0.08698004,-0.025914717,0.17044961,0.08171203,0.028287163,-0.22156534,-0.024348283,-0.24605943,-0.06396278,-0.036778603,0.033505738,0.1425446,0.02791665,0.11638814,0.1980379,-0.07103553,-0.07019307,-0.1759657,0.025275605,0.039735608,0.0021561868,-0.05758433,0.20125872,0.08947618,-0.2831168,-0.060655206,0.18243764,0.072314374,-0.20112118,-0.024641726,-0.026321394,-0.21749301,-0.3022062,0.1511829,0.11385679,-0.4013557,0.11250828,-0.10919879,-0.06768133,-0.33539566,0.10055815,-0.08558531,-0.15340906,0.10942813,0.119514585,-0.051926773,0.26458296,0.22031823,0.17634284,0.031180087,0.31218347,-0.12254334,-0.021243675},{-0.17246358,-0.12990125,-0.24080907,0.13476242,-0.13148999,0.10156535,0.013375453,0.07939695,-0.025492188,-0.025544664,-0.28786537,-0.21828762,0.17383343,0.1952565,0.145075,0.22385721,0.093107596,-0.18734281,-0.028993944,-0.106196895,0.11788874,0.09538572,0.09914219,0.058920894,0.16995303,-0.105617635,-0.17935368,-0.0829343,0.19824514,0.13727108,0.019543208,-0.113017984,-0.11796012,0.2130101,0.21566463,0.14777969,-0.2297777,0.13333207,0.17440651,-0.14682643,0.07436617,-0.06364314,-0.029502727,0.007846198,-0.1671234,-0.16817534,0.028050173,-0.03710414,0.07862885,0.10283189,0.17787407,0.10694533,0.03809251,-0.116937436,-0.16181378,0.10070548,0.035306253,0.031939935,0.07771292,-0.232443,0.15926558,-0.26484227,0.04772679,-0.052094433},{-0.17681424,0.081350915,-0.1198661,0.025254503,0.06778902,0.11323089,-0.082210846,-0.23142628,-0.2864986,0.28566062,0.15851426,-0.1750831,0.15095611,0.070943646,0.11020189,0.0674073,-0.08543737,0.13736293,0.3115545,0.08134914,-0.18790437,-0.112806946,-0.10133128,-0.15615833,0.008967799,0.08813024,0.0080364635,0.20858404,0.012010445,0.33825845,0.2680814,0.22406457,0.13339403,0.1003006,-0.09250335,0.380113,-0.10853202,0.3481348,0.08090864,-0.0088805845,0.049377337,-0.047801774,0.19561806,-0.09954007,-0.3492334,0.2298125,0.1260249,0.35094377,-0.17152123,-0.1053728,-0.07289033,-0.07555931,-0.099925466,-0.0399029,-0.1175085,0.35039738,0.013041011,-0.018918222,-0.1291224,0.17207405,-0.24445596,-0.32331628,0.17814925,-0.12283886},{-0.097229324,0.09382639,0.07322661,-0.003715707,-0.09051597,0.012108498,-0.07475596,0.21547566,0.10348246,0.19242188,0.16979632,-0.15835872,-0.064798124,-0.12690522,-0.13786843,0.0029849005,0.046748113,-0.3337715,0.27693516,0.04663931,0.09460674,0.17128523,-0.21219344,6.351348e-05,-0.1531836,-0.21554624,-0.2564984,0.011572396,0.1699439,-0.018173216,0.2462243,-0.07840496,-0.14433034,-0.010447067,-0.08056315,-0.11789313,-0.044412084,0.09246806,0.092140764,-0.21924403,0.0026637963,-0.17105803,0.36830154,0.16542895,-0.20846546,0.2585366,-0.12441306,-0.15703596,-0.09163788,-0.16622293,-0.20571503,0.050623503,-0.12750775,0.10185707,0.09536509,-0.05250147,-0.047028664,-0.11175046,0.046426713,-0.13369332,-0.09860172,0.06371909,0.10020786,-0.037627097},{-0.0314872,-0.1803596,-0.034406822,0.08762509,-0.1566166,0.121935055,0.049445745,-0.25129336,-0.023601606,-0.23854198,-0.08244259,-0.20229305,0.152936,-0.11650276,-0.12650838,0.040582277,0.28139,0.351323,-0.11797734,0.1510842,-0.10936263,0.07755925,-0.06986964,0.004050239,-0.037480876,0.17540029,0.14085811,-0.10034789,-0.11229586,-0.21399915,-0.16203831,0.08079075,-0.1376889,0.21174337,0.036946353,-0.01500097,-0.14297287,-0.17794222,0.14341414,0.069031194,-0.103633136,0.03545818,0.18075344,-0.0038304206,0.10604864,-0.14790136,0.073087454,-0.15050004,-0.16065733,-0.056492943,0.09256304,0.20103185,0.13034019,-0.18384849,-0.21984918,-0.046048958,-0.30917612,-0.05114536,-0.049416944,0.046137154,-0.10391497,-0.21319485,0.15658331,0.17192037},{0.11320854,0.06386827,0.13788082,-0.3498235,0.124327436,-0.0737338,0.13386156,-0.26298627,0.069679685,0.09530209,0.003346516,-0.11324238,0.050002307,0.17752685,0.12448777,0.1468098,-0.18973982,-0.017798876,0.46997026,0.07572689,-0.19476135,0.11277527,-0.008242055,0.076186724,-0.15544765,0.09708272,0.09579572,0.19221367,0.23171817,-0.16193716,-0.019002985,0.26153564,-0.19733168,0.028544854,-0.04352188,-0.0030982113,-0.17858407,-0.017182881,0.07846791,-0.032634385,-0.17629513,0.16446017,0.16461715,0.016012382,-0.042479407,0.01833539,-0.079061724,-0.047907893,-0.029880855,0.24082278,0.15732351,0.026149541,-0.074838415,-0.32886317,-0.31158015,0.044398315,-0.32004336,0.037665453,0.15939015,-0.025944816,0.18551676,0.22464979,0.12669183,0.0368324},{-0.06400403,0.16335349,-0.27750787,0.29038078,0.06653128,-0.3438768,0.11985019,-0.042911,0.08766785,0.1758416,-0.1426209,-0.029980749,-0.048542835,-0.068049096,-0.21325774,-0.053851347,0.17983094,-0.11905961,-0.18312085,0.15020762,0.17360887,-0.19297183,0.09438043,0.14040247,-0.0700793,0.39755604,-0.17068808,0.13492444,-0.11727538,0.21229853,-0.15993077,0.006802284,0.062176857,0.045189563,0.09010478,-0.055461477,0.19830093,0.27006838,0.0028771274,-0.25542367,0.2762972,-0.23728965,-0.41495007,-0.0067312187,0.28534463,-0.047242608,0.14648765,0.1261515,0.0943334,-0.09967788,-0.14639455,0.07288519,-0.051508896,0.34959736,0.079013094,0.15917249,0.15518215,0.021574311,-0.10071232,-0.04160807,-0.12903333,-0.0601424,-0.21495803,0.224762},{0.17794904,-0.009566244,-0.040064715,-0.09695346,0.15670525,0.1881762,0.02519268,-0.06434207,0.107497975,0.006272645,-0.0755175,0.034656752,0.11803943,0.1300979,-0.01757706,0.064137004,0.15155584,-0.12404853,0.2936539,-0.070382915,-0.09137764,-0.016083786,-0.15533057,0.112568825,0.17408408,0.0294465,-0.1428533,-0.17191476,-0.07925956,-0.008986045,-0.11051236,0.065745555,0.16179177,-0.19667725,0.016758315,-0.1897774,0.120860286,-0.02491148,-0.10021172,-0.12217633,0.055183776,0.19619256,0.0813801,-0.273648,-0.1525359,-0.1643819,-0.10707271,-0.081514746,-0.059597604,0.13559268,-0.24394466,0.162443,0.060159657,-0.15737385,-0.13510486,-0.22817239,0.19817019,0.11368286,-0.2611341,0.05176214,-0.13650045,-0.052294556,-0.09721973,-0.09592945},{-0.2782976,-0.14129993,0.13680366,-0.016029973,0.37826207,-0.15138878,-0.35818478,0.14954042,0.08558164,0.0074414904,0.043351766,-0.18916698,0.05006879,0.093007304,0.36630753,-0.1163738,-0.115682,-0.2624052,0.17631203,0.05725648,-0.3721051,-0.12848745,0.07430775,0.0759364,-0.38900104,-0.056794483,0.07103722,0.061681025,0.1701601,-0.2754519,-0.32096064,0.132562,0.104843125,-0.020580783,-0.016169261,0.17353083,0.14162329,-0.18981309,0.026758477,0.016030086,0.16323178,-0.14669989,0.27153745,0.24454671,-0.18270874,-0.17255029,-0.065535,-0.055001166,-0.14929017,0.038625013,-0.2289588,0.051133532,0.08208172,-0.11128007,0.2621008,-0.19033566,4.1351323e-05,0.25509605,-0.06658379,0.00138374,-0.1600696,0.2005265,0.24882835,-0.034867927},{-0.1861145,0.03336433,0.007109465,-0.26659635,-0.32900923,0.11631573,-0.07650987,-0.003151886,0.04823121,-0.10345791,-0.033893976,-0.03302423,0.058186058,0.1529748,-0.28694427,0.066225566,0.15766008,-0.026051333,-0.20451689,0.18996212,-0.12416556,-0.3086943,-0.1995432,-0.067190796,0.21966611,-0.008553234,0.19501625,0.10184462,-0.14733256,0.2519486,0.14147142,-0.098152235,-0.042994905,0.12135842,0.10453651,0.024918415,-0.18559293,-0.19456834,0.14193685,0.0017656198,-0.00011081436,0.2135163,0.1483314,0.004420652,0.098443255,0.31082624,0.28749484,0.10149816,-0.11506912,0.1313269,-0.08275763,-0.31510246,-0.07051513,-0.29015404,-0.24592647,-0.04615633,-0.09930143,0.13956131,0.058513556,0.05340733,0.20551954,0.18808843,0.09710497,-0.02187576},{0.14331838,-0.014925669,-0.035609383,0.13308492,0.06190303,0.40646645,-0.26202357,-0.048797123,-0.03279257,-0.0009121338,0.22282815,-0.033528063,0.06840184,0.16380416,-0.16969551,-0.13653778,0.23802398,0.1982231,-0.059031006,0.31728494,-0.09480911,0.2756796,0.084002696,-0.066952795,0.16455342,-0.30485484,-0.17349255,-0.050958857,-0.1844872,-0.22139236,0.13167089,0.19886681,0.08658363,-0.18796898,0.0016470233,-0.12638867,-0.2631231,-0.30562022,-0.13244513,0.08429823,-0.14663014,0.1297959,0.008714595,0.18041241,-0.05004328,-0.03687885,0.14676675,0.11272431,-0.11060186,-0.13958302,0.2098374,0.23890796,-0.19753201,0.03635242,-0.11594532,0.18015286,-0.15985045,0.13811642,-0.1121378,-0.1468567,-0.055601537,0.14100651,0.105161384,0.05995631},{-0.35729843,-0.017735006,0.29503277,-0.02515003,-0.0073545845,0.14881772,0.0908265,0.21900947,-0.18360795,-0.2366345,0.057646737,0.27309382,-0.08946127,0.030168513,0.26032728,0.29932085,0.18141417,-0.03150855,-0.3888705,0.11137994,0.17107973,0.03610657,-0.20876053,0.1952647,-0.08061071,0.0031082733,0.018291732,-0.10039453,0.289375,-0.03384944,-0.18527234,-0.061865848,0.19484167,0.0060810675,-0.1914437,-0.14393768,-0.20691279,-0.26220208,0.1061152,-0.10540612,-0.45955405,-0.10641868,0.19374296,-0.15638658,-0.23780692,0.11892728,-0.19454741,-0.073386855,0.06313485,-0.13536316,0.10051714,-0.3178959,0.006916481,0.12883915,0.006400725,0.03853467,0.0033582328,-0.09535079,-0.123890266,-0.017736007,-0.16075812,0.31662497,-0.12480739,-0.3483389},{0.2565476,-0.19594562,-0.13786529,0.23703507,-0.21918257,0.26876217,0.015706828,0.07319613,-0.031079797,-0.015495897,0.3265237,-0.08469855,-0.06272843,0.22497566,0.15184963,0.082121715,0.2662929,-0.06334249,-0.05132546,0.18666406,0.28888023,-0.03550683,0.14681503,-0.04287626,-0.1007063,-0.06887712,-0.07392833,-0.06982604,-0.25570452,-0.24921936,-0.049121972,-0.13904168,-0.12019362,-0.21845865,-0.16528592,0.11291774,0.09432002,-0.08686666,-0.07165389,-0.29408172,0.21138735,0.11073685,-0.031922698,-0.14890823,0.26668316,-0.09954817,0.049179595,0.24328905,0.1928948,0.11479359,-0.18129726,-0.20857112,-0.07562483,0.012840854,-0.17447801,-0.016758857,-0.07524099,0.37374386,-0.18888569,-0.14184782,-0.17021732,-0.2972961,0.097692244,0.18354842},{-0.18790828,0.16228735,-0.0426078,0.34791136,-0.0048581567,0.22410426,0.07599414,0.065523356,0.16562222,-0.062956624,0.103585705,-0.095591776,-0.06999213,0.19848149,-0.1414139,0.13173693,0.1032925,0.12503974,0.44354504,-0.16284877,0.11320542,-0.008162323,0.05785687,0.018447593,0.22379649,0.14163952,0.29980952,0.25971043,-0.09936961,-0.037139244,0.24386479,0.13720986,-0.18012954,-0.16202436,0.08612613,-0.118408784,-0.05994809,-0.0026897688,0.21152867,-0.28589246,-0.07762563,-0.034425784,0.13421617,0.18337376,0.19129945,0.26601037,0.003635408,0.14800783,0.039388824,0.07473766,-0.021491151,0.143817,0.019206265,-0.08697889,0.058053024,-0.088827826,-0.24290739,0.054560985,-0.107535064,0.16956048,-0.07371311,-0.03223056,0.12689763,-0.23261867},{-0.3498156,0.30772308,0.1555521,0.0073013413,-0.33278248,-0.10477004,0.011793254,0.08620905,-0.34335238,-0.2214147,0.21199043,-0.14088237,-0.0681359,0.16639762,0.05120391,0.2107946,0.36479676,-0.2618169,-0.53178,0.21314675,-0.0026985488,-0.32378626,-0.038625617,0.4372064,-0.084865965,-0.19709639,-0.1629122,-0.08509802,-0.1735024,-0.17305435,0.25828975,0.1637927,0.084871195,-0.2867727,0.14546238,-0.122834526,0.018062064,-0.24627331,-0.15334411,-0.045565974,0.119263306,-0.056511045,0.19717577,0.036857884,0.2650608,0.20696276,-0.07657858,-0.10448182,0.17202768,0.34150684,0.06942008,-0.29602337,-0.05424825,0.01164322,0.014676897,0.075824104,0.17248277,0.33034736,-0.31100705,0.30463442,0.09844536,0.36341554,-0.23725979,0.0067101335},{0.062654704,0.24987403,-0.15273342,-0.029218512,0.10899791,-0.20288369,-0.10714347,0.025499765,-0.111370526,-0.042742953,0.21104448,0.15194139,-0.20587029,-0.2612578,0.09327945,0.2921489,-0.12937108,-0.27681133,0.008753621,-0.3323738,-0.08484348,0.13612106,-0.22911887,-0.24470234,-0.06591873,0.05960379,-0.042116627,0.20395592,0.09556025,-0.09378055,0.06819059,-0.09955458,0.17391895,-0.1541369,-0.09845343,-0.28286293,-0.06439159,0.15454376,-0.19980714,0.27800795,-0.33330736,0.1764622,-0.044070367,-0.24053812,0.018541824,0.045857377,-0.35113302,0.17272876,-0.07380889,0.21937926,-0.27901742,0.049711872,0.0615297,-0.08090985,0.15239164,0.15614901,-0.021432107,0.088968985,0.11853359,0.08056243,-0.06344441,0.1803093,0.122233115,0.1320033},{0.15419722,0.255656,0.008478501,-0.028994737,-0.25463173,-0.16737059,0.08278323,-0.031934332,0.14562665,-0.044156443,-0.050133538,-0.09098453,0.17999133,-0.17535374,-0.08630392,-0.023383826,0.11054157,-0.06517856,-0.018956399,-0.34106404,0.04013341,-0.10314496,0.14931555,0.12881891,-0.19275826,0.07925508,0.12247491,0.2173353,-0.10748919,-0.029061707,-0.33971268,0.16223347,-0.009815228,0.027532272,-0.03181403,0.11199726,-0.047242593,-0.19704714,-0.23488511,-0.09961715,-0.3060448,0.13817161,-0.06090405,0.06650644,0.061058108,-0.019130144,0.12902814,0.04073131,-0.31387246,-0.08602774,-0.38891417,0.27128854,-0.06471318,0.28451577,0.07763724,-0.044230547,0.1381834,0.31073034,-0.06552235,0.1968461,-0.25856337,0.17867328,-0.29659724,-0.20219158},{-0.3133915,-0.22417244,-0.16560295,0.04475154,0.22294341,0.17948805,0.14035097,0.105167314,0.06069984,0.047526687,-0.103837356,0.21869498,-0.06898026,0.036551893,-0.09337711,0.1484418,0.34230468,0.22585869,0.77419084,-0.15836665,-0.10916122,-5.8090664e-05,-0.08144293,-0.061778404,0.123151,-0.25912043,-4.4080938e-05,0.05452482,0.08683671,-0.15552035,-0.051057164,-0.029391274,0.20360295,-0.014371599,-0.09134833,0.12179751,0.036027465,0.14959383,0.3054229,-0.28515023,0.0119734965,0.06076518,0.11900833,0.032074086,-0.11357642,-0.0051172692,0.16855405,0.033019144,0.14304663,0.21805944,0.15689386,-0.14559269,0.04993225,0.08939283,-0.20759667,0.20234899,-0.117327504,-0.44220608,-0.24939348,0.011009141,0.20403266,-0.48906827,-0.09275248,-0.14249048},{-0.41525608,-0.0953498,-0.18565352,-0.31955603,0.0935887,0.12073404,-0.31793258,0.16715336,0.19675498,0.08526774,-0.012111173,-0.10610186,0.17022096,-0.0070840884,0.2123298,-0.22889668,0.107441016,-0.068369016,-0.071681425,0.19328497,-0.38193807,-0.10005817,0.08654168,0.18495679,0.04627335,0.15010571,0.09150963,0.10820371,-0.028027702,0.28231952,-0.0951415,-0.09390576,0.11336532,-0.1299707,-0.1777501,0.20036654,0.044143293,-0.030748602,0.1556552,-0.20191726,-0.1660686,-0.23860335,0.01737479,0.14142218,0.31908783,0.28393695,0.0288185,0.21282783,-0.29106262,0.20550367,0.14698602,0.04805307,0.03500961,0.2597857,-0.01189009,-0.0693389,0.021364063,-0.1454435,-0.0497977,-0.02898682,0.2560731,0.29439527,0.18178242,0.024352852},{-0.31580067,-0.22808462,0.34412786,0.11221434,0.030862987,-0.2624753,-0.07682371,0.07169424,0.104417,0.25083598,0.010931509,-0.16837889,-0.2949947,0.007428016,0.20891747,-0.12181343,0.0037586421,-0.058403973,0.24283582,0.09811081,-0.27148607,-0.15635471,0.088203214,0.020426912,-0.07810592,0.09488525,-0.050159592,0.1288632,0.15720354,-0.16014203,-0.086720064,0.26372615,0.09644403,-0.13727719,-0.18717575,0.29613015,-0.26110667,-0.10036439,0.16929072,-0.0609472,-0.18964157,0.041528318,0.016164314,0.22467278,-0.11711366,-0.120918036,0.088249564,0.31186673,0.21423014,0.18422502,0.026324743,-0.16570193,0.21996373,0.17136702,-0.20887974,0.007388236,-0.08614705,0.0701821,0.099276796,-0.15917633,0.35388136,0.25628874,-0.0996813,-0.118204206},{-0.13929099,0.1561739,-0.035699602,0.02272339,0.07939652,-0.38381064,-0.17359567,0.20354603,0.14683779,-0.12175642,-0.16692154,0.058474746,-0.18929566,0.07013976,0.18683654,-0.04382438,-0.2107419,0.17795326,-0.183757,0.030822743,-0.0044837287,0.15072383,-0.19158076,0.26387045,-0.035882246,0.30897036,-0.27654937,-0.1542233,-0.059032377,-0.009182813,-0.10700512,-0.0830438,0.06172351,0.19339009,-0.004907333,0.056088105,0.016206408,-0.2274393,-0.14291508,0.1687942,-0.253458,0.2515047,0.2797705,0.015266339,0.18513146,0.0961352,0.22911066,-0.19077322,-0.02474003,0.24508116,0.17043005,0.06893561,-0.019589003,0.06448487,0.10002764,0.036651175,-0.027390527,0.014121602,-0.16487236,0.13970195,0.14675952,-0.25322253,0.005167041,0.17218727},{0.15725707,-0.09290324,0.1682114,0.25322708,0.040781766,-0.2910804,-0.170328,0.15650204,0.02866325,-0.16978508,0.0058150077,-0.11278427,-0.26144028,-0.07170547,-0.24720953,0.09964269,-0.014237386,-0.19815414,0.054327235,0.0052013434,0.35502404,-0.16810274,-0.1326215,-0.1661057,-0.028945737,0.15826526,0.21083581,0.003102964,0.012180962,-0.20336004,-0.14373176,0.050504074,0.106280476,-0.043153662,-0.17343812,0.059894986,-0.06189361,0.27477688,0.044026863,0.03375758,-0.07122362,0.15089357,-0.1958413,-0.20021866,-0.023847518,-0.07323876,-0.41120857,0.04042169,0.09151684,0.027746225,-0.056266084,-0.1445669,-0.20982142,-0.24727803,0.07911472,-0.16534814,-0.056650896,0.23131229,0.28055248,0.050395537,-0.1697994,0.45260534,0.03716097,-0.25951007},{0.035648007,0.14014687,0.056938082,-0.11157703,-0.32883322,0.17065898,0.34125367,0.017774846,0.10273953,0.03639511,-0.06551511,-0.089626744,0.2696543,-0.07331019,-0.14773433,-0.2147127,0.1797041,0.08574005,-0.46639132,0.3342643,-0.0020381794,0.3193163,0.055047363,-0.06871081,0.21346495,-0.08688176,0.058340743,-0.19934814,-0.08123316,0.073776074,0.2042708,0.13002719,-0.21112908,-0.16221248,-0.0608618,-0.25295773,0.068186335,0.073786944,0.24045378,-0.039624304,-0.05870612,-0.2655266,0.015707176,-0.079532236,0.2588791,-0.02126288,0.12986082,0.024629127,-0.03218052,0.061590455,0.20907415,-0.041579463,0.0813618,0.18634892,-0.11679264,-0.21203785,0.09320434,0.31482267,-0.43287757,-0.21125428,-0.18641059,-0.13343586,0.0028272597,-0.23544857},{-0.12602288,0.0020315964,-0.06231927,0.09948388,-0.14846554,-0.0032212413,0.028124776,0.203646,-0.13094853,0.036903203,0.11459618,0.07982772,-0.018887505,-0.01814756,0.13356344,0.078098886,0.10426511,-0.06395634,-0.0023270894,-0.09288509,0.0069654305,0.11961768,-0.24432997,0.10115284,-0.17611761,0.24009205,0.037730362,-0.27899468,0.18758267,-0.14021012,-0.14679302,-0.082525514,0.20177495,-0.15030283,0.009155454,0.09381766,0.17137294,-0.096209995,-0.17573977,0.13989514,-0.107876495,0.16585311,-0.08902514,-0.17400928,0.11674122,0.07585356,-0.2848289,-0.16922407,-0.099711,-0.025943942,-0.0030173631,-0.036922622,-0.016318833,0.09291164,0.07871228,-0.038061306,0.17681894,0.21066092,-0.08937695,-0.21144237,-0.22787434,0.21825017,-0.057175905,-0.2374056},{-0.03981335,-0.10477933,0.2790681,-0.13645416,-0.044974178,-0.23414908,-0.16573855,-0.0208175,-0.031626195,0.09878733,0.06835441,-0.067061946,0.20491044,-0.16974999,-0.2749364,0.18909042,-0.08188343,-0.35801187,0.043973356,0.05400589,0.012084506,-0.07284197,0.1860482,0.005344629,-0.036374904,-0.09492574,-0.036361508,0.07020009,0.1914562,-0.039679892,-0.026462631,-0.19404875,0.0681915,0.110279135,-0.19616732,0.20030765,-0.0076667597,0.20948069,-0.0055604638,0.19978495,-0.021307265,-0.19188291,0.0016932505,0.11923332,-0.08626115,0.099623635,-0.38442352,0.2752646,0.14032696,-0.12957716,0.13924596,0.12286867,0.30647013,0.327189,0.09807093,-0.20848076,0.058194734,0.18395218,0.19719818,-0.11618686,-0.057024892,0.16268991,-0.043779816,0.36349797},{-0.0016478731,-0.14335984,-0.08329765,0.07960268,-0.36260116,0.14459765,0.127276,-0.09930261,0.059763268,-0.16750695,0.086593375,-0.06880593,0.06467365,-0.21255705,0.16671082,-0.1201977,0.11118978,0.1964556,-0.2702263,-0.025161648,-0.23911256,0.010388952,-0.058679324,0.23790897,0.17468712,0.00018263793,0.040745635,0.10456957,0.046319798,0.15194824,-0.073846124,-0.22319992,-0.14131421,-0.1533524,0.22348715,0.21293554,-0.16943893,-0.17334275,-0.14587052,0.008474914,0.12324979,0.079209626,0.13390152,0.08817796,-0.10145987,0.022896942,0.20382972,0.119712375,0.09029711,0.2215241,0.17318933,-0.052533776,0.27144614,0.20473935,0.20791447,-0.07853451,-0.15111777,-0.006638132,0.08473758,0.06530539,0.1365958,-0.1585981,0.08829417,0.08637079},{-0.08757034,-0.10165289,0.18708438,-0.19598718,0.09191507,-0.26080626,0.017568633,0.15239315,0.001107266,0.043154728,-0.19356425,-0.19680221,-0.43536487,0.2631137,0.06682874,-0.069306664,0.0829399,-0.1327546,0.15530051,0.27824852,0.012079711,0.010138212,0.04486232,0.21580817,-0.046921458,0.0076724635,-0.18805952,-0.1985448,0.2679071,-0.17837697,0.061538726,0.1993677,-0.029049883,0.16337855,0.21334504,-0.16533794,-0.23024905,-0.039226733,0.074111275,0.15452655,-0.11555226,-0.2445795,0.1326296,-0.058675714,0.2522294,-0.035511915,-0.036674414,0.05071223,0.23509161,0.017920934,-0.10101862,0.18121922,-0.17095089,0.0842854,-0.19353822,-0.21750556,-0.29197505,0.55074185,-0.06397419,0.13656467,0.2775048,0.5510406,0.017582793,-0.09179947},{0.11569095,0.069435954,0.07211749,0.035820164,-0.046642262,0.32496914,0.22467075,0.20122081,-0.059356187,0.043979704,-0.23651859,0.17090583,0.006285353,0.13881728,-0.041916654,0.11273549,-0.04301859,0.014980242,-0.14483328,0.04902809,0.18182844,-0.11137233,-0.055629045,-0.2193872,-0.045139853,0.053769853,0.20785694,-0.19854614,0.16836661,0.0404401,-0.07284656,0.15585077,-0.021346612,0.023685865,-0.19194505,-0.09682388,0.023515424,0.21881387,0.0558743,0.13165738,-0.014233566,-0.19053982,-0.17110679,0.28033614,-0.031141188,-0.058657445,0.24440698,-0.15607707,-0.10514136,-0.043025896,0.23557608,0.108916454,0.06541529,-0.076504275,0.016987413,0.046747256,-0.021731846,-0.06826179,0.12265201,0.08347231,0.26732492,-0.152275,0.102360815,-0.12197656},{-0.2953719,0.17919925,-0.12726693,-0.005670202,0.14993319,-0.068811685,0.22171386,-0.102887586,-0.08289756,-0.12370612,-0.10431986,-0.123891644,0.0980262,0.10089717,0.065696396,0.26737738,-0.18630691,-0.02367888,-0.13002498,-0.12499411,-0.209432,0.18896332,-0.08304972,0.037375245,0.21542296,-0.16030271,-0.051726934,0.031162592,0.1702475,-0.14914908,0.15519911,-0.22453411,0.1526762,0.20798872,-0.24674994,-0.1734705,-0.18063076,-0.04557017,0.13723594,-0.06435322,0.32657105,-0.12415855,-0.1239436,-0.3025126,0.009313886,0.16631591,0.37486696,-0.20826484,0.18536702,-0.1602551,-0.049021687,0.033713125,0.13943034,0.0436887,-0.0055912915,0.22863097,-0.18790418,-0.016830934,0.13935883,0.20141749,-0.05981686,-0.1415025,0.13687576,0.07867044},{0.08811073,0.03883615,0.22575639,0.29081348,0.14762184,-0.07058826,0.3565199,-0.1465537,-0.23082839,-0.03142099,0.014558218,0.3067784,-0.23369847,0.073381685,0.14981604,0.009430596,-0.18487024,-0.12153637,0.54753983,0.039495375,0.22827722,-0.30608484,-0.104420066,-0.11577631,-0.17280528,0.26391792,0.5161965,-0.37596047,0.2520815,-0.2801638,0.2315483,0.17952363,-0.2535575,0.18833378,-0.20650208,-0.29892784,-0.067053854,0.049280863,0.37647286,0.13085908,-0.08806888,0.1338684,-0.15003256,-0.13056318,-0.051365424,0.070740715,-0.12203811,-0.094636545,0.13839993,-0.095154,0.09290299,-0.083641835,-0.13112606,-0.057715137,0.14255552,-0.13863789,-0.23581746,-0.10005505,0.1566242,0.18964888,0.076664105,0.12604061,-0.029921295,-0.36721626},{-0.13055226,0.009137962,-0.14063603,0.18144618,0.0074426983,-0.2315474,-0.13512965,0.2800774,-0.011890617,-0.088584796,0.08298245,-0.07926897,0.23475888,-0.12698005,-0.121204175,0.013390123,0.106702134,0.19731082,-0.009879219,0.11385271,-0.024991708,0.010783449,0.06806879,0.032866757,0.06993201,0.17131096,0.08171662,-0.16718319,-0.07022165,-0.047436558,-0.16799366,0.0012581324,0.15238601,0.111870274,0.24913396,0.09553906,-0.1444022,0.17670843,0.21120416,-0.11434078,0.17184429,-0.21789846,0.003306527,0.16982765,-0.14094564,0.15702507,0.014646067,-0.16852878,-0.033587415,-0.04642019,-0.046163302,-0.0043537663,-0.19634503,-0.25030974,0.045889027,-0.20150888,-0.20161635,-0.49525106,0.19557498,-0.064093195,-0.0041075805,-0.2848101,-0.10112495,-0.217205},{-0.09198765,-0.03302968,-0.043006264,0.15246789,0.21164386,-0.17816123,-0.15165241,0.10140409,-0.0061105667,0.16728342,0.1868292,-0.1208903,-0.09648661,0.021848831,0.05143054,-0.17931648,0.10755422,-0.13712814,-0.28008056,0.063118026,0.14483616,-0.05674387,-0.14681922,0.1372912,0.014886692,0.43029425,-0.3946614,0.25535366,-0.13784471,-0.018753136,0.1877528,-0.22010212,0.0304464,0.14289136,-0.09074711,-0.26964346,0.05370586,-0.28427178,-0.0009897935,-0.13755587,-0.2596892,-0.21723185,-0.044514813,-0.28957918,-0.08300897,-0.110868625,0.05741204,-0.060227633,0.15140358,-0.2344631,-0.3937741,-0.05624646,0.28806973,0.0637426,-0.010574805,-0.094537325,0.3369392,0.5490426,0.17626315,0.0027059184,-0.008292967,0.081829384,-0.16400473,0.030912956},{0.029038345,-0.25557974,-0.21867645,-0.08804812,0.110387996,-0.12068641,0.062844604,-0.077609144,0.13444881,-0.29007277,-0.20051973,-0.020597935,-0.109952144,0.019316407,-0.01867066,-0.20423548,0.20221752,0.16314809,0.125367,0.13140109,0.04443206,0.239728,0.023586309,-0.15646383,0.22424679,-0.00087756815,-0.016815092,0.21927902,-0.24531321,0.15823317,-0.15429196,0.18255146,0.1563035,-0.26434925,-0.14503576,0.02541106,-0.1816919,0.032207694,0.014995676,-0.06642042,-0.28081,0.15488152,0.03476396,0.17286927,0.23380277,-0.08208784,0.23192449,0.13574483,-0.10577436,-0.24277394,0.2796159,-0.07375865,-0.17055324,0.06661677,0.15669343,-0.23820047,-0.36123517,0.05604315,0.02704489,-0.09472776,0.33487284,0.38645694,0.08822545,-0.1063641},{-0.049651135,-0.16518293,0.2005783,-0.25726223,-0.1719226,-0.077496074,0.1249996,-0.1481876,-0.1396098,0.16242245,0.16306092,-0.030851714,-0.05495174,0.19376424,-0.06026563,0.1940595,-0.08098069,-0.3760075,-0.03434095,0.19222349,0.10461983,-0.14777885,0.26746777,-0.088796124,0.016773794,0.1282662,-0.41505986,-0.08138013,0.159835,-0.27981484,-0.18240486,0.16682796,-0.23633578,0.019522628,0.059457686,-0.07553599,-0.038725253,-0.16220967,-0.00141306,-0.15161404,0.16686755,0.18204507,0.28459924,-0.25452477,-0.23249237,-0.34961236,-0.16805844,0.25357157,0.009333311,0.15014733,-0.19135062,-0.123398505,-0.014511839,0.2647792,0.042689573,-0.037330214,0.38064355,0.74937934,0.03676698,0.012255204,0.12949511,0.34485877,0.17501596,0.15669732},{0.20655653,0.048535876,-0.24950948,0.11512676,-0.050239384,-0.2702275,-0.10321796,0.2162704,0.043723468,0.08000312,0.049633425,-0.20177212,-0.16199432,0.05012758,0.05716626,-0.10418502,0.14625987,0.20415145,0.4878418,0.25916073,-0.009880952,0.20428902,0.20506635,-0.11759088,-0.021114802,0.2364211,-0.14240544,0.16231781,-0.113680884,-0.0709257,0.17119677,0.02139993,0.12957363,0.01657384,-0.13458258,-0.100452274,-0.18883272,-0.17096679,0.0038397247,-0.004372532,-0.07387422,-0.07064932,0.079401486,0.0282728,0.29408965,0.01662789,-0.055460475,0.07845238,-0.029113367,0.14670795,0.024174616,0.011634354,0.029242026,-0.2871232,0.017177684,-0.21549194,-0.57762456,-0.013360101,0.113365345,-0.19793618,0.32016385,-0.117717646,0.29185417,0.13443503},{-0.39485726,0.07277866,-0.2746142,-0.34163812,-0.2734316,0.01763649,0.024933685,0.122042924,-0.17405033,0.06003545,-0.08158773,-0.14317708,0.16760704,0.17718603,0.055828936,-0.06173342,-0.1054638,0.13587737,0.2242425,0.24360278,-0.10925021,-0.04595028,0.103213534,-0.0782209,0.15227164,0.09658753,-0.053806357,0.08876074,0.29230043,0.025411379,-0.08799337,-0.23369667,-0.05498761,0.32499045,0.23690343,-0.08394335,0.102301635,-0.009812795,-0.122614756,0.01168239,0.29100463,0.019887038,0.11899677,-0.12770443,0.004847141,-0.3119805,0.16737144,-0.084964156,-0.20608073,0.049815096,-0.20790735,0.19797918,0.023114793,0.04396858,0.1800574,0.21335424,0.022811778,0.020892616,-0.24632871,-0.23706143,-0.015705908,-0.018343212,-0.06097957,0.00019089761},{0.3230833,0.09752879,-0.09862293,0.14960697,0.055053413,-0.022991793,0.21894783,0.19457172,-0.23064579,-0.03190929,-0.038934987,0.2647087,0.00072118244,-0.22166853,-0.08566597,0.24073483,0.12710708,-0.11290436,-1.1495949,0.098565735,0.345002,-0.10975766,-0.25196096,-0.001210405,0.122963965,-0.16366604,0.19408152,0.057644725,-0.19734618,0.22530295,-0.015847506,-0.17115542,0.01813386,0.063535064,0.10158608,-0.23447156,0.089531146,0.07449089,-0.24208084,0.15607528,0.19752854,-0.113465026,-0.2963736,-0.06979503,0.21015084,-0.010834627,-0.026254617,-0.10149775,0.10724353,-0.05738108,0.06762211,-0.09375716,0.033424065,0.070590466,-0.016775154,-0.041336812,0.20224407,0.30417344,-0.056323472,0.18488081,0.09497639,0.22660162,0.006912089,0.07746372},{-0.008134628,0.12951556,-0.1709559,-0.20080267,0.15429072,-0.18765491,0.06795275,-0.10328844,0.06669803,0.07153733,0.013920744,-0.2308253,-0.1177811,0.08722573,-0.21513227,-0.19795053,-0.122819364,-0.17551634,0.27175134,-0.09332831,-0.06250302,0.14244048,0.09430642,-0.09573529,-0.06822664,0.22847581,-0.2942289,0.03575444,0.09011066,-0.12480466,-0.051317994,0.04175225,-0.09611639,0.09274792,0.11164078,-0.03739221,-0.06104094,0.13949688,-0.00654488,-0.030315375,-0.13189736,-0.1835943,0.10663912,-0.44250387,-0.09167724,-0.13354169,-0.035427656,-0.18180665,-0.10188447,0.17772405,-0.26506057,-0.09473374,-0.04737276,0.26594245,-0.082368515,-0.10288653,0.12750772,0.20431012,0.10388564,-0.21064378,0.03950753,0.15305103,-0.23281422,0.096039705},{0.10562155,-0.003971165,-0.14153084,0.09399474,-0.12334138,-0.2958365,0.26308995,0.14724618,-0.2094513,0.026786026,-0.057072822,0.103155516,0.035753462,-0.22014652,0.114971325,-0.12299716,0.14475167,-0.086625606,-0.15005545,0.025543148,-0.15564549,0.010695603,-0.17412904,0.117120534,0.01652559,0.3181434,-0.08018915,0.07547649,0.008281153,0.0035400668,-0.012812551,0.013796866,0.10732289,0.10440836,-0.05966277,-0.39997777,0.23947243,-0.09062206,-0.18238313,-0.057629388,0.2607323,-0.21939842,0.20747213,0.037020408,-0.07522758,0.17929998,-0.13410541,-0.17164813,-0.18558075,0.08469319,-0.23347424,0.2292097,-0.030108219,0.14062878,-0.08363765,-0.023954066,0.23650473,0.065834455,0.00012236544,0.014037932,0.102409445,0.18089539,0.14882244,-0.12602337},{-0.21739525,-0.06933528,-0.042896733,-0.069021896,-0.028886247,-7.2742354e-05,0.06889937,0.0057257446,0.11071723,-0.14130707,-0.106957145,-0.09477544,0.27263936,-0.15874973,0.21755096,0.047310233,0.11628212,0.028191786,-0.18168108,-0.23826663,0.025103798,-0.14041345,0.005588276,-0.09783426,-0.0503304,0.15364893,-0.06312357,-0.13830607,0.073926516,0.022503857,-0.17763437,0.017718557,0.06650374,-0.0029648468,-0.11654472,0.0024721995,-0.11527255,0.04648117,-0.121429846,0.25848454,0.19416288,-0.07328442,-0.13674514,0.18995832,0.19681753,-0.089573964,-0.18610027,-0.1974921,-0.031372573,-0.042040523,0.041712865,-0.16163193,0.31245065,0.023845758,-0.10806617,0.09706357,-0.055926166,-0.13663451,-0.22706999,0.19018753,-0.13086765,0.009596468,0.24565756,-0.19025265},{0.2513703,0.13118462,-0.2495699,-0.34936598,0.36859444,-0.23211558,-0.13176803,-0.27912048,0.1337812,-0.006023608,0.23553257,-0.08272436,0.15569088,0.08759158,-0.07390878,-0.17836998,0.123859175,0.2609992,0.76774484,-0.29896227,0.17489688,-0.18042238,-0.0068665002,0.04338346,0.040563975,-0.10278991,0.11822473,0.1252557,-0.16123034,0.2212119,0.019112915,-0.023573598,-0.19084843,-0.13125347,-0.3009432,-0.013398368,0.060055513,-0.0474002,-0.058855437,0.03221899,0.030147243,0.1013002,-0.1762411,0.19556385,-0.101455264,0.11124888,-0.029679034,0.137677,0.045406353,-0.20457865,0.16136485,-0.1734053,-0.063914366,-0.05787996,0.038778946,0.03461878,-0.16820964,0.27867296,0.21631722,-0.020406332,0.13920595,-0.0013221204,0.16650067,-0.0029218765},{-0.1901019,-0.22570013,0.0028925594,-0.021615185,0.10438637,-0.13817793,0.041296516,-0.15587772,0.19048154,0.04881973,0.12194922,-0.22453785,-0.21247311,0.13416746,-0.13528235,-0.13313922,0.10477907,0.05930775,0.2762335,-0.13501662,-0.1686946,-0.07312378,0.06739518,0.1437093,-0.23146017,0.15784986,-0.34886307,-0.07969392,-0.10523757,0.13508794,0.11221322,-0.08783268,0.14589591,0.23439065,0.024610488,-0.18927315,-0.17756046,-0.19142671,0.007769452,-0.14036004,-0.27972233,-0.047828354,-0.1652684,-0.21350321,0.020189684,-0.21604955,-0.1426279,0.027025884,0.09687261,0.14591733,0.053922977,0.21051611,-0.029308192,-0.10030736,-0.023641318,0.031087747,-0.036072895,0.05943882,-0.0072453828,0.057869382,-0.13070375,-0.07408581,0.074571215,0.21683612},{-0.14582694,0.18652682,-0.18207696,-0.23453271,0.27925932,-0.12639876,0.0865879,-0.24608696,-0.21664083,-0.1780117,-0.082616,0.2237147,-0.088545375,0.08697837,-0.0137530845,0.16227642,0.04644856,0.06537227,0.6608603,-0.09040713,0.10040664,-0.2958185,0.16965456,0.050256338,0.118163265,-0.072594956,-0.032145172,-0.034205835,0.032618806,0.2810111,0.17655538,-0.15069844,0.06422331,-0.060868543,-0.2194523,0.21074021,0.18533537,0.18027471,-0.051135577,0.0065345983,0.12408633,0.13217892,0.2440312,0.010630348,-0.058484986,-0.012533631,0.18499434,0.13955034,-0.3522063,-0.067054614,0.0051149544,-0.37109417,-0.15761039,0.04292257,-0.17875022,-0.022233365,-0.12392508,-0.033796288,-0.061255533,0.13533047,-0.10614662,-0.18215825,-0.015903143,0.15870675},{-0.27478674,0.13094072,0.22470558,-0.1207681,-0.16249087,0.0924022,0.009942896,-0.06990559,0.12750772,-0.03491999,0.20388967,0.1394434,-0.043684144,0.06477871,0.09068493,0.12080443,0.0815648,0.273193,-0.08812587,-0.06382183,0.04368005,-0.35091645,-0.12709774,0.19739388,-0.07907405,-0.06822964,-0.06121961,0.08372244,0.21344912,0.20236619,-0.17566888,-0.24123468,0.13715142,-0.21151431,0.092045315,0.05848804,-0.14826877,-0.18813778,-0.24280602,-0.11002715,-0.045721542,0.04566229,0.061006848,0.016196715,0.1666401,-0.22607982,-0.0046515637,-0.17763786,0.19988786,0.10313091,-0.1767847,-0.1814944,0.16189678,0.32850417,0.22784378,0.18766682,0.29176623,0.0048327465,-0.04922797,-0.16728319,0.17033735,-0.12803519,0.065110244,-0.016007926},{-0.0070010494,0.1529345,0.14445288,0.13066578,0.13012579,0.13652919,-0.4074523,-0.0061904797,-0.19146636,-0.2529183,0.15386403,0.06820981,-0.014359778,-0.21060039,0.20048228,0.10980468,0.036708977,0.36538205,0.045543972,0.24188645,0.23542744,0.16846533,-0.13877052,0.018308537,-0.28372148,-0.24742328,-0.3436183,-0.11449582,-0.17477427,-0.08289639,0.3384591,0.049461026,0.17236212,0.13904274,-0.076327324,0.18708026,-0.091672316,0.09397329,-0.0546273,0.058407847,0.1747405,-0.120544866,0.010697706,0.110580325,-0.065983735,-0.102277614,0.21872574,0.01614034,-0.32833543,0.004628346,-0.085477486,0.09858015,-0.0735187,0.10987854,-0.028137462,-0.13671763,-0.22477436,0.18784305,0.18912268,-0.09399815,-0.15484378,-0.018396942,0.077801354,0.016161377},{-0.07172503,0.080434255,0.15282105,-0.16861217,-0.060311407,0.14672853,-0.033841204,-0.16109131,-0.10729892,0.1270886,0.23537509,0.072721004,0.17550892,-0.20117456,-0.19756626,-0.1203422,-0.30345893,-0.078545995,0.19588959,0.049572762,-0.28304443,-0.16511206,-0.17091495,0.033863425,0.058461063,0.21224149,-0.08744541,-0.02644049,-0.14299783,0.16481225,0.08607377,-0.017692741,-0.30066174,-0.17213239,-0.06328586,0.08480474,-0.06638341,-0.28332973,0.17645219,-0.0071821823,-0.14693531,0.16853492,-0.10402607,0.14272818,-0.14701921,0.08130581,0.07987408,0.16420545,-0.117273346,-0.08235682,0.11842859,-0.08940433,0.2146957,0.087847,0.01730982,0.11942462,0.16905977,-0.14964677,-0.108234584,-0.06846227,0.037780635,0.17486061,0.076991566,0.01181207},{-0.26964086,-0.008358434,0.2653212,0.05732655,-0.17205383,0.24905844,-0.081299186,0.017754793,-0.06383658,-0.13759953,0.10386846,0.16383667,-0.076138295,-0.13923769,0.07797405,-0.1942278,0.21300589,-0.04788628,-0.100452825,0.06942775,-0.04207634,0.14988184,-0.18882707,0.21264844,0.12545455,-0.03224874,0.046628956,-0.1609859,0.02741747,0.09078349,-0.08633253,-0.0027578627,-0.14469515,-0.242804,-0.008272555,-0.29852024,-0.023005798,-0.15327136,0.1472845,-0.090817265,-0.25641766,0.09439611,0.07913911,0.24187835,-0.103169784,0.2857227,-0.12974916,0.13405848,-0.03627996,0.03959582,-0.21550685,-0.007558511,-0.15501024,-0.27637425,0.14578182,0.06762276,-0.057591707,-0.13117547,-0.15049249,-0.10717329,0.1473777,-0.028033793,-0.22187611,0.020062122},{-0.1919943,0.098532505,-0.0610975,-0.2936158,-0.1881216,0.027610468,0.06616191,0.052561462,-0.30233818,0.019190094,-0.17217536,0.123860076,0.20893593,-0.02239087,0.04088533,0.013243439,0.10877487,0.04760481,-0.14989582,-0.13190678,0.08924586,-0.28392878,0.07234959,-0.038459934,-0.10115104,0.1410347,0.099274956,-0.113211736,-0.2513135,0.379361,-0.18826728,0.17184708,0.030623253,-0.04807184,0.03431482,0.18208273,0.027139654,-0.07836183,0.061360665,0.14576514,0.384901,-0.0152976345,-0.29953918,0.0314202,0.15685317,-8.545625e-05,0.019977475,0.025724191,-0.09977854,0.21248488,0.07904057,-0.1305152,0.15657066,0.023689965,0.0015817791,0.08407267,-0.16737546,0.0045084166,0.23223978,-0.118688405,0.009543432,-0.16048214,0.10376931,-0.13649657},{-0.3062722,0.088374175,0.059358656,0.3639707,-0.27287984,0.481305,0.20999624,-0.12667897,0.101442866,-0.19325717,-0.0992781,-0.009086611,0.27564332,0.157747,-0.1499021,-0.12895818,0.19879101,-0.007486624,0.035326928,0.10154333,-0.058850016,0.09034978,0.1031378,-0.15078829,0.20601346,-0.21962665,0.28383863,-0.16063067,0.1952373,0.22251256,0.11958994,-0.19179638,-0.06258925,-0.16794117,-0.10405451,0.030781649,-0.001066916,-0.14059262,0.41990724,-0.37783703,-0.20478104,-0.20899464,-0.025542868,-0.12625684,-0.008515241,0.08204547,0.20625898,0.17095572,-0.036784742,0.17719984,0.18596378,0.044957504,0.17482468,-0.25898644,0.0979496,-0.14005236,0.11530788,-0.052477624,-0.085497215,-0.06377619,-0.110831305,-0.10804516,0.058874365,0.11583163},{-0.2037901,0.130143,-0.0051291166,0.050794035,-0.011139419,-0.016823929,-0.11733419,0.037297502,0.17047584,-0.0032945361,-0.02460205,0.15656102,-0.05033639,0.05377984,-0.07072738,-0.107881404,-0.026985567,-0.09509469,-0.5172523,0.035440948,-0.23652215,0.13604668,0.013072788,0.012845016,-0.039576154,-0.15440452,0.008291856,0.16164063,-0.13885109,0.1221265,-0.19681247,0.08623403,0.23321116,-0.21221292,-0.23554574,0.029123506,0.0116838245,0.088685945,-0.055403568,0.21285918,-0.17825851,-0.005031952,0.28984934,0.052120943,-0.057431113,0.027118219,-0.17977688,-0.2255355,-0.099722065,0.087539054,0.045742057,-0.11080597,0.040293656,0.18401104,0.07680153,-0.25753477,-0.07144888,0.20668644,-0.16017222,-0.0072465497,0.026250431,0.17964832,0.23084754,0.05550621},{0.14764987,0.064424895,-0.096695185,-0.105647705,0.14070895,-0.40739658,0.006715412,0.001319058,0.123102725,0.04919887,0.06990917,-0.062479265,0.15888081,0.075020276,0.09207547,0.295959,0.17385912,-0.35441154,0.056109034,0.12142905,-0.113630034,0.19204654,-0.26924863,0.07654349,-0.09618445,0.075795025,-0.026591424,-0.2848796,-0.16958342,0.042926162,-0.010402519,0.20390873,0.016258817,-0.07455182,-0.20946763,0.09219054,-0.13542892,-0.07749135,0.023438567,-0.06778889,-0.12749857,-0.14685139,-0.12399458,-0.1843144,0.084870934,-0.07692718,-0.18869527,-0.004420237,0.2208885,-0.10152194,-0.24027805,-0.053817518,0.19202977,-0.11408921,-0.012640477,-0.08183542,0.1657685,-0.04890616,-0.05050311,0.022275524,-0.2301143,0.19655703,-0.15013845,-0.26295027}};
static const float layer_2_weight[64][4] = {{-0.13949415,-0.047169432,0.30293342,-0.25523642},{-0.19514115,-0.38003084,0.29901707,0.10271854},{0.16210242,0.0014501882,-0.043764886,0.3062669},{-0.13516381,-0.028231941,-0.14221339,0.018411925},{-0.08142468,-0.11469337,0.18787082,0.09031747},{0.066899225,0.12771387,0.28484598,0.039791998},{-0.047184214,-0.16063702,0.17396681,-0.20904511},{-0.045264713,-0.1306092,-0.2640255,-0.049900994},{-0.028287264,0.12757085,-0.11832568,0.022637244},{-0.0806215,0.21805614,0.19893122,-0.16581707},{-0.046812396,0.21937183,-0.052016206,0.17885049},{-0.08098138,-0.1947708,-0.01877984,0.3143197},{-0.22350833,0.018938858,-0.084080346,0.12868696},{0.26228172,-0.18603505,0.12958439,-0.083948836},{0.15292297,0.123944,-0.2154672,0.017241111},{-0.041447546,-0.17058484,0.07407261,0.20222218},{0.09811647,-0.13367198,-0.22731428,0.17199911},{-0.25427777,0.17309488,-0.17537934,-0.22386958},{0.42357087,0.41538283,0.49235752,0.40549916},{0.11626693,0.0045565907,-0.07891105,-0.16768304},{-0.15581375,-0.26463756,0.13702957,0.07813834},{-0.15087037,0.1449075,-0.04476989,-0.1172662},{0.2013522,0.0976713,0.24186659,-0.19736384},{0.15337354,0.2533298,-0.23694582,-0.07010648},{-0.20985909,-0.1425914,0.19891274,-0.16537572},{-0.118605055,-0.03892618,-0.18023871,-0.19100621},{0.02400169,-0.29231697,0.06424576,0.34900412},{-0.2557018,0.31032497,0.21754277,-0.06771641},{0.12808107,0.18191601,-0.16431613,0.11938166},{-0.08886006,-0.005121676,-0.13750349,0.0606117},{0.17015357,-0.2512547,-0.2067538,-0.24972995},{0.17127317,-0.17305379,0.0649369,0.040008217},{-0.15977551,-0.04572023,-0.081630826,0.21076739},{0.17973438,-0.15622987,0.067424715,-0.2785574},{0.010773094,0.22744095,0.012367797,-0.25862706},{0.111177154,0.074438535,0.092268124,-0.073909074},{-0.19673872,-0.053459838,0.031015692,0.044281285},{-0.029127806,-0.41391477,0.45853856,0.18439513},{0.2646051,-0.19177899,-0.075586654,0.19168298},{-0.16376692,0.24432865,0.24155308,0.08022635},{-0.27673623,-0.13874698,0.22357355,-0.21442433},{0.01258071,0.14678994,0.196882,0.25300232},{0.18951282,0.32534987,-0.022203494,0.10248413},{0.021490868,0.009574335,-0.21681944,0.15307215},{-0.11475417,-0.19700947,-0.24418424,-0.26691037},{-0.01229444,-0.12070751,-0.07362536,0.13316277},{-0.25185195,0.20635179,0.07565983,-0.0040082475},{0.26150703,-0.06555211,0.16143061,-0.09753666},{0.11853775,-0.13349026,0.009872218,-0.0856032},{0.062167667,0.07314335,-0.045022473,0.0021279177},{0.3698338,-0.19889519,-0.3682599,0.0388357},{-0.08391231,0.14046095,-0.06324474,-0.38968417},{-0.109350935,0.11288204,-0.061071042,0.048802834},{-0.24079521,0.1253698,0.0072812513,-0.16772164},{-0.078637354,0.08192941,-0.03805331,-0.018518928},{0.024322636,-0.094764575,0.22082233,-0.09686913},{-0.29898003,0.11793235,0.22136563,0.099883325},{0.24853833,0.13619469,0.18693855,-0.033128344},{0.034522206,-0.0405868,0.27612907,-0.18236646},{-0.05542563,-0.11986036,0.013084346,0.05817236},{0.17618977,-0.019110825,0.08391545,-0.09749336},{0.1946396,0.042009395,0.03247606,0.16629413},{0.08989265,0.033790935,-0.13229494,-0.09262949},{-0.04911179,0.20619346,0.19843832,-0.33952975}};
static const float layer_0_bias[64] = {0.12746514,-0.070403054,0.018840104,-0.1085436,0.11852319,0.0045489827,-0.0014229811,0.004008919,0.30271274,0.07825678,0.04879803,0.0201211,0.0020547716,0.06495134,0.015855446,-0.03363768,-0.04522609,-0.07326509,-0.17040874,-0.07115008,-0.12019989,-0.035456542,0.056808557,-0.24670409,0.2806157,-0.1403928,0.080891125,-0.019126967,-0.062259205,-0.15392338,-0.01089036,0.10590526,-0.014766866,-0.021274759,0.19804323,-0.05855122,0.039962206,-0.13713574,-0.48189035,-0.027760815,0.053852223,-0.002827594,0.112550594,0.031429403,0.12244624,0.17916717,0.011735926,0.09106303,-0.03217239,-0.021278178,0.040504914,0.22059889,0.08547742,-0.10598268,0.22318394,-0.024463769,0.14746252,0.02343521,0.0130028315,0.029700568,0.06753544,-0.05330057,0.052454196,0.043803804};
static const float layer_1_bias[64] = {-0.030121597,0.019341538,0.06150154,-0.012673225,0.013755579,-0.16484156,-0.038106203,0.09683339,0.04767806,-0.009074021,0.07302827,0.017601835,0.012540052,-0.049703784,0.019672478,-0.0094605945,0.05152182,0.041833274,0.021576867,0.028452463,0.022546357,0.027167061,-0.014228916,0.030154482,-0.0792671,0.08942307,-0.0028221086,0.018021002,0.046118993,0.05941078,0.075337924,0.02610652,0.043111254,-0.037103217,-0.08474095,-0.039807484,0.02488211,0.027427189,-0.00318274,-0.06699641,-0.08242643,-0.021178376,-0.015533921,0.041308183,0.033458956,0.06247236,-0.030769557,-0.0146336965,-0.015922872,0.014739383,-0.10785923,-0.027306637,-0.007179767,-0.051370617,-0.008855043,-0.06795411,-0.0047313403,0.02738508,-0.060188327,-0.0007584054,-0.047006384,0.03421245,0.0037974522,-0.033087682};
static const float layer_2_bias[4] = {0.0022730455,-0.0207923,-0.06770766,0.035666745};

	void networkEvaluate(struct control_t_n *control_n, float *state_array) {
	
		for (int i = 0; i < structure[0][1]; i++) {
			output_0[i] = 0;
			for (int j = 0; j < structure[0][0]; j++) {
				output_0[i] += state_array[j] * layer_0_weight[j][i];
			}
			output_0[i] += layer_0_bias[i];
			output_0[i] = tanhf(output_0[i]);
		}
	
		for (int i = 0; i < structure[1][1]; i++) {
			output_1[i] = 0;
			for (int j = 0; j < structure[1][0]; j++) {
				output_1[i] += output_0[j] * layer_1_weight[j][i];
			}
			output_1[i] += layer_1_bias[i];
			output_1[i] = tanhf(output_1[i]);
		}
		
		for (int i = 0; i < structure[2][1]; i++) {
			output_2[i] = 0;
			for (int j = 0; j < structure[2][0]; j++) {
				output_2[i] += output_1[j] * layer_2_weight[j][i];
			}
			output_2[i] += layer_2_bias[i];
		}
		
		control_n->thrust_0 = output_2[0];
		control_n->thrust_1 = output_2[1];
		control_n->thrust_2 = output_2[2];
		control_n->thrust_3 = output_2[3];	
	
	}
	