
#include "network_evaluate.h"



float linear(float num) {
	return num;
}



float sigmoid(float num) {
	return 1 / (1 + exp(-num));
}



float relu(float num) {
	if (num > 0) {
		return num;
	} else {
		return 0;
	}
}

static const int structure [4][2] = {{18, 16},{16, 16},{16, 32},{32, 4}};
static float output_0[16];
static float output_1[16];
static float output_2[32];
static float output_3[4];
static const float actor_encoder_self_encoder_0_weight[18][16] = {{-0.2870778739452362,0.010930437594652176,-0.4495842754840851,-0.12255723774433136,0.0971456840634346,0.239541694521904,0.07046275585889816,0.030359914526343346,0.12508468329906464,0.033523350954055786,-0.06104791909456253,-0.12146872282028198,0.3402063846588135,0.3809976875782013,0.23829734325408936,0.337124228477478},{-0.053638726472854614,0.09025362133979797,-0.1422528475522995,-0.41555121541023254,0.40726909041404724,0.36128395795822144,-0.4043184220790863,-0.0998101532459259,0.025536609813570976,0.12758874893188477,-0.29266661405563354,-0.28400886058807373,0.017708467319607735,-0.03749701380729675,-0.14052335917949677,0.197857066988945},{0.6015999913215637,-0.7670731544494629,-0.5451853275299072,-0.23469437658786774,-0.15073730051517487,0.5658411383628845,-0.196748286485672,-0.00024094220134429634,0.31071218848228455,0.16018927097320557,0.22499938309192657,0.1556183248758316,0.6474868655204773,-0.71409010887146,0.09069943428039551,0.17660094797611237},{-0.2457880824804306,0.22152644395828247,-0.12366093695163727,0.14413103461265564,-0.2828035354614258,0.21232306957244873,-0.10124418884515762,0.02691080793738365,0.2933900058269501,0.28506699204444885,0.0373133048415184,-0.011879729107022285,0.0037052473053336143,0.18253496289253235,0.22564589977264404,-0.046597450971603394},{0.07015012204647064,-0.14438781142234802,-0.12460515648126602,-0.20689532160758972,0.39885684847831726,0.14414699375629425,-0.4343962073326111,0.25581124424934387,-0.33929139375686646,-0.018914537504315376,-0.18875940144062042,0.05582842975854874,0.08236551284790039,-0.18148881196975708,-0.23211419582366943,0.012437221594154835},{-0.010771553963422775,-0.18228551745414734,-0.1812620460987091,0.027905141934752464,-0.13710199296474457,0.46230611205101013,0.2284744679927826,-0.09206624329090118,0.09752222150564194,0.20642465353012085,0.2710951864719391,0.25510716438293457,0.1506333351135254,-0.15645235776901245,0.09536071866750717,-0.12236256152391434},{0.02669340744614601,-0.1123977079987526,0.15729650855064392,-0.03672303259372711,0.10056385397911072,-0.21215146780014038,0.2974003255367279,0.33799853920936584,-0.15299968421459198,0.22111885249614716,0.0812128335237503,0.12340255826711655,-0.05692146718502045,-0.29578977823257446,-0.31260108947753906,0.3632589280605316},{0.40633252263069153,0.2371421754360199,-0.26244986057281494,-0.1819867491722107,-0.07560083270072937,0.05688018351793289,-0.10736967623233795,-0.02661544270813465,-0.02847520262002945,-0.2417108416557312,-0.3528735935688019,-0.013894307427108288,-0.25607630610466003,0.10851845890283585,-0.06074504181742668,-0.053785573691129684},{0.020530376583337784,-0.24665464460849762,-0.07745295017957687,0.2665838599205017,-0.34798702597618103,-0.44692349433898926,0.1526973694562912,0.6645764112472534,0.2947622239589691,0.3246084153652191,-0.17973530292510986,-0.43766170740127563,0.3824056088924408,0.27517953515052795,0.6395220160484314,0.7361510396003723},{-0.4374261498451233,0.020478099584579468,0.04554864764213562,0.14643585681915283,0.3700096011161804,-0.20979449152946472,0.0920526385307312,-0.021271945908665657,0.17934578657150269,0.2119293212890625,0.3215228021144867,-0.5522880554199219,-0.20106005668640137,-0.00035710897645913064,0.3848089277744293,-0.1209971234202385},{-0.19557811319828033,-0.04088042676448822,0.0799138993024826,-0.3224804401397705,0.22533364593982697,-0.012001194059848785,0.12298966944217682,0.011493884027004242,0.2953701317310333,0.09638313204050064,0.0953344851732254,-0.004922513384371996,-0.19488582015037537,0.05488058179616928,0.41623246669769287,-0.08542779833078384},{-0.08750093728303909,0.5071143507957458,-0.29012709856033325,-0.23244519531726837,0.022400006651878357,0.6144246459007263,-0.5202059149742126,0.002307551447302103,-0.6888179183006287,0.5358894467353821,0.01533944346010685,-0.22834773361682892,0.4140111207962036,0.2890976071357727,0.07086624950170517,-0.22142064571380615},{-0.06127087399363518,-0.34221363067626953,-0.03151354566216469,0.012699359096586704,0.7066210508346558,-0.34808146953582764,-0.16586747765541077,-0.796073853969574,-0.13070102035999298,0.05469230189919472,-0.07516968250274658,-0.2470783293247223,-0.02463718317449093,-0.4109765887260437,-0.6175866723060608,-0.10442294925451279},{0.13078850507736206,-0.11304502934217453,0.4156472086906433,0.5273962616920471,0.2520371973514557,-0.3237323760986328,0.6253702044487,0.320732057094574,0.4917356073856354,-0.694520115852356,0.43733957409858704,-0.39416322112083435,-0.17055644094944,-0.027414537966251373,-0.08007833361625671,0.029507813975214958},{-0.3097318708896637,0.021729473024606705,0.33442384004592896,0.2612828016281128,0.18438918888568878,-0.3028298020362854,-0.3563290536403656,0.24313274025917053,0.0051054572686553,-0.053636182099580765,0.28826063871383667,-0.4149363934993744,-0.20173372328281403,-0.024338698014616966,0.24875113368034363,-0.018743988126516342},{-0.04514492675662041,-0.04227834567427635,-0.2970469892024994,0.17064160108566284,-0.18797503411769867,-0.2161777764558792,0.02498267963528633,0.01939401775598526,0.0015992848202586174,-0.1288638412952423,0.1473883092403412,-0.12337429821491241,-0.3363456428050995,-0.1862279176712036,-0.1921069175004959,0.09900462627410889},{0.07717554271221161,-0.1408465951681137,-0.004716556053608656,0.029686329886317253,-0.21409572660923004,0.0553051121532917,0.00419605104252696,0.06089375913143158,0.22855150699615479,0.15485824644565582,-0.06828944385051727,-0.2769746780395508,-0.1740303337574005,0.3432874083518982,0.12267379462718964,0.0895162895321846},{-0.4321605861186981,-0.3261193633079529,0.061256054788827896,-0.40145063400268555,-0.3627537488937378,-0.3632449209690094,-0.1618688404560089,0.20071768760681152,-0.011676696129143238,-0.08904614299535751,0.1411714404821396,-0.26685449481010437,0.30229753255844116,-0.26188555359840393,-0.10223355889320374,-0.12018954753875732}};
static const float actor_encoder_self_encoder_2_weight[16][16] = {{-0.41648346185684204,0.006592838559299707,-0.16931121051311493,-0.44117650389671326,-0.3357299268245697,0.12835243344306946,-0.4250609576702118,-0.06882327049970627,-0.013150288723409176,0.06786198168992996,-0.28255289793014526,-0.11793889850378036,0.14544890820980072,-0.0540241003036499,-0.3326186239719391,-0.16443443298339844},{-0.15188302099704742,0.010371689684689045,-0.08117617666721344,-0.3108445703983307,0.2001546174287796,-0.1372462958097458,0.13578219711780548,0.06554969400167465,0.2621261775493622,0.3936001658439636,0.3534322679042816,0.3561776280403137,-0.0006082784966565669,-0.2824653685092926,0.21594780683517456,-0.17316552996635437},{0.33977431058883667,0.0352870374917984,-0.07280991226434708,0.09207075089216232,0.270454078912735,-0.2817617654800415,0.1893198937177658,-0.06895234435796738,-0.15601496398448944,0.015301626175642014,0.13745349645614624,0.2101643979549408,-0.23804375529289246,0.35486894845962524,0.30519506335258484,0.14486661553382874},{-0.2152106910943985,-0.02294645830988884,0.021909350529313087,-0.15856599807739258,-0.07900326699018478,-0.15386460721492767,-0.07431638240814209,-0.12607870995998383,-0.07788709551095963,-0.22435574233531952,0.057704512029886246,-0.3346007168292999,0.1431998461484909,0.1392475813627243,0.2115277498960495,-0.25827324390411377},{0.09356705844402313,0.26042619347572327,-0.06447120755910873,-0.09212172031402588,0.29679515957832336,-0.05941517651081085,0.26101186871528625,0.03994830325245857,-0.3339732587337494,0.10461697727441788,-0.2799352705478668,0.10338972508907318,0.20288781821727753,-0.31978607177734375,0.14672544598579407,-0.2689158618450165},{0.2862367630004883,-0.2583891451358795,-0.12596864998340607,-0.4960140883922577,-0.1349574774503708,0.3558996617794037,0.036680400371551514,0.11304501444101334,-0.10569159686565399,-0.03580859676003456,0.21262966096401215,-0.21493040025234222,0.337747186422348,0.011832647025585175,-0.012112947180867195,0.24131543934345245},{-0.22077259421348572,-0.04161016643047333,-0.018668698146939278,0.2810819745063782,-0.04582952335476875,-0.3451291024684906,0.10218619555234909,-0.2751595079898834,0.5189834833145142,0.073558010160923,-0.3080613613128662,-0.18784083425998688,-0.017673373222351074,0.1881188303232193,-0.22655265033245087,-0.2733067572116852},{-0.33482298254966736,-0.48405617475509644,0.38569504022598267,0.05322260782122612,0.1971418857574463,-0.05373614653944969,0.15966586768627167,0.3192406892776489,0.3366982638835907,-0.09825147688388824,0.3546045422554016,0.15624290704727173,-0.1489415317773819,0.3663213551044464,0.17943966388702393,-0.07606124132871628},{-0.28040701150894165,-0.24467934668064117,0.1608792096376419,-0.1651219129562378,-0.20438693463802338,0.16471293568611145,-0.23184603452682495,-0.21576641499996185,0.1531556248664856,-0.31324124336242676,-0.2677159309387207,0.017939291894435883,-0.2496391236782074,0.02377334237098694,-0.23150739073753357,-0.256177693605423},{0.09030138701200485,-0.013342252932488918,0.31144824624061584,-0.21561062335968018,0.25717052817344666,0.24593007564544678,0.31345412135124207,0.2568337023258209,0.08449193090200424,0.26945924758911133,0.09155198931694031,0.09022366255521774,0.22614604234695435,0.2633192241191864,0.2895503342151642,0.09716007858514786},{-0.0016035182634368539,-0.03167282044887543,0.08924973756074905,0.13699817657470703,-0.46753832697868347,0.035826850682497025,0.12579889595508575,0.32637226581573486,-0.3932017385959625,0.1592908352613449,-0.40773284435272217,0.35143744945526123,-0.3857898414134979,0.10340452194213867,-0.14827851951122284,-0.13543152809143066},{0.1175106018781662,-0.17772944271564484,0.010183797217905521,-0.2199944406747818,-0.20741653442382812,0.1282055526971817,0.25257202982902527,-0.30374249815940857,0.3051338493824005,-0.1732822060585022,0.09639133512973785,0.21385367214679718,0.3162188231945038,-0.09157705307006836,-0.019853292033076286,-0.1762770563364029},{0.08036495000123978,0.14663998782634735,0.02665696106851101,-0.0514979250729084,-0.2969624996185303,0.4292888045310974,0.04856497794389725,0.347707599401474,-0.05273975059390068,0.04518745094537735,0.24522091448307037,0.21458834409713745,-0.07641056925058365,0.2677397131919861,-0.1592189520597458,-0.051321569830179214},{0.10195132344961166,-0.11103574186563492,0.037842877209186554,0.020304469391703606,-0.22607962787151337,-0.15697342157363892,0.20377379655838013,-0.20491357147693634,-0.1080942153930664,-0.1257251352071762,0.357824444770813,-0.03454148769378662,-0.21662887930870056,-0.4837121367454529,0.1612229347229004,0.2550243139266968},{-0.20530349016189575,-0.01309089083224535,0.0812472477555275,0.18213778734207153,-0.3043820559978485,0.3608628213405609,0.3781874477863312,0.11128871887922287,-0.1982572078704834,-0.010783268138766289,0.10147912055253983,-0.39893481135368347,-0.36493119597435,0.3827444016933441,-0.05228203907608986,0.18360471725463867},{0.04103515297174454,0.35851606726646423,0.159625843167305,0.16577579081058502,-0.3681124746799469,0.3037111461162567,0.22236524522304535,0.17031796276569366,0.33247777819633484,0.19475452601909637,0.2990647852420807,-0.4471551179885864,-0.18262235820293427,0.4199753403663635,0.2746465802192688,-0.23332655429840088}};
static const float actor_encoder_feed_forward_0_weight[16][32] = {{-0.23617170751094818,0.1893739104270935,0.21421141922473907,0.11231335997581482,0.08604908734560013,-0.029676098376512527,-0.338577002286911,-0.02711123414337635,-0.006366173271089792,0.3548395335674286,0.1018044501543045,-0.13610310852527618,-0.19021551311016083,-0.3353540897369385,-0.28159794211387634,-0.14342370629310608,0.32110774517059326,-0.3127586841583252,-0.19938643276691437,0.022152459248900414,-0.11912434548139572,0.05565980076789856,-0.33874672651290894,-0.1531664878129959,0.28689044713974,0.2971000075340271,-0.20394209027290344,-0.14513824880123138,0.08602634817361832,-0.11180513352155685,-0.14822866022586823,0.13318252563476562},{-0.022015022113919258,0.23055587708950043,0.07029193639755249,-0.13328060507774353,0.17497719824314117,-0.33338749408721924,-0.10621728748083115,-0.06003151461482048,0.12284223735332489,0.1921522468328476,0.2717219293117523,0.11866195499897003,0.1325221210718155,-0.17466036975383759,-0.3136686384677887,0.34573933482170105,-0.16204901039600372,0.2590448558330536,0.0683346763253212,0.13305646181106567,0.1899891346693039,0.26668718457221985,-0.2566468417644501,-0.3675527572631836,-0.012447972781956196,-0.18156249821186066,-0.1915626972913742,0.04844338446855545,-0.16780808568000793,-0.05456550791859627,-0.13087612390518188,-0.0869082659482956},{0.12163837254047394,-0.09861627221107483,0.3518450856208801,0.28680068254470825,-0.1211206391453743,0.12559103965759277,0.2871045172214508,0.04999040439724922,-0.30954432487487793,0.31522029638290405,0.26285454630851746,0.16786924004554749,0.21256108582019806,-0.03697359561920166,-0.31628280878067017,0.2886481285095215,0.024764714762568474,0.2672985792160034,-0.09907180070877075,0.18319961428642273,-0.2288350909948349,-0.06779949367046356,-0.35961025953292847,0.20046842098236084,0.1304955929517746,-0.42402899265289307,-0.15273413062095642,-0.2999092638492584,-0.12658891081809998,0.050642743706703186,-0.1765548437833786,0.05709584802389145},{0.025286396965384483,0.17335295677185059,-0.038460250943899155,-0.35806575417518616,-0.10077811777591705,0.06615356355905533,-0.32000842690467834,-0.14386673271656036,0.022212466225028038,-0.13762050867080688,-0.1949780136346817,0.2804354429244995,0.12676067650318146,0.037780217826366425,-0.18064500391483307,-0.03638593479990959,0.2047714740037918,0.09411909431219101,0.3256129026412964,-0.03130108490586281,-0.12390588223934174,0.2160889357328415,0.0003009833162650466,-0.07812833040952682,0.17749501764774323,-0.2434626668691635,-0.006792793050408363,0.302970290184021,0.1596052646636963,-0.2992832064628601,-0.06832905858755112,0.12454655021429062},{0.2225842922925949,0.10847792774438858,0.1426125019788742,-0.1602107584476471,-0.04727507755160332,-0.45485129952430725,-0.27422818541526794,0.2146495282649994,0.1598619818687439,0.14134787023067474,-0.1411101073026657,0.2011999636888504,-0.3362913727760315,-0.14537034928798676,-0.013786389492452145,0.07333966344594955,0.25297993421554565,-0.06986268609762192,-0.12403836846351624,0.12751664221286774,-0.31273624300956726,0.3207784593105316,0.2051495611667633,-0.20059989392757416,-0.22937388718128204,0.03300881013274193,0.10411706566810608,-0.3245125710964203,-0.11964668333530426,0.04756830260157585,0.24345135688781738,0.11971206963062286},{0.23416216671466827,0.09906920045614243,0.17818789184093475,0.13986095786094666,0.3769972026348114,0.23498623073101044,-0.04302605986595154,0.11142026633024216,-0.16818304359912872,-0.0026372189167886972,-0.13996601104736328,0.1257689893245697,-0.32479599118232727,-0.1185198724269867,-0.07160550355911255,0.38822507858276367,-0.02066675014793873,0.15668758749961853,-0.023295102640986443,-0.09210449457168579,0.15408962965011597,-0.22225096821784973,-0.0652354434132576,0.052100758999586105,-0.2258720099925995,0.1995723396539688,-0.3019629418849945,-0.33376452326774597,-0.05606783181428909,0.24813322722911835,-0.054221782833337784,0.18448953330516815},{0.0834263265132904,0.17334994673728943,-0.12547855079174042,0.02861536107957363,-0.06460215151309967,0.28332799673080444,0.16185393929481506,-0.06123565137386322,0.028997022658586502,-0.16170549392700195,0.026401260867714882,0.060762178152799606,0.24314869940280914,-0.22040590643882751,-0.038166821002960205,0.2573375403881073,0.35727837681770325,-0.12266991287469864,-0.33392414450645447,0.02750164270401001,-0.007231289520859718,-0.09392675757408142,0.3047061860561371,-0.23884041607379913,-0.3039887845516205,0.11775810271501541,-0.07981658726930618,-0.3109939992427826,-0.2335943877696991,0.08860254287719727,-0.28191930055618286,-0.013883187435567379},{0.1099519208073616,0.2527773082256317,-0.2793162763118744,0.22743354737758636,0.24593962728977203,0.19947727024555206,-0.3557240962982178,-0.2964543402194977,0.00023885701375547796,-0.2328381985425949,0.20810766518115997,0.09487693756818771,-0.02167765237390995,0.32079580426216125,-0.050718583166599274,-0.29862073063850403,0.11022163927555084,-0.20654067397117615,-0.3563786745071411,-0.16837282478809357,-0.04834293574094772,-0.22845470905303955,0.009435736574232578,0.26129502058029175,0.2021646797657013,-0.24541521072387695,-0.11037764698266983,-0.2920941710472107,-0.19135667383670807,0.27359622716903687,-0.34224528074264526,0.07130473107099533},{0.11453252285718918,0.25181034207344055,0.28328758478164673,-0.1904207468032837,-0.17483356595039368,0.044628407806158066,-0.2151390165090561,0.16799773275852203,0.3262152373790741,-0.12930181622505188,0.1116010919213295,-0.151778906583786,0.14962688088417053,0.09186996519565582,0.28275927901268005,-0.01693926565349102,0.20016565918922424,-0.2810226082801819,0.02722802571952343,-0.14254912734031677,0.33790817856788635,0.12458096444606781,0.06560889631509781,-0.11657456308603287,0.3363625109195709,-0.16386941075325012,-0.20165082812309265,-0.016334855929017067,0.19630448520183563,0.05534769594669342,0.09551829099655151,0.011543416418135166},{-0.13438130915164948,-0.32646727561950684,-0.037244658917188644,-0.15223562717437744,-0.05434466153383255,0.027300607413053513,0.09743031859397888,-0.09784364700317383,0.019105305895209312,0.00865807756781578,0.20497789978981018,0.18903672695159912,0.13576878607273102,-0.18124201893806458,-0.05702148750424385,-0.1985190212726593,0.037365514785051346,0.2272564172744751,0.09980757534503937,-0.2444140762090683,-0.040761105716228485,0.171389639377594,0.2306956946849823,-0.06297402083873749,-0.114361971616745,-0.08198949694633484,-0.0630866289138794,-0.189420685172081,-0.1016518846154213,-0.23869918286800385,-0.3555619716644287,-0.2355504035949707},{0.06549791991710663,-0.30815792083740234,0.1345442831516266,0.15987570583820343,-0.23750457167625427,-0.09144054353237152,-0.024450186640024185,0.09411229938268661,-0.1304096132516861,-0.28486713767051697,0.15413117408752441,-0.19587934017181396,0.000355798372766003,-0.0665096864104271,0.28604379296302795,0.3584354817867279,-0.18929240107536316,0.39676278829574585,0.030761072412133217,-0.3057551085948944,-0.22620339691638947,0.030050912871956825,0.3646616041660309,0.19261349737644196,-0.12041705846786499,-0.12086834013462067,-0.27592605352401733,0.1267046481370926,0.27811679244041443,-0.1007174625992775,-0.25136256217956543,-0.13682566583156586},{0.25124526023864746,0.161769837141037,0.21019797027111053,0.06421712785959244,0.30981969833374023,-0.1972634643316269,0.25707852840423584,0.04963374137878418,-0.1387086659669876,-0.15474635362625122,-0.22078773379325867,0.0461873859167099,-0.1733953058719635,-0.3257846534252167,-0.2798363268375397,-0.010622192174196243,-0.09829342365264893,0.020356711000204086,-0.29288992285728455,-0.16062334179878235,0.07202688604593277,0.025731410831212997,-0.007021068595349789,0.08470357954502106,0.09108708798885345,-0.2730376124382019,0.00680152652785182,-0.08423163741827011,-0.05569569766521454,-0.05431630089879036,-0.14913082122802734,0.28472545742988586},{-0.1535286158323288,-0.20153239369392395,0.028652343899011612,0.26448962092399597,-0.22721725702285767,0.36860910058021545,0.07540805637836456,-0.17865842580795288,-0.048976171761751175,-0.03151717782020569,0.22209416329860687,0.19058486819267273,-0.35661646723747253,0.061429597437381744,-0.23297740519046783,0.06357061117887497,0.16060084104537964,-0.2941983640193939,0.06885021179914474,0.04344162344932556,0.31443190574645996,0.07328491657972336,0.2809315621852875,0.06578633934259415,0.1728217601776123,0.12458427995443344,-0.23647965490818024,-0.0026961190160363913,0.014100469648838043,0.11633709818124771,0.23376430571079254,-0.23278649151325226},{0.04068939387798309,0.010169437155127525,-0.24776676297187805,-0.18935014307498932,0.10955885052680969,0.42239174246788025,-0.32416442036628723,0.18140895664691925,0.0828198790550232,-0.1243528425693512,0.2910548150539398,0.09618162363767624,0.192005455493927,-0.05315474420785904,0.16503705084323883,-0.1330927312374115,0.24101535975933075,-0.32417526841163635,-0.058569423854351044,-0.12348009645938873,0.30806705355644226,0.03664109483361244,-0.19916072487831116,-0.14498849213123322,0.026218906044960022,-0.1301102191209793,0.057740990072488785,-0.10714241862297058,-0.262098491191864,-0.004818044137209654,-0.15819518268108368,-0.24103376269340515},{-0.11911607533693314,-0.2008427083492279,-0.06159872189164162,-0.22362704575061798,-0.0667097419500351,0.03078874759376049,-0.23215705156326294,-0.15169619023799896,-0.38580605387687683,-0.2620368003845215,0.017823847010731697,-0.06281235069036484,0.20975735783576965,0.0750315859913826,-0.27639761567115784,-0.17167691886425018,-0.31362390518188477,-0.020997632294893265,0.10805472731590271,-0.2224806696176529,-0.06433205306529999,0.3150932192802429,0.19383461773395538,0.29244813323020935,-0.014817609451711178,-0.3369225263595581,0.2548046112060547,-0.18572576344013214,0.029290618374943733,0.3013243079185486,-0.08771310746669769,-0.33634763956069946},{-0.2377079427242279,0.01401558332145214,-0.13723458349704742,-0.0641661286354065,0.31363120675086975,-0.1221839040517807,0.25391867756843567,0.09562358260154724,0.3386996388435364,0.021211043000221252,-0.24727030098438263,-0.035897448658943176,-0.13025248050689697,0.0363348051905632,0.2972598969936371,0.059753548353910446,0.2896891236305237,0.21756747364997864,-0.13318176567554474,0.003673077328130603,-0.07699887454509735,0.02484629862010479,0.19980819523334503,-0.09476886689662933,-0.20677106082439423,-0.11674442887306213,0.2603316307067871,-0.2533816695213318,-0.07979194074869156,0.04726380482316017,-0.26280567049980164,0.08710628002882004}};
static const float action_parameterization_distribution_linear_weight[32][4] = {{0.2495773881673813,-0.14647513628005981,-0.10983750224113464,0.0823734700679779},{0.1202092096209526,-0.02672969363629818,0.020172877237200737,-0.12284499406814575},{-0.0034254901111125946,-0.23402778804302216,-0.05785514414310455,-0.19095881283283234},{-0.12615516781806946,-0.32322415709495544,-0.2100389003753662,-0.07231605798006058},{-0.3737832009792328,-0.11180199682712555,0.2039152830839157,-0.13592137396335602},{-0.07200919836759567,-0.04564725607633591,-0.3311348855495453,-0.2371218353509903},{-0.2865794897079468,0.175130233168602,-0.03300106152892113,0.028897715732455254},{-0.2050369828939438,0.009582147002220154,0.06537187099456787,0.10859484225511551},{-0.03823135793209076,0.030433885753154755,-0.18573513627052307,-0.08512257039546967},{-0.012599875219166279,-0.05441143363714218,0.085974782705307,-0.06646253168582916},{0.030530035495758057,0.16679981350898743,-0.21269908547401428,0.058649953454732895},{-0.183157280087471,-0.11454989016056061,0.2279168963432312,-0.18667660653591156},{0.2461254745721817,-0.05759827047586441,0.1639978289604187,0.1975279003381729},{-0.2843310832977295,0.0007277188706211746,-0.09610548615455627,0.284406453371048},{-0.13073985278606415,-0.2232913374900818,-0.3242795169353485,-0.05266795679926872},{-0.16136568784713745,-0.08996954560279846,0.024593595415353775,0.017252549529075623},{0.0454186387360096,-0.38423314690589905,0.15387625992298126,0.22685310244560242},{0.12496179342269897,-0.2630586326122284,-0.2161591351032257,0.3487619459629059},{-0.019428618252277374,-0.1220952719449997,-0.052303802222013474,-0.25473830103874207},{0.07832285016775131,0.2027006596326828,-0.2520270049571991,-0.19944226741790771},{-0.10856901854276657,-0.30517396330833435,-0.41700267791748047,-0.4021731913089752},{-0.1681586652994156,0.3450276851654053,0.003908355254679918,0.25899678468704224},{-0.08234145492315292,0.15185287594795227,0.2755745053291321,0.2835693657398224},{0.0936649739742279,-0.16274020075798035,-0.042080797255039215,-0.10002255439758301},{-0.26568350195884705,0.23827433586120605,0.09229415655136108,0.062293246388435364},{-0.34313732385635376,-0.12425316870212555,-0.13149204850196838,0.10607577860355377},{0.30899742245674133,-0.25300559401512146,-0.14472843706607819,-0.2359638661146164},{0.15213698148727417,-0.026257146149873734,0.022229298949241638,0.036668263375759125},{0.0013082235818728805,0.18266549706459045,-0.0579909086227417,0.09300482273101807},{0.0020774027798324823,-0.2796251177787781,0.13876910507678986,0.03996966779232025},{0.06640826910734177,0.0026195666287094355,0.14417077600955963,-0.03243408352136612},{0.06430256366729736,0.13548047840595245,-0.2185717225074768,0.02283698134124279}};
static const float actor_encoder_self_encoder_0_bias[16] = {-0.052475690841674805,-0.1464175283908844,0.014491911046206951,-0.00336495041847229,0.09175501018762589,0.03986242786049843,0.02053632028400898,-0.08729138225317001,0.007253014948219061,0.09188912808895111,0.04855102673172951,-0.05351090431213379,0.14324115216732025,-0.0012515421258285642,0.12095969170331955,0.039422355592250824};
static const float actor_encoder_self_encoder_2_bias[16] = {0.05280294269323349,0.028650125488638878,0.0474335253238678,0.05302245169878006,-0.01372308749705553,0.04737722873687744,0.11098407953977585,0.03157627955079079,-0.06077548861503601,0.02506822533905506,-0.07353862375020981,0.011507191695272923,-0.023670844733715057,0.038067255169153214,-0.06612777709960938,0.0002886450383812189};
static const float actor_encoder_feed_forward_0_bias[32] = {0.00505362031981349,0.01940886303782463,-0.0378536656498909,-0.009020576253533363,0.0240256916731596,-0.024043899029493332,0.015075430274009705,-0.003924485296010971,0.01020968146622181,0.04515573009848595,-0.006231293082237244,0.012179199606180191,0.023271840065717697,-0.049468982964754105,-0.060028307139873505,-0.04260482266545296,-0.027328476309776306,-0.004907267168164253,-0.008278388530015945,0.041530754417181015,-0.0087629035115242,-0.02430420182645321,-0.027597663924098015,-0.01850837655365467,0.03544499725103378,-0.029532626271247864,-0.010528191924095154,0.004341148305684328,-0.027794189751148224,-0.010433375835418701,0.051812365651130676,0.014666382223367691};
static const float action_parameterization_distribution_linear_bias[4] = {0.016224900260567665,0.026863794773817062,0.001522696460597217,-0.008601122535765171};
void networkEvaluate(struct control_t_n *control_n, const float *state_array) {
        for (int i = 0; i < structure[0][1]; i++) {
            output_0[i] = 0;
            for (int j = 0; j < structure[0][0]; j++) {
                output_0[i] += state_array[j] * actor_encoder_self_encoder_0_weight[j][i];
            }
            output_0[i] += actor_encoder_self_encoder_0_bias[i];
            output_0[i] = tanhf(output_0[i]);
        }
    
        for (int i = 0; i < structure[1][1]; i++) {
            output_1[i] = 0;
            for (int j = 0; j < structure[1][0]; j++) {
                output_1[i] += output_0[j] * actor_encoder_self_encoder_2_weight[j][i];
            }
            output_1[i] += actor_encoder_self_encoder_2_bias[i];
            output_1[i] = tanhf(output_1[i]);
        }
        
        for (int i = 0; i < structure[2][1]; i++) {
            output_2[i] = 0;
            for (int j = 0; j < structure[2][0]; j++) {
                output_2[i] += output_1[j] * actor_encoder_feed_forward_0_weight[j][i];
            }
            output_2[i] += actor_encoder_feed_forward_0_bias[i];
            output_2[i] = tanhf(output_2[i]);
        }
        
                for (int i = 0; i < structure[3][1]; i++) {
                    output_3[i] = 0;
                    for (int j = 0; j < structure[3][0]; j++) {
                        output_3[i] += output_2[j] * action_parameterization_distribution_linear_weight[j][i];
                    }
                    output_3[i] += action_parameterization_distribution_linear_bias[i];
                }
    
            control_n->thrust_0 = output_3[0];
            control_n->thrust_1 = output_3[1];
            control_n->thrust_2 = output_3[2];
            control_n->thrust_3 = output_3[3];	
    }