
#include "network_evaluate.h"



float linear(float num) {
	return num;
}



float sigmoid(float num) {
	return 1 / (1 + exp(-num));
}



float relu(float num) {
	if (num > 0) {
		return num;
	} else {
		return 0;
	}
}

static const int structure[3][2] = {{18, 64},{64, 64},{64, 4}};
static float output_0[64];
static float output_1[64];
static float output_2[4];
static const float layer_0_weight[18][64] = {{-0.57604754,0.11537694,-0.43037033,-0.1821067,0.018038338,0.08153168,-0.28259328,0.26694942,0.10498286,0.335413,-0.02114625,0.23301102,-0.034329914,-0.42014486,0.025961243,0.28591746,-0.034507096,0.19334254,-0.015942566,-0.36358806,-0.1412538,-0.04561034,0.13917224,-0.6564964,0.33761397,0.42922214,0.17881383,0.13236968,0.43189657,-0.020754872,0.16907714,0.7083623,-0.16832654,0.26036224,0.09949854,0.11721082,-0.4114534,0.48284936,-0.11599842,-0.26375797,0.11135314,-0.0149449445,-0.2802337,-0.060460415,0.05819039,1.4250844,-0.12022541,0.018921832,0.12910324,0.036045965,0.36002332,-0.0054045515,0.1948753,-1.4456346,-0.025636438,-0.14895143,-0.028460799,0.12917833,-0.16383342,-0.11295511,-0.018214758,0.14229122,0.18389323,-0.22984526},{0.44372308,0.046853364,-0.09402109,-0.28664914,-0.0800723,-0.015164724,0.18844502,-0.3156995,-0.39547184,-0.061016094,-0.20331039,0.048651572,-0.07493406,0.051510442,-0.1606587,-0.23561175,0.13041113,-0.41174316,-0.09089927,0.39313367,-0.04199456,0.18655166,0.66942245,0.46848127,0.8713285,0.17341107,-0.14423394,0.044404283,-0.24039409,-0.04628187,-0.26393524,1.6737276,0.3311455,0.32140958,0.32746667,0.171959,0.6040781,0.03509069,-0.040573962,0.13953117,-0.00061071455,0.37423417,-0.22106116,-0.34010082,0.5923279,-0.21149954,0.4129735,0.10293081,-0.043264728,-0.1687,0.31342998,-0.5896423,-0.15592052,-0.49234143,-0.092875674,-0.22366297,0.45170212,0.20215534,-0.0071399948,0.29163504,0.2011545,0.26193967,-0.041200794,0.045569547},{0.49268705,-0.79451144,-0.17679647,-0.42265376,-0.10595699,0.32316986,0.04451238,0.38844657,1.1202071,-0.4235913,-0.2530208,-0.10688611,0.019691236,1.0809585,-0.13812703,-0.21445799,-0.3349642,-0.06937675,-0.30239555,0.103216425,0.13321546,-0.10008606,0.95278364,0.90645045,-0.3475195,0.23777565,-0.17285207,0.28509837,0.12674844,0.34295845,-0.6577583,0.6905651,0.12027004,-0.34773573,0.7086677,0.111079045,0.6197917,-0.25234118,0.3519865,-0.23559612,0.106947534,-0.32221386,-0.38174847,0.011097324,0.97015697,0.13532093,0.2135074,-0.06855289,0.09388045,0.47487754,-1.4406915,1.3416393,0.7685316,-0.26863346,0.001342532,-0.6303245,-0.008221343,0.332069,-0.07918491,0.066114984,0.81049097,-0.041645437,0.39352036,-0.48033774},{-0.35825986,-0.13203683,-0.12594894,-0.30237684,-0.030442497,0.25146827,-0.3220873,0.065040305,-0.23902605,0.20632161,-0.0073231943,0.1527225,-0.17188808,-0.47920358,-0.19145685,-0.015373751,-0.027848512,0.26713768,-0.221468,-0.33638164,-0.19905272,-0.09315961,0.642619,-0.0092316335,-0.18868995,-0.084226206,0.08815276,0.1311975,0.25059116,-0.13926551,-0.55407095,0.28858683,-0.41159564,-0.05694349,-0.1338747,-0.05265767,-0.43363884,0.42315847,0.07783621,0.008851705,0.1691258,-0.15454444,0.23636062,0.108564965,-0.20174725,0.8578826,0.2277969,0.25120026,-0.08033622,0.12359952,-0.28568068,-0.31418195,0.20718265,-0.29934707,0.26218155,-0.1179134,0.28101546,-0.18553665,0.054424204,-0.0775249,0.1503161,0.034313235,0.30404982,-0.02772315},{-0.49950206,0.20572168,-0.24495603,-0.07468514,0.1614603,-0.20469445,0.28118333,0.11578955,-0.4680187,-0.10129316,0.021015625,0.071730755,0.011779097,0.06756034,0.06541446,-0.087598704,-0.15177622,-0.4248697,0.030829858,0.3280602,-0.25057337,0.15771163,0.4420703,0.5613841,0.15377967,0.06895547,-0.053151384,0.15676616,-0.23972215,-0.10905138,-0.16135705,1.1411037,0.19741239,-0.04842925,0.19007088,0.14702073,-0.4731258,0.028987875,-0.057570893,0.2655675,0.035064846,-0.06286493,-0.08301885,-0.34648955,0.2372493,-0.49819994,0.17057894,-0.39208198,-0.2734226,0.07913999,-0.5533251,-0.64395374,-0.068274885,-0.3693722,0.06698982,0.45555696,0.5497989,-0.07936746,-0.166162,0.17587782,0.28049695,0.12595816,0.30931878,-0.03723879},{0.2528614,-0.28179717,-0.400755,-0.11522929,0.1360999,-0.052325435,0.19482554,0.23536198,0.10610031,-0.22993152,-0.09420287,0.23136048,0.04903304,0.6421492,0.1683959,-0.057916313,-0.323183,-0.05863075,-0.11706144,0.14017805,-0.11919276,-0.036414236,0.044473045,-0.28637668,0.26684302,-0.056632567,-0.17095569,0.05094771,0.07100246,-0.03909517,-0.26434538,0.19215603,0.038423285,0.06052759,0.50562197,0.099541344,-0.011606932,-0.0033112722,0.14548954,0.2390118,-0.13696094,0.17190938,0.112511925,-0.03301585,0.18790777,-0.15078263,0.2993805,-0.17862074,0.223862,0.09774302,0.17503245,1.0428631,0.38571653,-0.4298856,-0.13531423,-0.3214216,0.19712214,-0.17983761,0.14900205,-0.069636025,0.6215869,-0.21388337,-0.16559471,-0.03307951},{0.33255628,0.75746566,0.29360616,0.60659415,-0.024455467,-0.24446918,-0.102801315,-0.082295306,-0.078691654,-0.18881968,-0.5967849,-0.07188013,0.060775902,-0.36509806,0.1977464,-0.2884551,0.0053208275,0.13703074,0.08844733,-0.047034632,-0.22343919,-0.16997313,-0.22123833,-0.31769297,0.16544461,0.0436538,-0.19191243,0.3566477,-0.01860675,0.21550134,0.28160477,0.09014579,-0.13607271,0.7975739,-0.2486,-0.6369628,0.12671627,-0.053425804,0.37719265,-0.089121506,0.22391315,-0.39869323,-0.1396831,0.60889816,-0.37099504,0.033035353,-0.27503738,0.09605764,-0.3957677,-0.1571694,-0.7205756,-0.41851103,0.0033444385,0.4041932,0.1918688,0.2101207,0.1708206,0.14484711,0.37352577,0.095505945,0.0058639664,0.081889465,0.36533085,-0.20697916},{0.33446756,0.58598155,0.1392287,0.17282298,0.3895743,0.044790845,-0.4188806,-0.5862568,0.18248382,-0.09720122,0.15391979,-0.35054642,-0.15049353,0.37724698,-0.30020946,0.8307286,0.28270072,-0.34738073,-0.5732605,-0.21620207,0.15574348,0.2903195,-0.38311648,0.45699677,-0.27696094,-0.18404119,-0.42688298,0.6378355,-0.15145603,0.82291937,0.00030810083,0.30933487,0.061237413,0.3924717,-0.5636578,0.2720664,0.22561523,-0.29957014,-0.39578688,0.14073701,-0.19643745,0.2528592,0.0085095,0.010396299,-0.28809613,0.122986615,0.5096925,-0.2992758,-0.48467258,-0.286669,0.20546308,-0.3410551,0.38179025,-0.22867611,0.2547569,-0.043921053,-0.42100993,-0.03854471,-0.3970209,0.24419893,0.43710142,-0.53652465,0.29259172,0.35683677},{0.9466629,-0.033403758,-0.040374804,0.35975614,0.9685286,0.11966288,-0.35637096,0.7496317,-0.9817094,-0.62333524,-0.06554825,0.47476095,-1.1543989,-0.76651263,-0.39996886,-0.87870216,0.6965635,0.17398328,0.12678912,-0.4155912,0.03108073,-0.5747215,0.22381258,-0.1277673,-1.4446272,-0.009506112,0.21281706,1.3181839,1.0498378,-0.36532968,-1.2719125,-0.50688154,-0.16937482,0.24411032,-0.38790545,-0.8240746,-0.41311312,0.020900326,1.1167185,0.2697669,-1.0746545,0.03313468,0.12567121,0.15511341,-0.035519637,-0.5729772,0.17710027,1.4230219,-0.013165787,-0.17804807,-0.091892846,-0.44522837,0.19312367,0.8178764,0.93959457,-0.44890618,0.3472709,0.313869,-0.26345462,0.14070176,0.6779351,-0.01469356,0.14665827,0.22557466},{-0.23968594,0.02805465,-0.03940966,0.90839094,0.123712756,-0.664564,0.10974534,-0.10994317,0.19914015,0.4191488,0.0047338395,-0.3894532,-0.22131108,0.12018058,-0.41227967,-0.4476849,0.13077056,0.07062728,0.29488996,-0.039377704,-0.29362506,-0.064274415,0.0077754403,0.04635845,0.3516331,0.056604072,0.16377775,0.59027106,-0.6818356,-0.7020216,-0.17373405,-0.10288879,0.42970112,-0.1807955,-0.072270826,-0.3020014,-0.34436694,-0.42360157,0.4083972,0.08973122,0.44637275,-0.6004177,-0.19180262,0.54144645,0.35738105,0.13900165,-0.05657647,-0.3824343,-0.48376113,-0.033269167,-0.31734267,0.3706227,0.027682284,-0.34667185,-0.35140723,-0.13141029,0.20182541,0.1697243,0.21114439,0.0026247313,0.4584976,-0.52127403,-0.24148619,-0.23199686},{-0.020079529,0.025008665,0.053086575,0.53558576,0.062723845,0.14820145,-0.26994884,-0.19728702,-0.23979229,-0.05449603,-0.302703,0.030996984,0.13116014,0.28029487,0.24577841,0.13258481,-0.3907501,-0.06737059,-0.12513746,-0.07642826,0.67005223,0.44110388,-0.10240759,0.47209308,-0.2766334,0.010627578,-0.25640744,0.123810366,0.12221319,-0.9866242,0.30038837,0.35633048,-0.61641985,-0.5377787,-0.12000987,-0.116920024,-0.17428032,-0.15568039,-0.14393389,-0.45530686,0.07069064,-0.3752475,-0.42542282,0.8814605,-0.2550219,-0.23811318,-0.061602615,0.09910682,-0.03289865,0.20258594,0.51260346,0.22013412,-0.19383803,-0.52458537,-0.22893207,-0.5685198,-0.40560815,-0.36156443,-0.29118517,-0.25639802,0.42941827,-0.7894348,0.49151975,-0.47419903},{-0.16320373,0.099641785,-0.8774603,0.22092222,-0.17063442,-0.17370346,0.5508468,0.15458208,-0.3800438,0.86857235,0.743485,-0.60398984,0.26762742,-0.17344333,0.06747727,0.65169644,0.011036984,-0.86681205,0.63527703,1.2597253,-1.1915795,0.1338865,0.23053707,0.80150163,0.7676224,-1.0767936,0.5192193,0.43063453,-1.0122299,0.8326611,0.59899354,0.08340242,-0.91465324,0.282011,0.27565148,-0.03906636,-0.3351018,0.35187942,0.7001363,-0.28107363,0.5849169,-0.16450864,-0.14273202,0.9716621,0.96396154,0.35390666,-0.22158006,0.057746537,-0.99756694,0.18280503,-0.14120412,-0.28144583,0.114001594,-0.40206227,0.3056953,-0.8722929,0.051439017,0.022377206,0.077474736,1.31182,0.17735852,0.51577,1.0435537,-0.27836385},{-0.4469239,0.35322997,1.1424373,-0.25786415,0.32009703,-0.05260688,-0.6073803,-0.13404745,-0.2824726,0.5502879,-0.28530893,-0.39097795,0.6850545,0.08215663,-0.07134424,-0.36988804,-0.05918068,-0.5827322,-0.45965827,0.7965787,-0.4553766,-0.13543463,-0.29909506,-0.7436785,0.29118636,0.43439472,-1.036443,-0.100501575,0.27581534,-0.6234049,-0.67827666,0.9314538,-0.51543397,-0.40816346,0.4220715,1.0481551,-0.24658553,0.064365886,-0.86303973,0.060417004,-0.08869071,-0.6170851,-0.21327224,-0.5581033,-0.16027461,-0.64904207,0.02049269,0.43331328,1.3216413,0.56117344,0.533454,1.0632726,-0.12092434,0.12159548,-0.57688874,0.6336342,0.47056144,0.21408477,-0.232435,-1.1365923,0.69502413,-0.3314727,0.39215976,0.05120879},{0.7713779,1.0824816,0.49646297,-0.11984925,0.18279496,0.15750957,-0.32946184,1.2078352,-0.68186855,-0.18244362,-1.2527058,-0.90931284,0.28927085,-0.74003106,0.35809383,-1.008895,0.57432556,0.536928,0.6870968,0.66111475,0.28625733,-0.44904846,0.1282546,0.2806768,-0.33822587,-0.339212,0.41626394,-0.51507604,-0.04864754,-0.18638846,-0.6726416,1.057097,0.9432114,0.7882313,0.12353503,-0.72804815,-0.10170753,0.44685662,0.3477555,-0.046797615,-1.5505927,-0.5730106,-0.5066305,-1.0178959,0.18767944,-0.38370362,-0.26246518,0.8650124,0.052318595,-0.3155617,0.28003573,0.056455452,-0.07438035,0.37540615,1.7208197,-0.62506354,0.36233595,0.9056731,-0.2366933,-0.59201366,0.20455031,-0.57634264,-0.0423318,0.116980724},{0.15238248,-0.041942094,0.119738825,0.23312008,-0.12496812,-0.01838794,0.06086188,0.12931961,-0.017045809,-0.04298496,-0.124594934,-0.107822336,-0.03744208,0.2964906,0.50510126,-0.7173334,-0.2713719,-0.1608453,0.2983377,-0.036916155,0.2954004,0.04713632,0.039415374,0.16656274,-0.17287697,-0.0566502,0.15297174,-0.16501723,0.09180496,-0.92348945,-0.10583481,0.06365842,0.17676155,-0.076972336,-0.3251725,-0.5353022,0.51125294,0.11965773,0.737606,0.2868407,0.06761019,-0.24811377,0.067234896,0.5506996,-0.2561173,0.22213076,0.2933075,-0.36353374,0.44337505,0.15628235,0.432435,-0.5490463,0.2644705,0.30220607,0.3109997,0.25702778,-0.3962484,0.08677189,-0.21573381,0.29887402,-0.38026223,0.16553682,-0.007097576,-0.100207634},{-0.042189892,0.27721035,0.27007854,0.08776342,0.066773765,-0.1642676,-0.090274654,0.030013284,0.23461862,0.28459212,-0.13444583,-0.49707603,-0.12683457,0.3081917,0.4479739,-0.13715497,0.056647975,0.3034505,-0.32230723,-0.08914936,-0.6643002,0.4956116,-0.20710142,0.29167718,0.2728942,0.05618258,-0.039930396,-0.46544796,0.075516276,0.22571939,0.17030987,0.086743884,0.034067057,0.10047671,0.58504635,-0.37355617,0.10570479,-0.11305565,0.0731778,0.3080341,-0.22126143,-0.31826836,0.2910618,0.32571587,0.08629156,0.10994732,-0.007756586,0.23274282,0.09086715,-0.15703386,-0.101415336,0.07458484,-0.1980651,0.13869661,0.12168459,-0.006992783,0.14471218,0.21399884,-0.15522008,-0.13431543,-0.43118784,-0.34824517,0.18395121,0.16939081},{0.316565,0.23186223,0.15197098,-0.16285893,0.06567461,0.21222661,0.13189073,-0.25043347,0.004535951,0.13259624,0.028165199,0.10197913,-0.5649873,-0.063348755,0.26891807,-0.100894704,-0.040002175,0.12985678,-0.15945026,-0.27722296,0.047916014,-0.027960962,-0.0016556174,0.034193452,-0.05921366,-0.083845116,0.28297785,0.39973643,0.18313792,-0.18441585,-0.23097348,-0.16974227,0.05890562,0.16759746,0.023502853,0.4096842,0.008474715,-0.44413555,0.21427757,0.21188393,-0.0206002,-0.35249507,0.13989936,-0.022719463,0.017545493,0.12154364,0.14049874,0.054723058,-0.15749782,-0.10241685,0.067000665,0.49516165,-0.2756908,0.14405695,0.17482293,-0.091516055,-0.065351605,-0.22081865,-0.07057252,0.18877529,0.29221508,0.20141365,-0.0785328,-0.30544746},{0.093357906,0.28133252,-0.20532018,-0.039191682,-0.9553043,0.057329223,0.031281196,0.24265048,-0.36724353,0.12992512,-0.113043,-0.20494962,-0.41422898,0.66931325,0.028896198,-0.13320786,0.7132876,0.5483729,-0.14645274,0.08166902,0.057883438,-0.6420451,0.56413704,1.2478538,-0.080604404,0.30248407,0.24586578,0.15319534,-0.4809691,0.37258303,-0.06378734,-0.40827808,0.6217341,0.17320156,0.025836568,-0.050495066,-0.007090507,0.29246232,0.23391171,0.28838402,-0.06708048,-0.04833694,0.06472139,0.27904704,-0.46381414,0.051093373,0.68569636,-0.101618834,0.20905279,0.11477592,0.2118716,-0.103671454,-0.8025405,-0.46190885,-0.009388099,-0.16485952,-0.69920355,0.99234927,-0.742238,0.052118737,0.08153807,0.32359353,-0.6469534,-0.07933401}};
static const float layer_1_weight[64][64] = {{0.05592259,-0.13475259,0.1580049,-0.11210632,-0.26665294,-0.017813103,0.1503456,-0.055453427,0.05504715,-0.033225402,-0.081055276,0.07611185,0.07147896,-0.11644877,-0.13109012,0.031568445,-0.037188474,0.11333162,0.056881517,0.10147057,0.086573765,-0.025081486,-0.08671836,-0.17315564,0.07700574,0.14281294,-0.11970089,-0.084466554,0.21125822,0.06808917,0.13096458,-0.26001674,0.20750031,-0.012004438,0.32203227,-0.17576186,0.12601236,-0.049315076,-0.14249045,0.19751707,0.033507157,-0.0071699056,-0.6099993,0.015267352,0.15981221,0.01993034,0.06264737,0.12148672,0.334944,0.2059251,0.33787772,0.1447788,0.10802591,-0.2798397,0.3914588,-0.17859712,0.045190927,-0.17384918,0.090757705,0.1675167,0.034324855,-0.022873979,0.10584465,0.09823321},{-0.24422017,0.09656696,-0.058497496,0.13270648,0.11454402,-0.022145387,-0.0063448,-0.2063184,0.2509623,-0.1363563,0.16196133,-0.18389967,0.20714864,0.042719517,0.024692882,0.09599046,-0.0026275902,0.1827419,0.2861601,0.050818738,-0.0358074,-0.17010178,0.21038915,-0.039048772,-0.21135238,-0.21179914,0.17112763,0.2291723,0.10989779,-0.037329026,-0.07077645,-0.20620193,0.14070965,-0.20475413,0.10713724,0.07889375,0.12636189,-0.115082115,0.008007496,-0.18947397,-0.32545856,-0.18913199,0.4050293,0.20682025,0.08690664,-0.054959815,0.019528458,0.047910873,-0.11982768,-0.050487697,-0.21902591,0.15182541,0.069267675,-0.19104075,0.04466803,0.12059038,0.14496896,-0.24390875,0.019960893,0.14635079,0.13930638,-0.36841667,0.042841073,-0.058177214},{0.025449684,-0.08661038,-0.013357173,0.19928162,0.10382475,0.04021248,0.0899327,-0.31709504,0.057609834,0.10573629,0.07468566,0.18835913,-0.23640637,0.030376157,0.06984175,-0.19327489,-0.03027089,0.057629913,-0.089550465,-0.1086424,0.022913873,0.087715626,0.11270264,-0.18719314,-0.17864735,0.007582711,0.089705646,0.30605018,0.083026186,0.08493269,-0.120347776,-0.111165404,0.05843954,-0.07454721,0.28153354,0.018160293,-0.13121209,0.14422995,0.026822463,0.13125825,-0.00048934855,-0.10761278,-0.062236175,-0.097328104,-0.10661175,-0.20298195,0.04238306,0.103237204,-0.11151589,0.2784045,0.17241336,-0.18876842,0.18617067,0.1276,-0.11955238,0.032737862,0.10505676,-0.17375384,-0.11510503,-0.042731237,0.17803968,0.021944668,-0.065725006,0.24528688},{0.22393967,0.2795496,0.10595827,0.17829557,0.14773178,-0.17985748,-0.062864706,0.017164204,-0.014326551,0.09358524,-0.15496889,-0.16835369,-0.022362292,-0.008006604,0.06478576,0.11152718,0.26861742,0.06128526,-0.017942285,-0.041235548,-0.029372362,0.19736004,-0.0110037755,-0.28922847,0.03888183,0.13118507,0.088170655,-0.19187944,0.036582682,0.017923733,-0.028621927,0.13412684,-0.061375946,0.15859464,-0.0037771582,-0.033799138,-0.014282611,0.28282374,0.01508267,-0.23233977,-0.13208197,-0.19685298,-0.16659574,0.25611004,0.23028402,0.11608778,-0.232299,-0.0065227607,0.3551401,-0.1289685,0.30439353,0.22115788,-0.1464792,-0.15502587,-0.23204145,-0.22293405,-0.21491125,-0.22995399,-0.010711366,0.2912648,-0.12603416,-0.024782075,0.008313421,-0.039767124},{-0.12561662,-0.49275276,-0.18938676,-0.17754276,-0.15871693,-0.18120778,-0.19562428,0.14206003,0.23375872,-0.27168947,0.118672006,-0.20238177,-0.18622278,0.05547335,0.08722736,-0.22057074,-0.05525316,0.2890936,-0.2686183,0.084933266,0.040485978,-0.08403808,0.22822157,0.034880403,-0.13174479,-0.11629364,0.20579442,0.064640015,0.4004225,0.17103942,0.1315152,-0.08991768,0.15541813,-0.34113017,-0.0033105302,-0.48869067,-0.04226191,-0.24373172,-0.10655519,0.19536604,0.037216324,-0.15050502,0.16647583,-0.13505566,-0.03193122,0.15559691,-0.026091155,-0.37150124,0.057315413,0.14239903,-0.008807071,0.15382734,0.20702513,-0.23009704,0.004324,0.0042281724,0.17477499,0.042352132,-0.0703649,0.19370279,-0.0023434642,0.42660576,0.07510668,-0.12668157},{-0.15701756,0.022330064,-0.014715639,-0.067721464,0.031085808,-0.117261864,0.11899596,-0.12213822,0.24249405,-0.006194182,0.28896338,-0.0076418472,0.13990362,-0.07463728,-0.10010745,-0.11690261,0.07707862,-0.050933298,0.14762592,-0.0019366588,0.06954124,-0.056684494,-0.00372553,-0.092399344,0.21203856,0.07477663,0.31863776,0.17327145,0.12020707,-0.05464153,-0.0946644,-0.12479333,0.09989112,-0.15183857,-0.26282108,-0.21272235,0.009847687,-0.32502326,0.10336193,-0.16940601,-0.1541491,0.034027155,-0.11656768,0.27901015,-0.16075985,-0.14250982,0.2094933,-0.06324602,-0.28878418,-0.11042885,-0.23786798,0.13865641,-0.060121454,0.23696297,0.27011156,0.055432163,-0.026689252,0.010929032,-0.044990644,0.06975099,-0.22261876,-0.16387342,-0.19347994,0.30665326},{0.070656046,0.13935159,0.15303464,-0.24493249,0.3305333,-0.05927005,-0.0658456,-0.34635872,-0.67939997,-0.08917047,0.15792619,0.16753112,-0.27386072,-0.06801082,-0.10645962,0.34513175,0.038499035,0.09965214,-0.060096413,-0.13033092,0.020318482,-0.41782033,-0.15091255,-0.101998776,0.09677997,0.058120687,0.19384496,-0.15716779,0.105191596,0.08847279,0.1578881,-0.048588365,-0.1659998,-0.11284235,-0.23161165,0.21431693,-0.16294363,-0.03168045,0.17674343,-0.11609862,0.1730039,0.10953547,-0.21721017,0.20935556,-0.23160927,0.30370244,-0.1667314,0.046722915,-0.07151071,0.005575043,0.15804799,-0.08665394,-0.17972927,-0.12135636,-0.1165635,-0.07178226,-0.07330259,0.058347,-0.17952584,0.16133414,-0.086033255,0.4335781,-0.28339696,-0.2900582},{0.15876107,-0.23086506,-0.18036722,0.013168363,0.19155551,-0.048535395,0.2789738,0.41799834,0.22454265,-0.0814357,0.050948422,0.06228735,-0.48115233,-0.038923655,-0.024210151,0.06984257,-0.13740493,0.012669634,0.10084243,-0.00742013,0.14410466,0.10929994,0.12835506,0.10954704,0.0679936,0.35827494,-0.007614031,-0.121865585,0.33329743,0.09087859,-0.006608086,-0.09221295,-0.107825376,0.43066263,0.078338474,-0.21340203,-0.276948,-0.10321208,0.17965546,-0.1508907,0.036201842,-0.06903319,-0.06389633,0.14898925,0.07787238,0.12404962,-0.08735922,0.28668118,0.05057061,-0.1826103,0.12829986,0.26520297,-0.009262525,-0.19129838,0.09167649,-0.08596458,-0.36576042,0.2491937,0.2981434,0.09581981,0.3901306,-0.09470049,0.25120565,0.019436013},{0.008333048,-0.0018079961,-0.25041544,-0.12540658,-0.13271092,-0.07509204,0.3442394,0.48308548,0.24098848,0.2738936,-0.26337686,0.06803457,-0.21674861,0.0038749073,0.19638169,0.10778813,0.115233585,-0.20430528,-0.2546239,-0.0020102249,0.06647552,0.44744113,-0.022625476,-0.12715863,-0.13087283,0.42714372,-0.2607107,-0.15033814,-0.11334682,-0.013515158,-0.10961328,-0.04818348,-0.17012517,-0.055629194,-0.24779965,-0.12543078,-0.15177493,0.2633121,0.012032411,0.053735632,0.1839708,-0.2195682,-0.34201235,-0.20369959,0.08014305,-0.2428599,-0.087695494,-0.25321013,0.12712865,-0.15291902,-0.11747248,0.2756095,0.11579779,-0.062634304,-0.08055921,-0.19269124,0.27750114,0.57648164,0.37660748,0.15317664,-0.023646435,0.14943656,-0.0971236,0.1658955},{-0.012733047,0.069020264,0.18418168,0.044619292,0.056528684,-0.0963996,-0.17118424,-0.20669289,0.09716957,-0.15034136,0.023492433,0.047228865,0.12516356,0.21529366,0.25682786,-0.19780347,-0.115660526,0.043030027,-0.14857449,0.026520727,-0.15876876,-0.20269275,-0.14128421,0.19396608,-0.29946226,-0.24337198,-0.05075064,0.11816786,-0.14303368,-0.07906655,-0.22555186,0.30118054,0.02431185,0.31487486,-0.041596893,-0.12880068,0.067857265,0.35220262,-0.023743244,-0.21566895,-0.11319712,-0.02580053,0.557325,-0.18568645,-0.11888878,-0.04496417,0.09960761,-0.20504387,0.13628101,0.20313017,-0.017207729,-0.013958733,-0.09706692,0.25070366,-0.64036125,0.26939747,-0.35383865,0.0103567755,0.0709418,0.16345122,0.16870943,0.050613794,0.1629091,0.00052334805},{0.18874696,0.30114156,-0.0344717,-0.11823615,0.15654923,-0.11441056,-0.04349886,-0.04376062,-0.14537998,-0.035786614,0.17997383,0.012509405,0.12511976,0.078337915,0.02119036,0.021011233,0.12643114,0.19077638,-0.2677048,0.16611218,-0.28593874,0.054017212,0.002319777,-0.092388555,0.06438951,-0.32388985,0.20741074,-0.18024045,-0.058349315,0.16611794,0.17131622,0.23798177,0.2566217,-0.07049166,-0.3152453,0.106060594,0.2111407,0.14418636,0.21416572,-0.19998264,-0.16543016,0.12494372,-0.07995727,0.055690344,-0.0006708006,0.19529219,-0.0150649175,-0.011538462,-0.3972586,0.024298845,-0.114565626,0.032392792,-0.30441526,0.16633403,-0.14656466,-0.060593538,0.3021188,0.30705136,0.058012713,-0.03203028,-0.14003809,0.6885208,0.09390464,-0.104689896},{-0.2413538,0.07036616,-0.08785813,-0.008962547,-0.23215392,-0.04172667,0.09632755,0.1765308,-0.22993352,-0.0068061063,-0.043075286,-0.14121597,-0.03194999,-0.23452231,0.111517966,0.25464335,0.02317225,-0.015041976,0.1071698,0.121793285,0.05341235,0.1944797,-0.16835788,0.1367268,0.22003457,-0.01958608,0.08480511,-0.18792212,-0.3001258,0.28259405,0.06855408,-0.24886677,-0.11882119,-0.19072255,-0.014460607,0.048342284,0.026471114,-0.031378534,0.14774516,0.040064104,0.04309567,0.12128921,0.07492821,-0.13200782,0.07966686,-0.11316368,0.06690942,-0.30958202,0.08197109,-0.006210728,-0.074089296,-0.15134445,0.16229701,0.053623196,0.43682456,0.12480285,0.044941384,-0.1247801,0.20849015,0.14635113,-0.11632544,-0.22695567,0.13552843,-0.025750577},{-0.10098696,0.22524035,-0.25078616,0.3170358,0.30398947,0.3968176,0.15902665,-0.056460936,0.14321679,0.074180484,-0.16409442,-0.17922729,0.14303234,-0.24387576,-0.27743295,0.18885237,-0.26558557,0.36598468,0.03787324,-0.25838912,-0.08358336,0.12539949,0.18453367,-0.28354874,-0.10715519,0.17679025,-0.34458804,0.21293363,-0.2976757,0.032866966,-0.20496143,-0.344962,0.046539314,-0.22487932,0.52828974,0.069750704,0.2607657,0.11615635,0.011006579,0.20172025,0.121565074,0.034192055,0.009185248,0.24317722,0.097714715,-0.055952918,-0.37857878,0.05774836,-0.09339597,-0.13646941,-0.20108359,-0.015724778,-0.017688828,0.23583154,0.060572192,-0.2540856,0.3855633,0.05490427,0.12506214,-0.111429155,0.06923522,-0.09457438,-0.06106459,-0.2440542},{0.071201175,0.032417234,-0.31418923,0.050366618,-0.021999417,0.04631796,-0.060567368,0.38840675,-0.16364643,0.09940458,0.017944083,0.00095448305,0.026520723,-0.062027846,0.0018485022,-0.22082455,-0.31476164,0.26493916,-0.28941843,0.017905898,0.114258476,0.011284517,0.11173426,-0.0055046477,0.35463527,0.49643388,-0.30340016,0.06923392,-0.08337667,0.10591821,-0.08249453,-0.30655727,-0.11627328,0.28564015,0.21211086,-0.19954102,0.038464416,0.05933882,0.09418021,-0.1121002,0.19316156,-0.025668735,-0.69595474,-0.217094,0.21661286,0.13594179,-0.113715895,0.07080249,-0.18353228,-0.1345457,-0.1912698,0.24632597,-0.042020548,-0.22908518,0.21637204,-0.15756774,-0.12518068,-0.03811769,0.40316916,0.09828656,0.15483138,-0.040905703,-0.010794886,-0.07615126},{-0.20309284,-0.21723913,-0.17393266,0.20033325,-0.23763701,0.18734778,-0.06070421,-0.0148270875,0.108007915,-0.075390175,-0.17324273,-0.14065258,0.15456039,0.26978496,0.23450448,0.2345596,0.15899046,-0.23660083,-0.033275418,-0.04836244,0.20664294,0.004384138,0.105298296,0.1445183,0.08353807,-0.19980733,-0.13710709,-0.14306355,0.32297343,0.20642827,-0.044368725,-0.04114382,-0.060943387,0.13692589,0.17704514,0.07094597,-0.33816406,0.106401145,0.23047708,-0.19456421,0.005651722,-0.09749984,-0.2098757,0.096999116,-0.07639137,-0.11716655,0.032917462,-0.025926756,0.28323892,0.15307674,0.35664386,0.10988824,0.16360216,-0.37441662,-0.23041412,0.06006394,0.12744795,0.020972734,0.081662774,-0.284229,0.224916,-0.2733841,-0.018846082,-0.104681335},{-0.19027387,0.17222764,0.06752205,0.10764929,0.14858207,-0.3822852,0.049406614,-0.00716102,-0.09646055,0.0286423,0.1733508,-0.08454011,0.07489035,0.009571154,0.060039766,0.170271,-0.06546389,-0.0049586794,0.10865488,-0.05873828,0.09306173,-0.022095416,-0.24595901,-0.14629622,0.074790604,0.2061685,0.13893767,-0.011739359,0.03987567,0.12234045,0.23459914,0.14781979,0.2486442,0.014799926,-0.48389387,0.029829493,0.04575109,0.09225963,0.012811995,0.10180526,0.027527241,0.004233159,0.23117891,0.009389983,-0.13817832,0.18734759,0.10250636,0.11556917,-0.32087484,-0.15777582,-0.3315151,0.035808645,-0.12900116,0.13606825,0.10865624,0.07691021,0.18149146,-0.1561991,-0.24782962,0.36680728,-0.5417981,0.2774559,0.071063206,-0.258745},{0.0014538778,0.15642796,-0.02399373,-0.07940452,-0.11400388,-0.12723106,-0.07817808,0.1922858,0.030145606,0.17553882,0.009352916,-0.23801254,-0.08219413,-0.106688865,-0.08507707,-0.047771227,-0.01148209,-0.23748109,0.15185189,0.06169497,0.0069152443,0.30341956,-0.18633145,-0.014372998,-0.065613,-0.24033633,-0.15963021,-0.008434028,0.093372256,-0.067234375,0.354716,-0.039966986,-0.25695276,0.10050088,-0.062324185,-0.026701914,-0.02089386,-0.13901395,0.030846016,-0.24159385,0.040745273,-0.26154912,0.31594443,0.038718756,-0.13882117,0.15919948,0.09231229,-0.11730908,-0.17022641,-0.16910334,-0.16829723,0.12640694,-0.22036661,0.27210537,0.033785924,-0.007797813,-0.08565133,0.0351844,0.17571858,-0.16180952,-0.11742354,0.17363916,0.077304624,0.06762058},{0.13057674,-0.046908848,-0.11400864,0.1118496,-0.32819787,-0.0031526857,0.13049,-0.22791082,0.031132163,-0.12082983,-0.2820511,-0.16348965,-0.09146815,0.033999283,0.03749088,-0.22048274,0.21665914,-0.060819145,0.16011961,0.19977133,-0.2518181,0.23364499,-0.22033143,0.00967632,0.061526872,0.021703534,0.10856554,-0.37162635,-0.20689957,-0.2216302,-0.27472958,0.0054052686,-0.2912105,0.48100498,-0.18223457,0.0066852686,-0.2708505,-0.0822622,0.062547915,-0.1457506,-0.23205504,-0.07954081,0.43630219,-0.2639085,0.16268513,-0.10183167,0.025170948,-0.03428735,0.017131936,0.020113025,-0.0051005413,0.27883294,-0.157355,-0.23170924,-0.40765393,0.023649808,-0.36932245,0.13253033,0.21649879,0.0160432,0.086166695,0.068066075,0.21629016,0.20504685},{0.08203552,0.0682882,0.11630463,-0.0485036,0.12046141,-0.06420685,0.19932741,-0.24225603,0.044901535,0.10961096,-0.07771616,-0.06590004,0.22810304,0.11164634,0.18301225,0.15540667,-0.047978517,0.18445943,-0.0006138848,0.080340646,-0.19472103,0.20773281,-0.048789788,0.12820962,-0.10180014,0.14265247,0.07742276,0.15901697,0.18323092,-0.1285915,0.09085638,0.2094605,-0.12649146,0.05709008,0.06849394,0.08365467,-0.23596765,0.033451196,0.026905686,-0.13832383,-0.16086245,0.1097315,0.13519597,-0.059811942,0.037996132,-0.04855727,-0.2273219,-0.09008981,0.10761376,0.18686178,0.22397411,0.061995238,-0.08947019,-0.31586543,-0.18547788,0.024365554,-0.20979464,-0.017006984,0.043958325,0.010373491,0.27110472,-0.1842552,0.124693505,-0.0034588466},{0.1743928,0.3246494,-0.18929419,0.19496155,0.37126678,-0.009764845,0.2762517,-0.26122558,-0.15330087,0.28813952,-0.14937839,-0.04422488,-0.41673455,-0.21654022,-0.45369416,0.0019510109,0.08017804,0.17412084,-0.042313747,0.11449777,0.51978123,-0.08163259,0.08030571,0.013739856,0.11865593,0.22184011,-0.05043714,0.28919855,-0.015288647,0.051087584,-0.32314864,0.03841883,0.09944464,0.03199304,0.36097196,-0.058596138,0.26918295,0.15519744,0.022858145,-0.018686563,0.21502987,-0.07757788,-0.6475605,-0.2509603,0.06598123,-0.112721026,0.1276003,0.28927222,0.076483354,-0.17134018,-0.043912552,-0.095397666,-0.04873937,0.22267054,0.10838209,0.18453203,-0.078229,-0.12824002,-0.1269155,-0.101374716,0.053859573,0.1757798,-0.38338155,0.047633596},{0.20523867,0.06642472,-0.053870924,-0.13015957,0.13596688,0.28237894,-0.022819668,-0.1472298,0.07518027,-0.017713973,-0.056162063,0.09472803,0.16543907,0.10437176,-0.011523816,0.14252125,0.10910297,-0.073109016,0.1448679,-0.12037806,-0.12770972,0.076112255,-0.14465378,0.15778042,0.29168,-0.005854241,-0.070230715,-0.21957995,-0.20450148,-0.037359532,-0.23809227,0.07861745,0.20341739,-0.19016159,0.12727228,-0.1877788,0.15319991,-0.1368486,-0.21018873,-0.15240878,0.17429782,0.24621613,0.11504389,-0.0418249,-0.06122158,-0.29107803,-0.054793213,-0.029704187,-0.057135265,0.17404582,-0.17813401,0.28996378,-0.020511312,-0.015918707,0.003547864,-0.21503554,0.23935767,0.13525866,-0.31164187,0.0071119512,0.040112294,-0.3972029,-0.13859108,-0.085244104},{-0.24295361,-0.15954466,0.2022462,0.14827831,0.20707434,-0.12542605,-0.10814356,-0.055378392,0.11259307,0.11811756,-0.012905729,-0.22367552,0.07971925,0.301074,0.29812565,-0.28201842,0.04305648,-0.05681977,-0.04065633,0.24523677,-0.1000605,-0.18230551,0.051010657,-0.045567147,-0.45584908,0.10015014,0.005547152,0.21703173,0.16321005,0.013590371,-0.09207252,0.046543643,0.26284745,-0.096587084,0.08554185,0.20446134,0.24464975,-0.16251858,-0.036880925,0.20689593,-0.023870306,-0.23996848,0.31968206,-0.066141374,-0.00042987667,-0.029707747,-0.05638671,-0.12993346,0.011660756,-0.07404877,-0.04893408,-0.2371962,0.36565217,-0.14143164,-0.19940032,-0.25836888,-0.0019792353,-0.039309267,-0.23914835,0.17336653,0.089435495,0.080621354,0.23956466,-0.09479318},{-0.11567835,0.0726317,-0.12021544,-0.195664,-0.17182875,-0.013384892,-0.01807193,0.40464705,-0.097289376,-0.1791594,-0.13832098,-0.06440517,-0.04317973,0.09680893,-0.25057414,0.12439142,0.09536549,0.06182447,-0.24834155,-0.017238583,0.052158456,-0.34206727,-0.21743183,-0.104449615,0.37569547,0.4830113,0.19973353,-0.060629915,-0.16612032,0.26185617,-0.0496258,-0.1284867,-0.11222355,0.16549246,0.24444956,-0.12516698,-0.1669484,-0.09368187,0.09257688,-0.080841854,-0.07054068,0.20865971,-0.18411049,0.02493974,0.17376465,0.26431602,0.14902951,-0.07672368,-0.1331374,-0.014405764,-0.1909127,-0.23953106,-0.18823652,-0.06461292,0.04132629,-0.020023378,-0.14308631,0.13616927,0.18479948,0.043690734,0.13176912,0.025728665,0.1809604,-0.103991665},{0.28394648,0.13767499,0.027146146,-0.05319539,0.1504422,0.11196245,-0.15557972,0.21156557,-0.3483838,0.14076087,0.21799591,0.04208617,0.38404965,0.027500218,-0.28070608,-0.074580416,0.14031538,-0.026586479,-0.20592487,0.14356627,0.19796735,0.07427138,-0.11768767,-0.19938195,0.2660527,0.18535803,-0.23317413,-0.016634507,-0.2732476,0.014706443,0.10417915,0.23022391,0.2567716,0.0141321905,-0.15479758,-0.12381432,-0.10467018,-0.4020723,-0.01822703,0.11630081,-0.12844126,0.107876495,-0.5311714,0.23586832,0.010902923,0.10887391,0.18848576,0.007901755,-0.035172842,-0.21604453,0.1918291,-0.019962924,-0.23641312,0.018325165,-0.25869983,0.04696601,-0.28431046,-0.03611112,0.0006566765,-0.017742088,-0.23820211,0.3343655,-0.03969316,-0.092427604},{-0.16500898,0.063860655,0.108622536,-0.0048512747,0.14465518,0.40719333,0.14305454,0.17045915,-0.30163747,-0.12485674,-0.105799004,0.24202116,-0.17342271,0.0850414,0.0052560684,0.19422685,0.23506553,-0.08672665,0.13198821,0.13117698,0.37723544,-0.21196395,-0.12089009,0.032495745,-0.007516282,-0.121551186,-0.18417722,0.00388189,0.2837228,-0.035787225,-0.0039082426,-0.07731644,0.110951945,-0.019320944,0.2337072,-0.099966936,-0.23554294,0.001004419,0.23185286,-0.0619782,-0.30372083,-0.10997405,0.14468019,-0.42149314,-0.23733282,0.1614639,0.12813704,0.028192235,0.13640058,-0.20209736,0.21665144,-0.46339732,0.036578204,0.078800544,-0.37663874,0.3984669,-0.04707711,0.157564,0.025991097,-0.021525303,0.123081274,-0.4489334,-0.13772474,-0.39169717},{0.2579869,0.027664173,-0.048087053,-0.050944418,-0.15037501,0.26987347,0.14154053,0.26295465,0.09314641,0.18435156,0.16529506,0.032084372,-0.16899519,0.122695126,0.045742583,-0.11428761,0.14792365,-0.10829578,0.026317572,0.11622017,0.28383875,-0.1150916,-0.019816482,0.008006721,-0.13016932,0.15284225,0.1587151,-0.14650115,-0.24768326,-0.10247231,-0.13880874,-0.16788825,-0.055802047,-0.12470572,0.28309032,0.009917617,0.20001279,-0.063934654,-0.26372963,-0.100590035,0.29829726,0.18507007,0.09605375,-0.22698225,0.19504277,-0.21518368,0.064532556,0.12763296,0.15800077,0.31734112,-0.38691735,0.040634554,-0.03902996,0.34640163,-0.12537399,0.031087765,-0.1447804,0.17472087,-0.20837352,-0.11413665,0.11949546,-0.20404845,0.027164405,0.117003635},{-0.16649461,0.1410858,0.0059414,0.17797764,-0.048192333,0.17524374,0.021597957,-0.05470861,0.082901634,0.03829818,0.12723584,-0.11735354,-0.15969911,0.22536778,-0.07382853,0.10735413,0.12760457,0.036826257,0.052833114,-0.08409396,-0.052532062,-0.039182913,0.017013587,0.13044937,0.2807074,0.08481642,0.16513582,0.1583487,-0.106826276,-0.013543383,0.17586406,0.22615233,-0.24543323,0.015563958,-0.016612016,0.0029094182,-0.2035456,0.0295111,0.20547645,-0.32541376,-0.091724865,-0.046892162,0.36569753,0.23336877,0.21217088,0.2069106,-0.29145944,0.22822572,0.15783542,0.16755366,0.017231796,0.19087265,-0.01603958,-0.1441875,-0.1299235,-0.02725887,-0.15015323,0.2091451,-0.07304658,0.095122755,0.032259345,0.17436425,0.18240455,-0.08488705},{-0.18434624,0.36398193,0.06750788,-0.05763811,-0.002213539,-0.08421796,0.20280683,0.40697095,-0.25385627,-0.30438086,0.0053282455,-0.05761757,-0.064877465,0.08644007,-0.06538219,0.24952349,0.2979485,-0.2646298,-0.16297194,-0.12075124,-0.1679963,-0.15045318,-0.060606424,0.2616039,0.41794738,0.08959939,0.004964286,-0.2617378,-0.078311525,-0.15206803,-0.005371919,0.061858676,0.03449185,-0.15340933,-0.20635667,-0.0928444,-0.055612795,-0.061823286,-0.004133543,-0.15220204,0.074531674,-0.17024347,-0.18600385,0.35993466,0.18210703,0.09689064,0.121624365,-0.05035464,0.23146792,0.22792438,0.14531574,-0.1585147,-0.11345023,-0.09690493,0.22290272,0.15476179,-0.073832564,0.26897183,-0.31034797,0.16973977,-0.14440033,0.11758595,-0.11177704,0.0005859277},{-0.07514832,-0.044503544,-0.2619108,0.18939562,-0.13477643,-0.16562563,-0.28085753,0.1932319,0.23302768,-0.31976697,0.063138984,0.17148934,-0.1925842,-0.19244216,0.36767378,0.18453144,0.04391963,-0.19450456,-0.21410504,-0.15042621,-0.3812323,0.18754672,-0.34916896,-0.1669761,-0.0006636358,-0.1477792,0.13359484,0.0837402,0.23615591,0.21914607,0.18940924,-0.2074742,0.17926776,-0.4453737,-0.17404294,-0.47333184,-0.17061576,0.10522434,-0.20237845,0.049026586,-0.08647567,-0.14545302,-0.033357408,-0.017072778,0.23794624,0.10854007,-0.14036599,-0.11154183,-0.07354177,0.054583076,-0.08389017,0.50263643,0.032454923,-0.010950318,0.17321996,0.0734005,-0.03468784,-0.05354221,-0.19186054,0.27524796,-0.043007217,0.20317428,0.3440551,0.21600893},{0.08360543,0.06638507,0.08663981,-0.26791802,-0.1382943,-0.12708803,0.049344063,-0.17731342,0.0626468,-0.16288689,-0.07540121,-0.13838303,0.23638031,-0.18481725,0.16522987,-0.051983006,0.17065133,-0.031500563,0.20643434,-0.21823779,0.29580736,-0.19197422,0.13297893,0.06354044,-0.25244775,0.20112897,0.1356421,0.153783,-0.07265575,0.008959797,-0.16677974,0.13111249,0.0021999923,0.08415147,-0.30541813,0.08493534,-0.025315408,-0.29918435,-0.17747052,-0.05405127,-0.1991176,-0.02493712,0.02044272,0.087043025,-0.13611943,-0.010201363,0.18644133,0.12114383,-0.39690623,0.07934714,-0.34434292,0.20950146,-0.12390746,0.18719053,0.0029774806,-0.1176789,-0.051621526,0.19472304,-0.16919772,0.16254342,-0.36143225,0.6499742,-0.25322664,-0.30321637},{-0.16779914,-0.22395387,-0.1252476,0.22550783,0.1260604,0.18533301,0.22474661,-0.242459,0.059235744,0.281936,0.015566176,0.1332503,0.10615619,-0.13619837,-0.057519484,0.05686729,0.1912576,0.26039198,0.28586313,-0.1269211,-0.17688815,0.36753124,-0.18564753,-0.033007707,0.019057976,-0.31171283,-0.23314992,0.23687792,0.055474497,-0.09618461,-0.032789376,-0.1983222,0.22462346,-0.061623674,-0.13657904,-0.0033061246,0.14658482,-0.0004944742,-0.019495046,-0.056218572,-0.05586063,0.066912234,0.4988395,0.06688126,-0.05522352,-0.19697356,0.17196675,-0.060110413,0.1771536,0.066738285,0.14204401,0.0009130588,0.18962836,0.24206604,-0.22147591,0.009405903,0.027034314,-0.23378485,-0.28498423,0.0070562484,0.126481,-0.17120604,-0.17639591,0.13205573},{-0.51370066,0.06856411,0.056956764,-0.21243486,0.19206548,0.22668245,-0.3528419,0.5708498,0.2765974,-0.21489753,0.0035332125,0.003392286,0.11106714,-0.013012929,-0.064693935,-0.1952579,0.31911924,-0.28991792,0.09752544,0.12930393,0.25251287,-0.3948832,-0.03260337,0.105662584,0.008827426,0.40554252,0.33213603,0.009456748,0.0026684573,0.28273416,-0.17699952,0.08917987,0.37444472,-0.32478917,0.45427132,-0.058390405,0.01122605,0.06506846,0.34696785,-0.24541922,-0.36049488,-0.2308173,-0.6045808,0.130869,0.20405757,0.46231294,0.07928593,0.018740203,-0.20743415,0.25303847,0.08604267,-0.25391084,-0.00507604,0.24806423,-0.05923964,0.004355967,0.08376539,-0.15330122,-0.14044076,0.13559803,0.5566883,-0.12996386,-0.0074761314,-0.6043228},{-0.10117332,0.08139127,0.28216317,-0.19359362,0.03754435,-0.32452914,-0.10605438,-0.044207692,-0.087088,0.18046287,-0.14283653,-0.16757898,-0.34020144,0.15315877,-0.0035394893,-0.18663277,0.11879095,0.17804609,0.27161574,0.2155532,0.12873799,-0.11627668,-0.043445688,-0.19839631,0.1250295,0.3012195,-0.018420989,0.05035205,-0.05133426,-0.16159286,0.042848483,0.20747209,0.07294499,0.022144515,-0.22913146,0.2830532,-0.15182999,-0.35188964,0.24721053,0.007263256,-0.016895525,-0.018216264,-0.18499902,0.021859469,0.129607,-0.06895574,0.10985746,0.25392845,0.35873425,0.08277208,0.15720533,-0.19477503,0.11984126,0.11565791,-0.10890754,0.0001458943,-0.028999375,0.248288,0.10817113,0.010162345,0.1905122,0.054046042,-0.24631302,-0.058521684},{-0.1810074,0.26345536,-0.003186214,0.17727241,0.20182812,-0.15067643,-0.09821745,0.107353956,0.15304355,-0.25189692,-0.09669855,0.07475987,0.04775854,0.009848712,-0.0736835,0.009538155,-0.22462873,0.024869647,0.008492947,0.101281635,0.060404982,-0.13199371,-0.29591763,0.14261346,0.01771066,-0.0483348,-0.14090255,-0.1384323,0.021633351,0.30610663,0.16053057,-0.117724724,0.23950078,-0.15981558,0.10500538,-0.005255554,0.17793523,-0.015227752,0.047455676,0.18806036,-0.44110042,0.048413407,0.36599442,-0.03896752,0.21323898,0.33487353,0.27622935,-0.21948658,-0.031747397,-0.09793433,0.17491056,-0.123333335,0.07344251,0.05980416,0.13363442,0.10525682,0.007899589,0.08330153,-0.061671082,0.27475524,0.09242027,-0.5189031,-0.12455334,0.081962876},{0.16366763,-0.26292753,-0.0859418,0.15369831,0.0010006708,-0.32281047,-0.24058191,0.3761603,0.1351257,-0.18782437,-0.14063407,-0.23856501,-0.2665725,-0.09312268,-0.16996203,-0.04488578,0.040913116,-0.09201414,0.07092026,0.17470816,0.47510716,-0.14534125,-0.14286324,-0.1507712,0.07044616,0.31518462,0.16298853,0.0150849465,0.058020923,-0.09883811,0.056056645,-0.083993606,0.026942095,-0.018390767,-0.18985616,0.20074795,-0.110171475,0.13538794,0.117104836,0.02412369,0.029764358,-0.002072024,-0.30557886,-0.117221445,0.110696025,-0.05971624,-0.12567067,-0.059314616,0.016488817,-0.042771623,-0.017362522,-0.107972816,-0.11642463,-0.22599767,0.100980245,-0.14834486,-0.11428322,0.251979,0.29963237,0.030462377,-0.08597262,0.4046344,0.20616665,-0.18434162},{0.25867593,0.09063306,-0.1016956,-0.21383518,-0.11180544,0.0147883855,0.20470655,-0.060526304,-0.06636811,0.12907635,-0.049339507,-0.15410882,-0.037279237,-0.13264427,-0.24001677,-0.16887704,0.02763024,0.15500759,-0.2802992,0.24562995,0.021800734,0.17705852,0.2920751,-0.08409549,0.22541572,-0.08295267,-0.106361724,-0.1587026,-0.114766285,0.042581085,0.06999339,0.10977221,-0.2903782,-0.14677194,-0.07688986,0.0878881,0.036977824,-0.05545448,0.21091354,0.115643196,0.035627,-0.24312904,-0.13063656,-0.287418,0.13922803,-0.13943544,0.31249046,0.085479975,-0.14177772,0.0043226434,0.04718819,-0.06933864,-0.09004191,0.41237512,-0.15099452,-0.09195371,0.051003687,0.34593678,-0.12843932,-0.24627641,0.033955634,-0.14684923,0.033598512,-0.1889907},{-0.001924307,-0.001424167,-0.030652538,-0.029311445,-0.12834051,0.09466357,0.002526831,0.13586925,0.005789935,0.020182084,0.18865235,-0.0117638195,0.1816254,0.060768537,0.18178941,0.16426332,0.22995792,0.17108147,0.13273168,-0.17533116,0.26091802,0.15690212,-0.22520496,0.0075399512,-0.0030042303,0.3428063,0.13761637,-0.11368602,0.16869329,-0.0084901145,-0.2664565,-0.17511746,0.34906083,-0.31058437,0.21993984,0.19684805,0.1986331,-0.17670499,-0.11136961,0.113957286,0.1556506,0.16083018,-0.58909476,0.039942287,0.11662666,0.14155614,-0.011312097,-0.07796125,0.00026597438,-0.04221136,0.39400923,-0.18026042,-0.16732079,-0.21181448,0.16277876,-0.06973889,0.14939858,0.15210588,-0.09704927,-0.1766407,-0.09986659,-0.058099926,-0.16581519,-0.36470062},{-0.15913251,-0.1627204,0.1698552,0.16559906,0.032845646,-0.19579944,-0.13260934,0.22280166,0.12982342,0.0012124525,-0.10637636,-0.118953444,-0.080141775,-0.12341354,-0.23957346,0.11291167,-0.041570943,-0.22031587,0.13794373,0.033747923,0.2087621,-0.03280021,0.09672282,-0.03292273,-0.18557298,0.0665291,-0.017505124,-0.0876229,0.11750773,-0.3683501,-0.046089306,-0.22723936,-0.04180826,0.29214242,-0.013911862,0.0668872,-0.18998972,0.25478628,-0.095841445,0.028563483,-0.17847864,-0.21411742,0.23335898,0.027420748,-0.035738617,0.117861204,-0.2879325,0.26090115,0.13041946,-0.17086692,0.057194788,0.1972954,0.07494456,0.098833136,0.18255532,-0.034002673,-0.13336213,0.31010985,0.24067572,-0.014168199,-0.04298828,-0.080525555,0.16785325,0.15116931},{-0.07413893,-0.074760675,0.106011376,0.016327763,-0.31504706,0.14768337,0.054484066,-0.04483697,-0.028830323,-0.29042077,0.22586492,0.083365135,0.08444175,-0.18090901,0.09151852,0.05024365,0.17602967,-0.044791747,-0.044940308,-0.12244166,-0.12442263,-0.15955374,0.01971311,0.23483275,0.059211403,-0.059133492,0.23460774,0.01527571,0.20320721,0.20066376,-0.10392362,-0.043745797,-0.13363752,-0.16842304,0.020376919,0.25237125,-0.25643522,0.11192496,0.021358533,-0.06637132,0.018888645,0.20279135,0.08871506,0.22511654,-0.26044014,0.10284967,-0.08378779,0.26043764,0.3907409,0.33612123,0.3156145,-0.23773906,0.18638389,-0.27172914,0.24480161,0.052911546,-0.18918209,0.035836827,0.09377736,-0.001227583,0.19259974,-0.037699085,-0.017334921,0.029705882},{0.037896734,-0.09796865,0.14026265,-0.1487587,0.13314794,-0.1579865,-0.05662799,-0.14555775,-0.22261724,0.03850045,-0.2341095,-0.2036379,-0.3035115,0.20940392,-0.12030987,-0.13253073,0.0808558,-0.087754175,0.1027226,0.31014556,0.15040898,-0.3047981,0.049508374,0.06046541,0.16227129,-0.3054814,-0.1064734,-0.037589677,0.28160998,-0.011695742,0.24375606,0.19251072,-0.03583243,0.10717547,0.37636444,-0.17280175,-0.121922515,-0.037312895,0.1708795,0.3289443,-0.05726644,-0.23338956,-0.24841885,-0.115074635,0.20098628,0.11364007,0.33106554,-0.022292927,0.14648917,-0.013458513,-0.05310214,-0.097210586,0.16072752,0.08586781,-0.24421956,-0.11483618,-0.08297298,0.27076688,0.09325328,0.18633698,0.18313226,-0.008854256,-0.12949459,-0.05407761},{0.09964033,0.18968195,0.10668278,0.13446294,0.017275464,0.2392066,0.24937898,0.18269272,-0.08056726,0.12942196,-0.16839255,0.3017952,0.13123548,0.07079135,-0.09623465,0.19734171,-0.077689365,0.008595843,0.0062256884,-0.047457255,0.23363446,-0.069871865,-0.14966637,-0.23389597,-0.05280193,0.20454922,0.11317893,-0.15317205,0.12702899,0.075880066,-0.3247973,0.11848709,0.03306888,0.0005842047,-0.18123962,-0.16462062,0.097133696,0.51260316,-0.0038371834,0.15525259,-0.0073977318,-0.09042449,-0.18146996,0.26218605,-0.048719805,-0.06357682,0.08515568,-0.1721102,-0.12187516,-0.07829275,0.030736605,0.04183209,0.0684074,-0.072248384,0.031341795,-0.031236254,-0.013020274,-0.060040735,0.034797106,0.093533285,0.24889557,-0.34993815,0.06635159,-0.10994745},{-0.27808657,0.16607691,-0.027375553,-0.07315365,0.20979978,-0.23087597,0.1435526,-0.048095033,-0.22498055,-0.131876,-0.060620904,-0.25581202,0.015999224,0.15793708,0.119332746,0.2574239,-0.1273579,0.10823286,-0.17800382,-0.08641771,-0.22444145,0.23912765,0.029277857,0.13342375,0.056762278,-0.04249582,-0.018759133,-0.022524353,0.14535485,-0.107315175,0.24423505,-0.08149151,0.23795405,0.16282536,-0.040917296,-0.22859387,-0.19226816,-0.20035169,0.08264992,-0.10352022,0.25040552,-0.20619236,-0.11913391,-0.17372842,0.052996326,0.16935942,0.15628336,-0.22772853,0.080284245,-0.17030454,0.004457628,0.03468096,0.002329473,-0.06613721,0.07580163,0.16213194,-0.22774819,0.028644966,0.1925195,0.1736425,-0.061641365,0.3299672,0.1130266,0.12781231},{0.17587328,-0.039117154,-0.0040438976,0.26374304,0.056241795,-0.21341765,0.121662065,-0.06964812,-0.2842842,0.061074827,-0.0041311686,0.091941334,-0.0930927,0.10654994,0.15080881,-0.033662554,-0.2355653,0.013982371,0.063600816,0.08895835,0.105730206,-0.15110959,-0.039892588,-0.111175135,-0.17718527,0.10034715,0.16946606,-0.26031792,0.22306526,-0.07089303,0.3144544,-0.08724347,-0.2097761,-0.0017383763,-0.16130635,-0.17947356,-0.1018173,0.0064495667,0.18864071,0.13808534,0.11795929,-0.04639168,0.0007221511,-0.21337757,0.05792528,0.073637284,0.42445105,-0.06655471,-0.03598114,-0.13980679,-0.025308426,-0.00896994,0.048609383,0.036602877,0.13910054,-0.1373664,-0.07274162,0.20336895,0.22465199,0.17110996,-0.05872476,-0.20900263,0.13079229,-0.20869212},{-0.106513955,0.13456737,-0.01883537,0.2806297,0.051840663,-0.05138705,-0.04603654,0.21507913,-0.038675994,-0.024502859,0.21226072,0.111244686,0.2956907,-0.172028,-0.1887981,0.07486142,0.07215473,-0.07832822,0.07378781,-0.02491454,0.20286682,0.026860472,-0.008017557,-0.0871765,0.06126714,0.16232552,0.055506032,-0.12587382,-0.113770604,-0.06055334,-0.29736036,0.053452983,0.19544163,0.0206466,0.27474812,-0.046190254,-0.08924825,0.40888342,0.10354986,-0.04294488,0.0018246097,-0.11442345,0.00096258614,0.09630626,-0.1738975,0.22827786,-0.13376984,-0.116396554,0.07347478,-0.080328375,-0.13541804,-0.08861385,-0.19652146,-0.27813727,-0.024773482,-0.260644,0.017988805,-0.33061445,0.08527375,-0.015856067,0.012120236,-0.2969542,-0.2457785,-0.22852841},{-0.054082107,-0.07328324,0.04708765,0.0029911757,0.25315008,-0.19836217,-0.19249614,0.30714417,-0.040759217,-0.005307466,0.11378031,-0.13473417,-0.18298844,0.054418296,0.030084183,-0.099093564,0.23080142,-0.18073136,-0.043808438,0.1018158,0.18269284,-0.2231802,-0.07394726,0.08933034,0.018726168,0.34639063,-0.21782798,0.16240305,-0.06260595,0.08154178,0.22931767,-0.13659853,-0.0153004145,0.15389694,-0.08431424,-0.1424767,-0.008065912,-0.25457054,0.17999178,-0.14910708,-0.14123061,-0.19823404,-0.36064366,-0.07013853,-0.18167917,0.023756385,-0.005788843,-0.053430244,0.16336997,-0.20119667,-0.10441962,-0.18219389,0.21740018,-0.14986981,-0.052242026,-0.07897992,0.020825706,0.30098936,0.1411327,0.067398556,0.09484625,0.37268025,-0.14690994,-0.1904291},{-0.26217848,-0.26850864,-0.19431737,-0.07637308,-0.21154279,0.0018527225,-0.07700425,0.77299786,0.18533646,-0.2557127,-0.28467745,0.08780934,0.21085124,0.21643569,0.16064715,-0.2729665,0.25208881,-0.06279931,0.063673556,0.23053178,-0.35665083,0.17026837,-0.07530489,-0.024930956,-0.02698976,0.3633245,0.021805959,-0.060756102,-0.19368637,0.18125585,-0.29661185,0.14352785,0.008201405,-0.19505607,-0.07702718,-0.16602127,-0.24519092,0.3528255,0.11207303,-0.13405022,-0.2377204,0.06409047,0.76154083,-0.110503025,0.17077322,0.017889844,0.14737175,0.0001492038,-0.096310616,-0.09782554,-0.12543952,0.12484381,-0.39057586,0.13194181,-0.0795471,-0.07152143,-0.58845174,0.18357107,0.018948866,-0.037712038,0.26044735,-0.26282176,0.3140239,-0.11798339},{-0.11443788,-0.18106824,0.24645898,-0.18107226,-0.18681602,0.034942683,0.09009658,0.020041423,-0.0747553,-0.0036601343,0.14183164,-0.0126205105,0.040417977,0.1635702,-0.081110984,0.19771406,-0.05572368,-0.2678545,0.17695534,0.15522614,0.20559216,-0.2535826,0.27354008,-0.1370047,0.1546952,0.04617451,-0.2004118,-0.16535251,0.14767972,-0.12714152,-0.03820726,0.12422556,-0.17433667,-0.016301667,0.13527186,-0.14242114,0.04229278,-0.23272093,0.16944629,-0.18510404,0.13781685,0.15999575,0.094558276,-0.073650375,-0.2556658,-0.19752695,0.055873316,0.19001593,-0.10196747,0.16183794,-0.07165031,-0.25591734,0.041517645,0.16246867,0.076137565,-0.032849148,0.17891075,0.26703283,0.026965538,0.074471205,-0.082533054,-0.09428915,0.16861504,0.018461471},{0.05197663,0.010845707,-0.16708146,-0.028571961,-0.1773013,-0.18966587,-0.1351896,0.17299034,0.22635582,0.18390352,0.20408997,-0.16089359,-0.06971279,-0.051611714,0.070495576,-0.16606648,0.15860638,0.040765014,-0.06853899,0.2622881,-0.004280469,0.13525614,0.18589976,-0.00036978087,-0.16158049,0.1503319,0.027075835,0.24165365,-0.040908433,-0.04695326,0.15279427,0.05075193,0.12502682,-0.042027775,-0.004138933,-0.1836954,-0.20114285,-0.27736092,-0.12654154,0.022056492,-0.2204682,-0.098981425,0.120824076,-0.16739614,0.1881785,-0.01747556,0.010016186,-0.016086018,-0.15253294,0.2337025,-0.11810501,-0.021061044,0.09332816,-0.14522591,0.042146318,-0.24926849,-0.3290429,0.10642796,0.11980199,-0.19927433,0.1454068,0.04803476,0.12113564,0.24311036},{-0.1667113,0.07490453,-0.20490335,-0.11995698,-0.22079635,0.23055653,0.20417504,0.1972122,-0.013424871,0.08811488,-0.05430207,-0.10405873,-0.18838212,0.24085459,0.037362244,0.053835165,-0.11354529,0.12574919,0.21346055,0.27456838,0.05722099,0.062677845,0.18513112,-0.107121274,0.14793172,-0.09946561,-0.02596995,0.113638654,0.22250703,-0.15290181,-0.113031596,-0.1926324,-0.11047549,0.17162421,0.3793954,-0.093756855,0.071509674,0.20618047,-0.22633736,0.10344738,0.1939007,0.06670292,0.027949674,-0.25868288,0.030103832,-0.29632777,0.0464043,-0.024336822,-0.14921804,0.045402467,-0.13599047,0.22325243,0.046371598,-0.14403868,0.12570055,0.3810124,0.035267796,0.28271383,0.09569043,-0.16083752,0.42877522,-0.036191974,-0.06458964,-0.042655546},{0.19941743,0.053637426,-0.1768335,-0.19354537,0.073089175,0.03595673,0.11489575,0.15950291,-0.0365024,-0.07548697,0.03751048,0.2806631,0.08985295,-0.20257558,-0.12837046,0.25884214,0.09092763,-0.13959368,-0.15796366,0.046990544,0.2827376,0.0105867945,-0.10463753,-0.049817756,0.17841144,-0.114144094,0.08035577,0.11828935,0.045568723,0.08777121,-0.2707624,-0.23584361,-0.09218141,0.13193545,0.14550869,-0.09558765,-0.010747823,0.12727825,-0.10175888,0.11373042,0.17696975,0.085475385,-0.28689167,0.017923849,-0.06658308,0.014681361,0.036773678,0.09005863,0.25568843,0.06882912,0.07178885,-0.08300798,-0.098986164,-0.3195396,-0.081744306,-0.069399774,-0.060686335,0.25093567,-0.08530605,-0.017017037,0.15221545,-0.03549612,0.1645464,0.09867287},{-0.16764528,-0.022189198,-0.107401,0.115083925,0.09811182,-0.1884953,0.048668418,-0.6561463,-0.07757505,-0.13166675,0.061840326,-0.27439788,-0.035634596,0.025788657,-0.17062876,0.006316562,-0.042476367,-0.13220371,0.4306638,-0.08084708,0.026171776,-0.035362102,0.15410675,-0.07341081,0.062499046,-0.5122294,-0.08945571,-0.04195941,0.29984522,-0.0660457,0.12158102,0.20511991,0.024883678,-0.0093398765,0.11476373,-0.14672577,-0.054075304,0.18167722,0.13232587,0.029864654,-0.19795929,-0.2973463,0.8638082,-0.10157069,-0.040018935,0.063168645,0.06278646,-0.14598061,-0.08625885,0.1116094,-0.0049000103,-0.1590906,0.047678903,0.11516959,-0.111140884,-0.07719051,0.1518835,-0.31385773,0.18269362,-0.16212572,0.055342335,-0.091664575,-0.29122007,0.16027328},{0.17039704,-0.07280656,-0.35114816,-0.06719057,-0.10443588,-0.0382522,0.18976393,0.458016,-0.32365742,-0.038850807,-0.26186845,0.008129934,-0.094160415,-0.16340719,0.17267905,-0.20861873,0.13285851,0.041781846,-0.2085976,0.12709217,-0.32109216,-0.023787137,-0.10258284,0.07812862,0.3100738,0.4164956,-0.08528076,0.028548248,-0.005309105,0.029319858,-0.09883727,-0.06585937,-0.067928255,0.21806192,-0.0810214,-0.17630544,0.22498645,-0.026974343,-0.032287393,-0.11845543,0.38093442,-0.40748024,-0.1301178,-0.14826755,-0.037530344,0.18994759,0.19298291,-0.17522748,-0.16604263,0.0975408,-0.17556421,0.34945595,-0.10442316,0.05895564,-0.11744562,0.10944977,0.19477388,0.09658432,0.14163235,-0.029237144,-0.040622164,0.27900666,0.31408486,-0.16375177},{-0.16552117,-0.10858193,-0.23345886,0.025495004,0.108483426,-0.12378232,0.18012066,0.3395328,0.26796046,-0.23798457,-0.19456418,-0.061865635,-0.11424241,-0.12553573,0.20489238,0.085903846,0.0767801,0.16864581,-0.2801526,-0.2180945,-0.0087059075,0.11317697,0.093558624,-0.115817495,-0.09892183,0.5966837,-0.056781404,-0.08154723,0.08381744,-0.13164076,-0.17581049,0.1664485,-0.04133775,0.00045908394,-0.035196137,-0.05343546,-0.14044426,0.065302506,-0.15930906,0.2204032,0.21838605,-0.079337426,-0.5659187,0.094251536,0.18243939,-0.24122389,-0.3994823,-0.17105119,0.16671593,-0.1540208,0.16124521,0.07439463,0.12700944,-0.103490934,0.091171496,0.052253764,0.036358904,0.33488026,-0.07158861,0.14662781,-0.08091014,0.35354364,0.32210737,-0.12294064},{0.27851173,0.2213572,-0.2658957,-0.14974387,0.21756695,-0.15517452,0.020678215,-0.64305145,0.072182514,0.19358595,0.24784777,-0.12160628,0.14738907,0.18183053,-0.10452673,-0.056121793,0.10969307,0.2888567,0.12464742,-0.16395417,0.25467584,-0.06451463,0.005044166,0.09574667,0.06574962,-0.21146305,0.055920303,0.28587362,-0.32099947,0.12622207,0.124264695,-0.34512725,-0.18926863,-0.12598231,-0.25903016,-0.012636111,0.119099036,-0.26214734,-0.23606813,0.20288253,0.17543662,-0.0017345959,-0.38853356,-0.029729566,0.009058231,0.025725517,-0.017425328,-0.033733413,0.06050361,-0.21173343,0.17639571,-0.12269428,0.18270294,0.0026545315,0.43801278,0.0011113381,0.09905048,0.023601135,0.055844832,0.004416892,-0.05079786,0.13715227,-0.002282988,0.019920142},{-0.30257604,-0.35440683,0.07540245,-0.12764415,0.06871574,-0.30368045,-0.20196876,-0.22111297,0.36289102,-0.12879363,0.24366044,-0.28227875,-0.048654005,0.17079927,-0.0577644,-0.24654229,0.27687764,-0.032622095,0.12664486,-0.13436297,-0.34447035,-0.1573652,0.06145872,0.26527104,-0.23874885,0.08207419,-0.19939809,-0.049698412,-0.054381773,0.1533791,0.13103434,-0.11523088,0.15277481,0.20716271,-0.0074949306,-0.17403924,-0.2973195,-0.36626807,0.07063225,-0.3171625,-0.3966754,-0.072572306,-0.1529162,0.072640754,0.028434895,-0.24471222,-0.06401692,-0.03673654,0.1797897,0.23950225,0.25601,0.2253972,-0.029545767,-0.17409953,0.013256589,-0.10645745,-0.2063833,0.16968876,-0.09282828,0.04674329,-0.16865674,0.24673545,0.12399536,0.19137423},{0.030738695,0.32365686,-0.23277341,0.26678294,0.19344509,-0.2506195,0.16592169,-0.50557935,-0.285873,0.083509,-0.25193256,0.19329987,-0.29478797,0.14448327,0.043377098,0.039218433,0.045160808,0.18142222,0.0988536,0.015408203,0.10228682,-0.089840055,0.0274943,0.040925056,0.0018616305,-0.18022701,-0.08510144,-0.17006467,-0.21657377,-0.042898215,0.3003051,-0.1553018,0.18816371,0.035288513,-0.12181262,0.06934589,0.20262924,0.099468,-0.34613597,0.08047701,0.15439953,-0.035455607,0.4714632,0.028248085,0.15440257,-0.08393661,0.09683881,-0.123010546,-0.18783678,-0.14583412,0.05817842,-0.16076273,-0.15028046,0.30194643,0.020991735,0.12538345,-0.06631765,-0.05430702,-0.21152616,0.10157623,-0.0394844,-0.27654946,-0.04585295,0.09470885},{-0.15778318,0.16057009,0.18797097,-0.20994881,-0.12337422,0.10295821,0.074746534,0.008982285,0.13347171,-0.21475767,0.10754042,0.17486061,-0.30717197,0.21719785,0.04282435,0.102463014,0.044882655,0.08766528,-0.1259568,0.06826004,0.26331908,-0.3723893,-0.047023702,0.10172861,-0.16873468,-0.070873156,0.08170224,0.062351376,0.20221695,0.24897087,0.1656249,-0.20184746,0.002787139,-0.12950394,0.154753,0.04738778,-0.17771406,-0.11083636,-0.1158133,-0.1570025,0.09065915,0.09801245,-0.24706663,0.018497914,0.094025336,-0.011694543,-0.14917417,-0.19207881,0.24804439,0.093007974,0.106722444,-0.28027615,0.17754237,0.0853607,0.14072943,0.22617428,0.129678,0.13966039,0.0008059724,-0.06491767,0.25577545,-0.038777616,0.04251067,-0.12721018},{0.19939765,0.26170456,0.13328944,-0.26735708,0.1954362,0.3272468,-0.13997172,0.07886921,-0.16844468,-0.063643344,0.0143172685,0.030469181,-0.012185126,-0.087021686,0.14744475,-0.09039112,0.025724152,0.1648772,0.24884191,0.3220388,0.10637874,0.15966584,-0.2195971,-0.04978499,-0.21537946,-0.0018970425,-0.39187455,-0.07049817,-0.23083343,-0.3903922,0.25169295,0.07829633,0.09059696,0.46711278,0.17720073,0.29256308,-0.10081909,-0.046736144,-0.06032123,0.03326069,0.14548579,-0.14286736,-0.12808825,-0.024723725,-0.05931917,-0.08295328,0.33509788,0.13774355,-0.23259392,0.16114524,-0.20393495,0.03456164,-0.3575292,0.06738733,-0.2368645,-0.15408842,-0.5466491,0.13930334,0.34391344,-0.15932272,0.15831055,0.066554174,0.08399871,-0.013764451},{-0.09189495,0.06325493,0.13399298,0.16485937,0.040539585,0.1741009,0.01765293,-0.1485672,-0.079155006,-0.0090251425,0.1461072,0.21334606,0.0116268005,-0.14329457,-0.1786557,0.05166464,-0.21420233,-0.08149654,-0.041214667,0.033806816,-0.14909527,-0.105794206,-0.11169868,-0.040670905,-0.020985655,0.23281285,-0.030868394,0.000614238,-0.09848352,0.05841649,0.1277538,0.073164284,-0.34166384,-0.19385718,0.026114136,-0.065050915,-0.11887505,-0.1023836,0.1570178,-0.0284407,-0.15323292,0.30671567,-0.28548452,-0.062334865,-0.32578173,0.02987664,-0.14204533,0.14892636,0.051429402,-0.11861366,0.22664775,-0.15611942,0.22336006,-0.07444994,0.21205999,0.26752913,0.29892197,0.02219025,-0.09244229,-0.039801087,-0.13995421,0.16737944,0.07825189,-0.06316988},{-0.30786374,-0.00611611,0.39462858,-0.12973805,-0.003421329,-0.039811347,-0.12364685,0.06349311,-0.437468,-0.335403,0.035700932,0.27437368,0.28786114,-0.0100709,-0.046360087,0.055911083,0.48192346,-0.12779863,-0.111361265,-0.070394255,-0.17489144,-0.11707944,-0.2567234,0.16733459,0.35315666,0.14401896,0.19205187,-0.119073115,0.0047627892,0.46893033,-0.17608991,0.27594054,-0.019664424,-0.34095448,-0.27005997,0.009951048,0.008964259,-0.19289602,0.6054154,-0.19072473,-0.14766333,0.15185161,0.019953432,0.49958494,-0.07498823,0.42510447,-0.3469296,0.27126542,0.14759074,0.080397435,0.09620208,-0.28661528,-0.3445263,-0.41401193,0.11484654,0.104337096,-0.17583677,-0.43787557,-0.25256956,0.03504012,0.012771291,0.02428533,-0.22289234,-0.10354123},{-0.2737626,0.16945682,-0.12500592,-0.1471641,-0.14065687,-0.10623703,0.12003159,0.49469402,-0.16582769,-0.12196893,-0.2873575,0.16250041,-0.057876643,-0.043193646,-0.0075779753,0.066669494,0.089282006,0.038398936,-0.3897119,-0.17117211,0.19665357,-0.29383495,0.046280112,-0.08642405,0.14243627,0.2975372,0.13349403,-0.22198339,-0.2337294,0.1946326,-0.15498798,0.22666204,0.12504967,-0.064550854,0.14087602,0.06617062,0.029273232,-0.03366022,0.14274588,0.023314167,0.34187984,-0.092790134,-0.5825661,0.0041688927,0.15286042,0.12735644,-0.027453322,-0.12939174,-0.018649096,0.16617958,0.1894689,0.1660508,-0.022635393,-0.071925886,0.16589482,0.16505966,-0.1477972,-0.06101613,0.2423292,-0.08504541,-0.023189576,-0.07586011,0.18246059,-0.3480397},{-0.19611636,0.21833764,0.20966947,0.033549786,-0.028868312,-0.008683548,0.17130774,-0.15862261,-0.08668351,-0.15451163,-0.112251796,0.04041385,0.25608647,0.27753517,-0.22807372,0.012650661,0.22155377,-0.13570297,0.050283425,-0.13827656,-0.011078885,0.06787121,0.104206935,-0.12822641,0.19866668,0.04267789,0.28496984,-0.22020218,0.04498454,0.2588658,0.02944971,0.053803593,-0.092196725,-0.11856735,-0.17430395,0.17379731,0.018169941,-0.045580477,0.31151503,-0.25052446,-0.15078773,-0.060029212,0.058818247,0.11536013,-0.14644182,0.067089856,0.0057682865,0.09050001,-0.022683237,0.24971853,0.014277765,0.04618116,0.033417076,-0.08853783,0.05351986,-0.07863622,0.13892065,0.10736693,-0.081612624,-0.03682157,0.02340508,-0.039232977,-0.06954767,0.15287985},{-0.20499852,0.018037727,0.050868135,0.1637939,-0.16703504,0.018379688,-0.022850936,0.16205214,0.4525634,-0.033406716,-0.023141693,0.20673837,0.1655879,0.09341978,-0.15816616,-0.0581333,-0.08445893,-0.121429384,-0.25193003,0.21911645,-0.24022119,0.08237145,0.011118924,0.022915412,0.024347778,0.17551543,-0.12216975,0.3172836,-0.13971934,0.20547783,-0.27419522,-0.09038636,0.20872977,-0.13042498,-0.076594986,-0.08058046,0.007460327,0.16339616,-0.124982804,0.20686999,-0.10375028,-0.016553301,0.26978648,0.058580395,-0.020150647,0.052125916,-0.06817745,-0.32614338,0.061651114,0.12738827,-0.08536952,0.015843514,0.18213746,0.17607875,0.08739414,-0.5130473,-0.24470352,-0.063997425,-0.29857633,0.0098362295,0.14726152,-0.05063349,0.24235924,-0.025113314},{0.16120203,0.0045886957,-0.21211967,-0.18908241,0.08747972,-0.32966906,-0.036665265,-0.07414414,0.13315813,0.042221453,0.05667668,-0.32819885,0.032416053,0.15513492,0.07170948,0.162721,0.14933318,-0.082358085,0.022200698,0.2596076,-0.050825313,0.13160017,-0.16339694,0.13188422,-0.13301599,-0.015959667,-0.16958056,-0.22139715,-0.17405666,0.01598231,0.28996912,0.21369834,0.0365667,-0.056045327,-0.15544087,0.17228281,-0.1314451,-0.16888201,0.019587545,-0.006126524,-0.17035285,-0.22946078,-0.007689636,-0.31847128,0.12598461,-0.13126883,-0.0026689176,-0.015400804,0.023751788,-0.09871344,-0.05370929,-0.017511839,0.17416978,0.009149961,-0.09990367,-0.07172312,0.096243195,-0.101116896,0.0075357636,0.03157837,-0.28767028,0.47546825,-0.059639674,-0.13622956}};
static const float layer_2_weight[64][4] = {{-0.004429587,-0.041884806,0.23766413,-0.28131384},{-0.2862145,-0.4174897,0.4210714,0.05616725},{0.14498775,-0.1252231,0.1042454,0.26628855},{-0.14405155,-0.05412612,-0.0963793,-0.018068489},{-0.21837087,-0.14191556,0.25389242,-0.007893599},{0.09359723,0.2091027,0.32514012,-0.00079489354},{-0.06803487,-0.114050455,0.15262415,-0.119564265},{-0.030293034,-0.31878465,-0.590053,-0.16167203},{0.08241054,0.28901124,-0.21546218,0.060902704},{-0.1334937,0.29365456,0.19417815,-0.21704274},{0.02162027,0.20592836,-0.054166578,0.34555858},{0.043886136,-0.1623422,0.28607318,0.2162323},{-0.191463,0.021557707,-0.0929347,0.20105512},{0.21945462,-0.22994502,0.058417212,-0.10453592},{0.110821016,0.045394287,-0.29819012,0.023064556},{-0.06437744,-0.14728774,0.10224878,0.14706942},{0.25572374,-0.4214587,-0.26152855,0.17779039},{-0.2423045,0.20082086,-0.08440207,-0.2046001},{0.14598927,0.041570704,0.23724045,0.15443423},{0.101080514,0.11719139,-0.034725536,-0.2371151},{-0.20320399,-0.3253049,0.11448648,0.11442879},{-0.105939716,0.28979188,-0.017614212,-0.2787516},{0.20269358,0.30407175,0.14797631,-0.016910871},{0.25082377,0.17643744,-0.16277418,-0.033837672},{-0.18136355,-0.25346106,0.06351379,-0.3802506},{-0.28253695,-0.20450874,-0.35538343,-0.25809774},{0.11586941,-0.31757393,-0.0137158865,0.42996275},{-0.12186855,0.39555243,0.10595419,0.01583694},{0.1936644,0.22589572,-0.16481854,0.18116625},{-0.07813981,-0.035808064,-0.06324295,0.19298486},{0.2293174,-0.37964338,-0.37983617,-0.30458707},{0.16276708,-0.29550737,0.13261068,0.030467996},{-0.25435144,-0.16170008,-0.14212267,0.32786644},{0.20046222,-0.2824586,0.080514215,-0.46226338},{0.040594343,0.3799751,-0.013776513,-0.23874554},{0.05858105,-0.00820486,0.10085355,-0.028056324},{-0.42532626,0.15095213,0.15643907,0.040798035},{-0.21633391,-0.47061342,0.34488204,0.08719823},{0.10931897,-0.30015194,0.04006315,0.28384468},{-0.28117618,0.4181007,0.2528828,-0.004443042},{-0.35780492,-0.047098655,0.20646629,-0.31791925},{0.029476494,0.15892132,0.21817036,0.31573245},{0.6752057,0.6035354,0.066976085,0.26558864},{0.03208632,-0.019110959,-0.22744618,0.22439127},{-0.13625823,-0.107881285,-0.35644642,-0.342664},{-0.10882653,-0.20616248,-0.06769002,0.15265842},{-0.2490375,0.19644283,0.11157358,-0.054530222},{0.2852506,-0.060791478,0.2405776,0.0016852235},{0.2067314,-0.13419877,-0.04792826,-0.03000608},{0.23605852,0.173213,-0.04352514,0.10628778},{0.29362732,-0.24878861,-0.18981315,-0.076014586},{-0.026928013,0.14535356,-0.24860759,-0.30958757},{-0.044901982,0.27986726,-0.05595142,0.046130057},{-0.1966618,0.09614172,0.19778535,-0.20831722},{-0.16364461,0.14807805,-0.101429984,0.09556051},{0.10148134,-0.11925509,0.1162505,-0.0851239},{-0.36054617,0.2563349,0.23646764,0.21047655},{0.1951927,0.16056702,0.17137091,-0.07064458},{0.08911252,-0.014808932,0.12888366,-0.26753917},{-0.2039164,-0.25536746,-0.1102336,0.16192055},{0.16719054,0.053719252,0.09453531,-0.14220472},{0.25314757,-0.070589975,0.029623315,0.1913868},{0.16475803,0.0046146144,-0.3667858,-0.36497268},{0.07566447,0.32535157,0.18836205,-0.26570618}};
static const float layer_0_bias[64] = {0.018696213,-0.019253893,0.076358184,0.54042166,0.056778338,-0.19153753,-0.11099946,-0.047406904,0.16762872,0.071076624,0.0076402,0.051905688,0.063738264,-0.022197703,-0.097445026,-0.042301245,-0.057252966,-0.053952362,0.24846141,0.13840109,-0.01703405,-0.1377877,-0.059108023,-0.15211655,0.052752417,-0.059933707,0.12461548,-0.019462056,-0.03293457,-0.3070726,-0.18626912,-0.16177094,0.20533879,0.11095423,0.08197638,-0.14633718,-0.08056513,0.09370086,-0.13398068,0.10259463,0.17487684,0.2003145,0.15985572,0.47033024,-0.041040964,-0.015818292,-0.11894205,-0.01936036,0.13552488,0.03798377,-0.0421755,0.14403997,0.11598017,-0.11711319,-0.17559756,0.08823916,0.09565174,-0.062758476,-0.032502826,-0.07711457,0.06952419,0.18775548,-0.15210247,0.005956178};
static const float layer_1_bias[64] = {0.09551389,0.09682803,-0.06726899,0.17974815,0.034783196,-0.02919242,0.048919976,0.044741284,0.06010986,0.065831654,-0.12026001,0.013216816,-0.03404776,0.012594397,-0.0411872,-0.053879194,0.006460368,0.11241582,-0.06800096,0.043003872,0.0045977384,0.12763432,-0.09211631,-0.07260434,0.03906441,0.097280875,-0.009288471,0.07304327,-0.04010556,-0.07647281,0.047959764,0.01239556,-0.023432434,0.034597233,0.13111007,-0.06681888,-0.0023507464,0.25460285,-0.09950409,-0.0517082,0.032410692,-0.07443578,-0.10228228,-0.0018389858,0.16122219,-0.027242208,-0.11546052,-0.011803398,0.14956714,-0.10840854,0.08004507,0.068095386,-0.08508589,-0.02426213,-0.024325693,0.03936942,-0.01404905,-0.09403453,-0.026983345,0.019477595,0.08298318,-0.38830292,0.018029328,0.060533922};
static const float layer_2_bias[4] = {-0.07196144,-0.06953838,-0.025244467,-0.13047032};

void networkEvaluate(struct control_t_n *control_n, float *state_array) {

	for (int i = 0; i < structure[0][1]; i++) {
		output_0[i] = 0;
		for (int j = 0; j < structure[0][0]; j++) {
			output_0[i] += state_array[j] * layer_0_weight[j][i];
		}
		output_0[i] += layer_0_bias[i];
		output_0[i] = tanhf(output_0[i]);
	}

	for (int i = 0; i < structure[1][1]; i++) {
		output_1[i] = 0;
		for (int j = 0; j < structure[1][0]; j++) {
			output_1[i] += output_0[j] * layer_1_weight[j][i];
		}
		output_1[i] += layer_1_bias[i];
		output_1[i] = tanhf(output_1[i]);
	}
	
	for (int i = 0; i < structure[2][1]; i++) {
		output_2[i] = 0;
		for (int j = 0; j < structure[2][0]; j++) {
			output_2[i] += output_1[j] * layer_2_weight[j][i];
		}
		output_2[i] += layer_2_bias[i];
	}
	
	control_n->thrust_0 = output_2[0];
	control_n->thrust_1 = output_2[1];
	control_n->thrust_2 = output_2[2];
	control_n->thrust_3 = output_2[3];	

}
