#include "network_evaluate.h"
#include "debug.h"
#include "param.h"
#include <string.h>

/*
 * Obstacle Avoiding Policy with new position reward (16 8 8) (DO NOT USE)
*/


float linear(float num) {
	return num;
}



float sigmoid(float num) {
	return 1 / (1 + exp(-num));
}



float relu(float num) {
	if (num > 0) {
		return num;
	} else {
		return 0;
	}
}


//static const int structure [8][2] = {{6, 8},{8, 8},{24, 16},{16, 16},{4, 8},{8, 8},{32, 32},{32, 4}};
static const int structure [8][2] = {{24, 16}, {16, 16}, {6, 8}, {8, 8}, {4, 8}, {8, 8}, {32, 32}, {32, 4}};
static float output_0[16];
static float output_1[16];
static float output_2[8];
static float output_3[8];
static float output_4[8];
static float output_5[8];
static float output_6[32];
static float output_7[4];
static float neighbor_embeds[8];
static float obstacle_embeds[8];
static float embedding_array[32];
static const float actor_encoder_neighbor_encoder_embedding_mlp_0_weight[6][8] = {{-0.9302362203598022,-0.7986224889755249,0.3269439935684204,-0.42822083830833435,0.02103550359606743,-0.41156548261642456,1.6029913425445557,-0.9542699456214905},{-4.506707668304443,1.184134840965271,-0.7345598936080933,-0.007993124425411224,0.4491404891014099,0.6245186924934387,0.17694488167762756,0.34213927388191223},{-0.03609045222401619,-0.47560423612594604,-0.06711312383413315,-0.4023487865924835,-0.32382673025131226,-0.04756595566868782,0.7277204990386963,-0.38387876749038696},{-0.17479515075683594,-0.10738462954759598,-0.055308856070041656,-0.46778273582458496,-0.133272185921669,0.07017629593610764,-0.08263663202524185,-0.3768638074398041},{-0.5720033049583435,0.4215340316295624,0.255930632352829,0.49014368653297424,0.5565063953399658,-0.20434291660785675,0.3628529906272888,0.25775250792503357},{-0.1259392946958542,-0.04981008544564247,-0.3268178105354309,-0.28506773710250854,-0.5733087062835693,0.11292481422424316,0.16340312361717224,-0.21620813012123108}};
static const float actor_encoder_neighbor_encoder_embedding_mlp_2_weight[8][8] = {{-0.04515794292092323,-0.22708633542060852,0.16519756615161896,0.143546000123024,1.1411505937576294,0.20465774834156036,-0.16974714398384094,-0.3743990361690521},{0.7183923125267029,-0.8958128094673157,0.6750738024711609,-0.0024488677736371756,-0.8038649559020996,-0.016677744686603546,0.2460315078496933,0.08879014104604721},{-0.05225422605872154,0.0713307335972786,0.06395876407623291,-0.5373710989952087,0.29244160652160645,-0.05039215087890625,-0.07733196765184402,0.14348913729190826},{0.5892139673233032,0.13845282793045044,0.22467030584812164,0.13244785368442535,-0.6675460338592529,-0.517784595489502,-0.1386829912662506,0.24624529480934143},{-0.10608629137277603,-0.2555881440639496,0.4732237756252289,0.24421580135822296,-0.37044379115104675,0.17755813896656036,-0.10988343507051468,-0.5656118988990784},{0.1867130994796753,-0.4040265679359436,0.49212005734443665,-0.32942476868629456,-0.5010191202163696,-0.44690054655075073,-0.3014773428440094,-0.08618617057800293},{-0.5845850110054016,0.2436807006597519,0.44816064834594727,0.2581121027469635,0.6592462658882141,-0.21203134953975677,0.021468589082360268,-0.1767655611038208},{0.37804895639419556,-0.2673417925834656,0.05715934932231903,-0.27493834495544434,-0.6570951342582703,-0.37963199615478516,-0.3763238787651062,0.1134587749838829}};
static const float actor_encoder_self_encoder_0_weight[24][16] = {{0.0746498703956604,-0.14134381711483002,0.14865157008171082,0.13494181632995605,-0.056045763194561005,0.1318981945514679,-0.05968169495463371,0.4576701819896698,0.07458023726940155,-0.25745850801467896,0.10877677798271179,0.0031879849266260862,0.01402173563838005,0.17279241979122162,0.2549896538257599,0.23575018346309662},{-0.03775637969374657,0.1364801526069641,0.3251761496067047,-0.12856903672218323,0.09397891908884048,0.04066651687026024,0.0920351892709732,0.1798807829618454,0.22884704172611237,-0.21399188041687012,0.22399917244911194,-0.030766665935516357,0.056794941425323486,-0.03048250637948513,0.175575390458107,-0.02179744280874729},{-0.12953497469425201,-0.02161823958158493,0.08608672022819519,-0.27103710174560547,-0.13476194441318512,0.002291741780936718,-0.06089823320508003,-0.2904663681983948,-0.11632376909255981,-0.13800369203090668,0.2429637461900711,-0.2414267361164093,0.35750022530555725,-0.3175065517425537,0.159636452794075,-0.0280339065939188},{0.1551220715045929,0.3029468357563019,-0.30580341815948486,0.34560301899909973,-0.3130054473876953,0.26331666111946106,-0.08183535188436508,0.36274009943008423,0.1282481849193573,-0.21302996575832367,-0.038386791944503784,0.32184675335884094,0.0912366658449173,-0.17781206965446472,0.2877803146839142,0.3239874541759491},{-0.10581592470407486,0.44086945056915283,0.0804535374045372,0.516476571559906,-0.1094340831041336,-0.1346261352300644,0.3488229513168335,0.06285937130451202,-0.13475853204727173,0.06924223899841309,0.11371716111898422,-0.20488274097442627,-0.01360054686665535,0.2584095895290375,0.21479782462120056,0.008003360591828823},{0.2867436408996582,0.026512540876865387,0.4072246551513672,-0.19796496629714966,-0.46121132373809814,-0.20642545819282532,0.03775965794920921,0.024832993745803833,-0.21577216684818268,0.17387394607067108,0.00427387747913599,-0.04740208759903908,0.06069327890872955,-0.13850651681423187,0.04152243956923485,0.013620786368846893},{-0.017713380977511406,0.13886843621730804,0.15162740647792816,-0.13143290579319,0.4838201701641083,0.04990694671869278,0.2708454430103302,0.6877410411834717,-0.22714856266975403,-0.20927020907402039,-0.29032647609710693,0.1497245877981186,-0.6750383973121643,-0.503404974937439,0.4057689905166626,0.14314605295658112},{0.4715084433555603,-0.5160965323448181,-0.3404412567615509,0.28714442253112793,-0.07173024863004684,0.15920020639896393,0.36386358737945557,0.2626614570617676,-0.07414831966161728,0.6245190501213074,0.435418039560318,-0.10710420459508896,-0.39567920565605164,0.24603821337223053,-0.25257617235183716,1.0114800930023193},{-0.048591166734695435,0.149318665266037,-0.34903809428215027,0.32444778084754944,-0.561397910118103,0.15115247666835785,-0.2362937182188034,-0.7457883954048157,-0.48453977704048157,-0.5558487772941589,0.3307150602340698,0.33414822816848755,0.8415769934654236,0.49536752700805664,0.1905611753463745,0.8176138401031494},{-0.06142190098762512,0.1290188878774643,0.014883720315992832,-0.2744535803794861,-0.17526385188102722,-0.14550237357616425,-0.6067037582397461,0.11741513013839722,-0.2617749273777008,-0.9218936562538147,-0.42844370007514954,0.5700517892837524,0.597277820110321,0.587956428527832,0.1817231923341751,-0.29706791043281555},{0.03678188845515251,-0.06730107218027115,0.7284189462661743,0.36099982261657715,0.325076699256897,-0.0794765055179596,0.6328381299972534,-0.18833564221858978,-0.30137714743614197,-0.21600188314914703,-0.11540455371141434,0.9598090648651123,0.23052653670310974,0.12665051221847534,0.007487902417778969,-0.31218940019607544},{-0.048896148800849915,1.3372862339019775,0.19464083015918732,0.670807957649231,0.021780671551823616,-0.0666491910815239,1.2552655935287476,0.5910353064537048,0.27320659160614014,0.02908368967473507,-0.3241725265979767,-0.7685184478759766,0.08239594846963882,0.7883212566375732,0.15487238764762878,0.17769405245780945},{0.09164804220199585,-0.7695555686950684,-0.18734440207481384,-0.3137536942958832,-0.6407971382141113,0.17164815962314606,-0.5490784645080566,-0.8226037621498108,-0.0043206848204135895,-0.5824947357177734,0.7507996559143066,0.9191974997520447,0.3440517485141754,-0.31494370102882385,-0.4789699912071228,0.6863377094268799},{0.04947097226977348,0.8544076085090637,0.3619270324707031,0.34280088543891907,-0.2054090052843094,0.32918110489845276,0.6882385611534119,0.04047113284468651,-0.5739161968231201,0.05397074297070503,0.5828689932823181,0.3687572777271271,1.2662792205810547,0.5732434988021851,-0.07551800459623337,0.585281491279602},{0.20902569591999054,-0.0916011705994606,-0.39617910981178284,-0.46910423040390015,-0.10555320978164673,0.08166087418794632,-0.0065680998377501965,0.22462491691112518,0.489882230758667,0.45382723212242126,0.08147318661212921,-0.30707260966300964,-0.37514835596084595,-0.29819032549858093,-0.286622017621994,-0.47822144627571106},{-0.2368105798959732,0.16967721283435822,-0.05623064190149307,-0.11593162268400192,-0.12866699695587158,0.0843028649687767,0.12771140038967133,0.06463342159986496,0.21978795528411865,0.09276392310857773,0.13952578604221344,0.10519446432590485,0.09054553508758545,0.46570658683776855,-0.12278121709823608,0.08824484795331955},{-0.05584132298827171,0.07104674726724625,0.055283479392528534,-0.009924782440066338,0.2850094735622406,-0.1319313943386078,0.1727895587682724,0.07820883393287659,-0.06370364874601364,0.16852758824825287,-0.2329639196395874,-0.0706121176481247,-0.12967123091220856,0.3537098169326782,-0.0951293483376503,-0.08200390636920929},{-0.08528757095336914,-0.21894866228103638,-0.24520248174667358,-0.2942434847354889,0.010547970421612263,0.47480493783950806,0.011864189989864826,0.5475319623947144,0.3706084191799164,0.286870539188385,0.171434685587883,-0.156214639544487,-0.07637325674295425,0.21470186114311218,-0.25280067324638367,0.3495621085166931},{0.06629174202680588,0.1705394983291626,-0.1696382611989975,-0.4193747639656067,0.05127253755927086,-0.24664458632469177,0.0259008277207613,-0.3293079435825348,0.19915816187858582,-0.1774328052997589,0.08108647912740707,-0.1612151712179184,0.3696475327014923,0.13947618007659912,0.3721892237663269,0.17256271839141846},{-0.4107200503349304,-0.13675007224082947,0.40673062205314636,0.006255061365664005,-0.06539427489042282,0.402253657579422,0.30398979783058167,-0.2690125107765198,-0.1814035177230835,0.05460108444094658,-0.12802991271018982,0.14927217364311218,0.006616662256419659,-0.1579645574092865,-0.23497354984283447,0.31999143958091736},{0.280366450548172,0.09299169480800629,0.3057714104652405,0.051345840096473694,-0.36102020740509033,0.43737056851387024,0.15107794106006622,0.27099472284317017,-0.23997937142848969,0.3216170072555542,-0.2940516471862793,0.006227654404938221,-0.21735800802707672,-0.1562405228614807,0.07975879311561584,-0.0044253007508814335},{-0.09931183606386185,0.12424816191196442,0.0873275175690651,-0.05281317979097366,0.30302080512046814,0.12868785858154297,-0.15992027521133423,-0.05707400664687157,-0.028621740639209747,-0.09673500061035156,-0.15841275453567505,-0.20905503630638123,0.1889035403728485,-0.08958466351032257,0.3480644226074219,-0.3053567409515381},{-0.014058905653655529,0.01929457113146782,0.09810829162597656,-0.33857759833335876,-0.09799834340810776,0.43478935956954956,-0.18530462682247162,0.1320931315422058,-0.08133815228939056,-0.09331700950860977,0.16010573506355286,-0.196762815117836,0.21725083887577057,0.1364230066537857,-0.16033390164375305,-0.19946777820587158},{-0.17435842752456665,0.12105249613523483,-0.004469876177608967,-0.06722107529640198,0.34852075576782227,0.024787330999970436,0.20104607939720154,-0.21163329482078552,0.041796352714300156,-0.20153993368148804,-0.4142708480358124,0.07361366599798203,0.13537345826625824,0.22473973035812378,-0.2653648555278778,0.06890296190977097}};
static const float actor_encoder_self_encoder_2_weight[16][16] = {{0.08113885670900345,-0.33915671706199646,-0.16471561789512634,0.14125536382198334,-0.3969249725341797,0.11068779975175858,0.21434995532035828,-0.27546921372413635,-0.20436903834342957,0.2379964292049408,0.04871111735701561,0.19038960337638855,-0.13413603603839874,-0.3379650413990021,-0.07265736907720566,0.10950198024511337},{-0.31408658623695374,0.17539657652378082,0.01422474067658186,-0.42350712418556213,0.2673874497413635,-0.4018653333187103,-0.30576092004776,0.4040645956993103,0.10668452829122543,-0.2046937644481659,0.02272793836891651,0.14444215595722198,0.10492799431085587,0.08724301308393478,0.4182371497154236,0.20232197642326355},{-0.42921534180641174,0.044983379542827606,0.3903636932373047,-0.22068537771701813,-0.22051045298576355,0.1609485149383545,0.18947690725326538,0.1601826697587967,-0.036657627671957016,-0.35819461941719055,0.2956886887550354,-0.10693783313035965,-0.3035765290260315,-0.16948725283145905,-0.18135184049606323,-0.2066468447446823},{0.23945701122283936,0.13523975014686584,0.06558071821928024,0.09567344933748245,-0.31316789984703064,-0.16312599182128906,-0.04688294231891632,0.3146306872367859,0.4145631492137909,-0.1953779011964798,-0.10498635470867157,-0.34989312291145325,-0.027383463457226753,0.2195671796798706,0.3824962079524994,-0.12025394290685654},{0.33074069023132324,0.3254477381706238,0.34412458539009094,0.14756092429161072,0.16686250269412994,-0.06909099966287613,0.36887282133102417,0.254059374332428,0.2898311913013458,-0.071458600461483,-0.15473978221416473,-0.1253528892993927,0.1408241242170334,-0.03919269144535065,0.18880502879619598,0.1532464474439621},{0.17614366114139557,-0.35543355345726013,-0.2569831907749176,0.04614075645804405,0.3270694315433502,0.20566776394844055,0.32917147874832153,0.018449410796165466,0.1288166642189026,-0.1847180724143982,-0.2785031497478485,0.650215744972229,-0.5945740342140198,-0.3529112935066223,0.15633653104305267,-0.26157382130622864},{-0.15060177445411682,-0.5039222240447998,0.34248483180999756,-0.1722160428762436,-0.1620602160692215,-0.10754348337650299,0.32606515288352966,0.3158026337623596,0.5189027786254883,0.33510535955429077,0.21335002779960632,-0.24389450252056122,-0.20039989054203033,0.6053310632705688,-0.17744489014148712,-0.3371116816997528},{0.19259347021579742,0.16472896933555603,-0.2409278005361557,0.0924212709069252,0.27066510915756226,-0.20370078086853027,0.31410813331604004,0.05473513901233673,0.0285341814160347,0.1321973204612732,0.23714445531368256,-0.3303641676902771,-0.4700486660003662,0.018685240298509598,-0.15835615992546082,0.030690625309944153},{0.15114907920360565,0.0884009301662445,0.28861114382743835,0.01913847215473652,0.1423790156841278,-0.12489102780818939,-0.4512081742286682,-0.02143753133714199,-0.3705656826496124,-0.3131779730319977,-0.28710582852363586,-0.04296795651316643,-0.2609044015407562,0.26369449496269226,-0.2893769443035126,-0.4374008774757385},{0.24031418561935425,-0.2873421609401703,0.21679037809371948,0.1271277815103531,0.4107057452201843,0.23463548719882965,-0.31377774477005005,0.04449840635061264,-0.027576319873332977,0.3151138126850128,-0.23736558854579926,-0.06083720549941063,0.2633711099624634,-0.08416013419628143,0.2926855981349945,0.2744996249675751},{-0.06176689267158508,0.07556656002998352,0.10102762281894684,0.5153178572654724,0.23013582825660706,0.071100153028965,-0.27776089310646057,0.29336899518966675,0.3885755240917206,0.5152289271354675,-0.2377416044473648,0.2337082475423813,0.3621244430541992,0.06940764933824539,-0.06452477723360062,-0.39848634600639343},{0.10949154943227768,0.5802625417709351,-0.14506113529205322,0.2315463274717331,-0.5393505692481995,-0.5172589421272278,0.16319060325622559,-0.47977134585380554,0.44596385955810547,0.2208142727613449,0.06553614884614944,-0.18266691267490387,-0.05429740995168686,0.08582166582345963,0.20073045790195465,-0.28600558638572693},{-0.3057170510292053,-0.26357004046440125,-0.1539064198732376,-0.509785532951355,-0.22359727323055267,-0.27471524477005005,0.08792620897293091,-0.011318124830722809,0.1410343050956726,-0.5188554525375366,0.13745112717151642,0.4331640303134918,0.12382253259420395,-0.04038580134510994,0.2801809310913086,-0.43172523379325867},{0.19405947625637054,0.33085697889328003,-0.4037845730781555,-0.2139095664024353,-0.12932580709457397,-0.22414788603782654,0.37774035334587097,0.29288485646247864,-0.5413635969161987,0.10180475562810898,-0.5244487524032593,0.10557480156421661,0.314670205116272,0.14183467626571655,-0.08018507063388824,-0.3522210419178009},{-0.31298738718032837,0.04784805327653885,0.09693676978349686,0.14672544598579407,-0.2282620519399643,0.09828590601682663,-0.032203976064920425,-0.08276354521512985,0.13100063800811768,-0.30069124698638916,0.1488608717918396,-0.3219550848007202,0.10825023800134659,0.15150438249111176,0.012591025792062283,-0.3583870828151703},{-0.41380396485328674,-0.30664873123168945,-0.30021512508392334,-0.028575697913765907,0.18731772899627686,0.24866905808448792,-0.32534438371658325,0.3391262888908386,0.3399195969104767,0.5580652952194214,-0.3272409737110138,0.543908417224884,-0.48268866539001465,-0.10684026032686234,0.2780686020851135,-0.39670681953430176}};
static const float actor_encoder_obstacle_encoder_0_weight[4][8] = {{-0.44512197375297546,0.4947434067726135,-1.0082136392593384,-0.5806968808174133,0.3496537208557129,-0.3434523344039917,1.065592885017395,0.7982606887817383},{-0.3793017268180847,0.030100930482149124,-1.8697834014892578,-0.33510076999664307,-0.7724971175193787,0.555590808391571,-0.7802790999412537,0.31975632905960083},{0.0943792536854744,0.013872988522052765,-0.10266121476888657,-0.05973254516720772,0.2609623968601227,0.28629568219184875,-0.1386989951133728,-0.0004796052526216954},{-0.5244245529174805,-0.5729882121086121,0.6580642461776733,0.19982680678367615,0.028238525614142418,0.2087673544883728,0.0693996325135231,-0.1607217937707901}};
static const float actor_encoder_obstacle_encoder_2_weight[8][8] = {{0.14991778135299683,-0.5181605815887451,-0.055704474449157715,-0.2113022357225418,0.07828518748283386,0.08207958936691284,-0.5522111058235168,-0.36931270360946655},{-0.04102793708443642,0.14851610362529755,0.4345536530017853,0.3470163345336914,0.2854633033275604,0.26040616631507874,0.14067405462265015,0.33603212237358093},{0.0068573602475225925,-0.0011611151276156306,0.5827318429946899,-0.12206518650054932,-0.7875736355781555,0.2024402618408203,-0.3932238221168518,0.42538323998451233},{0.026641586795449257,-0.2937014102935791,-0.6215417981147766,0.4533596336841583,-0.22043243050575256,-0.3973056375980377,-0.05659717321395874,-0.5728797316551208},{-0.7169100642204285,0.3439836800098419,-0.2611360251903534,0.013274131342768669,0.21927285194396973,0.048216577619314194,-0.39102861285209656,0.15348464250564575},{-0.08320864289999008,0.32318684458732605,0.04774847626686096,-0.49161994457244873,-0.17608974874019623,-0.16523264348506927,0.28223949670791626,-0.2740136384963989},{0.1745760142803192,0.10342275351285934,0.17476050555706024,-0.17277367413043976,0.8186503648757935,0.028172487393021584,-0.6553089618682861,0.2822344899177551},{-0.28535789251327515,0.12231545150279999,0.3759509027004242,-0.07774892449378967,0.8386768102645874,-0.03167876601219177,-0.06311211735010147,0.27709949016571045}};
static const float actor_encoder_feed_forward_0_weight[32][32] = {{0.0042287311516702175,0.1968754231929779,0.343641459941864,0.14969615638256073,-0.11188962310552597,-0.10672594606876373,0.1533920019865036,-0.22534194588661194,-0.18851503729820251,0.16898955404758453,-0.18586479127407074,0.09334640949964523,-0.10604614019393921,-0.06626838445663452,-0.2611090838909149,0.26279503107070923,-0.3232324421405792,-0.18320108950138092,-0.023425530642271042,-0.014154793694615364,0.04080743342638016,0.04175696521997452,0.031544215977191925,-0.015298815444111824,-0.18920856714248657,0.36576277017593384,0.08098259568214417,-0.18288543820381165,-0.018753664568066597,-0.06947829574346542,0.19907455146312714,-0.028953567147254944},{0.1613372564315796,-0.1002882570028305,-0.18545381724834442,-0.17710356414318085,-0.23121094703674316,-0.10497734695672989,-0.14432744681835175,0.2019840031862259,0.10388566553592682,-0.07076207548379898,-0.16825656592845917,-0.3834018409252167,-0.12717805802822113,-0.020165538415312767,-0.3562793433666229,0.11837469041347504,-0.23424860835075378,-0.05830029025673866,0.01727546751499176,-0.40525248646736145,-0.2281261533498764,0.20351701974868774,0.2293693721294403,-0.018659774214029312,-0.32315966486930847,-0.2269437611103058,0.35065555572509766,0.09760577976703644,-0.07461142539978027,0.02410169690847397,0.3104996383190155,-0.18536803126335144},{0.07207280397415161,0.1308758407831192,0.30335187911987305,0.1786188781261444,0.2550417184829712,-0.15590882301330566,0.07997274398803711,0.1757018119096756,-0.008861444890499115,0.10633336007595062,0.17545591294765472,0.020869646221399307,0.20503272116184235,-0.03225695714354515,-0.23308023810386658,-0.2266320288181305,0.03840033710002899,0.12895521521568298,0.14731352031230927,0.07313955575227737,-0.14863371849060059,0.1291760504245758,-0.10837240517139435,0.053687114268541336,0.16487878561019897,0.2602325975894928,0.29749301075935364,-0.3077083230018616,-0.09771877527236938,-0.24371591210365295,-0.28314223885536194,0.2303391396999359},{0.27932748198509216,0.0037181032821536064,-0.28242966532707214,0.16162560880184174,0.023083960637450218,0.16193868219852448,-0.03962964192032814,-0.3306495249271393,0.11504253000020981,0.09165358543395996,-0.16377994418144226,-0.14642654359340668,-0.3173718750476837,0.3722170889377594,0.0949106365442276,-0.050249502062797546,-0.16062763333320618,0.1417991816997528,-0.17972375452518463,-0.27306559681892395,0.2679804861545563,-0.25339755415916443,0.23092883825302124,-0.1253042370080948,0.3383772373199463,-0.2821325957775116,0.12984028458595276,-0.015483061783015728,-0.12010249495506287,0.0701136440038681,-0.23899205029010773,-0.043101467192173004},{-0.05603501573204994,0.07806329429149628,0.27631017565727234,-0.11266936361789703,0.18435806035995483,0.23341688513755798,0.17716605961322784,0.1350042074918747,0.1791142076253891,0.10675695538520813,0.16698642075061798,0.1402425467967987,0.09680850803852081,0.03825097158551216,0.21409648656845093,0.20649729669094086,-0.19579623639583588,-0.2708456814289093,-0.12487198412418365,-0.16073915362358093,0.09255112707614899,-0.07206854969263077,-0.17513532936573029,-0.4305500388145447,-0.23050464689731598,0.25718894600868225,-0.09268667548894882,0.35804224014282227,-0.14881598949432373,-0.17277958989143372,-0.14805245399475098,0.20506446063518524},{0.0837794840335846,0.11844335496425629,0.1294303685426712,0.18631689250469208,-0.14507539570331573,0.3047657012939453,0.10867034643888474,-0.2419358789920807,0.023658784106373787,-0.11234228312969208,-0.06553971022367477,0.30224525928497314,0.230137437582016,0.0010587378637865186,-0.0014074529753997922,0.11297816038131714,0.2041880041360855,-0.34313517808914185,0.2323651909828186,0.0033698452170938253,-0.1845363825559616,-0.27285733819007874,-0.03523827716708183,-0.23423929512500763,0.09876304864883423,0.16313526034355164,0.12340394407510757,-0.2481212019920349,0.0488835871219635,-0.15148277580738068,-0.1708724945783615,-0.21024549007415771},{0.15126411616802216,0.08802913129329681,-0.20833222568035126,-0.07741327583789825,0.14516454935073853,0.051886338740587234,0.009051852859556675,0.14596523344516754,0.21398048102855682,0.22413992881774902,0.05515969172120094,0.18930229544639587,-0.007609215565025806,-0.12413407117128372,-0.13320399820804596,-0.1327620893716812,-0.030698269605636597,-0.027088895440101624,-0.0880575031042099,0.1474100649356842,0.08418236672878265,-0.005751932039856911,-0.15394051373004913,-0.11233929544687271,0.01486273668706417,0.02338508516550064,0.24334271252155304,0.16070997714996338,0.13833342492580414,0.025049438700079918,0.1894448697566986,-0.1346837282180786},{0.16705334186553955,-0.08315504342317581,0.134393110871315,0.1490076184272766,-0.06191500276327133,-0.2880951464176178,-0.1936352550983429,0.255156934261322,-0.18575803935527802,0.13007326424121857,0.2937565743923187,-0.12749189138412476,-0.34668633341789246,0.19494858384132385,0.06873860210180283,-0.0009982947958633304,-0.2941091060638428,0.27635762095451355,0.010553890839219093,0.10416528582572937,-0.049476686865091324,-0.10896588116884232,-0.0933702290058136,-0.25261062383651733,0.27146202325820923,-0.05521615967154503,-0.1296132653951645,-0.035314206033945084,-0.06304284185171127,0.23970448970794678,-0.15030837059020996,-0.21835888922214508},{-0.08215144276618958,-0.0025893596466630697,-0.14418908953666687,0.05678950622677803,-0.02137240767478943,0.22835128009319305,0.05802784487605095,0.03265514224767685,-0.18144908547401428,-0.03206721320748329,-0.28128159046173096,0.014033635146915913,0.01284714974462986,-0.012362823821604252,-0.23195020854473114,0.20183351635932922,0.414673388004303,0.046176739037036896,-0.10753824561834335,-0.2301260381937027,-0.3598082363605499,-0.19972388446331024,-0.12118888646364212,-0.04109857603907585,0.37079715728759766,0.353153258562088,-0.23745478689670563,-0.4149307608604431,0.19476318359375,0.25065717101097107,0.16780748963356018,-0.06467194110155106},{0.15435166656970978,-0.14780549705028534,0.39004918932914734,-0.08858176320791245,-0.07483692467212677,-0.13402235507965088,-0.04449306055903435,0.1894109845161438,-0.031916748732328415,0.12655261158943176,0.11213967949151993,-0.24275174736976624,-0.2941102981567383,0.31289079785346985,-0.20188705623149872,-0.07834289968013763,-0.174660786986351,0.000959251367021352,0.02710418589413166,-0.12854816019535065,0.34361085295677185,-0.3330274224281311,-0.002676915843039751,0.3271861672401428,-0.1672016978263855,0.26831263303756714,-0.10652584582567215,0.02614700049161911,-0.011189398355782032,-0.35761758685112,0.19898061454296112,-0.04231996834278107},{0.29789119958877563,-0.17592576146125793,0.1389986276626587,0.10664322227239609,-0.1497298628091812,0.14965862035751343,-0.15293942391872406,0.16851235926151276,0.21154744923114777,0.14542442560195923,0.195188969373703,-0.10201989114284515,0.354041188955307,-0.11880222707986832,-0.26232507824897766,-0.14344890415668488,-0.04920479655265808,0.1088671013712883,-0.09365788847208023,-0.018162807449698448,-0.3018450438976288,-0.12410382181406021,0.156512051820755,0.11133252829313278,0.21720875799655914,-0.34636467695236206,0.04901432618498802,-0.32316309213638306,0.20608583092689514,-0.06000812351703644,0.23247528076171875,0.06169458106160164},{0.18176493048667908,-0.13679279386997223,-0.17767705023288727,-0.0055310605093836784,0.3244997262954712,-0.06654063612222672,-0.18835371732711792,0.09389219433069229,-0.33963972330093384,-0.13456127047538757,0.08975902944803238,0.15151678025722504,0.36488795280456543,-0.13578428328037262,0.35640817880630493,-0.05788735672831535,-0.20623408257961273,0.3395300805568695,-0.05484039708971977,0.3864191174507141,-0.10039786994457245,-0.27711960673332214,0.21485845744609833,-0.5113250613212585,-0.11461489647626877,-0.06283976137638092,-0.09467729181051254,-0.033203739672899246,-0.2784334123134613,-0.23563584685325623,0.21007724106311798,-0.11931603401899338},{-0.21837346255779266,-0.09466226398944855,0.0251222625374794,0.1959330141544342,-0.10380300879478455,0.1693233698606491,-0.12227477878332138,-0.3828499913215637,-0.22097912430763245,-0.18820446729660034,0.23693983256816864,-0.20270594954490662,0.11651963740587234,-0.05906946212053299,-0.2520838975906372,-0.053355954587459564,0.24235288798809052,-0.06452184915542603,-0.02558809332549572,-0.18261170387268066,0.19195756316184998,0.17374829947948456,-0.1917513906955719,0.19938360154628754,0.20559775829315186,-0.30779963731765747,0.24798564612865448,0.11459983885288239,-0.016310809180140495,-0.1642046868801117,0.3254617154598236,-0.23604317009449005},{-0.16223977506160736,0.2280678153038025,0.10525878518819809,-0.053288381546735764,-0.03878288343548775,-0.29097792506217957,-0.31047844886779785,0.08179493993520737,-0.034594446420669556,-0.1901332587003708,0.3011649549007416,0.13420507311820984,0.1720622479915619,-0.04023701697587967,0.08013324439525604,-0.11859005689620972,-0.11745394766330719,0.12781699001789093,0.2775404155254364,-0.027702514082193375,-0.2101411670446396,-0.18635451793670654,-0.1774652600288391,0.269591748714447,0.08368157595396042,0.3389188349246979,-0.05551560968160629,-0.08809670060873032,-0.1115490272641182,-0.004046832676976919,0.10236572474241257,-0.0600576251745224},{0.1913345903158188,-0.08699363470077515,0.3265117406845093,0.1652526557445526,-0.022944610565900803,0.2104475051164627,0.021854043006896973,-0.29691198468208313,0.09533815085887909,-0.18546585738658905,0.14420761168003082,0.053323376923799515,0.24208344519138336,-0.28416144847869873,0.2832889258861542,0.20376957952976227,0.02670518308877945,0.20753178000450134,0.07796381413936615,0.10435319691896439,-0.2151499092578888,-0.15496233105659485,-0.08890480548143387,-0.0029954868368804455,0.09553676843643188,-0.04062238335609436,-0.14241497218608856,0.21682041883468628,-0.12200533598661423,-0.04667307063937187,0.3441658020019531,-0.2035098373889923},{0.25582876801490784,-0.1997762769460678,0.09535862505435944,-0.27977094054222107,-0.302569180727005,-0.18375664949417114,-0.1540176272392273,-0.3415004014968872,-0.2399328202009201,0.14420144259929657,-0.054535526782274246,0.24101141095161438,-0.056092701852321625,-0.05051826313138008,-0.19832469522953033,-0.3168349266052246,-0.08465176075696945,0.23323704302310944,-0.044980745762586594,-0.2690855860710144,0.061594635248184204,0.046516891568899155,-0.25691527128219604,0.3320479989051819,0.29414355754852295,0.07406315207481384,-0.13197173178195953,-0.2560904026031494,-0.03188028559088707,0.23812708258628845,-0.12605859339237213,0.04046076163649559},{-0.0687718391418457,0.15854324400424957,0.1313304901123047,0.16781949996948242,-0.025603823363780975,-0.25994691252708435,0.09487421810626984,0.1610538214445114,0.21263471245765686,0.18599483370780945,-0.003919065464287996,0.1515478640794754,0.12739667296409607,-0.015781491994857788,-0.024612359702587128,0.2762802243232727,-0.10729102045297623,0.10887908935546875,0.011131959967315197,-0.2751636207103729,-0.015075360424816608,0.2319871187210083,0.22045035660266876,0.22723688185214996,-0.17271511256694794,0.055935364216566086,0.11039315909147263,0.005621578544378281,-0.011026410385966301,-0.10299403220415115,-0.021357856690883636,0.036046721041202545},{0.012917893007397652,0.005678736604750156,-0.13620752096176147,0.37324926257133484,0.18214808404445648,0.18958908319473267,-0.0425352044403553,0.24540014564990997,0.03026726096868515,0.18421721458435059,0.39377692341804504,0.3014458119869232,-0.18209202587604523,0.037381336092948914,-0.027353698387742043,0.13757504522800446,-0.07345295697450638,0.15452919900417328,-0.3594242334365845,0.27295511960983276,0.1254773736000061,0.2529691457748413,0.10808753967285156,0.14537452161312103,0.10129104554653168,0.17071732878684998,-0.06139001622796059,-0.2707083523273468,0.20196738839149475,0.18684746325016022,0.010021403431892395,0.08459542691707611},{0.31961697340011597,0.010515778325498104,0.08299287408590317,-0.0034647006541490555,0.024531971663236618,0.286342978477478,-0.07415641099214554,-0.2874465882778168,-0.12986159324645996,0.13775141537189484,-0.08341747522354126,0.19564980268478394,0.08074989914894104,-0.08179865032434464,-0.08164730668067932,0.27155235409736633,0.44465288519859314,0.31316596269607544,-0.08171090483665466,-0.053380273282527924,0.022674787789583206,-0.15551446378231049,0.29838308691978455,-0.10932931303977966,0.0010110981529578567,0.0636553168296814,-0.1923188865184784,0.12617751955986023,-0.0725906640291214,-0.1860065758228302,-0.2725006937980652,0.08833847939968109},{0.06696219742298126,0.19331690669059753,0.05902223661541939,0.12977521121501923,0.15222063660621643,-0.03701171278953552,-0.1633160561323166,0.2787156403064728,0.06919796764850616,-0.0653194934129715,-0.2118249237537384,0.009297867305576801,0.031724072992801666,-0.10213348269462585,0.026808151975274086,0.02743072621524334,0.07441389560699463,0.29874953627586365,0.16344709694385529,-0.11234038323163986,0.054060693830251694,-0.1317475587129593,-0.1136997789144516,0.2543852925300598,-0.1447056084871292,-0.20251472294330597,0.1579803228378296,0.17838969826698303,0.02501078136265278,-0.03694809973239899,-0.09706246107816696,-0.17606990039348602},{0.2571278512477875,-0.11136672645807266,0.2335837036371231,-0.33306217193603516,-0.3072264790534973,-0.18586736917495728,0.11117865145206451,-0.382011741399765,-0.15524113178253174,-0.14181551337242126,-0.3589722216129303,-0.07007776200771332,0.051409270614385605,0.025219187140464783,-0.12821505963802338,0.3108636736869812,0.2770974338054657,0.010398619808256626,0.26070713996887207,-0.020268619060516357,0.06407633423805237,-0.16340233385562897,0.09599119424819946,0.13755683600902557,0.32432249188423157,-0.13945727050304413,-0.011593887582421303,-0.040874406695365906,-0.26508209109306335,0.20032387971878052,-0.024341657757759094,0.2920999825000763},{0.08727339655160904,0.11605087667703629,0.16951677203178406,0.07260196655988693,0.12837563455104828,0.15433579683303833,0.013500581495463848,0.0614778995513916,0.13846643269062042,0.0430542454123497,0.11235078424215317,0.19113317131996155,0.30318769812583923,0.014648756943643093,0.1384791135787964,-0.12575344741344452,-0.26020145416259766,0.04340698570013046,-0.04188859462738037,0.00993212591856718,0.2508813738822937,0.09909005463123322,-0.11913102120161057,-0.14463108777999878,-0.10075199604034424,0.1367492526769638,0.033096615225076675,0.3253750205039978,0.19332638382911682,0.1348835825920105,-0.06117459014058113,-0.1522807776927948},{-0.2611536979675293,0.28864532709121704,-0.04759218543767929,-0.2194552719593048,0.19256938993930817,0.021859245374798775,0.010759107768535614,-0.1146053671836853,0.3356591761112213,-0.051064033061265945,0.006838634610176086,-0.2454463243484497,0.09312047064304352,0.08521851897239685,-0.34469491243362427,-0.11063692718744278,-0.22029347717761993,0.017260482534766197,-0.1596497744321823,0.3059231638908386,0.19656482338905334,0.23156270384788513,0.067322738468647,-0.3520928621292114,-0.3019057512283325,-0.23439182341098785,-0.02922305278480053,-0.1336831897497177,0.33283355832099915,-0.14032071828842163,0.21060819923877716,0.36985403299331665},{0.0235647764056921,0.15127044916152954,0.11294518411159515,0.1261010468006134,-0.1861514449119568,0.13737720251083374,0.04787352681159973,0.022986095398664474,-0.3619537353515625,-0.2686462998390198,0.20890739560127258,-0.25833162665367126,0.22393646836280823,0.02963913045823574,0.10051363706588745,0.04752905294299126,0.09137655049562454,-0.14541754126548767,-0.15766564011573792,-0.14628326892852783,0.07504203170537949,-0.008832057937979698,0.09323783963918686,-0.21198712289333344,0.2767634689807892,-0.09146648645401001,-0.07013723254203796,0.1437537521123886,-0.159946009516716,0.17977988719940186,-0.08012375235557556,-0.0702289268374443},{-0.27127474546432495,-0.3243725299835205,0.42287763953208923,-0.2556314766407013,-0.2156442105770111,0.2294742614030838,0.35050392150878906,0.2669687569141388,-0.2862130403518677,-0.2181958705186844,-0.042624581605196,-0.163093701004982,-0.05614614114165306,-0.04831596836447716,-0.16538827121257782,0.3000534474849701,-0.06387685239315033,0.1289517879486084,0.12417024374008179,0.01941690407693386,-0.14082886278629303,0.1782386302947998,0.35566022992134094,0.14833414554595947,-0.10491036623716354,-0.23188930749893188,-0.22450031340122223,-0.027979407459497452,-0.2939048111438751,0.14527790248394012,-0.2181714028120041,0.30548182129859924},{-0.24067550897598267,-0.25586578249931335,-0.20652054250240326,0.0152610894292593,-0.18597924709320068,-0.1619192361831665,-0.02665461041033268,-0.19280119240283966,0.09162028878927231,0.28856930136680603,0.06968729943037033,0.17886416614055634,-0.14397300779819489,0.3265012502670288,0.07957017421722412,0.29997968673706055,0.031456802040338516,-0.26970362663269043,0.3024541139602661,-0.04119069501757622,-0.2329457402229309,0.03603658080101013,0.17725391685962677,-0.11221181601285934,-0.295678973197937,0.29100510478019714,0.2946303188800812,-0.07442052662372589,-0.1471339911222458,-0.21349893510341644,-0.22119510173797607,0.33740419149398804},{0.11714565008878708,0.01767328381538391,0.2630433738231659,-0.010004774667322636,-0.16470059752464294,-0.3033975660800934,-0.02508639171719551,-0.053481195122003555,0.4232104420661926,-0.018917065113782883,-0.3185124397277832,-0.37438929080963135,0.2998974025249481,0.17366628348827362,-0.19737963378429413,-0.1700962632894516,-0.3093658685684204,-0.13162676990032196,-0.06837037205696106,-0.015275263227522373,0.22601042687892914,0.16215233504772186,-0.07696357369422913,0.05487387999892235,-0.08496516197919846,-0.3146451711654663,0.09607802331447601,-0.12255624681711197,-0.33282822370529175,0.06805325299501419,-0.10725587606430054,0.04659837484359741},{0.16078795492649078,-0.01630069874227047,0.4576147198677063,0.2616683542728424,0.15711121261119843,0.17922860383987427,0.10635106265544891,-0.09315821528434753,0.2381080687046051,-0.218457892537117,0.06919954717159271,0.0018248541746288538,0.0024707443080842495,-0.09373178333044052,-0.02395090088248253,0.0921948179602623,-0.04515566676855087,-0.15947692096233368,-0.05132373422384262,-0.04549170285463333,-0.3317948281764984,-0.11627636849880219,0.02105780318379402,0.0895116999745369,0.00395382521674037,-0.08107475936412811,-0.06491944193840027,-0.22101455926895142,-0.0583973191678524,0.0006761703407391906,-0.1164628118276596,0.08672601729631424},{-0.31190988421440125,-0.5143654346466064,-0.058455441147089005,-0.14380787312984467,0.4255669116973877,0.31199342012405396,0.1877167671918869,0.3842742145061493,-0.04939800873398781,-0.49502065777778625,0.024366086348891258,-0.15015456080436707,-0.17397212982177734,-0.41133707761764526,0.0015278620412573218,0.048379603773355484,0.2646525204181671,0.05419585853815079,0.07243968546390533,0.05688522383570671,0.06666167825460434,-0.09683766216039658,-0.06921415030956268,-0.044584453105926514,0.180567666888237,0.4840940833091736,-0.013362034223973751,0.028160618618130684,0.3437243402004242,0.27019792795181274,0.041166067123413086,0.1721811592578888},{-0.20211391150951385,0.034190189093351364,0.17088362574577332,0.10228529572486877,0.05976536124944687,0.22521522641181946,-0.28097671270370483,0.0979774221777916,0.22468821704387665,0.43999263644218445,-0.12529943883419037,0.33991289138793945,-0.23254141211509705,0.07242704927921295,-0.17375795543193817,0.021054668352007866,-0.25694775581359863,-0.47574710845947266,-0.15611398220062256,-0.22879232466220856,-0.31620660424232483,-0.0065902299247682095,-0.4303739070892334,0.21105526387691498,0.1743709146976471,-0.11277604103088379,0.30369871854782104,-0.279064416885376,-0.16725055873394012,0.09663061797618866,0.11034435033798218,0.187312051653862},{-0.08183737099170685,-0.1456722915172577,0.09831596910953522,0.31316182017326355,-0.08889460563659668,-0.1754421591758728,-0.33887940645217896,-0.07530812919139862,0.2765033543109894,0.3437967896461487,-0.2818317711353302,-0.0013424826320260763,0.16330313682556152,0.07990549504756927,-0.18989433348178864,-0.20907822251319885,0.02255324274301529,0.015851249918341637,-0.1782648265361786,0.1392991989850998,-0.1700788289308548,0.26629209518432617,-0.08653826266527176,-0.26840800046920776,0.07211422175168991,0.07860510796308517,-0.215066060423851,-0.15118524432182312,-0.18791426718235016,0.10492929071187973,-0.207193061709404,0.11848989874124527},{-0.12215118110179901,0.0626663938164711,0.19598029553890228,-0.375742107629776,-0.28848740458488464,-0.04097066447138786,0.025570809841156006,-0.07364236563444138,0.09058667719364166,0.10240675508975983,-0.06304691731929779,-0.02484736777842045,-0.052255235612392426,0.20493930578231812,-0.09616970270872116,0.08490081876516342,-0.1473248451948166,-0.09222051501274109,-0.1293593794107437,0.2714911103248596,-0.18283265829086304,-0.22179001569747925,0.1364278942346573,-0.034169960767030716,0.030589474365115166,-0.15238088369369507,0.0929584875702858,-0.11432721465826035,-0.06642154604196548,0.17433397471904755,0.06308210641145706,0.3608483076095581}};
static const float action_parameterization_distribution_linear_weight[32][4] = {{-0.16980895400047302,-0.23234012722969055,-0.03446223586797714,-0.0554451160132885},{-0.03699120506644249,-0.1658656746149063,0.19518841803073883,0.3250189423561096},{0.13240663707256317,-0.25976434350013733,0.023563111200928688,0.11819195747375488},{0.1578817218542099,-0.10904118418693542,-0.14329692721366882,0.12978099286556244},{0.052581630647182465,-0.11388374865055084,-0.16037049889564514,-0.25763800740242004},{-0.043426837772130966,0.04771618917584419,-0.11673779785633087,-0.10372776538133621},{-0.10727676749229431,0.14266684651374817,0.06270480901002884,-0.17967571318149567},{0.25244346261024475,0.054869651794433594,-0.21156249940395355,-0.20438867807388306},{0.0035040073562413454,-0.08557940274477005,0.0036637221928685904,0.12796618044376373},{0.009259732440114021,-0.07815049588680267,-0.013853590004146099,0.07990529388189316},{0.16903476417064667,0.13317731022834778,-0.09721944481134415,-0.029792435467243195},{0.023418687283992767,-0.260736882686615,-0.04987423121929169,0.2313910722732544},{-0.3220107853412628,0.07715282589197159,0.08023855090141296,0.04852930083870888},{-0.119048111140728,-0.40082335472106934,0.2983511984348297,-0.21032889187335968},{0.2703949511051178,-0.0030253210570663214,-0.013991080224514008,-0.25339317321777344},{-0.05797605216503143,0.009254969656467438,0.08187352865934372,-0.11669251322746277},{-0.18051587045192719,0.01652202568948269,-0.11195003241300583,-0.18087324500083923},{-0.19654512405395508,0.21707668900489807,0.08139052242040634,-0.1112944707274437},{-0.006460139527916908,0.006056090351194143,-0.001871513552032411,-0.00897600594907999},{-0.039523445069789886,-0.1206599548459053,0.02351049706339836,-0.14913184940814972},{0.06731295585632324,0.010719734244048595,0.18431009352207184,-0.16044853627681732},{0.08426875621080399,0.21830786764621735,-0.16536594927310944,0.3914887011051178},{-0.21619701385498047,0.10074018687009811,0.17436595261096954,-0.1552249938249588},{0.07954559475183487,0.012070199474692345,-0.34322232007980347,0.026842765510082245},{-0.26166844367980957,-0.19838416576385498,-0.0847005695104599,-0.17051222920417786},{0.20625054836273193,0.27170780301094055,-0.03858237713575363,-0.21476750075817108},{-0.11804584413766861,0.1465931236743927,0.21680249273777008,0.21265500783920288},{0.05673243850469589,0.12140714377164841,0.2848069369792938,0.23778465390205383},{0.029147952795028687,0.1311623901128769,-0.21130846440792084,0.0381496362388134},{-0.0073640355840325356,0.15206289291381836,0.04543055221438408,0.17313505709171295},{0.09316713362932205,0.2345879077911377,0.09846919029951096,0.07175198197364807},{-0.15754127502441406,-0.05689514800906181,0.07920441031455994,-0.05326955020427704}};
static const float actor_encoder_neighbor_encoder_embedding_mlp_0_bias[8] = {0.13559629023075104,0.044861748814582825,0.023604385554790497,0.02685713954269886,-0.044106509536504745,-0.007899639196693897,0.01379768829792738,0.011479133740067482};
static const float actor_encoder_neighbor_encoder_embedding_mlp_2_bias[8] = {-0.047638535499572754,0.008050452917814255,-0.0024574087001383305,0.0001670129713602364,-0.02371685951948166,-0.01644248515367508,0.04848532751202583,-0.058927398175001144};
static const float actor_encoder_self_encoder_0_bias[16] = {-0.1378403753042221,0.04584163799881935,0.04007567837834358,-0.017253782600164413,-0.006955061107873917,0.059576764702796936,-0.004247219767421484,0.04652263596653938,-0.011786341667175293,0.05963078513741493,-0.0783681571483612,0.005987740121781826,-0.012431386858224869,-0.10058367997407913,0.02381649613380432,0.10617314279079437};
static const float actor_encoder_self_encoder_2_bias[16] = {-0.06871184706687927,0.04102863743901253,0.012597941793501377,-0.10358438640832901,-0.06309378892183304,0.11600711196660995,0.01798282004892826,-0.01818705163896084,-0.09965880960226059,-0.06038299575448036,-0.049355458468198776,0.116627536714077,-0.040109481662511826,0.04672712832689285,-0.009132301434874535,-0.06307810544967651};
static const float actor_encoder_obstacle_encoder_0_bias[8] = {-0.05898018926382065,0.11785537749528885,-0.008113234303891659,0.041127536445856094,0.280966192483902,0.1860964596271515,0.07047686725854874,0.16086967289447784};
static const float actor_encoder_obstacle_encoder_2_bias[8] = {0.02521689236164093,-0.040406227111816406,0.07150880992412567,0.13730965554714203,-0.0674152672290802,-0.020638009533286095,0.04013975337147713,0.004131433088332415};
static const float actor_encoder_feed_forward_0_bias[32] = {-0.01698233187198639,-0.0036441823467612267,-0.08821364492177963,-0.046378765255212784,-0.004613748751580715,0.02518363483250141,-0.04459370672702789,-0.06085122004151344,-0.023880425840616226,0.017852481454610825,-0.014908582903444767,0.10831774771213531,0.05337608605623245,-0.0516183041036129,0.04688607528805733,0.05456653609871864,0.002035024343058467,-0.055198173969984055,-0.04225415363907814,0.029404938220977783,-0.034853171557188034,0.024440880864858627,-0.017300067469477654,-0.06675665080547333,-0.0031664103735238314,0.01065579243004322,0.028712259605526924,0.0020294745918363333,0.06005537882447243,0.01932442933320999,-0.03615104779601097,-0.02781122736632824};
static const float action_parameterization_distribution_linear_bias[4] = {0.0008063578861765563,-0.02605104073882103,-0.02087717317044735,0.013915898278355598};

void neighborEmbeddings(const float neighbors_array[NEIGHBORS][NBR_OBS_DIM]) {
  //reset embeddings accumulator to zero
  memset(neighbor_embeds, 0, sizeof(neighbor_embeds));

  // get the neighbor embeddings
  for (int n = 0; n < NEIGHBORS; n++) {
    for (int i = 0; i < structure[2][1]; i++) {
      output_2[i] = 0;
      for (int j = 0; j < structure[2][0]; j++) {
        output_2[i] += neighbors_array[n][j] * actor_encoder_neighbor_encoder_embedding_mlp_0_weight[j][i];
      }
      output_2[i] += actor_encoder_neighbor_encoder_embedding_mlp_0_bias[i];
      output_2[i] = tanhf(output_2[i]);
    }

    for (int i = 0; i < structure[3][1]; i++) {
      output_3[i] = 0;
      for (int j = 0; j < structure[3][0]; j++) {
        output_3[i] += output_2[j] * actor_encoder_neighbor_encoder_embedding_mlp_2_weight[j][i];
      }

      output_3[i] += actor_encoder_neighbor_encoder_embedding_mlp_2_bias[i];
      output_3[i] = tanhf(output_3[i]);
      neighbor_embeds[i] += output_3[i];
    }
  }

  int self_size = structure[1][1]; // size of self embeddings. Need to offset by this much in the embedding array
  // get mean embeddings
  for (int i = 0; i < structure[3][1]; i++) {
    neighbor_embeds[i] /= NEIGHBORS;
    embedding_array[i+self_size] = neighbor_embeds[i];
  }
}

void obstacleEmbeddings(const float obstacles_array[K_OBSTACLES][OBST_OBS_DIM]) {
    // reset the embeddings accumulator to zero
    memset(obstacle_embeds, 0, sizeof(obstacle_embeds));

    // get the obstacle embeddings
    for (int o = 0; o < K_OBSTACLES; o++) {
        for (int i = 0; i < structure[4][1]; i++) {
            output_4[i] = 0;
            for (int j = 0; j < structure[4][0]; j++) {
                output_4[i] += obstacles_array[o][j] * actor_encoder_obstacle_encoder_0_weight[j][i];
            }
            output_4[i] += actor_encoder_obstacle_encoder_0_bias[i];
            output_4[i] = tanhf(output_4[i]);
        }

        for (int i = 0; i < structure[5][1]; i++) {
            output_5[i] = 0;
            for (int j = 0; j < structure[5][0]; j++) {
                output_5[i] += output_4[j] * actor_encoder_obstacle_encoder_2_weight[j][i];
            }

            output_5[i] += actor_encoder_obstacle_encoder_2_bias[i];
            output_5[i] = tanhf(output_5[i]);
            obstacle_embeds[i] += output_5[i];
        }
    }

    int self_offset = structure[1][1];
    int neighbor_offset = structure[3][1];
    int obst_offset = self_offset + neighbor_offset; // size of self embeddings + neighbor embeddings. Need to offset by this much in the final embeddings array
    // get mean embeddings
    for (int i = 0; i < structure[5][1]; i++) {
        obstacle_embeds[i] /= K_OBSTACLES;
        embedding_array[i+obst_offset]  = obstacle_embeds[i];
    }
}

void networkEvaluate(struct control_t_n *control_n, const float *state_array) {
        for (int i = 0; i < structure[0][1]; i++) {
            output_0[i] = 0;
            for (int j = 0; j < structure[0][0]; j++) {
                output_0[i] += state_array[j] * actor_encoder_self_encoder_0_weight[j][i];
            }
            output_0[i] += actor_encoder_self_encoder_0_bias[i];
            output_0[i] = tanhf(output_0[i]);
        }

        for (int i = 0; i < structure[1][1]; i++) {
            embedding_array[i] = 0;
            for (int j = 0; j < structure[1][0]; j++) {
                embedding_array[i] += output_0[j] * actor_encoder_self_encoder_2_weight[j][i];
            }
            embedding_array[i] += actor_encoder_self_encoder_2_bias[i];
            embedding_array[i] = tanhf(embedding_array[i]);
        }

        // last feedforward and action parameterization layers
        for (int i = 0; i < structure[6][1]; i++) {
            output_6[i] = 0;
            for (int j = 0; j < structure[6][0]; j++) {
                output_6[i] += embedding_array[j] * actor_encoder_feed_forward_0_weight[j][i];
            }
            output_6[i] += actor_encoder_feed_forward_0_bias[i];
            output_6[i] = tanhf(output_6[i]);
        }


        for (int i = 0; i < structure[7][1]; i++) {
            output_7[i] = 0;
            for (int j = 0; j < structure[7][0]; j++) {
                output_7[i] += output_6[j] * action_parameterization_distribution_linear_weight[j][i];
            }
            output_7[i] += action_parameterization_distribution_linear_bias[i];
        }

        control_n->thrust_0 = output_7[0];
        control_n->thrust_1 = output_7[1];
        control_n->thrust_2 = output_7[2];
        control_n->thrust_3 = output_7[3];
    }
