
#include "network_evaluate.h"



float linear(float num) {
  return num;
}



float sigmoid(float num) {
  return 1 / (1 + exp(-num));
}



float relu(float num) {
  if (num > 0) {
    return num;
  } else {
    return 0;
  }
}

static const int structure [4][2] = {{18, 16},{16, 16},{16, 32},{32, 4}};
static float output_0[16];
static float output_1[16];
static float output_2[32];
static float output_3[4];
static const float actor_encoder_self_encoder_0_weight[18][16] = {{-0.027854686602950096,0.38422539830207825,0.002962700789794326,-0.10624101758003235,0.010356852784752846,-0.0824318453669548,-0.05553383752703667,0.076380155980587,0.09705395996570587,0.055180080235004425,0.09099521487951279,-0.06139719486236572,-0.1646229773759842,-0.05180063843727112,0.10256767272949219,-0.5004984140396118},{0.02478056401014328,0.16153401136398315,-0.3017229735851288,0.3469437062740326,-0.016099082306027412,0.0354117751121521,0.31255072355270386,0.21626408398151398,0.35011348128318787,0.031316205859184265,0.08934017270803452,-0.020283197984099388,0.003727167146280408,0.3253069221973419,0.08988223224878311,-0.4542374014854431},{-0.21317428350448608,-0.2070404589176178,0.07447297126054764,0.2741016149520874,-0.13535860180854797,0.00367007777094841,0.6708208918571472,-0.4024145007133484,0.14329393208026886,0.15455040335655212,0.5379990935325623,-0.2308340221643448,0.5135178565979004,-0.6947277784347534,-0.08004340529441833,0.21955449879169464},{-0.16195663809776306,0.1464424431324005,-0.21311123669147491,-0.18789371848106384,0.02638973481953144,0.1691742092370987,-0.15341071784496307,0.07762200385332108,-0.24716618657112122,0.009128096513450146,0.11549830436706543,0.024178866297006607,-0.2721731960773468,-0.21426726877689362,0.18071867525577545,-0.40804749727249146},{0.2510967254638672,-0.10981960594654083,-0.16401515901088715,0.2936730682849884,-0.045849818736314774,-0.1551896035671234,0.3811832368373871,0.07960103452205658,0.34103599190711975,-0.10761435329914093,-0.4331078827381134,-0.015430907718837261,0.08033265173435211,0.009205530397593975,-0.1908857822418213,-0.3418308198451996},{-0.048761770129203796,0.1737150400876999,-0.07797178626060486,0.31794118881225586,0.04936325550079346,-0.1828402578830719,0.47928327322006226,0.09471539407968521,0.10598103702068329,-0.06299059092998505,0.2873171865940094,-0.01252899318933487,0.3489549160003662,-0.5912598371505737,0.11881373077630997,-0.0715082436800003},{0.20017188787460327,0.1394190937280655,-0.01212356984615326,0.2704682946205139,0.09021398425102234,0.04705728217959404,0.3826770782470703,0.10927032679319382,-0.10126657783985138,-0.42381811141967773,-0.17407198250293732,0.0783458948135376,-0.005690432153642178,-0.1257276087999344,0.5534098148345947,-0.47042080760002136},{-0.761109471321106,0.28454160690307617,-0.41597503423690796,-0.20293445885181427,-0.19786253571510315,0.4563435912132263,-0.24750974774360657,0.3156908452510834,-0.04588177800178528,-0.22325873374938965,-0.3518395721912384,0.19379784166812897,0.31519708037376404,-0.4221152663230896,0.4232151210308075,0.08523893356323242},{-0.30694249272346497,0.11808955669403076,-0.37211939692497253,0.26415878534317017,0.33560842275619507,-0.579849362373352,-0.25133392214775085,0.15158408880233765,-0.3346529006958008,-0.13236327469348907,0.02181044965982437,0.03477713465690613,0.38457101583480835,0.3605194389820099,-0.3913281261920929,-0.12558384239673615},{0.5713703632354736,-0.4576279819011688,0.16297747194766998,-0.326080858707428,-0.26723432540893555,-0.8497822880744934,-0.07354006916284561,-0.5739309787750244,-0.5691587328910828,-0.4009758532047272,0.21632090210914612,0.31127485632896423,-0.2504166066646576,-0.290894478559494,-0.19342966377735138,-0.35970792174339294},{0.44987350702285767,0.33654671907424927,0.04354602098464966,-0.2238718867301941,0.00011433622421463951,-0.48443683981895447,-0.02406727895140648,0.019739137962460518,0.16460596024990082,0.13888533413410187,0.04895760118961334,-0.03223684802651405,-0.2497730404138565,0.15922172367572784,0.0545678436756134,0.26238730549812317},{0.022437160834670067,0.003746401984244585,-0.30550724267959595,-0.001738589839078486,0.16855207085609436,-0.23267050087451935,-0.3918273150920868,0.4149995446205139,0.6847058534622192,-0.5369135141372681,-0.400704562664032,-0.0556211993098259,0.0994226336479187,-0.47747865319252014,-0.15023523569107056,-0.29671069979667664},{0.026869341731071472,-0.7535351514816284,-0.28080278635025024,0.5672076344490051,-1.2785714864730835,0.02296125330030918,-0.2765703499317169,-0.33007127046585083,0.5839330554008484,-0.9358989000320435,0.1382821500301361,0.6152149438858032,0.05889154225587845,0.22337546944618225,0.48028698563575745,0.39531174302101135},{0.0760689377784729,0.0701243206858635,-0.5902596116065979,-0.8111924529075623,0.4885745644569397,-0.15138840675354004,0.31251609325408936,-0.7620355486869812,0.16534209251403809,0.8508073687553406,-0.13416889309883118,1.1241906881332397,0.4956359267234802,-0.03464949503540993,0.11315042525529861,0.20283986628055573},{-0.1506282389163971,0.011194885708391666,0.08543737977743149,0.05264485627412796,-0.1802847534418106,-0.3923187255859375,-0.2066687047481537,0.1923830658197403,0.14117762446403503,-0.39613860845565796,0.5164563655853271,-0.22304277122020721,0.01747629977762699,-0.03524330258369446,0.5938431620597839,-0.10523787885904312},{-0.1611887514591217,0.17275838553905487,0.0773555114865303,-0.09385078400373459,0.012659071013331413,-0.02119235135614872,-0.023064039647579193,-0.055313147604465485,0.5430272817611694,0.3252917528152466,0.0635862722992897,0.11075467616319656,-0.014641059562563896,0.17746858298778534,0.1045083999633789,0.06971404701471329},{-0.0688905194401741,-0.20931324362754822,0.42453715205192566,0.00479702977463603,0.13176190853118896,0.14794108271598816,0.2008964717388153,0.10235600918531418,-0.1032261848449707,0.1754724085330963,0.24030788242816925,-0.04993021488189697,0.10917696356773376,-0.02285166084766388,0.280118465423584,-0.3026459217071533},{0.5980808734893799,0.14429986476898193,-0.4473930299282074,0.08678782731294632,0.07993880659341812,-0.3162323236465454,-0.2254084050655365,-0.1312209963798523,-0.11883217096328735,-0.05313543602824211,0.16722549498081207,-0.016996048390865326,-0.009193054400384426,-0.0026747083757072687,-0.24655012786388397,-0.23366853594779968}};
static const float actor_encoder_self_encoder_2_weight[16][16] = {{0.29155126214027405,-0.1731521636247635,-0.4958518147468567,0.27861857414245605,-0.32323893904685974,0.09824638813734055,-0.2676694691181183,-0.2210346907377243,-0.3107665181159973,0.09207125753164291,-0.3210931122303009,-0.10108616203069687,-0.15541568398475647,0.16123567521572113,-0.3566771149635315,0.22125773131847382},{-0.13164375722408295,-0.1303725689649582,0.09965065866708755,0.03177034482359886,-0.04592158645391464,0.14200374484062195,-0.1564350575208664,-0.34338486194610596,0.18857845664024353,-0.08710657060146332,0.08398615568876266,0.1390894502401352,0.31945961713790894,0.3547571003437042,0.334146112203598,0.3834729492664337},{-0.2870387136936188,-0.04651099070906639,-0.21245308220386505,0.1178024411201477,0.3148612976074219,0.0888642966747284,0.011671576648950577,-0.03918614611029625,0.27939286828041077,-0.2984525263309479,0.2176106721162796,-0.3682192862033844,-0.09555032104253769,0.059865742921829224,0.25730106234550476,0.16551026701927185},{0.4850258231163025,0.06319976598024368,0.02686661295592785,-0.42285630106925964,-0.2946406602859497,-0.18401148915290833,0.0002048698515864089,0.05155178904533386,-0.09303777664899826,0.04490061476826668,-0.11214616149663925,-0.13252045214176178,-0.0972406193614006,-0.285849928855896,-0.010387696325778961,-0.344786137342453},{-0.18914783000946045,0.19562409818172455,-0.2203637808561325,0.4749748706817627,0.3608698844909668,0.43606358766555786,-0.1285131573677063,-0.1713891476392746,0.2696773409843445,-0.06726662069559097,0.2786913216114044,-0.1518402248620987,-0.177780881524086,0.15080364048480988,-0.10841899365186691,0.3576935827732086},{-0.26862797141075134,0.24889415502548218,0.38681289553642273,-0.20049305260181427,0.10420820116996765,-0.0892803966999054,-0.193787083029747,-0.5263407826423645,-0.12434722483158112,0.13502533733844757,-0.04409415274858475,0.10764982551336288,-0.20253030955791473,-0.0030247794929891825,0.15134170651435852,-0.2868574857711792},{-0.1645631194114685,-0.07123855501413345,0.4385608732700348,0.11348489671945572,-0.161589115858078,-0.05614776164293289,0.02959267981350422,0.40789952874183655,0.06732096523046494,-0.3633210361003876,0.19730526208877563,-0.2892411947250366,0.30482617020606995,0.21663092076778412,-0.365556925535202,-0.3271317481994629},{-0.4693155586719513,-0.041219692677259445,0.15467797219753265,-0.08738570660352707,-0.41735631227493286,-0.4578602910041809,0.04431658238172531,-0.12919892370700836,0.054798927158117294,-0.173455148935318,0.10163091123104095,0.24597950279712677,0.3277685046195984,-0.2605811655521393,0.4586860239505768,0.2150474339723587},{-0.269715279340744,0.06411008536815643,0.059806521981954575,-0.15084683895111084,-0.29064714908599854,-0.17817285656929016,0.4625415503978729,-0.2842314541339874,-0.13448134064674377,0.05695657804608345,-0.2678414583206177,-0.3416585326194763,-0.042440250515937805,-0.08377820253372192,-0.28478267788887024,-0.12512201070785522},{0.38671430945396423,-0.3629625141620636,-0.12766282260417938,-0.20513036847114563,0.05764228105545044,0.06025472283363342,0.32622551918029785,-0.18800897896289825,0.3311431109905243,0.16159749031066895,0.31627967953681946,0.19154217839241028,0.06495759636163712,0.41063225269317627,0.15337476134300232,0.0442495197057724},{0.42705368995666504,0.3418363630771637,0.07172761857509613,0.24357134103775024,0.07287047058343887,-0.008067240938544273,0.13409623503684998,0.15836599469184875,-0.4381263554096222,0.04465126246213913,0.06319108605384827,0.2727547287940979,-0.4166720509529114,0.23600897192955017,-0.49428805708885193,0.2547495365142822},{-0.014835359528660774,-0.15837453305721283,-0.0992807000875473,-0.18934082984924316,0.1099335104227066,-0.17034144699573517,0.08478963375091553,-0.36077338457107544,-0.16942059993743896,0.3246021568775177,0.304142028093338,-0.42179152369499207,0.4335024952888489,-0.08926687389612198,0.18054862320423126,0.47049474716186523},{-0.19247250258922577,0.25802186131477356,0.28099343180656433,-0.21449610590934753,0.2322334349155426,0.2609660029411316,0.16610300540924072,0.10449198633432388,-0.2599915862083435,0.41032350063323975,0.011473651975393295,0.3732684254646301,-0.14194469153881073,0.16493794322013855,0.23455826938152313,0.09915176033973694},{-0.2148183435201645,-0.22136160731315613,-0.1767607480287552,0.290947288274765,0.0222596675157547,-0.11917882412672043,-0.16299870610237122,-0.05559885874390602,-0.2535521686077118,-0.16131334006786346,0.25007131695747375,-0.31921085715293884,-0.11986995488405228,-0.23398174345493317,0.40293240547180176,-0.042547933757305145},{-0.48063233494758606,-0.11306089162826538,0.1888141930103302,0.12589283287525177,-0.13911588490009308,0.18683385848999023,0.005182614549994469,0.15761758387088776,-0.3373814523220062,0.3407977521419525,0.2515861690044403,-0.12375888228416443,-0.3062700033187866,-0.009323743171989918,0.07288206368684769,-0.27040421962738037},{0.11657004058361053,0.16035562753677368,0.2582438588142395,-0.2737678587436676,-0.0016483397921547294,0.19648602604866028,0.11173535138368607,0.16910314559936523,-0.38937923312187195,0.33443817496299744,0.14402739703655243,0.14226078987121582,0.46679389476776123,0.13691934943199158,0.172284796833992,-0.36994650959968567}};
static const float actor_encoder_feed_forward_0_weight[16][32] = {{0.16393615305423737,0.0030121568124741316,-0.13246913254261017,-0.11651499569416046,-0.2799427807331085,0.1848103404045105,0.11140502244234085,0.04510003700852394,0.038179196417331696,0.04193771257996559,-0.3721030354499817,-0.07029359042644501,0.02632097341120243,0.21174779534339905,0.22651521861553192,-0.25116661190986633,-0.21775034070014954,-0.2849917411804199,-0.30284181237220764,-0.20695951581001282,0.28247976303100586,-0.3643938899040222,-0.25654736161231995,0.11231215298175812,-0.16370654106140137,0.07505085319280624,-0.31872645020484924,-0.18078196048736572,0.3095124065876007,0.35680246353149414,-0.14630159735679626,-0.15713800489902496},{0.04698355123400688,-0.2761988043785095,0.18416935205459595,-0.22272123396396637,0.05613186955451965,0.30260929465293884,0.07573146373033524,-0.16282540559768677,0.15453429520130157,-0.23180441558361053,-0.35800015926361084,-0.08749433606863022,0.0861329659819603,0.1268274039030075,0.31197190284729004,0.06053027883172035,0.1758098304271698,-0.23862610757350922,-0.20444424450397491,0.23728403449058533,-0.1369599997997284,0.17129510641098022,0.07622577250003815,0.14516296982765198,0.19897301495075226,0.2020406424999237,-0.2481645941734314,-0.38151705265045166,-0.07357462495565414,-0.14926548302173615,-0.11097901314496994,-0.043379947543144226},{-0.19363203644752502,0.10556238144636154,0.3296284079551697,0.1022249236702919,0.14294803142547607,-0.15994608402252197,0.25073644518852234,0.28569355607032776,-0.2322346568107605,0.10660869628190994,0.22887860238552094,0.17874430119991302,-0.4251744747161865,0.23732726275920868,0.2563292980194092,0.03813687339425087,0.21563780307769775,0.006689720321446657,-0.20206879079341888,0.3067221939563751,-0.012308214791119099,0.38634732365608215,-0.24748292565345764,0.10894900560379028,-0.295059472322464,-0.0441962331533432,-0.42303550243377686,0.02835911139845848,0.20270410180091858,-0.299941748380661,-0.14938686788082123,-0.38377588987350464},{0.16962002217769623,0.1519772708415985,0.13263636827468872,-0.39740848541259766,-0.0607522614300251,0.24364563822746277,-0.0755251869559288,-0.41756096482276917,-0.16768616437911987,0.16620130836963654,-0.2914367914199829,-0.04712667688727379,-0.006787619553506374,-0.2678098678588867,-0.38556864857673645,0.2316478192806244,-0.013116675429046154,0.13955479860305786,-0.1322782039642334,0.19146497547626495,0.2752896547317505,0.01395813375711441,0.3399757742881775,-0.1519051045179367,-0.06681285798549652,0.05435560271143913,0.051564279943704605,-0.08543366938829422,0.2930035889148712,-0.2506645917892456,0.022214937955141068,0.26167604327201843},{0.27451202273368835,-0.2484028935432434,0.09151355177164078,-0.2372160255908966,0.2417888045310974,0.03466486185789108,0.25348424911499023,-0.008615524508059025,-0.013814659789204597,-0.34025976061820984,-0.31309667229652405,0.17023605108261108,0.14408151805400848,0.17305228114128113,-0.060080885887145996,0.2211042046546936,-0.32097747921943665,-0.1450061947107315,-0.006382244639098644,0.04805595427751541,0.33700209856033325,-0.03527068719267845,-0.10837167501449585,0.0776531919836998,-0.1700909435749054,0.34234485030174255,0.15444627404212952,-0.22880211472511292,-0.22675754129886627,0.07675998657941818,0.12357692420482635,-0.2981485426425934},{0.27095338702201843,0.002067086286842823,0.21000921726226807,0.12672515213489532,0.2749302089214325,0.09434705972671509,0.07755739986896515,0.0521366223692894,0.3887177109718323,0.11266028136014938,-0.1971941739320755,0.11724399030208588,-0.2065703272819519,0.023740962147712708,-0.09277474880218506,0.13115194439888,-0.239911749958992,-0.1862889975309372,-0.11153211444616318,0.33337345719337463,-0.06606285274028778,0.09635994583368301,-0.2096760869026184,-0.047844573855400085,0.03810355067253113,-0.21142345666885376,0.021242216229438782,0.051634781062603,-0.2599520981311798,0.19791880249977112,-0.2838817834854126,-0.33615174889564514},{-0.11992011964321136,0.05785388499498367,-0.23953136801719666,-0.1689317375421524,0.1743960976600647,0.16092941164970398,-0.013343045487999916,0.10775086283683777,-0.09155093133449554,0.3053688108921051,0.06840034574270248,-0.128103107213974,0.03179748356342316,-0.17522045969963074,0.05605333298444748,0.027372129261493683,0.2233671247959137,-0.28142067790031433,-0.02202451415359974,0.17711873352527618,0.2601223587989807,-0.0034571464639157057,-0.3461994528770447,0.029689747840166092,0.09111787378787994,0.005551018752157688,0.2047773152589798,-0.3323945701122284,-0.3447273075580597,0.10767203569412231,0.005560357589274645,-0.3062662184238434},{0.1360219120979309,0.3671254515647888,0.09381033480167389,-0.08768433332443237,0.028521820902824402,0.19472815096378326,-0.2563978135585785,0.2595349848270416,0.332477331161499,0.03218582645058632,-0.42917171120643616,-0.3477707505226135,0.09143064171075821,-0.14257527887821198,0.12900274991989136,0.23814994096755981,0.0015118072042241693,0.3659706711769104,-0.08732166141271591,-0.3452257215976715,0.13975104689598083,-0.27922070026397705,-0.41361507773399353,-0.21241433918476105,-0.06846433132886887,-0.31035315990448,-0.005549245979636908,0.3281725347042084,0.22045020759105682,-0.14700902998447418,-0.12057962268590927,-0.29278573393821716},{-0.31618764996528625,-0.12744402885437012,-0.31154224276542664,-0.11781566590070724,0.29645416140556335,0.32833078503608704,0.4286476969718933,-0.008514568209648132,-0.26295915246009827,0.03683057054877281,-0.2812264561653137,0.23899714648723602,0.14744074642658234,-0.09596773982048035,0.051793232560157776,-0.14003722369670868,0.10257944464683533,0.017194857820868492,0.3027398884296417,0.05749494582414627,0.30799609422683716,-0.1451839655637741,0.11764641106128693,-0.3784431219100952,0.4726807177066803,0.1162114292383194,0.007912646979093552,-0.07469769567251205,0.34588944911956787,-0.2539187967777252,-0.13502058386802673,0.0677550658583641},{0.14150205254554749,0.2107265442609787,0.5036769509315491,0.058331962674856186,-0.012342415750026703,-0.2666712701320648,-0.10633700340986252,-0.36998826265335083,-0.011484739370644093,0.023516982793807983,-0.017018629238009453,-0.19414758682250977,-0.052205152809619904,-0.06330248713493347,0.20762908458709717,0.2742331027984619,0.34403929114341736,-0.31186017394065857,-0.05816821753978729,-0.33662381768226624,0.1709752380847931,-0.013800505548715591,0.07368110120296478,-0.13976186513900757,-0.1072746217250824,0.3754070997238159,0.4099559783935547,-0.048298805952072144,-0.2797878682613373,-0.062281232327222824,-0.08259301632642746,-0.2074720412492752},{-0.18189524114131927,0.10934827476739883,-0.0023238458670675755,-0.06834789365530014,0.027394888922572136,-0.18096935749053955,0.23525747656822205,0.20363518595695496,-0.19024577736854553,0.09673846513032913,-0.10913804173469543,-0.1052464097738266,0.0843290165066719,-0.28824520111083984,0.1865764707326889,-0.08119149506092072,-0.02779773250222206,-0.1862919181585312,0.26087021827697754,0.24473005533218384,-0.17858169972896576,0.12642136216163635,0.15074804425239563,-0.11629326641559601,-0.06419137865304947,-0.02528487518429756,0.26232418417930603,0.3974554240703583,-0.25943559408187866,-0.10898887366056442,-0.24976947903633118,0.1309489607810974},{0.3046427369117737,-0.2595743238925934,-0.009009006433188915,-0.13931313157081604,0.24516262114048004,0.1538197100162506,0.20252011716365814,0.1479402333498001,0.19380517303943634,-0.18039391934871674,0.15945330262184143,0.10208529978990555,-0.21165628731250763,-0.284451961517334,-0.172395721077919,-0.12388533353805542,-0.23842357099056244,-0.24492371082305908,-0.20806607604026794,-0.10308796167373657,-0.2007633000612259,0.09486795216798782,-0.3676621913909912,-0.22782814502716064,0.03541888669133186,0.000964028004091233,-0.038409944623708725,0.0486687496304512,0.10835332423448563,-0.24755771458148956,0.08945296704769135,-0.014728556387126446},{-0.1125798374414444,0.17562049627304077,-0.07790272682905197,-0.08394347876310349,-0.1714821457862854,-0.1561107635498047,-0.02924574539065361,0.1968323439359665,-0.2464439421892166,0.3136499524116516,0.15665042400360107,-0.19909796118736267,-0.08074109256267548,-0.07783330231904984,0.21766455471515656,0.20116981863975525,-0.33070069551467896,0.07564394921064377,-0.27386710047721863,-0.015400420874357224,0.1258358657360077,-0.3216177523136139,0.049088362604379654,0.07580053061246872,0.24484114348888397,0.10573922842741013,0.327536016702652,0.10234217345714569,0.19860629737377167,0.11746690422296524,-0.2605741024017334,0.004820876754820347},{-0.07279225438833237,-0.37414616346359253,0.15064804255962372,0.2430260330438614,0.054660797119140625,0.0595344714820385,-0.311665803194046,-0.1674821376800537,0.19378909468650818,0.3520875573158264,-0.5250706672668457,0.2840803563594818,0.002846968127414584,-0.04712970554828644,0.3102681636810303,0.11647005379199982,0.1148490309715271,-0.08955569565296173,0.17818598449230194,-0.2572820484638214,0.12400608509778976,-0.3884727358818054,-0.26662611961364746,-0.1333838552236557,0.2792847156524658,-0.010697701014578342,-0.28427302837371826,-0.23006467521190643,0.10203564167022705,-0.010369809344410896,0.15345358848571777,-0.11727505922317505},{-0.40262454748153687,0.4763888716697693,0.02524903230369091,0.18862757086753845,-0.1566886454820633,-0.2461734265089035,0.12472891062498093,-0.12365376949310303,-0.14401893317699432,0.03341078385710716,-0.06923257559537888,-0.3661172091960907,-0.21448372304439545,-0.20324379205703735,0.05628501623868942,0.037760596722364426,0.24331773817539215,-0.049307696521282196,-0.3522055149078369,-0.16229595243930817,-0.34233319759368896,-0.015701552852988243,0.31264984607696533,-0.16537122428417206,0.06687319278717041,0.3515273928642273,0.16303008794784546,0.390663743019104,-0.06039031222462654,-0.398942768573761,0.15688365697860718,-0.04975450038909912},{-0.08164780586957932,0.34845590591430664,0.27972888946533203,-0.14000631868839264,-0.2217588722705841,0.09682255983352661,-0.15545085072517395,-0.13889828324317932,0.31045520305633545,-0.08825981616973877,0.2559725046157837,0.10809498280286789,0.2659061849117279,0.08631491661071777,-0.29353106021881104,0.04884498938918114,-0.011545723304152489,-0.1267756074666977,0.213697150349617,0.07213159650564194,0.29040029644966125,0.1452426314353943,-0.14025980234146118,0.07319431751966476,-0.11135934293270111,0.10698608309030533,0.2366044968366623,-0.053595516830682755,-0.2901257574558258,-0.19277922809123993,0.20740824937820435,-0.33220890164375305}};
static const float action_parameterization_distribution_linear_weight[32][4] = {{-0.11860190331935883,-0.16256359219551086,0.3248782753944397,-0.2711903154850006},{-0.013874942436814308,0.33524516224861145,0.1793283373117447,-0.07839244604110718},{0.40251249074935913,0.11332113295793533,0.005770878866314888,-0.4154747724533081},{-0.35356536507606506,0.32704952359199524,-0.08618497848510742,-0.2932640314102173},{0.08076811581850052,-0.030321205034852028,-0.4517892301082611,-0.02882947213947773},{0.2753670811653137,-0.3322382867336273,-0.09641313552856445,-0.01765264943242073},{-0.06242654472589493,0.2617775499820709,-0.29714512825012207,0.293124794960022},{-0.339884489774704,0.05790992081165314,-0.2207264006137848,0.0010566581040620804},{0.020384911447763443,-0.025179969146847725,-0.03929777443408966,-0.12837132811546326},{0.06579355150461197,-0.1263725310564041,-0.09584331512451172,0.013583158142864704},{0.19018672406673431,0.0994013249874115,0.052696894854307175,0.23297180235385895},{-0.13820520043373108,-0.3007778227329254,-0.29667121171951294,-0.12073031812906265},{0.07227937132120132,0.22764579951763153,0.2041502743959427,-0.07437706738710403},{-0.16035398840904236,0.2041991800069809,-0.3255901336669922,-0.09156081080436707},{-0.39017385244369507,0.11703188717365265,-0.19011352956295013,-0.3841504454612732},{0.1321103274822235,0.23896197974681854,-0.14077456295490265,-0.027626752853393555},{-0.2564243674278259,0.2506393790245056,-0.005969515535980463,-0.32429900765419006},{-0.1564496010541916,-0.10864148288965225,0.1983874887228012,-0.1320314109325409},{0.0225522480905056,-0.2382131963968277,-0.1768360584974289,-0.19213075935840607},{0.29488232731819153,0.016748588532209396,0.01982785202562809,0.25941455364227295},{0.42826908826828003,0.05984789505600929,-0.25065210461616516,-0.3751457929611206},{-0.2584703266620636,-0.029617588967084885,-0.1402987688779831,0.36726415157318115},{0.43249422311782837,0.13735270500183105,-0.022655392065644264,0.2107856720685959},{0.3254016041755676,0.16750259697437286,0.0045816716738045216,-0.18540193140506744},{0.2176482379436493,0.1356627345085144,-0.4188278019428253,0.31445151567459106},{0.032678551971912384,0.33432525396347046,-0.3484008014202118,-0.05890677124261856},{0.34414923191070557,0.20777034759521484,0.2478361278772354,-0.30151960253715515},{0.17550036311149597,0.17815999686717987,0.2477341890335083,-0.04796065762639046},{-0.3111734092235565,-0.2812178134918213,0.1443970799446106,0.2549223005771637},{-0.22079679369926453,-0.07816600054502487,0.014761675149202347,-0.37470290064811707},{-0.00392442150041461,-0.03289435803890228,-0.02107519470155239,0.03414774686098099},{-0.195201113820076,0.21562016010284424,0.21044526994228363,0.22227884829044342}};
static const float actor_encoder_self_encoder_0_bias[16] = {0.08922560513019562,0.1418265402317047,0.0005023060366511345,-0.05118723586201668,0.22390417754650116,0.011061618104577065,-0.0743042603135109,-0.26687994599342346,-0.07440464198589325,0.06898319721221924,0.09105593711137772,0.04061506316065788,0.006190181244164705,-0.06782380491495132,0.22078080475330353,0.02164004184305668};
static const float actor_encoder_self_encoder_2_bias[16] = {0.09242542833089828,-0.044977810233831406,-0.0035249602515250444,-0.03536912426352501,0.09337242692708969,0.059492915868759155,0.0029120263643562794,-0.0042747193947434425,0.009309975430369377,0.0033489237539470196,0.02795884571969509,0.016082918271422386,-0.014558962546288967,0.08468414843082428,-0.08650051802396774,0.013838770799338818};
static const float actor_encoder_feed_forward_0_bias[32] = {-0.02162300795316696,-0.016298718750476837,0.03876033425331116,-0.0037307050079107285,0.028663430362939835,0.03255467489361763,-0.002089503686875105,0.042615827172994614,0.05444338172674179,0.04194656386971474,-0.074164018034935,0.06312776356935501,-0.0014309578109532595,0.03364389389753342,0.027341419830918312,-0.020268026739358902,0.014923213049769402,0.018788814544677734,0.07367339730262756,0.006711797788739204,-0.02211969532072544,-0.045403458178043365,-0.03619915619492531,-0.02220235951244831,0.0003270489687565714,-0.001571482396684587,-0.0010477808536961675,-0.07957661151885986,0.01487173605710268,0.012336327694356441,-0.029597623273730278,-0.01850482076406479};
static const float action_parameterization_distribution_linear_bias[4] = {-0.011118177324533463,-0.040501296520233154,-0.037264227867126465,-0.02342507801949978};
void networkEvaluate(struct control_t_n *control_n, const float *state_array) {
  for (int i = 0; i < structure[0][1]; i++) {
    output_0[i] = 0;
    for (int j = 0; j < structure[0][0]; j++) {
      output_0[i] += state_array[j] * actor_encoder_self_encoder_0_weight[j][i];
    }
    output_0[i] += actor_encoder_self_encoder_0_bias[i];
    output_0[i] = tanhf(output_0[i]);
  }

  for (int i = 0; i < structure[1][1]; i++) {
    output_1[i] = 0;
    for (int j = 0; j < structure[1][0]; j++) {
      output_1[i] += output_0[j] * actor_encoder_self_encoder_2_weight[j][i];
    }
    output_1[i] += actor_encoder_self_encoder_2_bias[i];
    output_1[i] = tanhf(output_1[i]);
  }

  for (int i = 0; i < structure[2][1]; i++) {
    output_2[i] = 0;
    for (int j = 0; j < structure[2][0]; j++) {
      output_2[i] += output_1[j] * actor_encoder_feed_forward_0_weight[j][i];
    }
    output_2[i] += actor_encoder_feed_forward_0_bias[i];
    output_2[i] = tanhf(output_2[i]);
  }

  for (int i = 0; i < structure[3][1]; i++) {
    output_3[i] = 0;
    for (int j = 0; j < structure[3][0]; j++) {
      output_3[i] += output_2[j] * action_parameterization_distribution_linear_weight[j][i];
    }
    output_3[i] += action_parameterization_distribution_linear_bias[i];
  }

  control_n->thrust_0 = output_3[0];
  control_n->thrust_1 = output_3[1];
  control_n->thrust_2 = output_3[2];
  control_n->thrust_3 = output_3[3];
}