
#include "network_evaluate.h"



float linear(float num) {
	return num;
}



float sigmoid(float num) {
	return 1 / (1 + exp(-num));
}



float relu(float num) {
	if (num > 0) {
		return num;
	} else {
		return 0;
	}
}

static const int structure[3][2] = {{18, 64},{64, 64},{64, 4}};
static float output_0[64];
static float output_1[64];
static float output_2[4];
static const float layer_0_weight[18][64] = {{-0.26460478,0.008882916,0.03631062,0.012539789,0.061052494,0.20239338,-0.13894764,0.20531596,-0.018156424,-0.16046079,0.26051944,0.038261533,-0.8565104,0.21630076,0.10794753,0.11636731,0.3934657,-0.18980215,-0.51659757,0.3722755,0.042470764,-0.017569654,-0.084371805,0.0692676,-0.19310094,0.23588258,0.41533282,-0.15376529,0.32997426,0.026258878,0.118435614,-0.0893094,-0.018523043,-0.062562704,0.064048775,-0.08513152,0.11444441,0.015327061,-0.05109013,0.052704003,0.47574,0.16849414,-0.21269391,0.020949863,-0.029741308,0.04150363,0.16434343,0.42501372,0.065268025,-0.17683156,-0.108613335,-0.057328615,-0.33643138,-0.120912075,-0.3243734,0.16746266,0.095749654,0.50933635,0.15748133,0.19759537,-0.25394252,0.18688881,0.32254374,0.055840086},{-0.27951217,-0.023429975,-0.18157126,0.053661548,-0.027559724,0.042399995,-0.17484722,-0.16099676,0.24101163,0.092469566,-0.24665125,0.23086458,0.087979,-0.1507838,-0.08825676,0.3117052,0.055113226,0.08913632,-0.35751805,0.38007966,-0.23120058,0.12915288,0.10056373,0.120497525,0.01077653,0.16406667,0.1666971,0.36635417,-0.14202252,0.17892796,-0.1075715,-0.025289427,0.18846664,-0.23302804,-0.43527925,-0.049196094,0.2862197,-0.111559145,0.09071899,0.010458269,-0.7792885,-0.10641892,0.0071263234,-0.09573994,-0.0750625,0.08193488,0.12724431,-0.22789474,-0.34422034,-0.1075278,0.3963304,0.08835548,-0.49117452,0.059141874,-0.3966298,0.21710606,0.35151848,-0.14817767,0.2785693,-0.00918546,0.122476146,0.102744535,-0.20000225,-0.32694033},{-0.02833981,-0.014661635,0.29411328,-0.37017578,0.33376524,0.37252566,0.10364692,0.26932213,-0.28735274,0.4018133,-0.14908952,-0.08562621,0.5456676,0.10946145,0.32451576,-0.19615206,0.5711918,-0.21157889,-0.26211914,0.26757774,-0.17796504,0.01763017,0.013549631,0.122847795,-0.3220679,0.06766739,-1.05515,-0.02249338,0.45468003,-0.015838455,0.2086034,-0.11934117,0.23987415,-0.28095827,-0.14792266,0.268129,0.0075764325,-0.21263538,-0.61837584,-0.08324545,0.228192,-0.27079517,0.38644582,0.94430566,0.13162675,-0.37731165,0.33552042,-0.28902814,-0.42342976,0.23491031,0.2562459,0.0935188,0.11982871,-0.085041985,-0.15466256,0.22541498,0.29570454,-0.42880732,0.021468075,-0.1012287,0.5087036,-0.18906094,-0.048946753,-0.09174392},{-0.17857906,-0.06423955,0.13734134,0.055503216,-0.017207563,-0.07880346,-0.08955604,0.18963803,-0.05072647,-0.12815486,0.28031006,0.14824277,-0.43313274,0.25598085,-0.19926995,0.1548329,-0.10494595,-0.19214833,-0.3913282,0.2108857,0.079552054,0.048695143,-0.37290785,-0.19197565,-0.15235896,0.06538779,0.5010942,0.13004038,0.099188566,0.07540897,-0.16341808,-0.05255817,-0.2378292,0.037180156,-0.07116323,0.1194841,0.044894498,0.14814532,0.004365585,0.0806869,0.5489564,-0.12744886,-0.0110677555,0.49293536,-0.11354664,-0.09864964,0.19364466,0.31624073,-0.096448265,-0.09203296,0.20652671,0.027259424,-0.2089223,-0.11580446,-0.1773791,0.2548474,0.21832606,0.34209436,-0.013236939,0.05970327,-0.23407002,0.16212761,0.447614,0.1943157},{-0.089163326,-0.21536447,-0.3430566,-0.119457796,0.03917961,-0.0003447099,-0.034231998,-0.26511914,-0.17997305,0.23370779,0.01211112,-0.0049664755,-0.048257325,-0.14873919,0.010445613,0.015336455,0.041555602,0.034122735,-0.21754003,0.48489407,-0.20432271,0.2707423,-0.021766882,0.17166409,0.111719236,-0.23200835,-0.108923055,0.34906155,0.19528449,-0.3152835,-0.13531978,-0.18120474,0.2995477,-0.12979381,-0.38791522,0.019073512,0.042300813,-0.17116079,-0.41342854,-0.084586166,-0.81679744,0.22337602,-0.067159384,-0.08823169,-0.0324282,-0.040026773,-0.23380841,0.08192637,-0.1177828,0.14443909,0.030210905,-0.15356852,-0.159562,-0.24341285,-0.4010586,0.15282577,-0.07185644,-0.17410024,0.031974204,-0.40954685,-0.039447706,0.118031494,0.08383131,-0.17263776},{0.22870453,-0.005184404,-0.41653478,0.0065866155,0.20488727,0.10807048,-0.12613423,0.24463461,-0.264536,0.028818185,0.03422052,0.31937087,0.026284039,-0.07075293,0.15719,0.29784757,0.19538333,0.10065209,0.123984,0.21292983,0.21413748,0.066814065,-0.059398364,0.095607154,-0.12148382,0.19526102,-0.31135854,-0.08764207,0.01281707,0.20372698,-0.17045487,-0.18787932,-0.15170546,0.014526181,-0.19206585,-0.18273528,-0.13093384,0.19010444,-0.061291106,0.052995253,0.13612117,-0.02879515,0.056370325,0.35328194,-0.08162999,0.05127984,0.12792072,0.0262132,-0.25852466,-0.16962817,0.20292273,0.060344003,0.21194108,0.012533991,0.16362591,0.0925376,0.21777746,-0.26150385,0.17897503,0.10763269,0.71495664,-0.10311319,-0.24629928,0.07842189},{0.33139467,-0.14295028,0.4476369,0.37303212,-0.086036846,0.2573492,-0.04664565,-0.04796875,-0.4196439,-0.022011327,0.4192181,0.11768601,0.18930985,0.50409955,-0.6661176,0.20389117,0.4979989,0.4051843,-0.64072233,0.35310516,-0.019509347,0.26964468,0.54465157,-0.49686998,-0.2789783,-0.07078214,0.38963306,-0.8042889,-0.3189021,0.40396622,-0.47690898,-0.12396664,-0.14988393,-0.3262872,-0.11551978,-0.2903261,-0.11522347,-0.2449791,-0.079392865,-0.2981143,0.24000615,0.24523003,0.30339968,0.16651133,-0.21928708,0.18896095,0.17688178,0.73491055,0.22383182,-0.303398,-0.3270373,0.35745272,0.36935025,-0.051214002,-0.059726126,0.20388491,-0.05399525,0.040004622,0.43937856,0.3548617,0.5563191,-0.44372916,0.10525652,-0.78714937},{0.0514758,-0.18580976,-0.13307428,0.5509206,-0.3942521,-0.42535582,-0.19647725,0.41501048,-0.0712891,-0.015459058,-0.0025572712,-0.042140473,-0.45856085,0.77410215,0.0034343044,0.5649374,0.36000574,0.018628463,-0.052132,-0.12831429,0.06257218,0.090292476,-0.15432101,-0.8397091,-0.47874865,0.87821877,-0.37219927,0.5205099,-0.44883743,-0.28307837,-0.64162296,-0.5552528,-0.06465469,0.17505682,-0.35147625,-0.35153842,0.13175188,-0.35470727,0.46412632,0.2659996,-0.013110471,0.76418495,-0.14403436,0.3040324,-0.2837149,0.014540796,0.064321555,-0.06915692,0.15623115,0.45714206,0.55471486,-0.5672636,-0.2355666,-0.11259218,-0.051423386,0.39651346,-0.61722195,0.12308928,0.36903614,0.48317388,0.24787085,-0.63906723,-0.9864261,0.96475375},{-0.60810727,-0.15503697,1.012196,-0.10404187,0.0993331,0.19696848,-0.46371922,0.7378538,-0.51945394,-0.16706377,0.12593171,0.14177868,0.26595804,0.29398978,0.42518708,0.47883686,-0.55835944,-0.01635991,-0.45962876,-0.03313854,-0.39320922,-0.6636538,-0.23228775,0.9041621,0.3987386,-0.74231696,0.7897911,-0.5638305,-0.010017549,0.069728546,-0.40182984,-0.03395171,-0.2492881,-0.23980267,-0.091353886,0.5471967,0.45538417,-0.29142854,0.012301376,0.3001099,-0.2729619,0.43300673,0.16511443,-0.3638099,-0.40723875,-0.46383807,-0.37223804,0.08234532,0.0142386,-0.25847512,0.47906676,-0.07484032,0.75286204,-0.20850775,-0.36402935,-0.11861581,0.075309806,-0.6420245,-0.3068198,-0.86142194,-0.5312565,0.95720667,0.23569086,-0.2623266},{-0.15469512,-0.21127214,0.31907436,-0.224092,-0.091853224,-0.16028814,0.62616336,-0.3662244,-0.13471766,-0.71435726,0.032594025,-0.15023482,0.24244869,0.08351677,0.25945932,0.24068469,-0.2475432,0.43412662,-0.45951617,0.50018746,0.12217229,0.34491423,0.25435594,1.0259198,-0.08647769,0.15600361,0.79116124,-0.11412286,0.34092847,-0.4850048,0.13004483,-0.18597686,-0.32693487,0.73063844,0.78107065,-0.09182458,-0.30815026,0.2869456,-0.16684654,0.44177896,-0.576458,0.0023273462,-0.44457722,-0.22521837,0.123376004,-1.0814418,-0.4630988,0.19417717,0.24444516,0.065754674,-0.4280023,0.5909216,0.4435946,-0.079778686,-0.43196127,-0.35990396,-0.009855686,0.7796662,-0.3453636,-0.50059843,0.561436,-0.5228364,0.28481755,-0.5525235},{-0.41487223,-0.052612115,0.54560673,0.23099862,0.05414527,0.00014110078,0.07308447,-0.0089664785,-0.035545763,0.21120521,-0.09468301,0.14949428,-0.3642367,-0.50526184,-0.03136827,-0.09446644,-0.06863352,0.1899086,-0.23673078,0.27838072,0.08288935,-0.1275359,0.019791817,0.020712899,0.05916595,-0.120725185,0.22903664,0.103306286,-0.016696803,0.024241893,0.2011187,-0.13224596,-0.3612794,-0.09412604,0.2614894,-0.03529484,-0.08767647,-0.24878904,0.43194747,0.023150641,-0.005760542,-0.21397243,0.01760247,-5.0718663e-06,-0.08104599,-0.07430633,0.06380206,0.29712477,0.4348744,0.24345951,0.0016486782,-0.11876851,0.5573177,0.1309588,0.010237381,0.043789674,-0.57072717,0.01863384,0.46744478,0.26205838,-0.09407498,-0.26968282,0.10956937,0.14860782},{-0.30602935,-0.07494753,0.45372802,-0.061765682,-0.32057235,-0.8787294,-0.31747624,-0.64332306,-0.62448066,0.66632724,0.72000235,0.34393957,0.39992613,-0.00887603,-0.5793759,-0.07147698,0.66417575,0.9657899,-0.022652993,0.46949446,0.12935573,-0.1444761,-0.15476373,0.65498173,0.67929727,-0.4725476,0.17440014,-0.56583315,0.4168306,-0.2150123,0.307833,-0.6315372,0.22744173,0.48030308,-0.8148746,-0.21195382,-0.117878295,-0.3915122,-0.2444778,-0.15034612,-0.47967154,-0.28333148,-0.29477072,-0.41612598,0.12293288,-0.554179,-0.12744819,-0.01783503,0.64692223,-0.279171,-0.75098664,0.27966967,0.6041256,0.079420246,-0.4698345,0.6266466,-0.5955437,-0.48246542,-0.14641021,0.12225262,1.1294053,0.24261403,0.011648369,0.12945944},{-0.3492136,-0.017421348,-0.46356127,0.22652414,-0.12532671,0.21704486,0.66021544,-1.0443168,0.65728587,0.00013302237,0.72727776,-0.6004196,-0.8431931,0.70055056,0.33118287,-0.6471193,0.6148565,0.024391659,0.091225915,-0.055472925,0.20573458,0.85977197,0.022999644,-0.28824425,0.41622886,-0.49867555,0.007023495,-0.19404277,-0.00020594343,-0.21535192,0.7163758,-0.6208124,0.36693782,0.25671804,-0.6438756,-0.23848468,-0.6435016,-0.07702771,-0.38203663,-0.9272594,-0.5674656,0.27760112,0.6213464,-0.6060904,-0.063595705,-0.14522836,-0.2519366,-0.054979976,-0.405439,0.07606157,0.7794758,0.577237,-0.9740987,0.6813322,0.13410658,0.34878892,0.07175162,-0.43781492,0.12447992,-0.08948578,0.21690054,0.2570887,0.7752969,0.07079052},{0.21478426,-0.450034,-0.045624994,0.060795903,0.028101282,0.506262,1.0130739,0.08807304,-0.17768763,0.4667561,-0.22242862,0.075950705,-0.12755264,0.07779608,-0.22291832,-0.42360622,-0.2380195,-0.97263956,0.0015910991,-0.13371061,0.3883556,0.5884948,-0.12175653,-0.64039975,-1.0327061,0.69981337,0.38176516,0.8155806,-0.26439515,-0.3138595,-0.89800626,-0.010768097,-0.9089917,-0.113084674,-0.67288643,0.45848826,0.85089976,0.8303313,0.31866983,-0.42386854,-0.9414949,-1.1102391,0.5719578,-0.3838651,0.35433277,-0.36723384,-0.33686277,-0.42783844,0.63677263,-0.91876256,-0.3181759,-0.24443987,-0.67310935,0.55687225,0.6735116,-0.5102621,-0.34669623,-0.24815698,-0.5567401,0.98702157,-0.34986216,-0.7217632,-0.41231528,-0.22449522},{-0.36349127,-0.06837669,-0.07730407,0.10150376,0.16429748,-0.4535191,-0.11300913,0.1421383,0.10970014,-0.37289196,-0.25391302,-0.14909145,0.0548229,-0.48999178,0.13840392,0.17416464,1.279996,-0.15881859,0.12820302,-0.30798805,0.21633068,-0.20812951,-0.20179048,-0.77489305,0.0077919806,-0.13808668,0.08996566,-0.71171,0.3743859,-0.25082383,-0.047004234,0.3013315,0.074771546,-0.26351193,-0.3118444,-0.14033417,-0.31277585,-0.61930585,-0.047584806,-0.5598981,-0.13679056,0.12688494,0.07355774,-0.075918116,-0.34226647,-0.08502548,-0.29020274,0.4701088,0.9830045,-0.30997732,0.28758258,-0.07724108,0.58852655,-0.1401069,0.19113968,0.110264905,-0.18522449,-0.066236585,-0.17643091,0.9457911,-0.56317174,0.13518234,0.17382064,0.74305475},{-0.17304575,0.25079444,-0.030023769,0.08710798,0.1386429,0.09937126,0.19297332,0.2043866,0.25806668,0.06700647,-0.25863776,0.17740783,0.11571357,0.37194163,-0.17213479,-0.1283895,-0.090481706,-0.2209714,0.0726855,-0.006848322,-0.19289063,-0.031032555,0.13694978,0.16312945,-0.38850257,-0.355176,0.3011166,-0.10369981,-0.24276255,0.039212454,-0.095492035,0.18577574,-0.4183967,0.00024396928,0.087849036,0.09066272,-0.30054143,-0.32442975,0.30506516,0.105879255,-0.031586643,0.0111396,0.73004645,0.13591865,-0.36168852,-0.42970034,-0.19094475,0.28501955,0.11190309,-0.16968194,-0.07037502,-0.06883722,-0.15593575,-0.22244799,0.23495029,-0.098871306,0.088154286,0.10747698,0.13816468,0.019601302,-0.032283027,-0.28503594,-0.32157496,0.47544348},{-0.1516067,-0.43134362,0.042012636,0.012280992,-0.015334203,-0.41875413,-0.051197186,0.29263973,-0.122947544,0.035791375,-0.27537015,-0.054044206,0.17025638,0.002047959,-0.12721565,0.24385054,-0.25276348,-0.13889372,-0.08606435,0.038211618,-0.23530318,0.060414817,-0.00012878803,-0.21383423,-0.06888203,-0.1941705,-0.01764536,0.08173369,0.41007808,-0.20743865,-0.22451648,0.36418968,-0.13384718,-0.08846314,0.112506986,0.1667492,-0.14682882,-0.23781535,-0.13713634,0.20094672,0.035310235,0.06633497,0.40445316,0.10239064,0.09756336,-0.19793837,0.47576386,0.09936534,-0.008291939,-0.043520674,-0.057291213,0.10985539,-0.05983931,0.37182337,-0.10834754,-0.050569266,0.17894623,0.19175082,-0.32775658,0.23967466,-0.11605056,0.1833218,0.112516336,-0.08900707},{-0.3646732,0.25175545,0.11837346,0.14872202,0.53404874,-0.15301037,0.19753549,-0.0015786439,0.2359481,0.13589263,0.03416367,0.7113877,0.29282796,0.0724695,0.15158738,-0.060326256,-0.00023692072,1.11724,-0.10467809,-0.2949177,0.21636364,0.08175265,-0.4163,0.11664191,-0.28082854,-0.3485903,-0.6434862,-0.0075039286,0.11315907,-0.5347263,0.2996305,0.24156703,-0.052771635,0.12651303,-0.19155815,0.21913059,0.3311021,0.08899779,0.0764288,-0.0534322,0.21977015,-0.034862764,-0.2628016,-0.39418843,0.43532518,-0.31599703,-0.3623206,-0.21726339,0.40571547,-0.6146505,-0.28159758,-0.20661981,0.33545136,0.034640342,-0.2446014,0.123158514,-0.15231898,0.26810753,0.3488801,0.14316371,0.36179113,0.17910026,0.18210445,-0.3613663}};
static const float layer_1_weight[64][64] = {{0.04880599,-0.014659571,0.14604257,0.11955074,0.24642281,0.2077528,-0.14479314,-0.069572754,0.1439871,-0.16372347,0.0583794,-0.037420504,-0.0012955304,0.07730039,0.035019845,-0.27072632,0.27122137,0.24394423,0.25424486,0.057410378,0.09013039,0.08294369,0.15980692,-0.07149316,-0.13392894,-0.12062125,-0.15661848,-0.36314166,0.005601157,-0.17929432,0.28482002,-0.2512307,0.22084972,0.37357298,0.12458963,-0.10889931,-0.12738991,-0.19241847,-0.075037576,-0.028175652,0.087676644,-0.101655364,0.1423156,-0.09398641,0.015667897,-0.029393435,-0.107406825,-0.008202774,-0.13575622,-0.001989274,0.16571969,0.3811714,-0.048066515,0.009596484,0.034630015,-0.13986431,-0.05858127,0.16760473,0.21554166,0.028287144,-0.0031070125,0.028154623,-0.033838965,-0.07135243},{0.14750618,-0.20356669,-0.01721083,-0.12488431,-0.23806207,-0.058415122,0.09747562,-0.036142126,-0.29752705,0.053422675,-0.0132137565,0.098510236,-0.10547406,-0.18710715,0.06280659,0.21035898,-0.074947976,0.09305671,-0.19019169,-0.106950596,-0.12678206,-0.09117619,0.26668686,-0.016010826,-0.21505612,0.052602276,-0.06900132,-0.13815705,0.14126691,0.088266745,0.13878651,0.1605497,0.14894454,0.28561062,0.06133694,-0.13115418,0.090639174,-0.09483827,0.25560245,-0.09370695,0.0109845605,0.3159256,-0.058781102,0.10421381,0.10546649,-0.019285789,-0.11806672,-0.12048505,-0.10126661,0.1744558,-0.04315585,0.11005329,0.02935372,-0.1134188,0.21212935,-0.120541364,0.13639227,-0.20187102,0.12634327,0.28324035,-0.106529675,0.039794076,0.04031729,0.11458827},{-0.15642783,-0.10845258,0.05341133,0.039198615,-0.29867634,-0.09042476,-0.12393371,-0.14169231,0.370435,-0.13116547,-0.08522822,-0.105876006,-0.12601164,-0.15871747,-0.14678586,-0.10333135,-0.26433277,0.043259025,0.024113584,0.21847011,0.1295168,-0.4141388,-0.036590647,-0.07925126,0.36444572,-0.09194538,0.10435126,0.13434346,0.09109248,-0.15190352,-0.110602796,-0.1666346,0.005009431,-0.12714832,0.014402263,0.13056928,-0.07092169,-0.19726156,0.23129052,-0.017043736,0.18658589,-0.10434565,-0.27182147,-0.1366242,-0.042247675,0.111364834,-0.009766915,0.27144128,-0.13055944,-0.09753044,0.09892376,0.009954269,0.10439034,-0.10829454,-0.05472983,0.06973608,0.14282042,0.08803027,0.14178625,0.04381761,0.22673158,-0.08160641,-0.21309613,-0.16051953},{-0.25633588,0.1994112,-0.272557,0.12321037,0.0024798503,0.17108381,-0.21709234,-0.14130537,-0.17112143,-0.16324481,-0.088136286,0.046482865,-0.11794807,0.1746663,-0.15702544,0.056479797,0.09054006,-0.1576654,0.04019055,0.21260993,-0.13763857,-0.26865497,-0.18774614,-0.10028548,0.20963971,-0.2095123,-0.008030495,-0.036638886,0.24103002,0.12133565,-0.16710062,0.057038937,-0.12259803,-0.14461507,-0.066554196,0.22044477,-0.045482006,-0.07687083,0.117663786,-0.05833472,-0.02288787,-0.17295948,0.09074448,-0.14431898,-0.27857035,-0.31804097,0.17438956,0.3094472,-0.025068227,-0.12692536,0.11850648,0.08403239,0.22631948,-0.258086,-0.1448274,-0.17458138,0.1519843,0.075006336,0.10766466,-0.1025032,0.14484072,0.1105813,0.010307004,0.018515572},{-0.115517825,0.10627916,0.053633086,0.028393717,-0.23393008,-0.15251684,-0.11099738,0.114055134,0.21157905,0.03126186,-0.14805114,-0.021253131,0.1531958,-0.05558788,0.13775745,-0.17022678,-0.324391,-0.031420674,0.21068674,0.11114198,-0.05434689,0.031970788,-0.2025612,-0.09413885,-0.15083681,-0.031310126,0.16794664,-0.016988786,-0.09033441,0.10146406,0.014067576,0.02755776,0.09653621,0.10460416,-0.26593593,-0.09608496,-0.01578209,0.034413047,0.023199119,0.13962007,-0.27161247,0.071307674,-0.06533282,-0.23110622,0.11742917,-0.0918893,0.058957323,-0.078436494,0.16150942,0.3882968,-0.05611337,-0.3182883,0.112543724,0.33418575,-0.18168835,-0.20316795,-0.25060946,-0.21402694,-0.19337729,-0.14976393,-0.016857287,-0.14979935,-0.23689575,-0.24342054},{0.25786847,0.057480652,-0.12416207,0.075004965,0.13703078,-0.037542224,-0.13553046,0.07797224,0.12581357,-0.29199237,-0.13663603,-0.12508997,0.039625496,-0.1792983,0.19329156,0.08365089,-0.10995732,-0.36055255,-0.047170375,-0.20604579,-0.14930764,-0.007618496,-0.063987546,-0.20464425,0.005406718,0.3197714,-0.14929853,0.05814329,-0.09494417,-0.23065965,0.38090748,-0.19081871,-0.0590099,0.0607541,-0.05516977,0.21589014,-0.15189679,0.121531114,0.04620926,-0.05871021,0.04115471,-0.043152448,-0.05292283,-0.32703137,0.07622849,0.0061611272,-0.041527104,-0.13686502,0.21363574,-0.07855829,-0.15386736,-0.28534055,0.16552454,0.16364259,0.11088621,0.07313027,0.26128507,0.26878247,0.121211,0.32095042,0.27779493,-0.020096086,0.15529849,0.0881684},{0.03704666,-0.07730242,0.08359955,0.17186485,-0.24131593,-0.04205697,0.20089644,0.03939797,0.019445624,-0.17317171,0.25822476,0.1897417,0.124225356,-0.07744134,0.07895679,-0.061568998,-0.14628315,-0.047538176,0.12882355,0.30650872,-0.34552535,0.2516645,0.08196014,-0.15327267,0.076280944,-0.089393295,-0.14647247,-0.04469842,-0.15927413,-0.10827809,0.17010212,0.22772889,-0.06182947,0.019251687,-0.066638865,-0.11617032,0.24318558,0.16636533,-0.051863253,0.016233835,-0.03629543,-0.14617723,0.09653927,-0.04273877,-0.017667487,0.019582637,-0.17344858,0.150089,0.27827144,-0.12884225,-0.2070924,-0.06288279,0.28980315,0.24078284,0.008532808,0.26199228,0.21823023,-0.14386359,-0.08272617,-0.17103869,0.028705047,0.077295154,-0.007909655,-0.0034860494},{0.24833709,-0.036287315,-0.09070509,-0.08721506,-0.050231222,-0.085722074,-0.08384392,-0.13096748,0.13343604,0.11712904,0.029128967,0.03226029,0.12078011,0.30024803,0.062370434,-0.27756125,-0.019271428,-0.12274404,-0.090251945,-0.28797582,-0.003615172,-0.03012633,-0.050851535,-0.025894443,-0.4645471,0.08186183,0.09659996,0.110363655,-0.09221651,0.22517712,0.048943575,-0.099291466,0.015085535,-0.0067882547,-0.29547882,0.11410272,0.13240245,-0.34055632,0.09151408,0.09385041,0.24242462,0.1949545,0.018054916,-0.26707312,-0.012079915,0.15353738,0.17034899,0.042217296,-0.17610508,-0.21972263,0.17391926,-0.20774414,-0.09810183,0.040034406,-0.18979968,-0.39396313,-0.20746587,0.09128576,0.1437134,-0.09581786,0.2553093,-0.41687998,-0.14376272,-0.23232543},{-0.090603456,-0.14496982,0.0970832,0.0642424,0.15510017,0.067080736,-0.24928813,-0.2085046,-0.045141492,0.030094886,0.1359097,-0.11093128,0.069938846,0.17822726,-0.26324898,0.28778428,-0.04094499,0.34090176,0.21848163,0.08792399,-0.096253306,0.13895181,0.20401508,0.4329974,-0.3413073,-0.041787162,0.063222826,-0.20381178,0.0471782,0.20508692,-0.31241462,-0.08375556,-0.118329756,0.13926466,-0.16310744,0.067795746,0.37981936,0.1039878,0.23422006,0.26756522,-0.17328583,0.06860016,-0.10496721,0.038654316,-0.127307,0.08030021,0.005258353,-0.040468026,0.122567415,-0.14789994,-0.03909939,-0.13975538,0.13121158,0.09043372,-0.13980453,-0.08618481,0.1594186,-0.20272204,-0.19606164,-0.047806665,0.23972102,0.24954498,0.49172604,0.17643207},{0.26020056,-0.20953846,0.052748702,-0.044371247,-0.11401968,0.0069569466,0.16159701,0.31330067,-0.071616486,0.13287695,0.05546426,-0.1340934,0.20240057,0.14407949,0.08363603,0.16909789,-0.0038175771,0.105526954,0.10857329,0.09131954,-0.17779541,0.15870449,0.18231487,-0.07617059,-0.06492993,-0.0066316575,0.16970418,-0.0052863085,0.103286095,0.054392323,-0.22505763,0.1633239,-0.1691909,-0.2342284,-0.19863574,0.21176375,-0.18679643,0.10244919,-0.10486964,0.18352085,0.119824864,0.22421034,0.09729089,0.2709921,0.14397858,0.3240034,-0.035331316,0.028773803,-0.059240703,-0.19466084,0.14964823,0.012094401,0.18979125,-0.08529708,0.37293887,-0.17021641,0.10519756,-0.09268618,-0.013082104,0.19776636,0.19166194,0.17079356,-0.12358869,-0.1694551},{0.15608975,-0.08916412,-0.2600604,-0.07684864,0.081913345,-0.13027184,-0.103037015,-0.2784487,0.060053118,0.25474828,0.01720062,-0.029045496,0.011473586,0.14680754,0.17446491,0.18353285,-0.10331071,0.04781626,-0.17854835,0.17770863,0.15557358,0.23513336,-0.16330063,0.013251815,-0.0780806,0.032430835,0.083524935,0.13016048,-0.020194955,-0.025905633,0.14504209,0.19551556,0.16647738,-0.03309365,-0.00089352624,-0.23315182,-0.16827373,-0.3016052,-0.058385022,0.17185844,-0.19463702,-0.22499482,-0.04136522,0.3425859,-0.11201292,0.13099407,-0.09227686,0.11370452,0.039361715,0.10806896,0.07405664,-0.1606468,-0.0070531946,0.1406582,-0.13318698,0.0806706,0.12660022,-0.24498233,-0.11988031,0.36357218,0.02462162,-0.0015283523,-0.13899097,0.12192951},{0.22047421,-0.06693273,-0.16627046,0.2209449,-0.21510227,-0.07237934,0.094602,-0.12373399,0.047806904,0.16277102,-0.070504434,-0.14347883,0.06694241,0.23911785,-0.18485741,-0.3204693,-0.17833903,0.07879764,0.021968447,0.12939885,-0.084362015,-0.38053483,-0.03874114,0.13814174,-0.23055395,0.09885802,0.10875154,0.005566497,-0.11629829,0.29234728,-0.19234206,0.14007571,0.24319786,-0.048096802,-0.24632597,0.054053508,-0.10762968,0.12930778,-0.17323007,0.03526677,-0.18254411,0.035849664,-0.0042002667,0.09162279,-0.018846868,-0.13306244,-0.25767148,-0.15992679,-0.15028735,-0.033606123,-0.020113647,-0.36973146,-0.103599906,0.115047,0.036078826,-0.09893027,-0.10030818,0.0217945,-0.094989054,-0.0988075,0.33748612,-0.22964674,0.09801577,0.014128417},{0.2087059,-0.26974154,0.098985285,-0.19148123,-0.17506172,0.12682289,-0.19481802,0.16821995,0.23859699,-0.03468382,-0.007886087,-0.060103875,-0.06419249,0.005124824,0.119211204,-0.14456664,0.17076553,0.085156016,0.066879846,-0.020587573,0.008353982,0.085728064,0.010061182,0.16756469,-0.34429425,0.028446015,-0.016780103,0.10881661,0.1652045,0.19549963,0.12139295,-0.036528878,-0.021697007,0.1629563,-0.26350096,0.006914787,-0.17372783,0.047481187,0.16598113,-0.20810825,0.021413,-0.16959979,0.28052676,0.0054475754,0.18902698,0.07457977,-0.3302846,-0.24147652,-0.10920407,0.08970168,-0.30232847,0.25248158,-0.25592566,-0.22750643,0.21937571,0.2246736,0.14508499,-0.0668984,0.18324548,0.06157608,0.2357077,-0.015108185,0.07321041,0.2458499},{-0.10043595,0.072918504,0.25532725,0.10861689,-0.1284556,-0.11333354,-0.24443917,-0.1342442,-0.14373459,0.09785775,-0.018838048,0.21311544,0.073903576,0.15147108,-0.1218228,0.0072369333,-0.2710179,-0.2671617,0.22985303,0.1385366,-0.08412884,0.07057122,0.28639966,-0.10217935,0.02296805,-0.20920083,0.058263674,-0.19955246,-0.083898626,-0.07188592,0.2375504,0.25609797,-0.210544,0.055088248,-0.077520594,0.024907153,0.23033978,-0.21960734,0.35396466,0.059192915,-0.15727447,0.12051433,-0.18722557,0.07808802,0.19921218,-0.13994767,0.35431448,0.15202196,0.01289792,-0.27239433,0.10802342,0.09408518,0.19800918,0.16969611,-0.20345615,-0.18026407,0.1506195,0.2312369,0.26340687,-0.08844092,-0.07136692,0.019770408,0.11994452,-0.011324658},{0.12516591,0.14947653,0.03418276,-0.06584559,0.17432272,-0.054572724,0.00057811907,0.0798937,0.046188094,-0.019327568,-0.11977728,-0.12747371,0.20264119,0.09076697,-0.0104815215,0.031052897,0.0919668,-0.19156212,-0.15754166,0.09010239,-0.17496185,0.13456744,-0.03465441,0.042095527,-0.2352695,0.23266836,-0.20558558,0.18151781,0.28127086,-0.097411856,0.14954154,0.0018765612,-0.12723427,-0.007368333,-0.15496562,0.10232857,0.047341973,-0.057196308,0.15512893,0.097641386,-0.15331021,-0.03162527,-0.01296331,0.039168827,0.014955651,0.23939566,-0.010108379,-0.14717886,0.035163127,0.11192827,0.11112878,-0.2367215,-0.21575019,0.098064445,0.322239,0.22921044,0.1935972,0.04234893,-0.07170181,0.36079153,-0.1216865,0.14696094,-0.09348442,-0.14220239},{0.1467292,0.0045197825,-0.1020478,-0.098095104,-0.080819905,-0.09452485,-0.012573669,-0.21676359,0.02611471,0.33964556,0.20076433,-0.21920113,0.120800644,0.30214673,-0.17767009,-0.22825691,0.1341625,0.22142853,0.034677356,-0.056728985,0.16075936,-0.13106643,-0.052314773,0.07919278,0.038523085,0.16389774,0.13297075,0.1410715,-0.15463814,0.1693039,-0.025943875,-0.11752544,-0.1667186,-0.00510878,-0.235399,-0.20634665,0.086820245,-0.21631366,-0.29004553,-0.2616636,-0.05620143,-0.13543674,-0.14377241,0.10203322,-0.01906264,0.08007373,-0.22736171,-0.1052498,0.069762796,-0.121532425,0.092616245,-0.13474707,-0.13137516,0.07529334,-0.21637806,-0.22895022,-0.24618335,0.14289534,0.11448377,0.095390804,0.067748874,-0.05572273,-0.18110242,-0.1415118},{-0.20872422,-0.058909718,-0.028833685,-0.13893224,0.023696393,0.111971565,-0.29050863,-0.15802728,0.17803209,-0.21804646,0.16806528,-0.07796255,0.043352026,0.2419174,-0.15419534,-0.27062416,0.030023994,0.21633919,-0.03638271,-0.00290986,-0.010611471,-0.14810784,-0.019797092,-0.17185438,0.11008239,0.074657544,0.15527172,-0.16064249,0.4030298,-0.06851987,-0.07511804,0.0117198005,0.12720637,-0.1974418,0.008760129,0.042961456,-0.20847896,0.046440307,-0.01601121,0.09293625,-0.30816415,-0.1070191,0.13609517,0.17070559,0.0133924065,0.05519169,0.06529849,-0.039667666,0.27604142,-0.018062778,-0.0057127587,-0.31519014,0.23424068,-0.1450371,-0.12483608,0.2079938,0.054435328,-0.0071167815,0.12871246,-0.11390196,0.05973166,-0.0016978788,-0.09101593,0.107288875},{-0.012723814,-0.11258682,-0.30230612,-0.054141913,-0.25921,0.09578187,0.35324475,-0.32652244,0.084858276,0.09536572,-0.118805446,0.011580487,-0.33730313,-0.025873091,-0.31955463,-0.24334486,0.112895526,-0.15395075,-0.20609882,0.16102797,-0.17167142,-0.37480336,0.11179694,0.237199,-0.18848628,-0.18150392,-0.20922999,-0.09102716,-0.16100919,0.3264595,-0.15807119,-0.06338567,0.13639915,-0.11367363,0.007942022,0.038360216,0.024493042,0.0011742597,0.14237395,0.017501092,-0.06331148,-0.25762284,0.092603736,0.10183292,0.11498822,-0.28240052,-0.23205534,0.055114266,-0.13310124,0.30624023,0.20168294,-0.21328019,-0.033381727,0.06962903,-0.09353003,0.5432937,-0.107683174,-0.04668766,0.059174653,-0.19119202,0.061723586,0.1692362,-0.25605273,0.24193196},{0.05127695,0.12936975,-0.121128105,-0.15253823,0.123873025,0.09849117,0.09455963,0.15382388,-0.20825544,0.097557396,-0.27550292,0.15671034,-0.05954529,-0.30136627,-0.042116016,-0.11429788,0.07331427,0.38469517,0.04497853,-0.12359377,-0.03570035,0.2728458,0.1351762,-0.017386872,-0.41681802,0.13308693,0.06286482,-0.20713328,0.21520774,0.06941661,0.1546521,0.14541082,0.17997375,0.27862608,-0.03137327,0.13796714,0.07714063,-0.15788677,0.13665508,0.096913114,-0.0895797,0.24162318,0.038628243,0.010605494,-0.25307226,-0.0065367953,-0.17896245,-0.21603191,0.017785046,-0.09772559,0.1416412,-0.17619812,0.05775625,0.2176163,0.14097695,-0.016756937,-0.015106087,-0.015591277,0.28088227,0.18358584,-0.11731382,-0.050083626,0.07217982,-0.00095580186},{-0.20223491,0.036510743,-0.09276668,-0.14025806,0.122646235,-0.10482993,0.18520683,0.016655974,-0.2654383,0.148982,0.13353215,-0.76997435,-0.11384038,0.0582129,0.124006584,-0.20321867,-0.2523748,-0.07917243,-0.066017024,-0.1559693,0.32559952,0.20976223,-0.22261468,-0.17863972,0.16566533,0.027325321,0.092139855,0.21463293,-0.28391957,0.25609604,-0.25801104,-0.06248679,-0.29489285,-0.24293791,-0.16166443,0.15061055,-0.094622314,-0.25193083,-0.047868297,-0.31626266,-0.0599143,-0.16593611,-0.206992,-0.19558205,-0.17892718,0.10476187,0.15033005,0.06399371,-0.009529715,-0.13948376,0.49270388,0.1700408,-0.031147929,0.011764373,0.017421303,-0.28120646,-0.09179074,0.14667533,-0.06881304,0.00831278,0.53450793,0.025262149,-0.0075019705,0.03500277},{0.07566095,-0.10238189,-0.027242417,-0.12640324,0.1448309,0.065496415,0.1059174,0.047169026,0.116795115,0.15048908,-0.028461765,0.105796725,-0.0746611,0.21327972,0.09518627,-0.09469957,-0.14366765,-0.15565239,0.010015808,0.12618737,-0.07137717,-0.11877299,-0.17143972,-0.0964529,0.14627442,0.09944947,0.10373493,0.1689777,0.19994393,0.049374133,-0.010738624,0.04323093,0.09156951,0.08103161,0.03918981,-0.12136116,-0.1629943,0.05818255,0.22274576,0.012930417,-0.08332035,0.080132045,0.06988575,0.050064083,-0.27864197,-0.10953523,-0.22214597,0.30630845,0.18670835,0.3043692,0.24442975,-0.10402786,0.09270254,0.08257897,0.15108365,0.17478065,0.14917554,-0.024977896,0.046329126,0.11539607,-0.027345087,0.1425097,-0.09962871,-0.07857007},{-0.037007373,-0.0036843435,0.12150365,-0.09904976,-0.16090512,0.15650593,0.10819594,-0.09782091,-0.16799194,0.13932474,0.009104715,0.04511207,-0.17034528,-0.07474727,0.10732204,0.38417313,-0.014044587,-0.17833602,0.10285788,0.098544836,-0.06588828,0.35905463,0.16044416,-0.06711826,0.13913734,0.07928277,-0.20228042,-0.15956447,-0.039625805,0.007899325,-0.3792514,0.10794241,-0.26730984,-0.06295937,-0.14965717,-0.009864463,-0.40469378,0.096434906,-0.1663665,-0.2314723,0.23729032,-0.034906473,-0.017949212,-0.12729484,-0.13019691,-0.11205017,-0.180724,-0.1631195,0.18274842,-0.18037492,-0.13549168,0.2618951,0.35362402,0.010673185,-0.14335965,0.12066599,0.061765973,-0.09790017,-0.17906383,-0.15238361,-0.11190514,-0.006251826,0.024337662,-0.16978309},{0.1314847,-0.20807675,0.19346102,-0.040944304,0.1886774,0.05014083,-0.13323161,-0.15081038,0.51784843,0.17330371,0.18067724,-0.08183438,0.2796277,-0.15801513,0.17979701,0.16122462,0.1320848,-0.1005187,0.1820407,-0.23421991,0.011465814,0.021415208,-0.1454499,-0.24779913,0.25849745,0.052602056,0.21558173,-0.14061908,-0.09447865,-0.30687678,-0.064793326,0.06684871,-0.031711534,0.1331159,0.16524817,-0.05126637,0.20479576,-0.16352965,-0.25362438,-0.21372063,-0.11757033,0.039237764,-0.17318428,0.03356915,0.09704518,0.13043089,0.1455247,-0.0053825825,0.12611513,0.16238098,-0.08105766,0.22574602,0.011790962,0.2138341,0.12124646,-0.033735536,0.12449742,-0.011169043,0.1281905,-0.1625089,0.17497613,0.011760582,0.12944402,0.22371957},{0.10368693,0.26840943,0.25585523,0.22498521,0.15730672,-0.081033416,-0.19496895,-0.11358089,0.05153665,-0.039373796,0.12694141,-0.04500779,-0.2162842,-0.018116599,-0.159072,0.19411798,0.14448996,-0.2524229,-0.27792004,-0.08254743,-0.014939515,0.13209759,0.041241117,0.30426475,-0.32088414,0.19509673,-0.16504815,0.052344214,-0.052992996,0.06937208,0.12569655,-0.18803842,-0.2836825,-0.2020767,-0.18042132,0.03493173,-0.052823626,-0.10973046,-0.13328518,0.22179423,0.11432014,0.027418258,-0.12776987,0.03252258,0.120136306,0.27922684,-0.07325159,0.0744201,-0.25478795,0.10686538,0.015621546,-0.118028335,-0.19643383,0.17227809,-0.10635489,-0.03545684,-0.19508561,0.17733398,-0.18559447,0.041997302,0.11621089,0.04822695,0.014610091,-0.16926292},{0.12687711,0.04668145,-0.15792699,-0.10609108,0.29971114,0.044150382,-0.07986496,-0.019480465,0.2987129,0.031071723,-0.13613157,0.053684648,-0.13054508,-0.08959835,-0.09049263,0.064345196,0.2882924,0.04199843,-0.06562885,0.055920262,0.12401746,0.104561485,-0.21618386,0.1500662,0.032253042,0.08883346,0.18359978,-0.15920107,0.22516571,0.026229925,-0.29835054,-0.073223144,0.023117848,0.06830497,-0.014364689,-0.06863946,0.026136933,0.25473312,-0.15643808,0.029186374,0.17234775,-0.25336277,0.04350554,0.2871722,0.060334604,0.17126247,0.17101462,0.24284442,-0.22253391,0.031958863,-0.1000482,0.0067698658,-0.18391463,-0.07725817,0.023454105,0.2191523,-0.18855521,-0.100528,0.20394796,-0.09492041,-0.19668719,-0.001134319,0.25024188,0.21715732},{0.167422,0.028216075,-0.031145195,-0.0399039,0.23322669,-0.18382442,0.06398907,0.10541619,0.0019918636,-0.26404214,-0.1317265,-0.18744814,-0.025202207,0.30491316,-0.048953537,0.28560576,0.0007203703,-0.12276217,0.106120944,-0.0099600805,0.056387134,0.2545761,-0.15127845,0.0717818,0.17968254,0.20647204,0.041308105,-0.22510932,-0.061372634,-0.13542227,0.19182694,0.0625955,0.104826234,-0.046434104,0.0140547585,0.12861447,-0.26639605,0.080399856,0.13578448,0.11112412,0.16934319,0.078790046,-0.0079406835,0.109178275,-0.0065639126,-0.0411245,0.2892719,-0.08164071,0.046771806,-0.36343092,-0.08942567,0.0020724114,0.02337251,-0.112921365,0.20843221,0.09990304,0.015250928,0.24101323,0.20325783,-0.042014312,0.09251422,0.17214875,-0.017619776,-0.038323514},{0.28070566,-0.060622238,-0.1775592,-0.005475029,0.17804646,-0.22853528,0.0026606498,-0.31283015,-0.056766912,0.27709985,0.090156764,0.13734725,-0.2040742,0.0930334,0.068965904,0.1752629,0.1984434,-0.18262109,-0.10943226,0.20045553,0.20154974,0.057097796,-0.24300998,0.081151776,0.29415128,-0.059141573,0.33607703,-0.0585021,-0.059117645,-0.2056361,-0.24688719,-0.105351105,-0.034985922,-0.17296709,0.21195783,-0.14426248,0.5820805,0.06174025,-0.26914227,-0.15630986,-0.058957633,-0.052402273,0.052514117,0.106137246,-0.21935879,0.09152962,-0.09543898,-0.10878432,-0.08974478,-0.073586546,0.1564212,0.23376626,0.12598328,-0.046368897,0.096034184,0.27655664,0.15722927,-0.007370024,-0.29536834,0.11001049,0.013550796,-0.21576265,0.21086968,-0.058918253},{-0.021213595,0.041569866,-0.07527212,-0.15096404,0.09613594,0.22623882,-0.045416344,-0.21076733,-0.060305007,-0.008407443,0.09387436,0.3339121,-0.08146936,-0.048182037,-0.022836573,0.18666112,0.135802,0.05089079,0.24654794,-0.20644136,-0.15916578,0.1777736,0.20085937,-0.10744722,-0.23813325,-0.0771491,0.11650932,-0.13923348,0.064136,-0.18079934,0.08150667,-0.05894282,0.06094593,-0.11939673,0.07090816,-0.19925152,0.08486011,-0.19610888,-0.1930196,0.22510968,0.20304532,0.11239333,-0.17074321,-0.16201803,0.3049574,-0.016700823,0.07797105,-0.14122327,-0.062252242,-0.05746122,-0.10447719,0.14104979,-0.2137812,-0.16705252,-0.19037032,0.10530208,0.19917126,0.07329497,0.00037528476,-0.2108567,0.1451865,0.14583673,0.12874009,-0.012452896},{0.08360691,0.104548514,0.10931959,0.07844915,0.070300736,-0.28593823,0.30940983,0.16673411,-0.16573441,0.059542056,-0.16541278,-0.06004646,-0.15347742,0.19769649,0.17675504,0.12076733,-0.1743743,-0.26192558,-0.05816411,0.022086285,0.14776582,0.063292034,-0.115361035,-0.04036215,0.19151005,0.10626046,-0.04352572,-0.23914938,-0.13921063,0.30793276,0.16214232,-0.094188236,0.34302056,0.06664284,-0.26048866,0.2280618,-0.29875478,-0.10853237,0.09136321,0.07193879,0.18373662,0.14973752,-0.059744753,0.067126736,-0.17594342,0.11858482,-0.09899517,0.048108794,-0.07195243,-0.0013488596,-0.089822285,0.24989806,0.27927336,-0.05478031,-0.120612174,-0.06312877,-0.283638,-0.1379093,0.015148242,0.021947782,-0.07645612,-0.052591737,-0.08038117,0.016409123},{-0.08471023,-0.23373458,-0.2622833,0.20616606,0.31234258,0.12499262,-0.31423464,-0.17274046,0.014715272,-0.20352717,0.013120089,-0.094859496,-0.006974937,0.28778502,0.085941516,-0.03529404,0.25228745,-0.2332776,0.067137696,-0.14194457,0.12686865,0.1380577,0.14396326,-0.04570901,0.12814268,-0.03440195,0.049449172,0.028814139,0.19241785,-0.0024131716,-0.055099998,-0.31615928,-0.07895403,-0.090284996,0.14463031,0.23511785,-0.18376605,0.07688338,-0.056915645,0.120709546,-0.07505708,0.124881,0.27701074,0.03330558,0.06812815,-0.3791842,0.14634714,-0.030394647,0.17035705,0.05269254,0.08486252,0.1861772,-0.21270432,0.0665508,0.25413877,-0.009826464,0.28252488,0.22826548,-0.09559262,-0.020285655,0.03107239,-0.24676462,-0.15815482,0.1770058},{-0.12174325,-0.1742119,-0.2028148,-0.24003774,-0.1622299,-0.26272872,-0.012691803,-0.021011693,-0.08595958,-0.018540122,0.1651234,0.07185698,-0.24651398,-0.016745105,0.017782338,0.18736705,-0.12262334,-0.049020596,-0.14282896,0.27040362,-0.056337543,-0.0683518,0.031771686,-0.2545279,-0.22901693,-0.1855182,-0.122502536,0.11976273,0.24747774,0.07901967,-0.21409698,0.026682038,0.041132607,0.0014834005,-0.06034255,-0.15581056,-0.018706338,0.19997479,0.07978552,0.19446191,-0.29574385,-0.11391618,0.20219457,0.14937943,-0.010172937,0.2653701,0.028247142,-0.05150209,-0.25464097,0.19532187,-0.26062405,-0.17571959,0.016343808,0.28711656,0.19630837,0.17480743,-0.10023207,0.10416765,0.107220344,0.42483413,-0.024517018,0.18190384,0.20609921,0.13954888},{0.14718819,-0.12304657,-0.0057678116,-0.054756537,0.019040879,0.18954569,0.2344192,0.27829823,-0.17226101,0.05903141,0.062014755,0.20813227,0.05873374,-0.032500897,0.17366216,-0.49222782,0.049761992,0.19630635,-0.13549976,-0.2938421,-0.09717933,0.048030496,0.14729223,-0.17806579,-0.35300162,-0.20129211,0.29642084,0.5436105,-0.11067642,-0.18121845,0.021267058,0.24550346,0.08333384,0.031691015,0.120830916,-0.070396304,0.14371605,0.041780747,0.19795288,-0.11262898,-0.040577143,-0.20557626,-0.26997396,0.15622772,0.21708022,-0.10329639,-0.23290688,-0.20356186,-0.026368776,0.40647593,-0.12651557,-0.31753182,-0.26547,0.10205361,-0.01254924,-0.16490883,0.11045093,0.09932346,-0.18734013,-0.092276715,-0.1886964,-0.38045996,-0.2839382,0.039329346},{0.021163102,0.106935926,0.046449937,0.1072946,-0.04003763,0.10667376,0.056607474,-0.17179531,-0.062350705,-0.26905543,-0.1119574,-0.027864931,-0.09663645,0.041058194,0.09394625,0.064915314,0.1419897,-0.060445976,-0.06866359,0.1043093,-0.014994841,-0.03359668,0.05696333,0.20473817,-0.015830034,-0.048999503,-0.13821952,0.02759329,-0.14345802,0.18071765,-0.12126742,-0.053052608,-0.25079662,-0.15885879,-0.101256475,0.20704047,-0.1260308,0.21310513,0.19453299,0.2766957,-0.06366587,-0.06262523,0.13571717,-0.034508586,-0.015930131,0.18241425,0.14414191,0.12056606,-0.01856475,0.20823266,-0.26460716,0.21015081,0.06513373,-0.2049107,0.25079808,0.09385955,-0.02992461,-0.14350781,0.22978635,0.070375256,0.095083125,0.3043243,0.2885612,-0.10974486},{-0.0151148895,-0.14511193,0.018052138,0.13350545,-0.24606077,-0.2153202,-0.068830825,-0.24690574,-0.2516997,0.23353226,0.16516699,0.03939543,0.16103426,0.2108284,-0.18325883,0.2763459,0.10236826,0.061704956,-0.07261606,0.1899521,-0.07136096,-0.0856467,-0.103132725,0.2604485,-0.17069802,0.13575114,-0.25777254,-0.18629482,0.1834762,-0.00034840129,0.15062296,0.21754993,0.15027104,0.2527904,0.0054398654,0.017960679,0.00223619,0.044926383,-0.03136804,0.20961538,-0.045375433,-0.053463746,0.1044629,0.1328181,-0.027210558,0.07767775,0.053876672,0.2261096,-0.250147,0.11560033,0.16989206,0.10111726,-0.18358923,0.114467375,-0.10955762,0.13550878,0.04477506,0.0635158,0.1828657,0.12157297,-0.08259154,0.28696662,-0.20097412,-0.08889381},{0.13939448,0.13413586,0.2074198,0.010713325,0.1518755,0.027969683,-0.21240257,0.08993821,0.12838136,0.02509606,0.17336439,0.33394185,-0.23665674,0.010812449,-0.13200308,-0.23802905,-0.29685137,0.012579339,-0.19109978,0.10221446,-0.1840663,-0.28693956,0.11592707,-0.14112909,0.16141754,-0.15440963,0.11386513,-0.050877832,-0.04032349,-0.008051198,0.21673451,-0.10425735,-0.0041052587,0.10522482,0.024925832,-0.14348236,-0.052663956,-0.24195486,-0.21238658,-0.19564295,-0.04757033,-0.022895103,-0.03948491,-0.010691749,-0.13127652,-0.058457777,0.0033598635,0.22189607,0.056273542,0.1626285,0.0424597,-0.03566408,0.0039139795,0.2716404,-0.073289834,-0.20433131,0.21515846,0.2077863,-0.0012662816,-0.267742,-0.3125885,0.117313035,-0.028858146,-0.18066345},{0.24280795,0.045580428,0.23071669,-0.1141409,-0.09154966,-0.011121688,0.10526641,0.046186976,-0.15762475,0.32872033,-0.2475645,0.053659752,-0.10008606,-0.14930238,0.027228177,0.082256265,-0.0014081141,-0.11421727,-0.18131447,-0.120286904,0.15145107,0.010769767,-0.14878637,0.090002276,-0.14923751,0.21083815,0.13479125,0.35547358,-0.27531305,0.061979365,0.025368938,0.07754047,-0.18941522,-0.1468295,-0.028431162,-0.18128799,0.017157467,0.09969904,-0.036083724,0.15760022,0.20242526,0.088566594,-0.28841677,-0.118490346,0.42815107,0.118072234,-0.17815904,-0.03539745,-0.0074107144,-0.06254756,-0.16874401,-0.21596375,0.09122534,-0.20521256,-0.19957693,-0.07413047,0.0966272,-0.09505753,0.09140058,0.17110257,-0.06551218,-0.113818936,0.1626626,-0.1308024},{0.23387545,-0.19017754,-0.14231032,0.10478279,-0.13321133,0.09999053,0.0065661287,0.15271784,0.10920376,-0.2395778,0.11467095,-0.0095132915,0.03434363,0.1736065,-0.19608498,0.015658002,-0.110306464,-0.15476617,-0.04229535,-0.09047007,0.026503505,-0.034583118,0.14848696,0.22433388,-0.4676887,0.0672521,0.23923491,-0.11919764,-0.004949775,-0.055335034,0.21048795,-0.07141514,-0.21573798,-0.02618682,-0.16373338,-0.009741008,-0.27677107,-0.05124405,-0.069043346,0.20077072,0.1205713,0.0028750598,0.2042494,0.091045454,0.08368253,0.002750163,-0.14975318,-0.3683478,-0.19161236,0.23136792,0.04935091,-0.14807706,0.024904905,-0.21944603,-0.25314692,-0.1879597,-0.25339198,0.13842544,-0.06502769,-0.09926415,-0.22211365,0.030793944,0.28617498,0.04651001},{0.18095863,-0.10386153,0.09841418,0.08851715,0.0106643,-0.024249049,-0.22495326,-0.22592351,-0.12035008,-0.11657557,0.10668385,-0.0012835982,0.09001259,0.26715046,0.09354574,0.2197332,-0.049617756,-0.1592641,0.1562208,-0.028383981,-0.20680422,0.27678055,-0.0484466,0.047745727,0.032298792,-0.041343328,-0.11648193,-0.028618915,-0.057016052,-0.1525087,0.2504434,0.05048947,0.08664626,0.17080088,-0.040598873,0.017582811,-0.3541735,-0.2883012,-0.011472092,0.12560269,-0.033002254,-0.120925784,-0.044390753,0.026093774,0.025170192,-0.101914674,0.18645793,-0.08894603,0.0020929063,-0.1870528,0.17248568,-0.09068625,-0.0063647055,0.17207846,0.043928906,0.015301329,-0.13736318,-0.11553158,-0.14151299,0.19581234,-0.08010373,0.26466972,0.021502115,-0.017870985},{-0.06859475,0.002626111,-0.13376391,-0.053957596,0.22118297,-0.1126588,-0.20157695,-0.19014256,0.15371752,0.12514229,0.080098204,0.21789917,0.15828079,-0.0021486299,-0.008192969,0.06559821,0.05823035,-0.008638433,-0.110883586,0.068065815,0.16338265,-0.32965493,-0.15961987,0.041765515,0.09523552,-0.10771535,0.15663144,0.0090877935,-0.077617645,-0.12834458,0.027438859,0.090125844,-0.29654762,0.25627157,-0.15642081,-0.18491352,-0.03814058,-0.00084323226,0.22633705,0.06404442,0.03574652,-0.10964433,-0.2719812,0.20963874,0.024198286,-0.30023375,0.14805949,0.13799736,-0.08731367,-0.12350584,0.22381605,0.17584856,-0.11038242,-0.22064601,0.033102494,0.1423077,0.09095055,-0.07644108,0.08762806,-0.10157824,-0.08088486,0.049337845,0.16326177,-0.25324827},{0.1975153,0.32454154,0.23275807,0.23485951,-0.21157414,-0.19226435,-0.0023881712,0.20857841,0.18128201,-0.10351586,-0.019664653,-0.19175199,-0.03663047,0.21740198,0.26700222,0.14216551,-0.09735875,-0.19928448,-0.1363855,0.065988764,-0.08492031,-0.009411754,-0.2057868,0.023916421,-0.022327954,-0.026742406,-0.15918581,0.24680515,-0.3115852,0.26043513,0.09466826,-0.23773007,-0.21753265,-0.056522343,-0.09938571,0.0011863818,0.070882,-0.20298792,0.041274317,-0.04633014,0.194457,0.021714041,0.0023220438,0.1323332,-0.11392605,0.006093598,0.29197413,-0.12204582,-0.3462016,-0.16303557,0.24517296,-0.030786633,-0.09090927,-0.06178374,-0.17562577,-0.32217503,-0.00562165,-0.061420232,-0.15406524,-0.13010241,0.048089206,-0.004751039,0.20913853,0.083162},{-0.2767879,-0.008157173,0.036284402,0.19080752,0.11878825,0.103243835,-0.18127048,0.283454,0.07524395,0.3365294,0.27197194,0.31300342,0.006471702,0.10657192,0.41193756,0.03216212,-0.27771848,-0.07484263,-0.15148343,-0.40953386,0.006006013,-0.12937334,-0.0059125926,-0.33324492,-0.19912586,-0.309586,0.29289123,0.12853555,-0.25996146,0.18645291,0.32388133,0.13892277,0.35226658,0.54435956,-0.2264352,-0.3204214,-0.2466929,-0.14062643,0.29129803,-0.20624217,0.039282747,-0.09593627,-0.22136539,0.09465508,-0.11540184,0.14926523,0.2764249,0.34550148,-0.3678584,-0.29808304,0.1894375,-0.07057709,-0.058771048,0.07805987,-0.19390424,-0.086914025,-0.22923256,-0.18645406,0.11035848,-0.16577972,-0.3197337,-0.15756823,-0.6003867,0.053686254},{0.26301634,0.11496337,0.2252654,0.10741262,0.30553338,-0.047092333,0.0012584239,-0.045296412,0.008575829,0.39882782,0.08511072,0.35973093,-0.28435907,-0.16731231,-0.21815012,0.029106965,0.114353865,0.20348917,-0.113519765,0.045785803,0.16448133,-0.09096493,0.24050395,-0.1992004,0.14075945,-0.034189414,-0.24225268,-0.043217994,-0.12618259,0.20038474,-0.022259915,0.19853882,-0.08501079,0.04269685,0.23843303,-0.062443573,0.034972765,0.0022577185,-0.016244909,0.15240799,-0.1696838,-0.16231792,-0.12946029,-0.08467619,-0.2841177,-0.31275633,0.13736542,0.15802401,0.15808278,-0.19799994,-0.26012644,-0.18243416,-0.0017898182,-0.2640362,-0.19095884,-0.046169262,0.09520814,0.13976465,0.20462154,-0.072159015,-0.06527187,0.15604514,0.06894052,-0.22973834},{0.14543915,0.2722109,0.23945548,0.04815133,0.13058737,0.085775085,-0.26896918,0.2569928,0.088848166,-0.2911593,-0.15027553,-0.091307476,0.19172394,-0.1640332,0.111668214,-0.21517467,0.14374427,-0.02931909,-0.20830062,-0.11726174,-0.061987143,0.0063647656,0.12793519,-0.2727225,-0.10573168,0.11350118,-0.11479274,0.008574386,0.021019587,-0.019158114,0.19619846,-0.030206373,0.17808954,-0.29788136,0.11714372,0.09218389,-0.17825797,0.07675674,0.0310291,-0.2383001,0.13495708,-0.14174528,-0.1372853,-0.15413691,0.1914296,-0.014736902,0.20143376,0.19116648,0.28216904,0.115199216,-0.067771636,-0.08671202,0.08918361,-0.14892985,0.0010481897,0.033530865,0.21590361,0.14783733,0.16549459,-0.16149543,0.29748875,-0.0024737043,-0.033491533,0.063771844},{-0.38858458,0.14857781,0.24875599,0.1253007,0.07568076,0.09077971,-0.071914025,0.11039816,0.06273835,0.028154273,0.16592428,-0.50609374,0.045789838,-0.010581819,0.48229137,-0.24112697,-0.077177316,-0.3249634,-0.22879285,-0.1458796,-0.03519111,-0.17362662,0.08053151,-0.34015992,-0.29042107,-0.16806218,-0.36098415,0.25274718,0.04983856,-0.041563123,0.2010342,0.11228315,0.27882615,0.27771887,-0.27078643,0.33384782,-0.112534575,-0.23035212,0.29728115,-0.14450076,-0.13954721,-0.04130788,0.22684574,0.083477944,0.20324923,-0.08346863,0.28331724,0.044917423,0.23616053,-0.06932386,0.004274556,0.064190015,-0.17319822,0.09700097,0.1529506,-0.5088696,-0.21971753,0.20284893,-0.03709855,0.05431921,0.37988758,0.0097622415,-0.31148833,0.021480445},{0.09190058,-0.04583131,0.017254643,0.10625343,-0.418155,-0.2638582,0.21855567,-0.06296301,0.0041500255,-0.26227963,-0.32184294,-0.34792328,0.0163684,0.089092985,-0.40876973,0.24236798,-0.31206772,-0.010216537,-0.14314291,0.040851373,0.12681624,0.033461146,-0.17360468,0.17623647,-0.026207365,-0.13774157,0.043714087,-0.1102225,-0.25478843,0.1179708,-0.09784691,-0.102829926,0.028507324,0.019574316,0.24997966,0.1800356,-0.1895702,-0.17026559,0.2891676,0.16881871,-0.22172028,-0.077603705,0.29440954,0.20688206,0.22072007,0.16537589,-0.23732397,0.052785322,-0.32536027,0.37239084,0.12577546,-0.34405404,-0.053207323,0.08373968,-0.1291618,0.0401841,-0.13875477,0.20497525,0.08984474,0.03942749,0.03516113,0.27067217,-0.09118339,0.039030064},{0.2005688,-0.18680702,0.042055268,-0.11953789,0.25662935,-0.16636342,-0.12357222,-0.3560262,0.14727409,-0.041879527,0.06811483,-0.016925529,-0.034916926,0.071874425,-0.17800231,-0.10334474,0.15642908,-0.07771415,0.042884145,0.20956747,0.027210183,0.14751078,0.07989798,-0.019818062,0.20829025,0.16769902,0.24708061,0.15406936,0.12853391,-0.3372608,-0.098919496,0.006660683,0.16458024,0.020388637,0.13815579,-0.25389034,0.12458735,-0.0068955733,0.12482728,0.15120828,-0.020485593,-0.11453518,-0.06974779,-0.005959089,0.19812737,0.114882,-0.07788153,-0.13302508,-0.18946065,-0.20306176,0.15548989,0.0016773811,-0.021464553,-0.38398182,0.2881915,0.01891813,-0.09319029,-0.012948665,-0.14765158,0.1886137,-0.14231947,-0.030215204,-0.055481292,-0.12821138},{0.04448252,-0.11343876,0.030834036,0.18621422,0.15536404,0.13109437,-0.09779379,0.02072754,-0.17442681,0.118140236,0.06390812,-0.10057694,-0.2413385,-0.1626648,0.10855946,-0.108297065,-0.010483448,-0.3266837,-0.05565913,-0.06857753,0.21208428,0.26625654,0.17605318,-0.3675389,0.31673503,0.07940869,0.042391226,-0.0058274027,0.119507454,0.019967532,-0.019981215,0.051080376,0.21432438,0.14941873,0.064891025,-0.15673228,0.03111755,0.07614147,-0.058233555,-0.24510239,0.12712818,0.21098278,-0.07919588,-0.20274311,-0.0017654281,0.0530955,0.0030382476,0.011252548,-0.20976385,-0.056893498,0.13833833,0.07746434,0.1342541,-0.23424864,0.20317887,-0.019624012,-0.18768114,0.19162153,0.21029273,0.09966788,0.053633306,-0.2035506,0.05749621,-0.1734901},{-0.24374495,-0.18414326,-0.30380815,-0.1941954,-0.046355348,0.0003219043,0.07345182,0.117151864,0.0046875635,0.18962371,-0.11599556,0.09917684,0.129745,-0.09178672,-0.15226576,-0.21687247,-0.20926425,0.0012303726,-0.096769474,0.2748605,0.20054017,-0.20864585,0.17425233,-0.060125034,0.36938405,-0.04945078,0.08025382,0.17435755,0.0051060873,0.060265172,0.15774365,0.017225616,-0.1418105,0.088985875,-0.13272616,-0.05449483,0.016838226,0.15447871,-0.09415218,0.0770312,-0.1764526,0.038474143,0.1407468,0.066828564,-0.16831638,-0.04229236,-0.017549904,0.29839697,0.18659899,-0.19827023,-0.062085487,0.16983627,0.17578587,0.1368566,0.17557892,0.1772612,0.04892367,-0.0009530121,0.14851765,0.24632974,0.121758394,-0.13256581,-0.23280258,0.005211095},{-0.16561137,0.026689522,-0.19281325,0.24915217,0.16641992,-0.07481817,0.08645189,0.1337065,0.23391016,-0.18833585,0.06681365,0.042206217,0.100354485,0.09335051,-0.115454234,-0.09870355,0.14596722,-0.09865029,-0.101094805,0.12311875,0.17292768,-0.16043948,0.22339727,-0.13576251,0.17562424,0.15050898,-0.2722433,-0.0919064,0.17998707,0.11017311,0.022653284,-0.214811,0.11813242,-0.16901311,-0.113672666,0.057580482,0.020490102,-0.12629163,0.23591986,-0.01301288,0.08331433,-0.018546753,-0.1422325,-0.25571978,-0.06263214,-0.15692784,0.10402652,0.10496042,-0.17533553,0.26052096,-0.0014758783,0.1967088,0.1934521,-0.20317854,-0.042745493,0.13030699,0.030009298,0.18132801,0.14833777,-0.11366796,0.10921856,0.13256325,-0.15279225,-0.15222694},{0.09383207,0.044884745,-0.0325079,-0.15896764,-0.00038964587,0.002025422,-0.3194972,0.25494754,0.12285229,-0.18911414,0.033014793,-0.03753633,-0.09251745,-0.10856131,-0.25128883,0.16686179,0.031778872,-0.04478239,0.0015950467,0.06948213,0.19041495,0.12546435,0.099985614,0.026375359,-0.101387866,-0.1102846,-0.12575154,-0.32662296,-0.11599623,-0.06805998,0.008770052,0.17140287,-0.35690382,-0.121529855,0.123968184,-0.07638818,-0.110924385,0.12176493,0.21199238,-0.14327957,0.27217785,0.1324524,0.06297473,0.264529,0.282302,-0.14834249,0.22496866,0.0680005,-0.09755737,0.08074079,-0.0012407415,0.2893109,-0.13964681,-0.23622575,0.32845733,-0.11337774,-0.053127464,0.2442333,0.06984701,0.04188989,-0.032090757,0.087089956,-0.05361985,-0.018390896},{-0.20926143,0.2591516,-0.04816726,-0.16557908,0.13994098,0.16594887,-0.12747695,0.1811812,-0.22803065,-0.2580767,0.048128653,-0.40537798,-0.17037192,0.21338153,-0.10993694,-0.16319634,0.2652309,0.18623081,-0.19651666,0.13113901,0.28345922,0.17761575,-0.007831573,-0.020041408,-0.15487403,0.059268944,-0.13890819,-0.07067144,0.0072012264,0.18981522,-0.006700051,-0.13658467,-0.3292474,-0.12314172,0.203281,-0.122056596,-0.10594204,0.18061084,-0.18851067,-0.10767888,0.095497206,0.04696296,0.098770365,-0.1686674,0.18997283,0.06846413,0.22962873,-0.14497885,0.18876682,-0.31317747,-0.12942289,0.21544175,0.09990166,0.11052108,-0.07986815,0.10979685,-0.11344299,0.06616112,-0.18322523,0.12052765,0.28212723,-0.0031682781,-0.16368482,-0.23794672},{-0.038535215,-0.16712426,-0.28561616,-0.12749103,0.048923597,-0.16837084,-0.11224203,0.03595729,0.11681727,-0.2055959,0.03137426,-0.3818544,-0.23472928,0.047388427,0.14609385,-0.039856546,0.025618715,-0.163584,-0.06566454,0.1472564,-0.0344132,0.60343504,0.037972536,-0.010005573,0.33431935,-0.07054494,0.008481921,-0.16085683,-0.055805884,0.019963006,0.11317874,-0.32864803,0.15063603,0.023477023,0.120891854,0.24560611,0.04347989,0.2230158,0.053202044,-0.095640235,0.16073167,-0.33641985,0.31836808,0.21192771,0.044042364,-0.097307794,-0.08936591,-6.6505e-05,0.23535296,0.0379191,-0.17920685,-0.013540998,0.15751487,0.31998593,0.21379,-0.022602938,-0.061954454,0.043464877,-0.07443322,0.14842914,-0.23855849,0.08080699,0.05691905,0.13006833},{0.047669314,0.12127506,-0.0964822,0.16031648,0.1429163,-0.08340745,0.16746634,0.05090008,0.4282014,-0.16148315,0.14170487,-0.06927225,-0.088003404,0.070758805,-0.11814521,-0.29502442,0.12871349,-0.07724061,-0.1819338,0.045764074,0.13850574,-0.4771529,-0.009524547,0.020002734,-0.040921737,0.22571816,-0.2146308,0.034692146,-0.154764,-0.051363926,0.06346811,0.1424806,-0.016718807,-0.060732786,0.09150347,0.055908155,0.053574163,0.21073323,-0.16986154,0.03784375,0.014199935,0.017101211,-0.11869249,-0.17539157,-0.13947615,-0.092503645,-0.15380667,0.18355013,0.1627543,0.06434815,0.17025134,-0.21449208,-0.17019702,-0.26653203,-0.15292795,0.18331611,-0.054493126,0.08573508,-0.19093809,0.10121331,-0.16913697,0.09199817,-0.22437823,0.046703238},{-0.008552712,0.19406782,0.16995464,0.15032245,0.14887014,0.00923977,0.3320958,0.01987082,0.056853708,0.34120947,0.05900736,-0.050901543,-0.17996989,0.036126412,0.11599032,-0.18611562,0.15018381,0.15336592,-0.109996766,0.12663692,-0.037249815,0.1844462,-0.122640565,-0.044564616,-0.06406738,0.06321568,0.021565087,0.023097739,-0.11190199,-0.011478873,-0.25909376,-0.26717895,-0.07457667,0.14630283,0.24482459,0.044449843,0.0036677015,-0.009182817,-0.35128427,-0.0044715386,-0.18478754,-0.007941065,0.07188582,0.061642077,0.2583438,0.104725525,-0.023724603,0.054916803,-0.051115945,-0.11258424,0.02280431,0.020514144,0.18793327,-0.12613459,-0.033378925,-0.2498849,-0.030817166,0.08631041,-0.19795051,-0.19064899,0.034224328,-0.034699906,-0.0765219,-0.20229293},{-0.01579143,0.18172841,-0.18436472,0.0016193955,0.13426542,0.18758976,-0.17750591,-0.15728644,0.267074,0.18771876,0.26783034,0.056349434,0.1890685,-0.25080273,0.18823348,0.09485319,0.16588622,-0.08323446,0.11825228,-0.2056777,-0.02434494,-0.12649792,0.104440115,-0.08562606,0.009153106,0.11600867,0.1387047,0.015641956,0.05793724,-0.06983895,0.18394019,-0.08761007,-0.059829872,-0.027852826,0.04967655,-0.26787782,0.14194503,0.014310967,-0.22781341,-0.08573426,0.16738884,-0.037980214,0.09946199,0.12824549,0.13382933,-0.16549008,-0.17585413,0.041740455,0.060965847,0.06900516,0.2754975,-0.1268577,-0.036988925,0.16742052,-0.08123901,-0.26451072,0.23587324,-0.26111743,-0.020828752,0.012965118,-0.34930205,-0.15566817,0.12902474,0.09314973},{-0.12657432,-0.19987132,-0.261002,-0.06577743,-0.030354787,-0.10077787,0.10564299,0.10856942,-0.46345952,-0.0024647461,-0.060506765,-0.5336986,-0.092367366,0.3796632,-0.0048378636,-0.15204701,0.059749696,-0.34937212,-0.1104807,0.22063957,0.33960998,0.05365287,-0.11927958,0.09479546,0.006839364,0.010985666,0.096763395,-0.1824851,0.08815367,0.16896664,-0.29701367,0.0508541,0.05457529,-0.15899,-0.3374552,-0.16097476,0.053390317,0.1509302,0.07197554,-0.2364936,-0.072495125,-0.009039431,-0.24085698,0.31841594,0.16765445,0.12646689,-0.24331374,-0.040138245,0.04370901,-0.2529461,-0.06540416,0.064646296,-0.2110325,0.02820798,-0.01672644,0.15026976,-0.14490305,-0.25078374,0.079628505,0.12102306,0.23709595,0.026501719,-0.18153925,0.15603212},{-0.09678618,0.029277137,-0.02702745,0.055473205,0.15658121,-0.16919811,0.16212969,0.062052,-0.112027235,0.14273943,0.11711718,-0.16404116,0.13752326,0.09846224,0.17314337,-0.13017485,-0.10673713,-0.12523529,0.16031729,-0.11724366,0.20190631,0.1601705,-0.11321199,0.11930551,-0.2221679,0.25215358,0.11266861,-0.026723413,-0.034678925,0.16199209,0.18413132,0.23583013,0.13729924,-0.027138915,-0.019077243,-0.16972205,0.20739347,0.04572985,-0.06680431,-0.18349284,0.044969536,0.09293641,-0.13902858,-0.013658927,-0.08933099,0.12988858,0.17049521,-0.12767191,0.05919252,0.10122872,0.028273527,-0.124884956,-0.12779507,-0.024495864,0.15898842,-0.06347613,0.08317017,-0.106077224,-0.1722065,0.061286066,0.061775826,0.0042177904,0.12777513,-0.038552962},{-0.1915004,0.086272456,-0.11613364,-0.05553696,0.003589516,-0.13458782,-0.14011978,0.09598803,0.0065526026,0.2936856,0.27066955,0.27815765,-0.18561023,-0.24182601,-0.14165899,0.04619958,-0.18326199,-0.124728434,0.0022302927,-0.1403929,0.2625263,-0.014552118,-0.07948961,0.08835207,0.36969033,-0.2627439,0.15141891,0.2917642,-0.12893946,0.026775314,0.18969247,-0.12907918,0.066714816,-0.14809749,0.07290822,0.0577206,0.2074612,0.0076672584,0.15673746,0.022487234,0.096355565,0.13638249,-0.27057245,-0.27978185,0.11920314,-0.20109282,0.2134287,0.097622514,0.21413802,0.077670954,-0.08271929,-0.1135932,0.0181846,0.10858832,0.017280186,-0.22485013,0.19854671,0.03142766,-0.2792986,0.05614024,-0.048497487,0.00802585,0.11771414,-0.044957258},{0.13033372,0.1001904,0.101846755,0.081289336,-0.16493897,-0.10693684,0.021643069,-0.20737685,0.26623878,0.19544908,-0.0717425,-0.070670344,-0.19511826,-0.06306012,-0.081138425,-0.15119462,-0.093687005,-0.22628388,-0.19036676,0.11718628,-0.24865942,-0.03996402,-0.078658976,0.23361462,-0.04374605,0.15018094,-0.085546345,0.15581873,-0.11619431,0.13594364,0.08014974,0.058896203,-0.22057395,0.10130266,0.10978714,-0.12395636,-0.14993879,0.12030482,-0.006998247,-0.051625345,-0.26659364,-0.022061426,0.09613973,-0.07724415,-0.14363581,0.24714978,-0.06687354,0.27142206,0.23665692,-0.041177183,0.2625156,-0.2395091,0.20722532,-0.04927783,-0.060159728,0.019950407,0.05936852,0.011438047,-0.057467755,0.025877628,-0.11538583,0.12367206,-0.009606015,-0.006617025},{-0.17140822,-0.18464395,-0.09884868,0.057289492,-0.18191098,-0.060240634,0.046092845,0.27156857,0.17360945,0.21058948,-0.2011492,-0.21673153,0.18005624,-0.02068653,-0.009688004,-0.27113372,0.18386117,0.14852583,-0.21360326,0.0920548,0.055801496,-0.2383037,0.06936987,-0.3715948,0.14453821,-0.2326739,-0.1306416,0.031057447,0.11671824,-0.28775027,0.032265097,-0.04039149,-0.03490252,0.1860166,-0.13953479,0.1729082,0.20239587,-0.093571946,0.15196149,-0.016709045,-0.2176816,0.18869877,0.10187209,-0.13507035,-0.23826587,-0.30541444,-0.082450144,-0.022703264,0.24280037,0.082789406,-0.12730816,-0.1437515,0.039019097,0.0074016606,-0.21748334,0.081899635,0.08950533,0.023838468,0.0119891735,-0.14989325,-0.06140134,-0.13733637,-0.16042984,0.17545646},{-0.17282185,-0.093652435,-0.23905762,0.23967011,-0.2196964,-0.21915779,0.18123838,-0.07959559,-0.015356493,-0.17106137,0.122799926,-0.33323863,0.013517785,-0.0037331393,-0.12209449,-0.060569555,-0.17646387,-0.15850158,-0.01986693,0.10082176,-0.35810086,0.016032273,0.24913228,0.03417456,0.00014607358,-0.3136112,-0.25135887,-0.16606244,0.05815967,0.2540316,0.112286076,-0.07236941,-0.15916625,0.031489905,-0.28343213,0.0744329,-0.13027152,-0.0030047228,0.007023949,0.07488772,0.1305099,-0.23478173,-0.04202922,-0.100180335,-0.014750227,-0.1220605,0.122979954,-0.15476009,-0.15133601,0.20607047,-0.03994934,0.1602626,-0.05845769,0.23570766,-0.17148775,-0.19970468,-0.08946919,0.27074146,0.22323357,-0.025048107,0.20382702,0.07722145,0.02718617,0.20792462},{0.103843294,-0.022453073,-0.18111233,0.004198479,0.1764486,-0.19993892,-0.09351701,0.056596693,-0.26900396,-0.013574846,-0.2096212,0.18106493,-0.17775525,0.26735687,0.19662376,0.047921825,-0.22459804,0.14322537,0.15204506,0.07049115,0.24687156,-0.004641047,-0.08310617,-0.097537,-0.25159064,-0.16273059,0.07951849,-0.14218858,0.21390064,0.279961,-0.11677989,-0.011192638,0.043859437,-0.1889071,-0.023145469,0.021070879,-0.2204884,0.033392183,-0.07256615,0.15990365,-0.06743019,-0.2609626,-0.16638318,-0.16408831,0.16669028,-0.188257,0.2732086,-0.10688933,-0.49076885,-0.07296663,0.12257732,-0.21741743,-0.21863562,-0.25756964,-0.124507666,0.0886505,-0.059370358,0.02752853,0.059008885,-0.004876384,0.19286661,-0.10057304,0.14831245,-0.2582621},{-0.21861397,-0.07505956,0.18823633,-0.14518914,0.03295924,-0.20701659,0.11087989,0.25291207,-0.1824063,0.14852375,0.02789422,0.24898511,0.06910754,0.1511338,-0.11542168,0.050090723,-0.3073317,-0.046505388,-0.29797134,0.054152846,-0.0812757,-0.15660328,-0.13865009,-0.10219784,0.11340316,0.06203628,0.030683413,0.07367699,0.1320593,-0.07706083,0.0548899,0.056981646,-0.19794968,-0.23787072,-0.030064683,-0.2534006,0.08927718,-0.120131716,0.10707463,-0.22263953,-0.141429,0.07779262,-0.28506997,0.092874475,-0.14565781,-0.21020183,-0.09408078,0.22086503,-0.22414094,0.028770387,0.29403764,-0.11786972,-0.015637783,-0.30733788,-0.08086929,0.23295338,-0.16004045,0.027896235,-0.011260668,-0.07961082,-0.22644468,-0.19855438,-0.34369344,-0.012140729},{-0.2801962,0.12121046,0.04224839,-0.16195713,0.07301419,0.19845007,-0.26912615,-0.32267419,0.13885522,0.037221894,0.08062193,-0.04688013,-0.16772701,-0.21237633,0.050305247,0.1409453,0.03613921,-0.0051185894,0.1150928,-0.13333014,0.28755346,0.07992805,0.113910705,-0.24011798,-0.05555374,-0.10472169,-0.12381009,0.15966739,0.15807842,-0.07030526,0.17150615,0.009613714,0.009095386,0.09596776,-0.15480243,-0.29301253,0.4003037,0.13888873,0.12241743,-0.10219285,0.1486744,0.05867818,-0.0115870815,0.056889813,0.21668066,-0.010583592,0.14034234,0.05838465,-0.327875,-0.2169576,-0.04662764,-0.020784548,-0.3015497,-0.096847944,0.09418199,-0.2664256,0.23715638,-0.044037025,-0.069081716,-0.035281796,-0.21393618,-0.012958884,-0.2867501,-0.012522053}};
static const float layer_2_weight[64][4] = {{0.29260495,-0.09931237,0.016862873,-0.1283885},{-0.025552887,-0.2308504,-0.2168174,0.26959485},{0.35136718,-0.020899227,-0.21240894,0.095614225},{-0.09369656,-0.24925894,-0.3407797,-0.16161638},{-0.0837954,0.082379565,-0.14381002,0.23996972},{-0.062237468,0.26622674,-0.1575056,-0.00778922},{0.12507772,-0.36160004,0.17232236,-0.080672145},{-0.13705564,0.042311493,-0.2904167,0.004774959},{0.12335509,-0.13555622,-0.15651086,0.18491508},{0.35188058,0.25514403,0.039261177,0.14200513},{0.18421781,0.28210568,-0.30827582,-0.060827635},{0.14608416,0.29968265,-0.11676528,-0.09107189},{-0.124937154,0.31194416,-0.10276553,-0.19354826},{-0.10655752,-0.12795666,0.12984523,-0.109616525},{0.027568737,0.15572375,-0.21133585,-0.24906592},{-0.27464285,0.13032083,0.14063142,-0.13518769},{-0.16501771,0.27283704,0.19257548,0.05912891},{-0.1904477,0.27769917,0.41352007,0.1279608},{0.055721745,0.26581618,-0.22339533,-0.2807822},{-0.050614312,-0.0614611,0.22221836,-0.0041892254},{-0.095161445,-0.09243573,-0.100422785,0.40936887},{0.11672113,-0.02335873,0.07134161,-0.16647002},{-0.29687428,0.20374532,-0.22921093,-0.17767493},{-0.12196738,-0.25598934,-0.35732365,0.03275798},{0.12346549,-0.297723,0.11831857,-0.43096823},{0.06569836,-0.12996952,0.22464237,0.246363},{0.3001257,0.25814456,0.17741702,0.10229945},{0.31293777,-0.09645591,0.090679064,0.10569314},{-0.12558608,0.20540398,0.16221319,-0.08631741},{-0.23394838,-0.096886516,-0.07146218,0.16286097},{-0.11183678,-0.21981521,-0.3423184,-0.3285301},{0.20565836,0.12986386,0.008680978,0.018759502},{0.16167212,0.13436581,-0.07331413,-0.12988375},{0.11767778,0.08576194,-0.1906015,-0.29036835},{-0.013185359,0.027283415,0.05699937,0.17482051},{-0.19514082,-0.116948366,0.021816794,-0.021418806},{0.19033876,0.19253361,0.2853759,0.20754305},{-0.1322261,-0.0058012395,0.33278725,-0.018554302},{-0.1375685,-0.053452354,-0.13684173,-0.18705131},{-0.13960296,-0.24250408,-0.18448576,-0.06928022},{0.047840256,-0.06244129,-0.2990874,-0.12074199},{-0.06838025,0.18048756,-0.17099994,0.034184787},{-0.29379302,0.14314002,0.08294003,-0.14803715},{-0.16469893,0.08690139,0.2641577,0.21133001},{0.08586297,0.27938697,-0.0648293,0.34741637},{0.17985445,-0.11074794,0.30440876,0.14809103},{-0.14392844,-0.033322755,-0.39108688,0.130523},{-0.29650036,-0.29064775,0.17300504,0.04977084},{0.028385242,0.26803273,-0.081549026,-0.13520852},{0.07584927,-0.0077310596,0.13145122,-0.21147034},{-0.103645205,-0.06801946,-0.2507518,0.19255249},{-0.2510285,0.09432956,-0.098916605,0.08885844},{-0.096946165,0.107301965,-0.10206986,-0.32470134},{-0.0135119045,0.03198063,-0.0011324846,-0.32284114},{-0.3933018,0.2368754,0.31313765,0.038153693},{-0.022941178,0.16526306,0.3559006,0.021986816},{0.19598067,0.28064024,0.21898672,0.20837878},{-0.25948337,-0.22666837,-0.29013744,-0.037525456},{-0.23877367,-0.021130137,-0.20294058,-0.20276937},{-0.09406447,-0.23163216,0.35261667,-0.12228473},{-0.22266707,-0.3769702,0.020147884,-0.18544911},{-0.30473006,-0.08104283,-0.17468663,-0.08225624},{0.15395497,-0.11494527,-0.2817636,-0.2828464},{0.055597715,0.07930264,0.15419266,-0.25719392}};
static const float layer_0_bias[64] = {0.15432408,0.06826149,0.009736425,0.21678574,0.01797513,-0.024099732,-0.049975205,0.024955131,0.041039787,-0.2608377,-0.4116708,-0.15694256,-0.10717105,0.33967856,-0.20902191,0.084239826,0.009228499,-0.07264721,0.15038608,-0.38660854,0.060693763,0.08434459,-0.011567996,-0.30805218,-0.034347463,-0.07584589,-0.5233223,0.022815596,-0.14958203,-0.07930607,-0.24342594,0.06671338,-0.21481578,0.13281165,0.40960422,-0.22728352,-0.13686249,-0.044139497,0.36689544,0.6379892,0.009761371,0.13805825,0.020454355,-0.06991707,0.011777787,0.1258639,-0.17181763,0.095772006,0.5255097,0.036022797,-0.028944634,-0.28361604,0.2318966,0.24798095,0.3372961,-0.25320238,0.038857628,0.25641313,0.010676586,0.42937174,-0.024991104,0.043932315,-0.0051241266,0.020827774};
static const float layer_1_bias[64] = {-0.018585972,-0.004411545,-0.017564282,0.050277315,0.0033786756,0.06326982,-0.041517053,0.10182099,0.21646532,0.01835842,0.04416217,0.07102928,-0.024974324,-0.09053562,0.034540474,0.07846326,-0.05943201,-0.061844304,0.04974123,-0.08269814,-0.039905466,-0.23688468,0.060178332,-0.05841564,0.22256202,-0.07086178,-0.060520425,-0.021523036,0.0027273933,-0.041940276,0.08047605,-0.027770871,0.014421439,0.07061539,-0.013717506,0.00019123693,-0.05326512,-0.03115328,0.1131263,0.019787477,0.06675462,0.01843667,-0.008934317,-0.051491607,-0.066533744,-0.113500625,-0.008284444,0.049033053,0.057614047,0.045818266,0.049093697,0.09888455,0.11846303,-0.003085055,-0.06329309,-0.07077093,-0.043494828,0.0077057043,0.032004204,-0.10638607,0.017845668,0.08793446,-0.013525425,-0.030887071};
static const float layer_2_bias[4] = {-0.046503887,-0.022713462,-0.060217306,-0.051314443};

void networkEvaluate(struct control_t_n *control_n, float *state_array) {

	for (int i = 0; i < structure[0][1]; i++) {
		output_0[i] = 0;
		for (int j = 0; j < structure[0][0]; j++) {
			output_0[i] += state_array[j] * layer_0_weight[j][i];
		}
		output_0[i] += layer_0_bias[i];
		output_0[i] = tanhf(output_0[i]);
	}

	for (int i = 0; i < structure[1][1]; i++) {
		output_1[i] = 0;
		for (int j = 0; j < structure[1][0]; j++) {
			output_1[i] += output_0[j] * layer_1_weight[j][i];
		}
		output_1[i] += layer_1_bias[i];
		output_1[i] = tanhf(output_1[i]);
	}
	
	for (int i = 0; i < structure[2][1]; i++) {
		output_2[i] = 0;
		for (int j = 0; j < structure[2][0]; j++) {
			output_2[i] += output_1[j] * layer_2_weight[j][i];
		}
		output_2[i] += layer_2_bias[i];
	}
	
	control_n->thrust_0 = output_2[0];
	control_n->thrust_1 = output_2[1];
	control_n->thrust_2 = output_2[2];
	control_n->thrust_3 = output_2[3];	

}
