#include "network_evaluate.h"
#include "debug.h"
#include "param.h"
#include <string.h>

/*
 * Obstacle Avoiding Policy with curriculum (16 8 8) (DO NOT USE)
*/


float linear(float num) {
  return num;
}



float sigmoid(float num) {
  return 1 / (1 + exp(-num));
}



float relu(float num) {
  if (num > 0) {
    return num;
  } else {
    return 0;
  }
}


//static const int structure [8][2] = {{6, 8},{8, 8},{24, 16},{16, 16},{4, 8},{8, 8},{32, 32},{32, 4}};
static const int structure [8][2] = {{24, 16}, {16, 16}, {6, 8}, {8, 8}, {4, 8}, {8, 8}, {32, 32}, {32, 4}};
static float output_0[16];
static float output_1[16];
static float output_2[8];
static float output_3[8];
static float output_4[8];
static float output_5[8];
static float output_6[32];
static float output_7[4];
static float neighbor_embeds[8];
static float obstacle_embeds[8];
static float embedding_array[32];
static const float actor_encoder_neighbor_encoder_embedding_mlp_0_weight[6][8] = {{-0.38590389490127563,-0.07643286138772964,0.9532796144485474,0.29897281527519226,0.29134854674339294,0.36971864104270935,-0.05635824054479599,-0.9055144786834717},{0.11473377048969269,-0.5642322301864624,-0.717505156993866,0.217601478099823,1.4653716087341309,-0.9901943802833557,-0.5009983777999878,-0.6386017203330994},{-0.256402850151062,-0.43801358342170715,-0.3042433559894562,-0.5082123279571533,0.46610280871391296,0.6369355320930481,0.15726523101329803,0.19435392320156097},{-0.5817386507987976,0.5161150693893433,-0.4927888512611389,-0.33214759826660156,-0.44144585728645325,0.00982256792485714,0.30934205651283264,-0.18500174582004547},{0.06896323710680008,-0.1754164844751358,-0.113408662378788,0.4334564208984375,0.6936363577842712,-0.7100616693496704,-0.37648725509643555,-0.4011556804180145},{0.38256019353866577,0.41738390922546387,-0.04002987593412399,0.32104453444480896,-0.1645853966474533,0.47704145312309265,0.07056642323732376,-0.048996761441230774}};
static const float actor_encoder_neighbor_encoder_embedding_mlp_2_weight[8][8] = {{-0.36834025382995605,-0.13704754412174225,0.21884939074516296,-0.2013082206249237,-0.3665149211883545,-0.5364960432052612,-0.6553416848182678,-0.06042001396417618},{-0.11554399877786636,-0.3955047130584717,-0.4995158016681671,0.28611183166503906,0.5062500238418579,-0.33883944153785706,-0.22397443652153015,0.2189789116382599},{-0.6013219356536865,-0.3031800091266632,-0.19204115867614746,-0.16973812878131866,0.9431313276290894,0.2394600510597229,-0.33048710227012634,-0.5534616708755493},{0.21038776636123657,0.15802578628063202,-0.2800026834011078,0.06804237514734268,-0.17462515830993652,0.4654061496257782,-0.22965562343597412,0.6344706416130066},{0.0041088322177529335,0.355164110660553,-0.6916873455047607,-0.3968554735183716,-0.4729264974594116,0.04411996528506279,-0.2700064182281494,0.4953518211841583},{0.12783636152744293,0.40928706526756287,0.8225082159042358,-0.30313605070114136,0.6365606784820557,0.38049307465553284,0.07970193773508072,0.42930495738983154},{-0.5874132513999939,-0.13688890635967255,0.8658831119537354,-0.6212455034255981,-0.313735693693161,0.19788424670696259,0.7020058631896973,0.28932949900627136},{0.36561906337738037,-0.2119617611169815,0.7358441352844238,-0.3109508454799652,-0.11284861713647842,0.4783899486064911,-0.14788688719272614,0.4306051433086395}};
static const float actor_encoder_self_encoder_0_weight[24][16] = {{0.010051458142697811,0.15893077850341797,0.07177884876728058,0.021794836968183517,-0.08186892420053482,-0.19078974425792694,-0.012295507825911045,0.021651389077305794,-0.07445517927408218,-0.14975398778915405,0.37380433082580566,0.13894975185394287,0.28755855560302734,-0.5159346461296082,-0.34954777359962463,0.07282546162605286},{0.1435222327709198,0.10749610513448715,-0.2786938548088074,-0.09355435520410538,0.37084972858428955,-0.050389960408210754,0.24918878078460693,0.0013186727883294225,0.3535763919353485,-0.11405868828296661,-0.02091742865741253,-0.019603652879595757,0.11534622311592102,-0.021562926471233368,-0.04620521515607834,0.17293494939804077},{0.1263776421546936,0.12370666116476059,-0.41969355940818787,-0.33694449067115784,-0.4434964060783386,0.08578282594680786,-0.5631400346755981,0.2854872941970825,0.1415860652923584,-0.1233052909374237,0.21405759453773499,-0.13913759589195251,-0.15159767866134644,0.3350316882133484,0.1912689507007599,0.25223249197006226},{0.05761581286787987,-0.23155415058135986,0.39981287717819214,-0.17287184298038483,-0.12033413350582123,0.15648622810840607,-0.2057083249092102,0.11629150062799454,0.3664461076259613,-0.17603559792041779,0.18922333419322968,0.2695092260837555,-0.04958028718829155,-0.2695169746875763,-0.614501953125,0.2234121412038803},{0.33986058831214905,-0.3416473865509033,-0.3523942828178406,-0.2811514139175415,0.12083852291107178,0.21853822469711304,0.01159215159714222,0.008136830292642117,0.4317706823348999,-0.21181340515613556,0.24534524977207184,-0.08621515333652496,-0.2925214171409607,0.04393073916435242,0.1992674618959427,0.2012515366077423},{0.10538248717784882,0.05696554854512215,-0.04298420995473862,0.16705606877803802,-0.01657409779727459,-0.039554860442876816,-0.49368634819984436,-0.12988565862178802,-0.066947802901268,0.02111605927348137,-0.25892168283462524,-0.3385903239250183,0.1524098515510559,0.07520020753145218,0.011331423185765743,0.19963987171649933},{-0.11652795970439911,0.003226055298000574,0.09026452153921127,0.005112521816045046,-0.06048537790775299,0.1480446457862854,0.08473239094018936,-0.3042496144771576,0.33720096945762634,0.9681971669197083,0.011618942022323608,0.04351208359003067,0.2651307284832001,-0.4575250446796417,0.3226168155670166,-0.011567971669137478},{0.2088075429201126,0.1593637615442276,0.3967912495136261,-0.47086483240127563,-0.07981574535369873,0.3723154366016388,-0.23894038796424866,-0.5183449387550354,-0.3250742256641388,-0.007300085388123989,0.18069159984588623,0.5357180237770081,0.19376671314239502,0.1678277552127838,-0.10511655360460281,-0.017716797068715096},{0.3237901031970978,-0.9238775968551636,1.0994864702224731,0.5898028016090393,-0.5002292990684509,-0.5838381052017212,-0.15914355218410492,0.42990460991859436,0.107875756919384,0.3568147122859955,0.6543838977813721,0.15426047146320343,0.5769310593605042,-1.0035499334335327,-0.30923229455947876,0.6288913488388062},{-0.22710305452346802,-0.27325302362442017,-0.4841576814651489,0.6562185287475586,-0.48130303621292114,0.14210562407970428,0.21495577692985535,0.2794334292411804,0.42899289727211,-0.19522282481193542,-0.21326790750026703,-0.06389432400465012,0.3538548946380615,-0.054163020104169846,-0.05170193314552307,-0.5562859177589417},{-0.3880263566970825,0.3447088301181793,0.07811908423900604,-0.5163483023643494,-0.2505260109901428,0.2958645820617676,0.0075211301445961,-0.42173826694488525,0.6098963618278503,0.2549070417881012,-0.10384812951087952,-0.04245413467288017,-0.04828416183590889,0.2823546528816223,0.498832106590271,0.5411438345909119},{1.003623604774475,0.4948182702064514,-0.30549556016921997,0.278325617313385,0.1926698535680771,0.8005945682525635,-0.19709154963493347,0.32252565026283264,0.7866553664207458,-0.14433175325393677,0.005978615488857031,-0.11727674305438995,-0.6301929950714111,-0.3520113527774811,0.21757350862026215,0.11243792623281479},{0.9978836178779602,-0.3281444013118744,0.2765256464481354,0.601502001285553,-0.310224711894989,0.29371368885040283,0.11987119168043137,0.18385089933872223,0.5806514024734497,-0.3485145568847656,0.5098481774330139,-0.023506591096520424,-0.6510635018348694,-1.0279651880264282,-0.4350285232067108,0.36779797077178955},{0.7402212619781494,0.4644494950771332,-0.2790115475654602,-0.11724031716585159,0.4105111062526703,0.7326542139053345,-0.4846384525299072,-0.4620169997215271,0.48839524388313293,0.1814584732055664,-0.46724188327789307,0.19407512247562408,-0.991755485534668,0.16465766727924347,0.0524090938270092,0.11556871980428696},{-0.2185489684343338,0.29222580790519714,0.4252035617828369,-0.054927121847867966,0.27305132150650024,0.14388935267925262,0.027270257472991943,0.39033281803131104,-0.38254979252815247,-0.12369105964899063,-0.05879043787717819,-0.07643929868936539,-0.6255982518196106,-0.2716469466686249,0.17781980335712433,-0.42694786190986633},{0.20627370476722717,0.20863856375217438,-0.2997550368309021,0.3156704306602478,-0.02253616973757744,0.3091055750846863,0.13645918667316437,-0.05778536573052406,-0.10650525987148285,0.07214559614658356,-0.2802251875400543,-0.24308228492736816,-0.12526166439056396,0.12756088376045227,0.008546748198568821,-0.11468854546546936},{-0.13676176965236664,0.15636375546455383,-0.2194613665342331,-0.2747015357017517,-0.04879891127347946,-0.10099340975284576,-0.018018871545791626,-0.11142413318157196,-0.3415404260158539,-0.06499088555574417,-0.1974339485168457,0.3058193624019623,0.06645585596561432,0.1992911547422409,0.4599692225456238,0.0406615287065506},{-0.11338154226541519,-0.0800391137599945,0.06911245733499527,-0.17832988500595093,0.15311728417873383,0.17429353296756744,-0.18527118861675262,-0.2528272867202759,-0.3476044535636902,0.313291072845459,0.29109060764312744,0.22274945676326752,0.0024287633132189512,-0.09204937517642975,-0.09811686724424362,0.21405263245105743},{0.1944212168455124,0.20778656005859375,0.05809101089835167,0.07936794310808182,-0.2395152449607849,-0.21548685431480408,0.13106968998908997,-0.053279243409633636,-0.1268862783908844,-0.00888004433363676,0.2046130895614624,0.2900303304195404,-0.03757420927286148,-0.31162694096565247,-0.21314464509487152,-0.10036960244178772},{0.24300675094127655,0.06174211576581001,0.11679430305957794,-0.2329871952533722,0.1608981341123581,0.0854717418551445,0.05178913474082947,-0.22318775951862335,0.15743866562843323,0.12455813586711884,-0.04038258269429207,-0.07432238012552261,0.10220792144536972,-0.008889956399798393,-0.04665840044617653,0.16057316958904266},{-0.1033683568239212,0.38848447799682617,0.07108195871114731,-0.3446546196937561,0.07434318214654922,-0.24892330169677734,-0.06567458063364029,0.023466840386390686,-0.18736599385738373,-0.10397238284349442,-0.2994411587715149,0.047670137137174606,0.05838735029101372,-0.3224920630455017,0.3020641803741455,0.31339067220687866},{0.08103455603122711,-0.009663695469498634,-0.2748340666294098,-0.23666197061538696,-0.16213543713092804,0.04044325649738312,0.2631988525390625,0.3297065794467926,-0.30637800693511963,0.1366211175918579,-0.2168646901845932,0.16430924832820892,0.12319184839725494,0.29841211438179016,0.3397490084171295,0.329811155796051},{-0.11020573228597641,0.08817454427480698,-0.095842644572258,0.04296516627073288,-0.3118606209754944,-0.18152885138988495,-0.19082757830619812,-0.28842905163764954,0.309963583946228,0.18493671715259552,-0.025546958670020103,-0.05674459785223007,0.24458874762058258,0.29437991976737976,-0.24342501163482666,0.02364196628332138},{0.17941109836101532,0.1339058130979538,-0.2955001890659332,-0.21549849212169647,0.07803333550691605,-0.34874382615089417,-0.015259338542819023,-0.14309857785701752,0.11066057533025742,-0.22622665762901306,0.26047006249427795,0.20075589418411255,-0.07777056097984314,0.30733710527420044,0.2294972985982895,0.04047610983252525}};
static const float actor_encoder_self_encoder_2_weight[16][16] = {{-0.01157506462186575,-0.4969722032546997,0.045748211443424225,-0.19515100121498108,0.17300716042518616,0.29359397292137146,0.3880447447299957,0.046199239790439606,0.49864181876182556,0.2252832055091858,-0.0008253814303316176,-0.13494697213172913,0.18272140622138977,0.2797195017337799,0.2963390052318573,-0.01213720440864563},{-0.2193385809659958,-0.40637919306755066,-0.3207908272743225,-0.33543911576271057,-0.387579083442688,-0.07102750241756439,-0.3994409739971161,-0.21896708011627197,0.1497950553894043,0.04033898934721947,0.08620789647102356,-0.3351093828678131,-0.08800853043794632,-0.07479391992092133,-0.2475953847169876,0.22580364346504211},{-0.46447449922561646,-0.04984864592552185,-0.4231373965740204,-0.2955085039138794,0.13888466358184814,-0.3980133533477783,0.026347285136580467,0.22731079161167145,0.029461096972227097,0.16643203794956207,-0.20059344172477722,-0.144130676984787,0.3301461935043335,0.38507387042045593,-0.43283912539482117,0.09279672801494598},{0.028911979869008064,-0.016300342977046967,0.15808530151844025,0.19846051931381226,0.3211662471294403,0.23522762954235077,0.04087128862738609,-0.13084442913532257,0.15115900337696075,0.11109418421983719,-0.169427752494812,0.16685912013053894,0.1924361288547516,0.2524451017379761,0.18263916671276093,0.1020459234714508},{0.34589847922325134,-0.2005917876958847,-0.3818686306476593,0.37601810693740845,0.027238018810749054,-0.0974791869521141,0.23795218765735626,0.0967990905046463,0.3434755802154541,0.060536522418260574,0.08868726342916489,-0.2475517988204956,-0.4221046268939972,0.3037906289100647,0.3942139744758606,-0.46762850880622864},{-0.185557559132576,-0.2866092920303345,-0.41533273458480835,-0.11240962892770767,-0.09447728842496872,0.5878418684005737,-0.12753787636756897,0.3122784197330475,0.2016625553369522,0.07547804713249207,0.2794465720653534,-0.30416953563690186,-0.41985446214675903,0.29081594944000244,0.3030471205711365,0.07066091895103455},{0.3553679585456848,0.07450372725725174,0.11836716532707214,0.32984158396720886,-0.24228249490261078,0.18621650338172913,-0.3214414119720459,-0.12143370509147644,0.37979856133461,0.2816413938999176,0.19050626456737518,-0.2848970592021942,-0.24751195311546326,0.48679473996162415,-0.3504756987094879,-0.09651470929384232},{-0.48474544286727905,-0.016968747600913048,0.293986052274704,0.34269917011260986,0.0300257820636034,0.013576077297329903,-0.2951942980289459,-0.19450442492961884,0.2578108608722687,0.013532872311770916,-0.25269001722335815,-0.10920185595750809,0.4021548926830292,0.3324182331562042,0.3341347575187683,0.3242653012275696},{0.01393448282033205,-0.06083531677722931,0.3605445325374603,-0.13034358620643616,-0.43695855140686035,0.27776721119880676,0.34431177377700806,-0.16795995831489563,-0.018331915140151978,-0.04311033710837364,0.0075267618522048,0.33733364939689636,0.01916136033833027,-0.15083959698677063,0.18452367186546326,0.07142086327075958},{0.2369086891412735,-0.12694691121578217,0.18647293746471405,-0.3476243317127228,0.238472118973732,0.09870659559965134,-0.2361152470111847,0.2668004035949707,-0.09905509650707245,-0.4586813151836395,-0.10282091051340103,0.1856241375207901,0.06770692765712738,-0.18792113661766052,-0.008054593577980995,-0.49351072311401367},{-0.10518479347229004,0.2771843373775482,0.1793091744184494,-0.37356477975845337,0.3730182647705078,0.30849313735961914,0.17782633006572723,0.18668432533740997,0.282198429107666,-0.10250583291053772,-0.026772823184728622,0.34351590275764465,-0.05024781450629234,0.2223273664712906,-0.1463896632194519,-0.008934201672673225},{0.3185245394706726,-0.28342926502227783,-0.425007700920105,0.24191786348819733,0.2697354853153229,0.10233215242624283,0.05286739394068718,-0.2061585783958435,0.2135085165500641,-0.3700428605079651,-0.038025300949811935,0.19749777019023895,-0.38019928336143494,0.3129715323448181,-0.018881728872656822,0.08846303820610046},{0.033989012241363525,0.3168175220489502,0.15946181118488312,0.07291347533464432,0.4009118676185608,0.18650422990322113,-0.18767032027244568,-0.29636210203170776,-0.12954142689704895,0.2753719389438629,0.2097674012184143,0.12087937444448471,0.19613583385944366,-0.1591625213623047,-0.3106549382209778,-0.03182138875126839},{0.09940513223409653,0.16426604986190796,0.2357291281223297,-0.39756718277931213,0.31225332617759705,-0.16599123179912567,-0.34050142765045166,-0.45179063081741333,-0.30270490050315857,0.10040970891714096,-0.4146091043949127,-0.03689737617969513,-0.15780866146087646,-0.34343570470809937,0.43818679451942444,-0.32969215512275696},{0.44691547751426697,-0.08297108858823776,-0.3899277150630951,-0.04575347527861595,-0.061089858412742615,0.18653860688209534,-0.08323315531015396,0.03479140251874924,-0.24070429801940918,-0.09298358112573624,-0.27696484327316284,-0.24019572138786316,-0.1603638231754303,0.27961426973342896,0.3125520944595337,0.22290192544460297},{-0.12268821895122528,-0.37635040283203125,0.2962646186351776,-0.43059879541397095,0.28319185972213745,0.45708611607551575,-0.2544296383857727,-0.2843954265117645,0.48213744163513184,-0.23343876004219055,0.23725691437721252,0.3251100480556488,0.48410165309906006,0.17956727743148804,0.02553638257086277,0.3430119752883911}};
static const float actor_encoder_obstacle_encoder_0_weight[3][8] = {{0.9391345381736755,-0.003512625815346837,-0.1904224455356598,-0.1734483540058136,-0.20083825290203094,-0.49647754430770874,0.45171886682510376,-0.45042920112609863},{0.16233116388320923,-0.298976331949234,0.06854818761348724,0.43939539790153503,-0.8579104542732239,0.07501301914453506,-1.1357475519180298,-0.22114236652851105},{0.1740880310535431,-0.3594786822795868,0.22055213153362274,-0.018587367609143257,-0.4261717200279236,0.5977137684822083,0.3426086902618408,0.4105094075202942}};
static const float actor_encoder_obstacle_encoder_2_weight[8][8] = {{-0.13719278573989868,-0.2793005704879761,-0.5558119416236877,-0.21153925359249115,-0.4851176142692566,0.4703068137168884,-0.4665515720844269,0.2592277526855469},{0.32219067215919495,0.610981822013855,0.2429632693529129,0.5105575323104858,-0.3581317067146301,0.11211661249399185,0.17652983963489532,-0.6261333227157593},{0.29482918977737427,-0.18312054872512817,-0.04212574660778046,-0.3408900201320648,0.013186650350689888,0.4526795446872711,-0.43054094910621643,0.462295264005661},{0.09280073642730713,-0.17963656783103943,0.3523613512516022,0.2034119963645935,0.27995386719703674,0.3896908462047577,0.3932601511478424,-0.46211063861846924},{0.15543319284915924,-0.24539673328399658,0.5286457538604736,-0.07245711982250214,0.1932128667831421,-0.2278182953596115,-0.4969783425331116,-0.34470659494400024},{0.23749655485153198,-0.11207517981529236,0.45765596628189087,0.2662779688835144,-0.10385923832654953,0.32349470257759094,0.11426592618227005,-0.5752389430999756},{0.25053176283836365,-0.3509194254875183,0.4896117150783539,0.17726708948612213,0.16190128028392792,0.15412648022174835,-0.13975869119167328,0.45544567704200745},{0.5451671481132507,-0.17002330720424652,0.12856297194957733,-0.501056432723999,-0.5844209790229797,0.08865262567996979,0.2727079391479492,0.46840590238571167}};
static const float actor_encoder_feed_forward_0_weight[32][32] = {{-0.18191975355148315,0.1168665736913681,0.08690331876277924,-0.29763996601104736,0.1134224608540535,-0.12849311530590057,0.006951966322958469,-0.1100674569606781,-0.1911851018667221,-0.03468082472681999,0.46903324127197266,0.1635524481534958,-0.30983319878578186,0.1371217519044876,0.11877615004777908,0.007197714410722256,-0.11353945732116699,0.26341110467910767,0.042791709303855896,-0.1151103749871254,-0.028447043150663376,-0.10196732729673386,0.13161741197109222,0.18955260515213013,0.17756697535514832,-0.1828003078699112,0.1827331781387329,0.01219826191663742,-0.02581855282187462,0.18672135472297668,-0.22770462930202484,-0.2315455973148346},{0.26620298624038696,0.3292715549468994,-0.04294539615511894,0.12482870370149612,-0.2509768605232239,-0.14903980493545532,-0.2895822525024414,0.2383321225643158,-0.1292451173067093,-0.28728610277175903,-0.2315712422132492,0.185228630900383,-0.11951044201850891,0.13266289234161377,0.3548305928707123,0.0738285705447197,0.22456534206867218,-0.046804942190647125,-0.250326544046402,-0.1592659056186676,0.15555429458618164,-0.12056601047515869,-0.14562556147575378,0.1354188621044159,-0.34830039739608765,0.08943336457014084,-0.17783385515213013,-0.11861959844827652,0.024200906977057457,-0.27486884593963623,-0.3842441439628601,-0.1238824725151062},{0.09078636765480042,0.052376601845026016,0.040915049612522125,-0.26726436614990234,-0.04367603734135628,0.22373712062835693,0.22374987602233887,-0.09620903432369232,0.09517867863178253,0.18456318974494934,-0.21217304468154907,-0.0034298913087695837,0.37599048018455505,-0.04700038582086563,0.028990983963012695,-0.18147946894168854,-0.18596650660037994,0.13826198875904083,-0.007725066039711237,0.16680164635181427,0.1387457400560379,0.12272723764181137,0.04380173608660698,0.18825456500053406,0.06933633238077164,0.17038477957248688,0.22431334853172302,-0.03728499263525009,0.2442062795162201,0.19595707952976227,-0.2585712969303131,-0.17404107749462128},{-0.1220768392086029,0.3245928883552551,0.010071774013340473,-0.2687361240386963,-0.26733797788619995,-0.0659528374671936,-0.10185380280017853,-0.05056535825133324,0.28634318709373474,-0.38223010301589966,0.17562049627304077,0.2573004364967346,-0.09694457799196243,-0.3593708872795105,-0.056555476039648056,0.2843015491962433,-0.14847415685653687,0.03466670215129852,-0.40589287877082825,0.0006889820797368884,0.07950929552316666,0.0017116144299507141,-0.412839412689209,0.09183149039745331,-0.33459094166755676,-0.10314389318227768,0.15610505640506744,0.22283460199832916,0.40777140855789185,-0.12106756865978241,-0.0024212561547756195,-0.13005638122558594},{0.2929765582084656,0.21971771121025085,0.008043384179472923,0.23034653067588806,0.20394639670848846,0.26510101556777954,-0.19742365181446075,-0.17202073335647583,-0.17950613796710968,-0.13063088059425354,-0.06627307832241058,0.14852449297904968,-0.10611540824174881,0.26162174344062805,-0.29094231128692627,-0.14521019160747528,0.2468814253807068,0.19196733832359314,-0.12334944307804108,0.05216684192419052,-0.10938131809234619,-0.31554657220840454,-0.21276438236236572,0.036528900265693665,-0.21320974826812744,-0.2727443277835846,0.28310996294021606,-0.07218749076128006,0.14278219640254974,0.14017018675804138,-0.10527272522449493,-0.10479219257831573},{-0.17337733507156372,-0.2505537271499634,0.01630387268960476,0.2288268804550171,-0.23966455459594727,0.19791322946548462,0.19913853704929352,-0.2788637578487396,0.32410573959350586,0.3291431665420532,0.16539759933948517,0.12207105755805969,0.377591073513031,-0.17970982193946838,-0.1650327742099762,0.0067711444571614265,0.12160225957632065,-0.17781111598014832,0.13194540143013,-0.2333710789680481,-0.0359758585691452,-0.1417914628982544,-0.04181366413831711,0.25132423639297485,-0.19121024012565613,0.2197512537240982,0.2155124694108963,0.1011105477809906,-0.1875559240579605,0.24381881952285767,0.29744502902030945,-0.09244365990161896},{-0.19101059436798096,0.16654978692531586,-0.31059351563453674,0.02080194279551506,-0.3324943780899048,-0.0035287837963551283,0.08553990721702576,0.036729976534843445,0.10483818501234055,0.23580799996852875,0.05519668012857437,0.037086669355630875,0.024759406223893166,0.15931814908981323,0.21747705340385437,0.3626636564731598,-0.32041415572166443,0.060642942786216736,-0.19593173265457153,-0.1587272435426712,0.2167091965675354,-0.32275891304016113,0.07494789361953735,0.3639603853225708,-0.039514508098363876,0.04139716178178787,0.3025660812854767,0.003740338608622551,-0.2184818536043167,0.3535716235637665,0.25458890199661255,0.011489382945001125},{0.23185361921787262,0.1654634177684784,-0.26985880732536316,-0.26346468925476074,0.2970263361930847,0.20968936383724213,0.1959480494260788,0.3249189555644989,-0.1024954617023468,0.14775554835796356,0.08097560703754425,0.00439611217007041,-0.16919030249118805,-0.0999259278178215,0.132028266787529,0.06662297248840332,-0.03811255842447281,0.031650688499212265,-0.023602195084095,0.1955154836177826,-0.06080600991845131,-0.23910458385944366,-0.02422986552119255,-0.04586426913738251,0.42106541991233826,-0.16235165297985077,0.05267341434955597,0.37548407912254333,0.19266849756240845,0.24521423876285553,-0.05624309554696083,0.34549665451049805},{0.36434999108314514,0.05496090278029442,0.022521553561091423,-0.17355503141880035,-0.2202739119529724,0.0016395450802519917,-0.16193266212940216,0.2225065529346466,-0.3305343985557556,0.12980175018310547,0.1561860740184784,-0.2828495502471924,0.13438059389591217,-0.05029868334531784,-0.09880013018846512,0.4126294255256653,-0.14937354624271393,-0.16318680346012115,0.09155185520648956,0.001133084180764854,0.014239627867937088,-0.18147389590740204,0.06391198933124542,0.06665889173746109,0.2933920919895172,-0.3657377064228058,0.07128962874412537,-0.20567303895950317,-0.2656688988208771,0.20608437061309814,0.019551968201994896,0.24594277143478394},{-0.024142228066921234,-0.060707319527864456,-0.11833138018846512,-0.2501794993877411,-0.23232148587703705,-0.00956046488136053,0.05687008053064346,-0.028711820021271706,-0.14135046303272247,-0.053484413772821426,0.0777343139052391,0.22023987770080566,-0.09760427474975586,0.15292175114154816,0.29400283098220825,0.31472358107566833,0.07339172810316086,0.041095566004514694,-0.04936843737959862,0.18853473663330078,-0.274696409702301,0.1964724212884903,-0.20984353125095367,-0.24935322999954224,0.2074284702539444,-0.28193673491477966,0.08433651924133301,-0.12651103734970093,0.1365235596895218,0.2727188169956207,0.2244320958852768,0.26038840413093567},{0.17932246625423431,0.06587477773427963,-0.166718527674675,-0.0830330178141594,0.13900774717330933,0.1980215311050415,-0.049470312893390656,-0.06734627485275269,-0.05244358628988266,0.03504861518740654,-0.1498396098613739,-0.09725833684206009,-0.1038820743560791,-0.09427844732999802,-0.21498726308345795,0.2132602334022522,0.03637242689728737,0.035208843648433685,0.04688598960638046,-0.11691820621490479,-0.2982434034347534,0.12400025874376297,-0.04122088849544525,-0.2846088111400604,0.11072763055562973,-0.06554465740919113,-0.132499560713768,0.02137133665382862,0.1603730320930481,0.2933991253376007,0.03818099945783615,-0.17009395360946655},{-0.008778776973485947,0.12991705536842346,-0.09845501184463501,0.17737768590450287,-0.17588946223258972,-0.0797177255153656,0.13435518741607666,0.26117852330207825,0.2542838156223297,0.1294078528881073,-0.12264711409807205,0.21173302829265594,0.11983275413513184,0.15120817720890045,0.05017205327749252,0.1833987832069397,-0.08947156369686127,-0.15480266511440277,0.35580575466156006,-0.18446704745292664,-0.1309761255979538,0.026256196200847626,-0.08670791983604431,0.29552116990089417,0.18431328237056732,0.023209549486637115,-0.3399379253387451,0.016132427379488945,-0.1477028876543045,0.0583966039121151,-0.07345657795667648,0.1568204015493393},{-0.32281848788261414,-0.2653954029083252,-0.30393633246421814,0.0038154444191604853,-0.2223135083913803,-0.26217639446258545,-0.40986838936805725,0.034045521169900894,-0.33095431327819824,-0.09454099088907242,-0.004660720471292734,-0.14165838062763214,0.26537376642227173,0.21268562972545624,-0.20883451402187347,-0.12340734899044037,-0.006400625687092543,0.08177577704191208,0.19359572231769562,-0.07873336970806122,0.2757664620876312,0.10855242609977722,-0.10204502195119858,0.1135304719209671,0.24675020575523376,0.15138132870197296,-0.15906114876270294,-0.3250364661216736,0.201791450381279,0.2553384602069855,0.013206694275140762,0.025454850867390633},{0.2757757306098938,0.2323547750711441,0.1528824269771576,0.027455341070890427,-0.23684637248516083,-0.18045563995838165,-0.061739567667245865,-0.03853220120072365,0.02261016145348549,-0.20129218697547913,0.12837918102741241,0.1304015964269638,0.1026478111743927,-0.39754438400268555,-0.26026079058647156,0.13320983946323395,-0.1234116330742836,0.045958153903484344,0.1715162843465805,-0.20280146598815918,0.07038673758506775,0.167509526014328,-0.07566500455141068,0.19227051734924316,0.13349245488643646,-0.07300271093845367,0.07950477302074432,0.27469319105148315,0.047984566539525986,0.16963088512420654,0.08436118811368942,-0.24108447134494781},{-0.10458532720804214,-0.2316613346338272,-0.11069902777671814,0.09453301131725311,-0.20045307278633118,0.32669517397880554,0.26892518997192383,-0.2701326012611389,0.044335223734378815,-0.01700490526854992,0.19006292521953583,-0.21927231550216675,-0.2158280611038208,-0.1981966495513916,0.08748114854097366,-0.03268357366323471,0.23218055069446564,0.2996560335159302,-0.08986889570951462,0.14118550717830658,-0.05532592907547951,0.3150084614753723,0.08764892816543579,0.05246021971106529,0.2359374314546585,-0.2385627031326294,0.13405254483222961,-0.13677546381950378,0.14874482154846191,0.0182444229722023,-0.22990530729293823,-0.0018459995044395328},{-0.2554556429386139,-0.08934768289327621,-0.02957090362906456,-0.197587251663208,0.2024294137954712,0.06111527606844902,-0.19998043775558472,-0.12280979007482529,-0.04782665893435478,0.21094591915607452,0.04243681952357292,0.21365410089492798,-0.1365794539451599,0.39162588119506836,0.16238215565681458,-0.017411528155207634,-0.34357404708862305,-0.30308499932289124,0.2619037330150604,0.24230164289474487,0.20296765863895416,0.04575410112738609,-0.026074133813381195,-0.18870282173156738,-0.09102612733840942,-0.30116426944732666,-0.029423734173178673,-0.06726732850074768,0.23307622969150543,-0.05064410716295242,-0.22806154191493988,-0.17828401923179626},{0.09895747154951096,-0.10307025164365768,0.4163396954536438,0.11764974147081375,-0.1537892073392868,0.307880163192749,-0.011825750581920147,0.2455558180809021,0.2225191295146942,-0.29985493421554565,0.16760678589344025,0.2414724975824356,-0.3407016694545746,0.3117961585521698,-0.1476701945066452,-0.002239674562588334,0.2769348621368408,-0.21192915737628937,-0.20112088322639465,-0.015402141958475113,0.15307897329330444,0.30886125564575195,-0.17309342324733734,0.01251529622823,-0.08445879817008972,-0.0952005535364151,0.02795337326824665,0.10676058381795883,-0.3159889578819275,-0.18428172171115875,0.014325520023703575,0.22533082962036133},{-0.03491981327533722,-0.22201524674892426,0.23644554615020752,0.17363367974758148,0.025380855426192284,-0.16455072164535522,-0.08541064709424973,-0.07304078340530396,-0.2550049126148224,-0.08674019575119019,0.17495471239089966,-0.01124169584363699,0.05823955684900284,0.0630667433142662,0.2588108479976654,-0.12039317190647125,-0.006359681952744722,-0.3233114778995514,0.3677089512348175,-0.20744381844997406,0.40448108315467834,-0.15770258009433746,0.046156756579875946,0.22529509663581848,0.1315179467201233,0.14591270685195923,-0.48591548204421997,-0.12369132786989212,-0.012051459401845932,-0.23691397905349731,-0.20530089735984802,-0.16624338924884796},{-0.24864917993545532,-0.09502488374710083,0.07043802738189697,0.3667111098766327,-0.05883852764964104,-0.007360691670328379,0.1600056290626526,0.14855395257472992,0.056525059044361115,-0.2714495062828064,0.1898283213376999,0.19363360106945038,0.11712466180324554,0.3406606912612915,0.20950224995613098,-0.11815182864665985,0.3008330166339874,0.18636015057563782,-0.26526591181755066,-0.18292993307113647,0.24319078028202057,0.12552249431610107,0.2832418978214264,0.2975858747959137,-0.004190788604319096,-0.03928643837571144,0.009840164333581924,0.12023989856243134,-0.019398147240281105,0.005036389920860529,-0.020346904173493385,-0.03733266517519951},{0.03896637633442879,0.1591578871011734,0.3132452368736267,0.19282039999961853,-0.05263715609908104,0.0032918648794293404,0.23040162026882172,-0.03465075418353081,0.12615986168384552,-0.27394533157348633,-0.04833918437361717,0.11094675213098526,0.1091613844037056,0.05173693597316742,-0.21056368947029114,-0.022913560271263123,0.1542234867811203,0.29439640045166016,-0.0678548514842987,0.138283371925354,-0.14646343886852264,0.0618821382522583,-0.14264091849327087,-0.0606180839240551,-0.14754389226436615,0.25585851073265076,0.2837763726711273,0.17793917655944824,0.0011306676315143704,-0.14430487155914307,-0.18949903547763824,0.057179808616638184},{0.2441895753145218,0.056658171117305756,-0.0962858721613884,0.02010369673371315,0.0020971763879060745,-0.4274272918701172,-0.2343028485774994,0.4092108905315399,-0.31663721799850464,0.13209529221057892,0.13920433819293976,0.25379395484924316,0.04068013280630112,-0.14745625853538513,0.15834078192710876,-0.2149805724620819,-0.08415496349334717,0.19380711019039154,0.049353599548339844,-0.10387784987688065,-0.09924767166376114,-0.020184848457574844,0.1676783412694931,-0.19645115733146667,0.028361575677990913,0.23074112832546234,-0.28908705711364746,0.23558087646961212,-0.09282316267490387,0.1959516853094101,-0.08753979951143265,0.21951158344745636},{-0.23553884029388428,0.1780279129743576,0.2885035276412964,0.13032490015029907,0.2736436128616333,0.1246534064412117,0.16337640583515167,0.15679559111595154,0.028137734159827232,0.10650216788053513,0.029546281322836876,-0.2449766844511032,0.020382072776556015,0.22982196509838104,0.017925230786204338,-0.005070163402706385,-0.020909400656819344,0.1136208325624466,-0.026786381378769875,-0.31309962272644043,-0.15626458823680878,0.19519013166427612,-0.15594609081745148,0.010477503761649132,-0.10290440171957016,-0.317482054233551,-0.3872072994709015,-0.2770877182483673,-0.13953377306461334,-0.16648873686790466,-0.2263651043176651,-0.08389667421579361},{0.11607125401496887,-0.14830175042152405,-0.193219855427742,-0.16004879772663116,0.20681679248809814,0.045463040471076965,0.2770172357559204,0.14983753859996796,0.13589327037334442,0.19137711822986603,-0.16103871166706085,0.0982932597398758,-0.00875838566571474,-0.19109873473644257,-0.04934675246477127,-0.1990654617547989,-0.08374449610710144,0.11078919470310211,0.006598681677132845,-0.262737900018692,0.10512888431549072,0.18936197459697723,0.23794880509376526,0.2497868686914444,-0.10730067640542984,-0.24759891629219055,-0.1240745410323143,-0.17654705047607422,-0.261816143989563,-0.08368705958127975,-0.022077420726418495,0.11213356256484985},{-0.19976958632469177,-0.3382112681865692,0.10612040758132935,-0.22266724705696106,-0.11323603242635727,0.14363402128219604,0.28151988983154297,-0.11463312804698944,0.1166490986943245,0.09761873632669449,-0.05508299171924591,0.09196256101131439,0.09408722072839737,-0.20194533467292786,0.14325594902038574,-0.3276349604129791,0.11997086554765701,-0.19406923651695251,-0.107837975025177,-0.12851136922836304,-0.3355596661567688,-0.014399446547031403,0.22465871274471283,-0.1442139595746994,0.17219939827919006,0.0342378169298172,0.10378415137529373,-0.029395677149295807,0.24010349810123444,-0.3581183850765228,-0.08603102713823318,-0.16301532089710236},{-0.10854779928922653,-0.12285758554935455,0.32227006554603577,-0.24135532975196838,0.278802752494812,0.21445465087890625,-0.3095339834690094,-0.0597982183098793,0.25420132279396057,0.20470021665096283,-0.27730292081832886,-0.16010522842407227,-0.11631939560174942,0.030724424868822098,-0.3340221047401428,-0.20323854684829712,0.2476673424243927,-0.07926037907600403,-0.023655956611037254,-0.1763743907213211,0.25189459323883057,-0.18246164917945862,0.24647894501686096,0.12011361867189407,-0.0184403695166111,-0.0686376541852951,-0.19154508411884308,-0.0029509253799915314,-0.009861059486865997,0.019836118444800377,0.09757692366838455,-0.1477956622838974},{-0.09117590636014938,0.11193989962339401,-0.04968148097395897,-0.24394597113132477,0.2605002522468567,0.023668549954891205,0.20063932240009308,-0.3436279892921448,-0.05089087784290314,0.0815776139497757,0.033319223672151566,0.029180236160755157,-0.29031336307525635,-0.006617143750190735,0.13090215623378754,0.26689979434013367,0.09579901397228241,0.49767619371414185,0.1820383220911026,-0.09218142181634903,-0.22461546957492828,0.40527182817459106,-0.16108965873718262,0.10063516348600388,0.12131898105144501,-0.09384887665510178,0.33318403363227844,-0.06089991703629494,0.07543402910232544,-0.3232623040676117,0.20713171362876892,0.003385460702702403},{-0.05096842721104622,0.1093125194311142,-0.13242743909358978,0.32868412137031555,-0.2091599851846695,-0.017608603462576866,-0.141617551445961,0.21999333798885345,0.22053280472755432,-0.04636027291417122,-0.08608022332191467,0.16960766911506653,-0.1676168441772461,-0.09747040271759033,0.22870969772338867,0.11317294090986252,0.22507072985172272,0.2332906574010849,-0.2678554058074951,-0.09457283467054367,0.2778790593147278,-0.127090722322464,0.3030698895454407,-0.2352452129125595,-0.042573604732751846,0.195723295211792,0.2226567417383194,-0.07884761691093445,0.23069323599338531,-0.05888209864497185,0.0612412728369236,-0.03720730170607567},{-0.07104682177305222,0.3170824646949768,-0.06489481776952744,0.06710506975650787,-0.2347881942987442,0.193994402885437,0.048796214163303375,-0.09330576658248901,0.015009556896984577,-0.07839445024728775,-0.18300844728946686,-0.06419346481561661,-0.11046234518289566,0.24941660463809967,-0.03847656399011612,0.09417372196912766,-0.03877517208456993,0.1514636129140854,-0.06433136761188507,0.08852719515562057,-0.22470955550670624,0.17779211699962616,0.05840641260147095,-0.08864907175302505,0.12680017948150635,0.20152974128723145,-0.0865790992975235,-0.1697465032339096,0.15578997135162354,-0.1188877522945404,0.22041746973991394,0.19871872663497925},{0.18350446224212646,0.025971794500947,0.018477613106369972,0.07050403207540512,-0.08240951597690582,-0.2874901294708252,-0.39997926354408264,0.13503481447696686,0.0951630249619484,0.20889747142791748,0.11291641741991043,0.40078410506248474,-0.18518425524234772,0.015344019047915936,-0.14115560054779053,-0.43517711758613586,-0.056258026510477066,0.04574326053261757,0.12262529134750366,0.09197108447551727,0.15100374817848206,0.12819603085517883,-0.01561088114976883,0.05992340296506882,0.18246184289455414,-0.11700603365898132,-0.45772191882133484,0.2913711667060852,0.04858827218413353,-0.24806925654411316,-0.35180962085723877,0.008704189211130142},{-0.013150216080248356,0.08100546151399612,-0.06636886298656464,-0.08996989578008652,-0.06319108605384827,-0.028020339086651802,-0.13633282482624054,-0.01095513254404068,-0.19922669231891632,-0.0008368848357349634,-0.02206757850944996,0.06621267646551132,-0.14397861063480377,-0.024070583283901215,-0.04979197308421135,0.082248754799366,-0.28570833802223206,-0.1563827097415924,-0.17489998042583466,0.08716067671775818,0.19509156048297882,0.2134966105222702,-0.04702858626842499,-0.05128397420048714,-0.2400818020105362,-0.19718310236930847,-0.09953896701335907,-0.19179336726665497,-0.02224847301840782,0.05649813637137413,0.06665634363889694,-0.20019198954105377},{0.1023843064904213,0.05238663777709007,0.07494193315505981,0.004359210841357708,0.1819189041852951,-0.32263892889022827,-0.07567440718412399,-0.3222476541996002,0.2122899442911148,-0.0698365569114685,0.3279990553855896,-0.32588109374046326,0.271851509809494,0.12179006636142731,-0.061560388654470444,-0.0668182447552681,0.18416965007781982,0.22195880115032196,0.3459136188030243,-0.031576238572597504,-0.03972834721207619,-0.18896755576133728,-0.1776050478219986,0.17611287534236908,0.24871090054512024,-0.0330936461687088,0.14877252280712128,-0.17229704558849335,0.055274683982133865,-0.1106203943490982,-0.1715521365404129,-0.22789356112480164},{0.013685466721653938,0.2104090452194214,0.023945583030581474,0.14497509598731995,0.08559133857488632,0.2551455795764923,0.06321920454502106,-0.0019706105813384056,-0.27501195669174194,-0.27542340755462646,-0.3093862235546112,0.14074766635894775,-0.2054326981306076,-0.17782899737358093,0.05830248072743416,0.18577317893505096,0.023710567504167557,0.19136297702789307,0.1993301510810852,-0.19281861186027527,0.21089649200439453,-0.26463407278060913,0.1270577758550644,-0.056022290140390396,-0.06533680856227875,-0.10429883748292923,0.1428254246711731,-0.17096896469593048,-0.12706699967384338,0.06855794042348862,0.02633276768028736,0.13387873768806458}};
static const float action_parameterization_distribution_linear_weight[32][4] = {{0.3248397409915924,0.16250872611999512,0.2756073772907257,0.2064172923564911},{0.0820114016532898,-0.07190032303333282,0.29026544094085693,0.29642578959465027},{0.24437586963176727,-0.20308345556259155,-0.009111902676522732,0.09853172302246094},{-0.19095629453659058,-0.42093291878700256,0.13617722690105438,0.24740737676620483},{0.12565667927265167,-0.19965939223766327,-0.01601734757423401,-0.286255419254303},{0.12224879115819931,-0.2003365457057953,-0.16738785803318024,-0.371380090713501},{0.2887902557849884,0.17857575416564941,-0.28450989723205566,-0.20568086206912994},{-0.04659811034798622,-0.22959697246551514,0.24006663262844086,0.18284790217876434},{0.013105468824505806,0.23047493398189545,-0.2588142454624176,-0.10068710893392563},{-0.1416633129119873,-0.010739204473793507,-0.07658883184194565,-0.40141573548316956},{0.24701136350631714,0.17783838510513306,-0.07824280112981796,0.09988129884004593},{-0.3171946406364441,-0.1298154592514038,0.01823282614350319,0.45026135444641113},{-0.32858195900917053,0.2867146134376526,-0.12726041674613953,-0.12752601504325867},{-0.07888750731945038,-0.17829294502735138,-0.1360017955303192,-0.03912929445505142},{-0.07647985219955444,0.23151174187660217,-0.3435574769973755,0.3003416359424591},{0.020565899088978767,0.4543353319168091,0.12056796997785568,0.018145540729165077},{0.07940436899662018,-0.39514315128326416,0.04163374751806259,0.19715075194835663},{0.29970404505729675,0.2301063984632492,-0.17787876725196838,0.04266230762004852},{-0.13089390099048615,-0.20753665268421173,-0.22588570415973663,0.04208209365606308},{-0.09361947327852249,-0.10743500292301178,0.16102786362171173,0.15360310673713684},{-0.2719173729419708,-0.06739561259746552,-0.19457344710826874,0.17735327780246735},{0.10368309170007706,-0.17333176732063293,-0.1424361765384674,0.11452130973339081},{-0.015650948509573936,-0.41273999214172363,-0.12635451555252075,-0.14772284030914307},{0.04729430750012398,-0.2794962227344513,0.30816593766212463,-0.24193306267261505},{-0.0170240867882967,-0.11491778492927551,0.1295456886291504,-0.10692861676216125},{0.048292096704244614,-0.2970118820667267,-0.042789313942193985,0.03611183911561966},{0.18669922649860382,0.10110075026750565,0.23169521987438202,0.025230327621102333},{0.29957157373428345,-0.2564934194087982,0.23886801302433014,0.13162967562675476},{-0.33121252059936523,0.25916510820388794,-0.14670677483081818,-0.03300945460796356},{-0.1957341730594635,0.14268438518047333,0.4862310290336609,-0.03307235613465309},{0.07554766535758972,0.04476163536310196,0.26046106219291687,-0.10682109743356705},{0.10072562843561172,0.024611128494143486,0.013060015626251698,-0.06575299799442291}};
static const float actor_encoder_neighbor_encoder_embedding_mlp_0_bias[8] = {0.02517370693385601,-0.027857206761837006,0.00664942292496562,-0.10320132970809937,0.088337242603302,-0.05817214772105217,0.02249622903764248,0.01030819583684206};
static const float actor_encoder_neighbor_encoder_embedding_mlp_2_bias[8] = {-0.008365503512322903,0.05666668713092804,0.026687677949666977,0.008408416993916035,-0.0023237974382936954,-0.07461163401603699,-0.011456374078989029,-0.0200545284897089};
static const float actor_encoder_self_encoder_0_bias[16] = {-0.07718560099601746,0.019219066947698593,-0.039219558238983154,-0.08035046607255936,-0.03258891403675079,-0.05846484377980232,-0.014502150937914848,0.01629643514752388,-0.012144733220338821,-0.04288876801729202,0.06249358132481575,0.028641924262046814,-0.03656097874045372,0.0049691032618284225,-0.0013005173532292247,0.10731679201126099};
static const float actor_encoder_self_encoder_2_bias[16] = {0.0009337334195151925,-0.0812537744641304,-0.019464129582047462,-0.0252071600407362,0.02916933037340641,0.012719248421490192,-0.012590720318257809,-0.1294977366924286,0.0010797720169648528,-0.014078576117753983,0.05149231106042862,0.012928278185427189,0.0382557176053524,0.05233319476246834,0.07674609869718552,-0.021566051989793777};
static const float actor_encoder_obstacle_encoder_0_bias[8] = {0.08700138330459595,0.07335557788610458,0.12889298796653748,0.01107472088187933,-0.04589104652404785,0.005976135842502117,-0.1422938108444214,0.13136298954486847};
static const float actor_encoder_obstacle_encoder_2_bias[8] = {0.018484249711036682,-0.03573167696595192,-0.11516717076301575,0.028260843828320503,-0.007258511148393154,0.04910755157470703,-0.05457887053489685,0.04799337685108185};
static const float actor_encoder_feed_forward_0_bias[32] = {0.053439512848854065,0.0024125087074935436,-0.003625913057476282,0.026408229023218155,-0.02464235946536064,-0.04044036939740181,0.02448352985084057,-0.03730318695306778,-0.04310334101319313,-0.08341026306152344,0.08070942014455795,-0.034212902188301086,-0.00488077849149704,-0.07138346880674362,0.019934626296162605,0.04070403799414635,-0.0015071306843310595,0.04011722281575203,0.06184564530849457,0.014300496317446232,0.01540810614824295,0.06297175586223602,-0.02021145634353161,0.006468312349170446,-0.0430414043366909,-0.02368292212486267,0.03358190506696701,0.05732147395610809,-0.0637148916721344,0.031394895166158676,0.037414420396089554,-0.03838799521327019};
static const float action_parameterization_distribution_linear_bias[4] = {0.02435331791639328,0.028589287772774696,-0.0025779171846807003,0.05041416361927986};

void neighborEmbeddings(const float neighbors_array[NEIGHBORS][NBR_OBS_DIM]) {
  //reset embeddings accumulator to zero
  memset(neighbor_embeds, 0, sizeof(neighbor_embeds));

  // get the neighbor embeddings
  for (int n = 0; n < NEIGHBORS; n++) {
    for (int i = 0; i < structure[2][1]; i++) {
      output_2[i] = 0;
      for (int j = 0; j < structure[2][0]; j++) {
        output_2[i] += neighbors_array[n][j] * actor_encoder_neighbor_encoder_embedding_mlp_0_weight[j][i];
      }
      output_2[i] += actor_encoder_neighbor_encoder_embedding_mlp_0_bias[i];
      output_2[i] = tanhf(output_2[i]);
    }

    for (int i = 0; i < structure[3][1]; i++) {
      output_3[i] = 0;
      for (int j = 0; j < structure[3][0]; j++) {
        output_3[i] += output_2[j] * actor_encoder_neighbor_encoder_embedding_mlp_2_weight[j][i];
      }

      output_3[i] += actor_encoder_neighbor_encoder_embedding_mlp_2_bias[i];
      output_3[i] = tanhf(output_3[i]);
      neighbor_embeds[i] += output_3[i];
    }
  }

  int self_size = structure[1][1]; // size of self embeddings. Need to offset by this much in the embedding array
  // get mean embeddings
  for (int i = 0; i < structure[3][1]; i++) {
    neighbor_embeds[i] /= NEIGHBORS;
    embedding_array[i+self_size] = neighbor_embeds[i];
  }
}

void obstacleEmbeddings(const float obstacles_array[K_OBSTACLES][OBST_OBS_DIM]) {
  // reset the embeddings accumulator to zero
  memset(obstacle_embeds, 0, sizeof(obstacle_embeds));

  // get the obstacle embeddings
  for (int o = 0; o < K_OBSTACLES; o++) {
    for (int i = 0; i < structure[4][1]; i++) {
      output_4[i] = 0;
      for (int j = 0; j < structure[4][0]; j++) {
        output_4[i] += obstacles_array[o][j] * actor_encoder_obstacle_encoder_0_weight[j][i];
      }
      output_4[i] += actor_encoder_obstacle_encoder_0_bias[i];
      output_4[i] = tanhf(output_4[i]);
    }

    for (int i = 0; i < structure[5][1]; i++) {
      output_5[i] = 0;
      for (int j = 0; j < structure[5][0]; j++) {
        output_5[i] += output_4[j] * actor_encoder_obstacle_encoder_2_weight[j][i];
      }

      output_5[i] += actor_encoder_obstacle_encoder_2_bias[i];
      output_5[i] = tanhf(output_5[i]);
      obstacle_embeds[i] += output_5[i];
    }
  }

  int self_offset = structure[1][1];
  int neighbor_offset = structure[3][1];
  int obst_offset = self_offset + neighbor_offset; // size of self embeddings + neighbor embeddings. Need to offset by this much in the final embeddings array
  // get mean embeddings
  for (int i = 0; i < structure[5][1]; i++) {
    obstacle_embeds[i] /= K_OBSTACLES;
    embedding_array[i+obst_offset]  = obstacle_embeds[i];
  }
}

void networkEvaluate(struct control_t_n *control_n, const float *state_array) {
  for (int i = 0; i < structure[0][1]; i++) {
    output_0[i] = 0;
    for (int j = 0; j < structure[0][0]; j++) {
      output_0[i] += state_array[j] * actor_encoder_self_encoder_0_weight[j][i];
    }
    output_0[i] += actor_encoder_self_encoder_0_bias[i];
    output_0[i] = tanhf(output_0[i]);
  }

  for (int i = 0; i < structure[1][1]; i++) {
    embedding_array[i] = 0;
    for (int j = 0; j < structure[1][0]; j++) {
      embedding_array[i] += output_0[j] * actor_encoder_self_encoder_2_weight[j][i];
    }
    embedding_array[i] += actor_encoder_self_encoder_2_bias[i];
    embedding_array[i] = tanhf(embedding_array[i]);
  }

  // last feedforward and action parameterization layers
  for (int i = 0; i < structure[6][1]; i++) {
    output_6[i] = 0;
    for (int j = 0; j < structure[6][0]; j++) {
      output_6[i] += embedding_array[j] * actor_encoder_feed_forward_0_weight[j][i];
    }
    output_6[i] += actor_encoder_feed_forward_0_bias[i];
    output_6[i] = tanhf(output_6[i]);
  }


  for (int i = 0; i < structure[7][1]; i++) {
    output_7[i] = 0;
    for (int j = 0; j < structure[7][0]; j++) {
      output_7[i] += output_6[j] * action_parameterization_distribution_linear_weight[j][i];
    }
    output_7[i] += action_parameterization_distribution_linear_bias[i];
  }

  control_n->thrust_0 = output_7[0];
  control_n->thrust_1 = output_7[1];
  control_n->thrust_2 = output_7[2];
  control_n->thrust_3 = output_7[3];
}
