
#include "network_evaluate.h"



float linear(float num) {
	return num;
}



float sigmoid(float num) {
	return 1 / (1 + exp(-num));
}



float relu(float num) {
	if (num > 0) {
		return num;
	} else {
		return 0;
	}
}

static const int structure[3][2] = {{18, 64},{64, 64},{64, 4}};
static float output_0[64];
static float output_1[64];
static float output_2[4];
static const float layer_0_weight[18][64] = {{-0.8376088,0.35343915,0.54625386,-1.088929,0.15467077,0.88982034,-0.16562705,0.2269494,0.5232949,0.6862508,-0.3838621,0.44726023,-0.37622347,-0.6251896,-0.62499857,-1.0183573,-0.2938778,-0.029525684,-0.30411386,0.13322532,0.12719023,-0.07342342,-0.53069836,1.123831,-0.44726604,0.69674563,-0.067733705,-0.23120897,0.01846114,0.17548533,-0.656058,0.07042644,-0.43927008,0.019050557,-0.21312776,0.3015706,-0.29532075,0.3377812,0.61329085,-0.6934836,0.20259225,0.7202726,-0.55354553,-0.86020994,-0.234646,0.100669675,0.24981603,0.076832205,0.261085,0.07475914,0.27978587,-0.08135973,-0.022429893,0.6551945,-0.3152347,-0.45321158,-0.5050975,0.42221707,-0.2989919,-0.105498284,0.81896186,0.6403998,0.6667003,0.17982514},{0.064678445,-0.111702874,-0.27319986,-0.52124995,0.47193903,-0.42687222,-0.48957032,0.3828787,-0.9307002,-0.45293495,-0.50552624,0.19017622,-0.40560135,-0.6776678,-0.3645667,-0.763944,0.6821704,-0.011943872,-0.33122548,0.37589586,-0.4557941,0.21928789,1.8926219,0.7165799,-0.29164505,0.077353805,-0.09920549,0.0058088875,-0.41802868,-0.5712507,-0.55721027,0.45867336,0.39303103,0.662319,0.20847547,0.47657013,-0.22233486,-0.053448845,-0.3070269,0.7614665,-0.30806893,-0.15650938,-0.40574244,-0.452386,0.3722027,-0.5322782,0.38883036,-0.32180148,-0.29873252,-0.43617827,0.37548834,0.58643866,-0.31023878,-0.18380693,0.6937824,-0.35219246,0.07932639,0.5387628,0.106405325,0.88747984,0.3515212,0.26602864,-0.20290457,0.21870798},{1.5890533,-4.5733852,-1.2406898,-0.10704187,-0.2181653,0.21286704,0.1696392,-0.006621723,1.1053594,-0.30371737,0.13526528,-0.41305465,-0.20594211,0.2552036,-0.061941452,-0.045141447,-0.20150617,-0.41590786,-0.39572453,0.03729699,0.12360775,-0.048513725,0.23465846,0.19857666,-0.19781365,0.107940055,-0.022242531,0.44122592,0.050626196,-0.36961982,0.037642077,0.018566584,0.042903606,-0.09852843,0.029238079,0.15523446,0.039424393,0.091195986,0.6468711,-0.0014816175,0.1594921,0.06155476,-1.0250957,-0.18855093,0.24735752,0.26722896,0.21920973,-0.009623241,-0.16382295,0.30449843,-0.8330907,2.8705301,0.19751021,0.1346295,0.0053789816,-0.5076897,-0.2553693,0.33169693,-0.18966265,0.20738445,-0.31727913,-0.34078202,0.4090656,0.103895016},{-0.53520447,-0.6122152,0.2297294,-0.22018504,0.22266753,0.47906795,-0.6092776,-0.5647395,0.45127788,0.1902241,-0.31955197,0.50126904,-0.8318007,-0.55806977,-0.58050627,-1.0451461,-0.13332698,-0.09601523,-0.18432586,0.20670307,0.32282674,0.062255554,0.121728875,0.22580078,-0.68380654,0.2926291,-0.066282146,-0.032165367,0.25801578,-0.028962318,-0.48903218,-0.19123474,-0.55158234,0.19621187,-0.19924814,-0.31959134,-0.49125805,0.7913802,0.04933611,-0.11910815,-0.14593928,-0.076343834,0.2244172,-0.37625915,-0.5700503,0.51433337,0.2090896,-0.34638125,0.49066004,0.514611,1.103386,0.29687414,0.26691496,0.54296196,-0.05473511,-0.05440337,0.1500896,0.124367595,-0.067088105,-0.2351837,0.11375888,-0.49488747,0.24274395,0.09254427},{0.30002803,0.57753676,-0.000119721575,-0.5422912,0.5302849,-0.428998,-0.1543276,0.22561851,-0.5278541,-0.3218006,-0.44904587,0.10309305,0.040639926,-0.11232411,-0.24438976,-0.60155976,-0.17371261,-0.25549626,-0.5629814,0.32149854,-0.17079924,0.12915403,0.74920774,-0.7008323,-0.2414363,-0.12646128,0.39673507,0.91960293,-0.5781497,0.36304966,-0.34265974,0.6376777,0.75555176,-0.05815166,0.3628874,0.3373043,-0.0044457293,0.0099000735,-0.1725236,0.525699,-0.15214346,0.12270972,0.86738676,-0.4768713,0.646915,-0.19925973,0.5604061,-1.1999149,-0.05144345,-0.20404671,0.4633583,0.6097926,-0.48415485,0.38737443,0.5082078,-0.23106617,0.24236095,0.2532954,-0.34792942,0.7620294,-0.043342955,0.2784428,-0.12123873,0.40669474},{1.0266988,-0.7693482,-0.41043463,0.24902001,-0.012880918,-0.032606643,-0.0021642204,0.23176515,0.40426704,0.1295685,-0.112063475,-0.062115476,0.13039249,0.043323804,0.08588762,-0.019714795,-0.33721408,-0.014455338,-0.08410606,0.12420006,-0.095683604,-0.13010658,0.12126592,-0.021966364,0.28290793,-0.053612653,-0.22267956,-0.115417026,0.017825512,-0.13761705,-0.03376681,0.18239453,0.023001123,0.20077515,0.18573718,0.15664354,0.18950032,0.15173066,-0.056196257,0.02906741,-0.2810654,-0.014368753,0.12905177,-0.29259953,0.08857575,-0.1280276,0.22442172,-0.24918774,0.19820528,0.1584067,0.23834872,0.6234393,0.52446413,-0.82098264,-0.1943602,-0.38017568,0.2874699,-0.117099375,-0.033383768,-0.023527768,0.15738182,-0.06896874,-0.08133262,-0.0019053626},{-0.16526696,0.3036665,-0.10829873,0.102665156,0.22730891,0.384288,-0.6638252,0.36954805,0.16882972,-0.29402083,-0.42760834,0.32806903,-0.25433794,-0.1406783,-0.002616626,-0.05465172,0.48076499,0.2925122,-1.351198,-0.43993667,-0.50846875,0.093906134,0.55496764,-0.2076353,0.003756737,0.28588676,0.9919113,0.61407524,0.732501,0.39346927,0.49496478,0.59960943,-0.3760786,-0.1570649,-0.41014054,-0.5667217,-0.24721852,-1.0170404,0.7164812,-0.48661008,0.3949571,-1.3064917,-0.3576382,0.030060042,-0.31615084,0.41859785,-0.44272965,-0.9094236,-0.15857618,0.21343532,-0.06540708,-0.7586735,-0.45899203,-1.3563546,0.7539938,0.8682497,0.443849,0.033930387,0.23789586,0.26573986,0.9877555,0.73338383,-0.1760661,-1.0046471},{-0.45649993,0.8598787,0.22961496,-0.52273124,-0.17042409,-0.77646655,-0.70533216,-0.120958105,0.22454664,0.63845503,0.6209153,-0.54096967,-0.14332432,0.4663649,-0.57466525,-0.39199564,0.595317,-1.2319412,-0.0756057,-0.22229916,0.3095808,-0.47139135,-0.63363266,0.15105397,-0.0056829206,0.091402076,0.1916193,0.077962615,-0.82610327,-0.0010401557,0.28411576,-0.23445164,-0.7655604,-0.16086924,-1.022307,-0.27694145,0.15488932,0.118607126,0.13538319,0.82047284,-0.0020155523,0.3166951,0.7439898,-0.33308166,-0.11927439,-0.21610127,0.34992525,-1.2765354,-0.4908667,0.50914824,0.15490061,0.18473312,-0.26377663,0.4478477,-0.31250504,1.6930405,-0.04373712,0.23664299,-0.54180616,0.06686481,0.20207821,-0.41969195,0.67800117,0.2067628},{-0.121201605,-0.53737915,0.5395324,1.2096101,0.88268775,1.1563995,-0.5516146,-0.06176602,0.30839247,0.56605214,-0.34190091,0.8176371,-2.3840518,-0.62343293,-1.5109326,-1.011591,-1.8626837,-0.31913126,-0.45031372,1.351065,0.9418702,0.7451242,0.7464339,0.5332371,-1.6893241,0.9646288,-1.5413352,2.5108104,0.33626595,-1.3621902,-1.4078059,0.40595073,-0.70699465,-0.32299188,-0.92405236,1.6385186,-0.1884957,-1.0732814,-0.58691216,-0.6454033,-0.6518571,-1.3672411,1.6159933,-1.0046144,-1.5238966,-0.11214869,0.44683805,1.2090275,1.1594229,1.390626,0.7904873,-1.0803812,-1.3746048,2.1349814,-0.46777377,-0.95989203,-0.12278377,-0.02932917,-0.36578944,-0.3823781,1.0597978,-1.20685,0.9481843,-1.7013876},{-0.11657617,-0.12231055,0.4816637,0.30780146,0.5696188,-1.1368977,0.304462,-0.6713493,0.21237323,-0.09483861,0.15507177,0.09839841,-0.13540596,0.068185866,-0.52566785,-0.26394144,-0.15817167,0.8530129,-0.047409512,-0.49341545,0.16556014,0.4381813,-0.6069206,0.48382214,-0.50770473,0.17796482,-0.08113056,0.55814135,0.7140087,-0.3925771,0.6873646,-0.15379821,0.8150563,0.0012116561,0.21119736,-0.4884026,0.141601,-0.12018603,-0.102542624,0.4772486,0.4974192,0.034804504,0.019861212,0.8182442,0.38960648,-0.32400605,-0.37885737,-0.7412947,-0.5630382,0.6441742,-0.5193392,0.3626455,0.22388268,0.20109731,-0.22278748,-1.2973388,0.93800896,-0.20597862,0.48469397,-0.30888554,0.16819233,0.19242106,0.21210007,0.9869208},{0.72335035,-0.49096704,0.17485344,-0.23204806,-0.13011047,-0.2734075,-0.47617698,0.38867685,-0.41094223,-0.18038899,-0.07835756,-0.39588177,0.120567665,0.24236183,0.588954,-0.21140441,-0.42601937,-0.10415546,-1.0323023,0.29990885,0.9603698,0.7863668,-0.13274887,0.07717285,0.013791575,-0.0019729442,0.42717454,-0.23014906,0.28762764,-0.33241862,-0.9039637,-0.20433149,0.16692291,-0.74246746,0.06448791,0.4037741,0.38858742,0.22452794,0.16744505,-0.35776284,0.9190695,-0.7070489,0.3136656,-0.28032383,-0.7497116,0.61712235,-0.68778974,-0.39444715,-0.22589272,-0.25583905,0.7250861,-0.0071236063,-0.032495,-2.6894662,-0.41815436,0.09628384,0.08254849,-0.34133694,0.0756146,0.40069965,0.34769237,1.3435786,-0.042121578,-1.0501221},{0.7096052,-0.105082154,0.60090995,0.7675888,0.5400394,0.974503,-0.80402774,1.3722745,-2.078244,-1.1036531,-2.225518,0.95746756,0.11643517,0.23967771,-1.649683,0.9473218,1.7350159,-0.9939027,1.2109385,-1.3963919,-0.8780811,0.7905094,7.6551805e-05,0.032010943,1.209958,-0.48732397,0.84150916,0.5746412,1.6068244,1.2204497,-0.60395986,1.7117827,0.20348552,1.4814177,-0.54474413,1.8051257,-0.38581187,0.5386442,1.233371,0.707301,-0.9514004,-0.30688196,0.15317765,-0.49071681,1.6528014,0.8541136,-1.0819529,-0.029068572,-1.270874,-1.3939354,-0.6292401,0.24177387,0.87449765,1.0863612,0.9980143,-0.59035385,1.6649772,1.830979,0.7981293,1.368336,-0.8402935,0.3472032,1.967206,-0.4910127},{-0.34117478,-1.3935426,-0.28517792,-0.4555273,-1.3497509,-1.0949293,-0.05608183,-0.10797496,-0.64347136,0.70521295,-0.22223023,-1.7616256,-0.37839845,-1.9540087,0.15797535,1.14782,-1.4271238,-0.3311947,-0.13601117,0.58445543,-0.124868,0.9514897,-0.6421265,-1.1730133,-0.10517346,0.79636467,-1.216988,1.075319,-0.321179,-0.5846833,-0.012475217,0.069449104,0.9060275,-0.18966019,-0.49301052,-0.27330294,1.3859496,0.4295798,0.3136591,0.11477078,-0.40112925,-1.5364757,-0.3697464,-0.41085914,-1.9913561,-0.36885408,0.8813903,-0.7611,0.9036929,-1.3432591,-1.7757019,0.048241477,-1.2373685,-1.1470156,0.38345808,-0.39622307,0.5029919,0.7218779,0.46013033,0.068525985,1.2959487,-1.280795,0.37125364,-1.2558138},{-0.23207243,-0.27531743,-0.597438,-0.62762594,-0.44233686,0.4186195,-0.39140114,0.511048,-0.4782457,-1.7513894,0.84139067,-1.069043,0.83402485,-1.0167369,0.94385904,0.54602957,0.16838022,0.15940401,0.6499949,-0.61692154,1.9227357,0.98276514,-1.2626761,-1.9141272,-0.11237823,1.7257615,0.4764282,-0.22604242,0.6098943,1.8116672,-1.4069115,-0.064391755,1.4451207,0.49578327,-1.8494982,-0.0118099125,-0.22957285,-1.0014777,-0.024731018,0.7849731,-0.05941905,-0.237374,2.139715,0.11893465,0.39754122,-0.09833338,0.108623005,0.1375469,-0.9078895,-0.003933038,0.09055832,1.4564288,0.30750683,1.1812668,1.9757805,-1.2398723,-0.68022656,0.5116511,-0.31549,-1.1802355,0.2952986,0.6115695,-1.0130492,-0.32451743},{-0.08165509,0.69228333,-0.2574471,-0.30637348,0.04883866,0.104783684,0.23811172,-0.50728655,-0.33943024,-0.3924343,-0.2636794,-0.19389041,0.058120973,0.7949343,0.32532942,-0.16212827,-0.619771,-0.17116863,0.6441073,0.4536845,0.2420824,0.21679163,0.21168865,0.18466021,-0.9997529,-0.011598591,-0.5281103,0.025325332,0.006605455,-0.12807207,-0.4899386,-0.021926206,0.3406203,-0.2219723,1.0735791,-0.19090556,0.29302737,-0.8330177,-0.16202283,-0.44704553,-0.23592438,0.43903893,-0.26456842,-0.4775248,0.18361922,-0.6716989,0.9355296,0.94039553,0.9074457,-0.2695969,0.77524346,-0.5410097,0.34954092,0.3168679,0.05840992,-0.5015489,-0.38507563,0.4729655,-0.57040095,0.73003685,-0.36436722,-2.1772966,-0.05769042,1.0679767},{0.010763353,0.2909038,0.37123957,0.8072814,0.17501488,-0.29182363,0.23982774,-0.34761873,0.13785297,-0.046490885,-0.20940961,-0.36413595,-0.038426947,-0.09697363,-0.123704836,-0.19959742,0.16253869,-0.00904656,-0.44392028,0.35737514,-0.21852244,0.2688067,-0.15839344,0.4073967,0.16867982,0.0047188476,0.018052712,-0.090254165,0.077605285,0.12248049,-0.24988574,0.37466797,0.056059044,0.32338262,-0.1813797,0.008248401,0.41368008,-0.040865008,-0.35755587,0.21677803,-0.08935567,-0.19394165,0.024630165,0.13411023,0.20867428,0.5665331,-0.02909685,0.4434749,-0.117193624,0.24205504,-0.035593368,-0.13702884,-0.04827938,0.05384416,0.30279854,-0.16772212,0.5844618,0.23012786,-0.5447036,-0.035905562,-0.0470026,0.13060659,-0.0033257466,0.14133298},{0.24331038,0.12836169,0.3145771,-0.08677332,-0.19800821,0.21106662,0.0696081,-0.19744228,0.13159154,0.54925966,0.47327393,0.008707011,-0.16703242,0.41842481,0.24982707,-0.03458168,0.07961998,0.17319591,0.2730367,-0.39943483,-0.0109378295,-0.021753224,-0.032215677,-0.7296994,0.22206283,-0.21224678,0.29034606,0.2592091,0.08727446,-0.149743,0.08905796,-0.42447636,-0.21288647,-0.045892294,0.23622677,0.13968368,-0.34563383,-0.17636864,-0.043400705,0.23668456,0.1910924,-0.15883394,0.038087334,0.20834583,0.31754687,-0.33656475,0.04569951,0.06705852,-0.22599228,-0.45972115,0.3103478,-0.10547211,0.016790781,0.02743698,0.016429482,0.20636384,-0.24843217,-0.013737036,-0.17524278,0.3130112,-0.312331,-0.14432174,-0.3290129,-0.28073022},{0.13539982,0.41098008,0.09318618,0.16838723,-0.690582,-0.121267,0.07100266,0.24061674,0.08989643,0.05356585,-0.40876222,-0.22459282,-0.7678544,0.6335484,-0.15319054,-0.35420367,0.13852045,0.29535875,0.030219764,0.48000816,0.024511343,-0.7222922,-0.11243892,0.18630515,-0.10771259,0.6076564,0.21571852,-0.025487127,-0.43829536,0.36974514,0.19723631,0.17761363,-0.09137782,-0.81750226,-0.27460846,-0.20508628,-0.041229036,-0.76323986,-0.60532266,0.29464105,-0.083050184,-0.2997105,0.09019503,0.16304693,-0.17398505,-0.48311576,0.54554534,-0.09395955,0.30574206,0.9233307,-0.14490831,-0.2438997,-0.14778756,0.28524384,0.019043097,0.08595262,-0.24486454,0.8346025,-0.6436775,0.03666734,0.050669923,-0.00906727,-0.8337721,0.023206346}};
static const float layer_1_weight[64][64] = {{0.41910475,-0.107845835,0.36855048,0.19783612,-0.6200049,-0.20696515,-0.001650112,0.49654612,-0.258678,-0.009956245,-0.284106,0.22765769,-0.19995587,-0.1989302,0.003598822,-0.03569337,0.07052842,0.21792378,-0.52281016,0.26387557,0.09773295,-0.0886479,-0.59669966,-0.3090407,0.1702789,0.20246094,-0.08071735,-0.3313801,0.41923782,0.053316537,0.22522017,-0.36310387,0.5545213,0.47197568,0.10551331,-0.110938795,-0.046906114,0.068933696,-0.32967237,0.0791128,-0.1069659,-0.30945995,0.037213475,0.04904186,0.50420773,0.15469816,-0.16589698,-0.08458888,-0.09000052,-0.0062879515,-0.17533624,0.29913083,0.3337948,-0.4700668,0.23035757,-0.007965858,-0.08866109,-0.12684807,-0.10671459,0.2640906,0.011001076,-0.5391414,0.008349126,0.11010028},{-0.5116161,0.17299579,0.04445643,-0.18608747,0.5410518,-0.42507488,0.29245678,-0.98048145,0.42736766,-0.0031108411,0.2249496,0.11807837,0.67511964,0.38878033,-0.14513823,0.08099371,-0.022529727,0.26408398,1.3328642,0.04407215,-0.46868917,-0.06823284,0.8259251,-0.12818545,-0.72726697,0.109629296,0.4360286,0.39986798,-0.3240454,0.07127729,-0.017466087,-0.071010895,0.059268106,-0.54096454,-0.012273134,0.15455501,0.15602638,-0.19276792,0.025026096,-0.24999636,-0.23101035,-0.112375446,-0.25128382,0.2253901,-0.5368825,-0.3305593,-0.05644847,-0.09629775,-0.2894698,0.3787824,-0.2870291,0.11376574,-0.43301138,0.0019629346,-0.44245157,0.33868447,-0.062648535,-0.19239584,1.0191176,0.06454463,0.051861998,-0.14504011,0.09017474,-0.040091075},{-0.11759295,-0.27937353,0.18327038,-0.20179422,0.0973063,-0.0078122024,0.13003054,-0.518775,0.42872435,0.03333658,0.18620442,0.3133012,-0.27881002,0.26208004,0.015890786,-0.27203637,0.09445103,0.28799003,0.14416301,-0.16521001,-0.3820473,0.24344207,0.6261314,-0.21840753,-0.16517016,-0.17755125,0.11894656,0.23866224,0.1604317,-0.21096492,-0.015343196,-0.14009306,0.3734723,0.12006804,0.112493604,0.33176193,0.12886049,0.15422845,0.23693244,0.09435961,0.08184028,-0.058984086,-0.26005808,-0.03831036,-0.4110395,-0.2737666,-0.05272038,0.26329958,-0.1444968,0.33953086,0.012629311,-0.29751083,-0.24248604,0.085167125,-0.50138694,0.62539905,0.06918528,-0.29571474,0.27158707,0.088844895,0.30271694,0.5015747,0.1534423,0.20582238},{0.46202275,-0.0684953,0.24902458,0.28680336,0.14715417,-0.34302935,-0.20135547,0.18186611,0.100780666,0.03990324,-0.092599176,-0.73222584,-0.15718725,0.31041637,0.4691581,0.21980536,-0.005163643,0.5629485,-0.31804058,-0.0073674205,0.16136698,-0.009289517,-0.25431845,-0.40492618,0.25625685,0.2863719,0.5399352,-0.13784267,-0.09551212,0.60801417,0.0026878815,-0.40773442,-0.114024974,0.19398199,-0.06315569,0.08389149,-0.21194437,0.14091799,0.048722416,0.055526305,0.004917118,-0.10256209,0.19983502,0.057786655,0.039936766,0.10229475,0.15896407,-0.18519504,-0.1166606,-0.2584525,0.120131746,0.46974313,-0.294266,0.34423187,-0.042884026,-0.1915499,0.03187468,0.90602535,-0.0048391074,0.1161998,0.14347921,0.372197,0.26408687,-0.05243979},{0.17527284,0.3529509,0.065015264,-0.12731789,0.2987145,-0.96032435,0.09598838,-0.34241447,0.005674441,0.018236691,0.28764227,-0.5166258,0.2788841,0.22117794,-0.08351674,-0.076763116,-0.06875671,0.053098716,-0.23200363,-0.07986013,0.43704587,-0.24259576,0.020271193,-0.00938629,0.0051636365,-0.10996112,0.11335342,0.6055437,0.29248476,0.2942678,0.026607893,-0.41923314,0.5822937,-0.34194994,0.0763121,0.012656351,-0.018940698,-0.13746081,-0.3233547,0.14004992,0.051520847,-0.23375042,-0.061064944,0.14737777,-0.15949696,0.4493553,-0.15071242,-0.35172778,-0.06093285,-0.038434856,0.002130454,0.28938934,-0.40118143,-0.25480202,-0.6023059,0.25911784,0.014488274,0.14288794,-0.50476474,0.016873097,0.07157407,-0.37470135,-0.20182644,-0.21354038},{0.51047254,-0.060974475,-0.61554044,0.51363933,-0.21640082,-0.3459515,0.3981904,-0.28286082,0.19085863,0.013701865,0.29804647,0.5374795,0.5053719,0.2050667,-0.4400435,-0.10055604,0.13478217,0.049748536,0.12532558,-0.18518528,0.27489042,0.4856722,0.24190588,-0.33259386,0.4294202,-0.11427494,0.50190324,0.03767836,-0.21677975,-0.36457282,-0.017881833,-0.5037133,0.19914913,0.1881411,-0.67429185,-0.31688428,0.18989655,-0.026584562,-0.1404089,0.20275614,-0.007517213,0.06706739,0.102743536,0.046380945,-0.20114279,-0.29013777,0.4340206,-0.5646017,-0.36823416,0.1358658,0.034989323,-0.11319287,0.08667533,0.107417785,0.6159031,0.17309771,-0.1591277,-0.09785707,-0.18522377,0.1455773,-0.13062488,0.0077143107,-0.02610558,0.40420085},{0.018665679,0.06980177,0.2704813,-0.039932393,0.45503053,-0.017783007,-0.7263048,-0.38306323,-0.16564143,-0.023218133,0.2791651,0.26701948,-0.1844005,-0.009174288,0.18804456,0.20082568,-0.16936997,0.20012619,-0.12310779,-0.17873259,0.012569696,-0.12017451,-0.07595535,0.17783342,-0.03167287,0.08414875,0.15763897,-0.097057775,0.102919035,0.063793465,0.034425158,-0.09162145,-0.106677786,-0.16058962,-0.14278612,0.12370665,-0.40836862,-0.032245483,-0.093332775,0.08800724,-0.08554251,0.15871902,0.29113102,0.16551557,-0.4730528,0.27191076,-0.49488288,-0.050902456,-0.33348623,0.034532946,0.0846015,0.10073395,-0.24679579,-0.18741958,-0.10415053,-0.08662532,-0.11792075,0.33936927,-0.07532582,-0.20370153,-0.13496792,0.035363056,-0.22423767,-0.18443401},{0.06637863,-0.3456468,-0.18201168,0.05563681,-0.38885185,-0.11994267,0.31184712,0.23250987,0.081069686,0.13347606,0.07976677,0.43592873,-0.49737084,-0.108804904,0.047362115,0.13728009,0.022946281,-0.21320653,0.21259284,0.23714757,0.21225974,0.0085281,-0.10362018,0.25183463,0.09166209,0.2226461,-0.05797199,0.10022863,0.36129713,0.22178914,0.063960396,-0.032183655,-0.79024905,0.2471665,0.21952356,-0.19681561,-0.28078356,-0.19722044,0.044647776,-0.19671756,0.00547224,-0.13131516,0.19579782,0.1048734,0.12380864,0.14058858,-0.106631726,0.5535253,0.045269396,-0.22727826,0.25009346,0.086943574,0.035301533,0.036575302,0.10267548,-0.28367752,-0.002182131,0.11149761,0.22844644,-0.019595003,0.118219696,-0.09513254,0.21649386,0.03194049},{0.59526443,-0.15015689,-0.10593415,0.2703321,-0.07827754,-0.29731908,0.06598345,0.47576213,-0.019245518,0.05971873,-0.29691207,0.17168668,-0.093818404,-0.0154314255,0.3020314,0.20554416,0.069337554,-0.30118725,-1.1976863,-0.5373494,-0.10025172,0.07527376,-0.1394845,-0.30246484,0.21268104,0.1748343,-0.90621305,-0.32088283,-0.23603125,-0.17118068,-0.028247694,-0.18909167,-0.109218016,-0.18705587,0.31435788,-0.28559405,-0.081301846,0.29054528,-0.2475361,-0.07844185,0.4567399,-0.08466006,-0.06258982,-0.63912004,0.30870122,-0.14972845,-0.27439097,-0.20300613,-0.014109657,-0.05379318,-0.3390551,0.36945653,0.3978205,0.12175073,0.27984294,-0.045923583,0.52439874,-0.059052154,-0.010214065,0.04143093,0.40348482,-0.4641724,0.042513143,0.25854036},{-0.29132554,0.090730324,0.41096678,-0.6701255,0.8334765,0.23178352,0.13296893,-0.24871734,0.18674313,-0.117324136,0.0020876422,0.009841064,0.40036583,0.5670592,0.38266078,-0.3549371,-0.18418986,0.08832894,-0.41610694,0.04622381,0.1068416,0.3029271,0.31385484,0.26802582,-0.22517136,-0.0021803218,-0.21255787,-0.3725233,-0.61700433,-0.35157192,-0.3364902,0.45542848,-0.10080246,0.22105967,0.2786422,-0.48513243,0.38334587,0.2930445,-0.35196006,-0.32880992,0.21955606,-0.17409328,-0.05059624,-0.5841704,0.10093368,0.033670515,0.12252293,-0.19503824,0.20855139,0.7000163,0.18949927,0.2955021,-0.00087061664,0.71899396,0.27972692,0.3808218,-0.17505862,-0.29565993,-0.12779894,0.1369898,0.4443344,-0.18035358,0.025087053,0.06788758},{-0.102521665,0.33764768,-0.15319276,0.26566508,0.3796825,0.22080933,-0.41257814,0.1357444,0.3674902,0.043962087,0.64719415,-0.13934588,0.79925793,0.013142296,0.2109883,0.10025245,0.27711716,-0.26777458,-0.13205558,-0.38288188,-0.4473309,-0.21623412,0.3508093,-0.09203928,-0.11915107,-0.16514891,0.34686446,-0.50990313,-0.08938537,0.103559926,0.103499375,-0.20615321,-0.16621251,-0.26271242,0.09970893,-0.08165188,-0.09214515,0.039896782,0.2868885,-0.43295977,-0.5095429,0.35532427,-0.15409021,0.5245373,-0.4004391,0.26887575,-0.3788145,-0.2615737,-0.38331154,0.20099299,-0.117747314,0.17894036,-0.100855,-0.5059489,0.37608755,-0.21310207,0.1948166,0.06115162,0.09910845,0.26163036,-0.3458922,-0.40208697,-0.14137071,-0.43996596},{-0.0016029589,0.60829574,-0.2683184,-0.26040447,-0.17053893,-0.28024283,0.1472561,-0.22031558,-0.09702342,0.31736445,-0.07900736,0.016812358,0.47801325,-0.39794162,-0.35039118,0.22264184,0.20676629,0.011773726,0.73423076,0.38485348,0.28863615,0.6712872,-0.023399897,0.21993575,-0.0076073296,-0.33786178,-0.2433265,0.34764114,-0.18529171,-0.11967628,-0.17853051,-0.12649943,0.3913482,0.113745645,-0.47130623,-0.11197262,0.13926315,0.016279489,-0.21602377,0.3092637,-0.016762028,0.16243096,-0.3925468,0.15536635,0.029758152,-0.29621845,0.34929672,-0.5536379,0.22858141,0.05928277,-0.08282175,-0.58310527,0.2604162,-0.20467685,0.22523384,0.2820275,-0.2571912,-0.49523973,-0.33017868,0.30729103,-0.37143844,-0.31921837,-0.08551681,0.16340233},{-0.22103122,0.5071135,-0.6215435,0.32625973,0.42227662,-0.5969514,-0.27324048,0.23277207,-0.14204223,0.6757492,-0.5164864,-0.6637381,0.24603769,-0.43097568,-0.40377402,0.28698793,0.085992336,-0.18265173,0.24902506,0.17511445,0.1253027,-0.12962598,0.030237617,-0.38153103,-0.082036555,0.072329275,-0.09978687,0.09492498,-0.31114873,0.91717523,-0.1287881,-0.10946251,-0.31259882,-0.80081445,-0.06856067,0.27909577,0.38413474,0.16319239,-0.018379984,0.17374939,0.006748665,-0.1882281,0.24377663,0.31290528,0.052064557,-0.008179772,-0.08362319,0.21503715,-0.011632017,-0.6213586,-0.09358994,0.3245211,0.3807645,0.26320922,-0.7618376,-0.6076222,0.34316087,-0.0065407995,0.5259539,-0.17392905,0.08667921,0.012118988,-0.46223664,-0.13079588},{0.058180608,-0.10677267,-0.27376804,0.79437554,0.28780115,-0.056165043,-0.8505659,0.27478355,-0.36046386,-0.045068994,0.1084415,0.41432014,0.5455961,0.25988364,0.67368144,0.15043172,-0.13283315,0.26287308,-0.28163934,-0.15675765,0.15619877,0.022645323,0.19110507,0.027659845,0.38313797,0.47387797,0.01669387,-0.31632632,0.034055244,-0.5215996,0.10972846,-0.02365128,0.21871321,0.6706004,-0.09505342,-0.6374243,-0.50507945,0.23180428,0.21917076,-0.26634654,-0.07548284,0.069939144,-0.37921655,-0.07417683,0.26890922,0.116719194,-0.6615949,-0.07643155,-0.16885574,0.05744291,-0.6470807,0.0399477,-0.83380747,-0.5717565,0.42373928,0.5272747,-0.21971437,0.079857655,0.30406064,0.41002148,-0.19883044,-0.020436121,-0.25755873,-0.21452993},{-0.3089592,0.033657953,0.0729562,0.36870766,-0.40027994,0.17266832,-0.43689832,0.54026514,-0.099957414,-0.27811795,-0.15829666,0.14973542,0.29191136,-0.008693396,0.10766482,0.5195193,0.3996779,-0.58060306,-0.26279303,-0.2771609,0.5101937,-0.23748474,0.21657822,-0.07825245,0.0374461,-0.0974274,0.033775657,-0.29630658,0.54520875,0.56289804,0.10307827,-0.2447687,-0.10186252,0.060912248,0.42797294,0.0005129678,-0.39281595,0.22899088,0.18134157,-0.32727274,-0.12898669,-0.1523023,0.05727663,-0.1105708,-0.30484024,0.16481906,-0.020211935,-0.3097814,-0.2267029,-0.2172318,0.17153245,-0.30652604,-0.030309722,-0.13816148,0.06815852,0.17459953,0.35557473,-0.21888125,-0.01433183,0.4227261,0.10846676,-0.35106438,-0.3224416,-0.48236227},{-0.6476156,0.21349823,-0.58020496,0.59773326,-0.15367617,-0.15217838,-0.0031063126,0.3724404,-0.99161226,0.6902974,-0.33475342,-0.3216512,-0.13566762,0.009572517,-0.26589662,0.50910646,0.24109128,0.50481135,0.517605,0.11105862,-0.22676073,0.117436044,-0.5079163,-0.5404121,0.54983604,0.35131788,0.58233833,-0.031143667,-0.4121019,0.43436134,0.55829126,0.81606984,-0.044202045,-0.2735242,-0.23038976,-0.29508883,-0.104712985,0.6603147,-0.07546671,0.01602838,-0.07849716,0.3622934,-0.026640559,0.69859505,-0.4097995,0.20922275,0.5627185,0.5868848,-0.6472467,-0.6410756,-0.046437774,-0.31752008,0.49919596,0.01956664,0.5425494,-0.42510763,0.5497243,0.0073479703,0.44539532,0.3346398,-0.40828606,-0.2688883,-0.6147642,0.1775384},{-0.173275,-0.06334461,-0.049183108,0.02780395,-0.44011134,-0.13672772,0.8399852,0.17362024,0.029607957,0.2558585,0.05718633,0.13519467,-0.08744315,-0.10270912,-0.161214,-0.24725446,0.5199907,-0.22623542,0.21528585,0.12682635,0.1713258,0.24349175,-0.14564532,0.09750339,-0.04864013,-1.0301473,-0.02817823,-0.23953176,0.22673854,0.07669918,0.38664815,-0.23648506,-0.63605446,0.3677794,-0.13513993,-0.09786039,-0.22300799,-0.016615244,0.274737,-0.79751873,0.047443748,-0.40631974,0.2955333,0.2900638,-0.13144237,0.18040785,-0.1155818,-0.2835399,0.107942596,-0.22981551,-0.115628555,-0.23854657,-0.35357204,0.03509651,-0.066994034,0.110722855,-0.2075794,-0.18618757,0.54508257,0.051135894,0.241744,0.11052392,-0.043908786,-0.10347891},{-0.19328564,-0.39023042,-0.06802399,-0.01121841,-0.4141352,0.15435413,0.079511024,-0.35812458,0.26423326,-0.17650273,-0.16239063,-0.50112396,0.064204805,-0.46728033,-0.1320428,0.09568985,0.28951794,0.5586734,-0.15756093,-0.09457774,0.027381748,0.5283479,-0.04498051,-0.09369745,-0.17504644,0.5077718,0.20332685,0.023362197,-0.02919376,-0.1863932,0.030581169,-0.20409201,0.17538811,0.5599156,-0.5814822,-0.17149222,-0.14864804,-0.13972148,0.1252219,0.07604376,-0.021995993,0.08498283,0.049634624,-0.098863944,0.010877235,-0.11634439,-0.25724837,-0.7934115,-0.22075629,-0.16445708,-0.22709212,0.12826896,0.06889184,-0.054882407,-0.38242105,-0.09818406,0.11011191,-0.04348837,0.24066022,0.19207868,-0.08031639,-0.44575694,0.39768198,0.07455853},{-0.034164492,-0.0032639385,-0.089824855,-0.1484159,-0.047849465,-0.22289363,0.2912697,-0.23087618,0.09022094,0.28571635,-0.18074504,-0.36484846,0.18441309,0.25874615,0.28141212,0.06882512,-0.14703935,0.49877772,0.13656859,0.11106253,-0.74056226,0.25093874,0.069695204,0.111618064,-0.07625706,0.4050733,0.078745864,0.22572426,0.1334007,-0.005727722,0.23929442,0.3095684,-0.8394945,0.16458192,0.18203802,-0.059524424,-0.4620198,-0.1890612,0.05871369,-0.064728,-0.16654782,0.004454216,0.33261794,-0.027413366,0.034290824,0.04037596,0.022471657,-0.35251048,-0.042913795,0.2822974,0.1783606,0.13111356,-0.09545498,-0.23542622,-0.14445506,0.062342495,-0.17524824,0.45082796,0.60762495,-0.04368476,0.1561667,0.09400987,0.17844135,0.15993269},{0.05821619,0.27814376,0.19668934,0.2375604,0.22285502,0.23843552,0.08534171,-0.102325894,0.09573486,-0.17039776,-0.079154454,-0.26732922,-0.5478137,0.06837864,0.18576816,0.030915285,0.20433486,0.21858086,-0.1739724,0.08080462,-0.03889941,-0.31239882,-0.3601699,0.20919849,-0.07448236,0.39228225,-0.022806788,0.29791588,0.13290302,-0.051183976,-0.38057873,0.3991583,0.7307892,-0.08026308,-0.266458,0.0059319544,0.42158362,0.24947493,-0.05975108,-0.26371193,0.34455016,-0.037942298,-0.3432532,-0.3415054,0.22050557,0.05464577,0.09648913,0.081224,0.1747928,-0.12556052,-0.1724765,0.09487782,-0.38616392,0.19883353,0.071834974,0.20067327,0.050023403,-0.4083129,-0.02468036,-0.43716374,-0.3214519,0.37254792,-0.07121039,-0.047407802},{0.21605448,-0.23699251,-0.32267824,0.08323432,-0.00776799,0.121384494,0.4581613,0.017333604,0.17041396,0.023989586,0.13504185,0.315827,0.19469927,0.62527424,0.1916367,0.16943488,0.3045204,-0.4156062,0.18451387,-0.36036476,0.060248602,0.18941268,0.19910207,-0.096498005,0.30123925,0.11508708,0.2963778,-0.5924794,-0.42693758,-0.31775463,-0.34599754,0.34413615,-0.12276778,-0.12911044,-0.32655573,-0.33367106,-0.0012404094,0.18284202,-0.11081106,0.15507902,0.16485484,0.46538994,-0.0048784264,-0.050024975,0.0053420993,-0.022173733,-0.10703039,-0.12384538,-0.014707394,0.31790575,-0.19730891,0.087432936,0.36137006,-0.10173874,0.017885242,-0.36865306,0.1220454,0.57978827,-0.33751258,-0.20338948,-0.49236912,-0.0027967966,0.01679518,-0.1591679},{-0.5393065,-0.69172096,0.04213177,-0.28575206,-0.5398864,-0.21570118,-0.10172834,0.27166024,0.34020898,-0.06331124,0.43223035,-0.67431086,-0.18650581,-0.3198365,0.04286111,0.06535294,-0.2754642,-0.25987273,-0.039065327,0.3603997,0.15488316,-0.18977234,0.2045354,0.06854926,-0.2872152,0.35461628,-0.10184845,0.25246218,0.41525465,0.8675251,-0.25022852,-0.6031967,0.08671127,-0.42831925,0.65754616,0.65006775,-0.05216523,-0.44750175,0.10612619,0.41555166,-0.22427003,-0.14764255,0.6886011,0.17051856,-0.28218427,0.1024563,0.06346962,0.21334091,-0.091226496,-0.060933605,0.17775404,0.086294554,0.8329478,-0.24744035,-0.06639323,-0.34068102,0.351252,0.07117301,-0.3743687,-0.23615296,0.024133602,0.4230973,0.7921175,0.10390547},{-0.19747667,0.06696151,0.16823752,-0.49277732,-0.054441314,0.23683484,-0.06314323,0.03437041,-0.116502136,-0.43547744,0.10081878,-0.5331231,-0.3825147,-0.17959267,-0.41791752,0.16384386,0.3237991,0.23104882,-0.028941229,0.070655085,0.32163882,-0.6990177,-0.74894494,0.33425903,0.07325796,-0.13891727,-0.1041969,0.30055442,0.2113819,0.49986258,-0.09251347,-0.5179515,0.024852898,0.16956648,0.17761269,0.22551169,-0.0010139698,-0.19310665,0.16431111,0.018680729,-0.4171405,0.3664915,0.37828365,0.08625596,0.17645635,0.2798964,0.4885916,0.192407,0.20648901,0.063666135,-0.3023939,-0.41418558,-0.22261918,-0.06466112,-0.31120247,-0.13824253,-0.38393205,0.13348609,-0.063894935,-0.047745835,-0.24982345,-0.038974985,0.044583403,-0.0014718195},{-0.0058389073,0.07216065,-0.14498343,-0.10590486,0.20416348,-0.056826632,-0.08408329,-0.2919944,0.040070087,-0.17846365,0.263707,-0.012653603,0.2871709,-0.06475265,-0.18902628,0.08593648,0.0026453605,-0.28124234,0.011203386,0.1561892,0.021250911,0.049451128,-0.16907859,-0.16810519,0.13372707,-0.122343265,-0.027796147,-0.09378259,-0.21130143,0.2850998,0.20294487,0.113849856,0.469186,-0.40453914,-0.31746688,0.1251412,-0.16714449,-0.17024846,0.07365389,-0.061590936,0.018290224,0.13143247,-0.08667413,0.38804263,-0.0896271,-0.09595843,0.2267126,-0.20503798,-0.20224948,-0.19322076,0.27675757,0.18715218,-0.20309146,0.1046787,-0.12046844,0.00890425,-0.06395907,-0.1357879,0.1065934,-0.27055642,-0.27323827,0.90283847,-0.023095995,0.03645925},{-0.11652574,-0.24533999,0.09167791,0.021762108,-0.4184052,0.32043096,-0.14362493,0.25030354,-0.22654846,-0.1768848,0.00019274838,0.30033898,-0.24081773,-0.30505818,0.27600488,0.18697147,0.21607448,0.29711935,-0.21430655,0.13404806,0.2928153,0.11129023,-0.18144327,0.11922125,-0.07826598,-0.21562882,-0.30254245,-0.087776236,0.33494774,0.15067299,-0.2094292,-0.23721531,-0.34176448,0.054351643,0.27353507,-0.13183843,-0.18813875,-0.123082474,0.0725799,-0.32267332,-0.3079214,-0.22332424,0.597219,-0.25283825,-0.17336522,0.083434336,-0.16255817,0.03302514,0.05912418,-0.2897288,0.1745175,-0.37008247,-0.10028574,-0.06574304,-0.01665898,0.17919493,0.102936745,-0.17177708,-0.116975814,0.07195477,0.0006614364,-0.19839023,0.05491605,-0.26375303},{0.2460414,-0.45341384,0.013428015,-0.27978644,-0.26996928,0.03962099,0.57407415,-0.29593065,-0.0013548137,-0.08244049,0.28512883,0.14776397,-0.19144005,0.25712404,-0.020026011,-0.12490175,0.14242394,-0.5037187,0.08009802,-0.0316686,0.11036028,0.14856938,0.09264535,0.14213522,-0.14962457,-0.0046671787,0.13643222,-0.3069668,-0.09598551,-0.38373044,-0.14034192,0.014169249,-0.2945064,-0.16604084,-0.21665521,0.2141174,0.40199238,-0.2003925,-0.28734577,-0.31670624,0.46973968,0.21552797,0.107733294,-0.42056197,0.1312741,-0.3036828,0.2334463,0.14551342,0.2754314,0.35917407,-0.25691405,-0.12952015,0.12709162,0.19209404,-0.096225485,-0.16202126,0.100516304,-0.0073108627,-0.62247103,-0.2540976,0.045027994,-0.015549512,0.39321932,0.35083634},{-0.13415253,-0.022349237,-0.044902273,0.14298241,-0.20753235,0.4752829,0.23254338,0.13355975,-0.14228526,0.14791311,0.22037128,0.1025203,-0.10028586,0.3240028,-0.16188362,0.023617538,0.6010239,0.15647057,0.16550724,-0.12049339,0.3920146,0.03028131,0.074716136,0.0927371,0.18653297,0.11011295,0.25422823,0.033095215,0.018411582,-0.039383534,0.2886098,-0.0014724584,-0.63512063,0.007633048,0.29990983,0.06455184,-0.045390975,-0.019735826,0.28677657,-0.5421738,-0.2079165,-0.26971346,0.058434308,0.1537252,0.19646816,0.12307858,-0.28864542,0.44818255,0.2328297,0.10429422,-0.0579922,0.12182006,-0.12750167,0.032785892,-0.22567464,-0.03464612,-0.14527348,-0.10919428,-0.33242923,0.21220273,0.31033576,0.10484986,0.11870496,-0.38758042},{0.063587554,0.41854903,0.21778287,-0.05355979,-0.5188296,0.21466976,0.122813016,0.34095672,0.085854314,-0.3405109,0.20365651,-0.39894626,0.045652572,0.13183719,-0.014413108,0.33233458,0.19980213,0.22062153,-0.057567663,-0.2942016,-0.03686357,0.021948023,-0.062692806,0.13154519,-0.11300517,0.31339812,0.08416429,-0.0801512,0.22778179,-1.156165,-0.020386506,-0.07745043,-0.04039333,-0.083877325,0.06040921,-0.27222064,-0.096814625,-0.15576,-0.1946086,0.10275933,0.07791891,8.7808105e-05,-0.16936322,0.11398793,0.44911215,-0.08743537,0.10384342,0.02198503,0.43233424,0.18349296,-0.053368665,-0.22734699,-0.019429345,0.10212171,0.31251544,0.5456036,0.021955304,0.4674825,-0.7781499,0.16371986,-0.31402302,-0.22541277,-0.22045225,0.008799774},{0.6035512,-0.414785,-0.2986039,-0.37745944,-0.35523957,-0.28501317,-0.28048092,0.20472229,0.05858444,0.034290783,0.33293834,0.25503388,-0.45337743,0.28656057,0.5024068,0.2881347,-0.5681469,0.28732476,0.021531872,0.15633853,-0.16195564,0.38159305,-0.19131787,-0.20791487,0.6817889,0.17392977,0.5660343,0.12745415,0.43284157,0.3125944,0.37805957,-0.71482396,-0.08454364,-0.06624234,0.59170353,-0.11781033,-0.34167328,-0.0094983205,-0.36714098,0.20727763,-0.190601,-0.032323074,-0.063263685,-0.40138337,-0.22720274,0.22583842,-0.27065367,-0.070532456,-0.19277517,0.0588731,0.18052177,0.04487973,0.31295747,0.10364971,0.5169573,0.36218432,0.42247203,-0.03471608,0.30317348,-0.27816686,-0.23177917,0.45330244,0.2612954,0.48308533},{0.26015738,-0.22438449,-0.32339165,-0.5957103,-0.043542095,-0.3620793,0.23650917,0.12937084,0.07814392,0.14778128,-0.23528966,0.11624827,0.06313761,-0.14447758,-0.15999189,-0.1574001,0.1700608,0.035823032,0.22867286,-0.13332891,0.32177964,-0.18474284,0.39512625,-0.23984875,0.265431,-0.22785014,0.13523501,0.19202791,0.03494752,0.010162701,0.07146398,0.5207464,-0.10609182,-0.120482214,-0.028431779,0.4649159,-0.05283773,-0.21535479,0.18317644,-0.32639182,-0.09815137,0.16396916,-0.021292148,-0.00267842,0.2612888,-0.6742187,0.03465164,0.16642308,-0.31104392,-0.042882256,0.03243783,0.385513,-0.15190779,-0.15243423,-0.71673286,-0.14627533,0.117086515,0.2466908,0.26819366,0.39039156,0.6680793,0.8369173,-0.084641606,-0.16078186},{-0.33567536,0.038843587,-0.050877728,0.2071732,0.39795932,0.74115324,-0.043912776,-0.044938657,-0.3857028,0.11358759,-0.25083196,0.45966962,0.19345845,-0.05000238,-0.580997,0.6348969,0.8532733,-0.20452365,0.17208187,-0.5764711,0.007604624,-0.06376341,-0.33355,-0.28643373,-0.026769716,-0.6665174,-0.01308947,-0.3638636,-0.21903226,-0.112410486,0.12652989,-0.09419233,0.15442601,0.27524424,-0.30674434,-0.3949672,0.03671116,0.39089012,0.48617542,-0.71855485,-0.22934389,0.27691233,0.2553727,0.24752577,-0.23254205,0.013385735,-0.22700417,-0.429001,0.22733773,-0.14798166,0.02070939,-0.46686447,0.27888608,-0.25971416,0.2263202,-0.5278856,0.047248885,-0.65988374,-0.12682638,0.7990251,0.18746361,-0.8674702,-0.7037365,-0.38473046},{-0.15890385,0.22552833,0.13276996,-0.47377032,0.4739883,0.14919999,-0.18313146,0.4483915,-0.22562511,0.021405779,-0.06993243,0.13736619,-0.023304109,-0.34516722,0.13622089,-0.3573207,0.01112044,-0.26085445,-0.04205873,0.42445907,0.22711064,-0.15153658,-0.08204926,0.25829393,0.4725075,-0.021210799,0.19421741,0.32714218,-0.009735142,0.4666084,0.00037463146,-0.16342638,0.20500883,-0.7650713,-0.48478281,0.68909603,0.2556972,-0.07235098,0.38643023,-0.18123403,0.12786235,-0.4630557,-0.0033876195,-0.14867672,0.2791622,-0.15748633,0.30852646,0.2928396,-0.11404287,0.031218052,0.13281009,0.39178836,-0.12082594,0.3527605,-0.60588175,-0.24165648,0.15175794,0.22434276,-0.3626327,-0.36920732,0.731296,0.6441996,0.06954468,0.03890608},{-0.46573454,-0.16634521,0.009181424,-0.1367135,-0.2212856,-0.28680792,0.037707943,0.28963223,0.11036454,0.41343656,-0.37526459,-0.56291336,-0.22025962,-0.13845895,0.20696668,-0.36330077,-0.2132659,0.5139185,0.35680783,0.29456833,-0.23711056,0.20847477,-0.028711569,-0.0946224,0.25866982,0.27625036,-0.14726809,0.23276417,-0.22898191,0.041817002,0.19150305,0.014217285,0.25786233,0.08915979,-0.11368481,0.40200588,-0.15115122,-0.27007648,0.13856812,0.5421282,-0.19957308,-0.20788924,-0.27078876,0.20371896,0.08811271,-0.117577106,0.36459273,0.25757083,0.3498522,0.057685886,0.06415241,0.5066829,0.306316,0.26186925,-0.40855572,-0.30390656,0.07514223,0.5859611,0.5195474,-0.21197604,0.24326567,-0.0032045832,-0.11760435,0.15562406},{-0.067782976,0.38527042,-0.048582613,-0.04412013,0.05359951,-0.7770605,-0.2164061,0.20159869,0.17633371,-0.11692997,-0.20441559,-0.11426739,-0.26681253,0.058473352,0.009079569,-0.14504597,-0.35422125,-0.11803962,-0.14277811,0.25965077,-0.20774674,0.018153947,-0.065519094,0.2697154,0.19988744,0.055442236,-0.41865265,0.14672199,0.17243023,0.14543729,0.12312114,-0.30951503,0.030801473,-0.053003777,-0.15404446,0.11468764,-0.19458653,-0.37760428,0.08278309,0.4735511,-0.33120465,-0.014385076,0.30957502,0.24623084,0.02527,0.055154204,0.1163881,-0.23337522,-0.104821995,0.06572609,0.5633004,0.14883941,-0.23949559,-0.08528129,0.07690964,0.4178462,-0.19943655,0.7791608,0.04334462,0.10945398,-0.031024396,-0.17267662,0.047728363,0.27271822},{0.29935214,0.22185595,0.05054916,0.4252795,0.3068547,0.10792495,-0.9575159,0.29257926,0.05732154,-0.18780458,-0.07522181,-0.03615039,-0.082219094,-0.3395338,-0.22149126,0.25646636,-0.051624473,0.03181097,0.05869637,-0.11425742,0.5778754,-0.226342,-0.29814097,-0.27177536,0.24084611,0.32846138,0.19415115,0.24547265,0.040906794,-0.087312646,-0.15061046,-0.057426862,0.6728585,-0.054503713,-0.36324018,0.11664014,-0.039306518,0.29987094,0.045355603,0.2387615,-0.06405319,0.19629534,-0.40373552,0.068952255,-0.056495156,-0.15198477,-0.35800758,-0.3743173,-0.055897772,-0.14664938,-0.16184595,-0.21985102,-0.24468775,-0.16936973,0.3481044,-0.17851417,-0.1116815,-0.18680106,0.11060296,-0.065774314,-0.4560247,0.20385695,0.05879929,-0.25103036},{0.5266188,0.24824655,-0.2915004,0.4691254,-0.3763249,-0.06985075,-0.09254458,0.1589497,0.023507293,0.12266717,-0.10093441,0.07715258,0.17925784,-0.7145738,0.017284429,-0.28472778,0.096061714,0.38667917,-0.23072955,0.34423092,0.3469454,0.08084858,0.07921735,-0.0023694641,0.3371587,0.1569079,-0.37829074,-0.06603491,-0.022119937,-0.16437484,0.02415323,-0.14446405,-0.39880744,-0.31159028,-0.24218556,0.009274973,-0.17477836,-0.037919983,0.060956944,0.13829257,-0.11962992,-0.5367959,-0.16558656,-0.22442065,0.41491854,-0.06739755,0.09206188,0.2962833,-0.18131845,-0.1682707,0.22196114,-0.015610374,-0.060454596,0.27704582,0.20180666,0.15764791,0.15634255,0.07205279,-0.6420097,-0.33053696,0.026253931,-0.25956625,0.2450916,-0.21524705},{0.035734214,-0.0087049585,0.012018561,0.08562449,-0.28806308,0.44012207,-0.39185297,0.28388667,-0.35384434,0.009016184,0.25726956,-0.07634787,-0.24282648,0.10299218,0.5774788,0.16437852,0.0075013377,0.14310086,-0.09043677,-0.16138902,-0.3589179,-0.31440932,-0.56042767,0.0053931293,0.021671573,0.042094443,0.06994326,-0.32427055,0.16176082,-0.08895326,-0.13212168,-0.25312543,0.25518033,-0.3765923,0.052104395,0.4480387,-0.0035643938,-0.19618751,-0.20844679,0.17169689,0.06941099,0.1600818,0.002331945,-0.17517348,0.015672553,0.227879,-0.32388356,-0.1680416,-0.19819519,-0.066077344,0.15412438,0.03598,-0.124201156,-0.12843077,0.1256856,0.23329385,0.3020556,0.71525675,0.23298648,-0.24379164,-0.08469315,0.04008284,-0.10775041,-0.14207527},{0.21504809,-0.06457406,-0.056887206,-0.101182945,-0.37272328,-0.50904226,-0.26404148,-0.29242074,-0.13065732,0.16237582,-0.24507868,0.13846213,-0.026785059,-0.37802532,-0.32725266,0.07804247,-0.29909277,-0.5334223,0.2375973,0.31745565,-0.20688261,-0.06876287,0.28931412,0.007277006,0.039439183,-0.87386376,-0.2926807,0.20125555,0.18113166,-0.22973342,-0.5163479,0.10606181,0.037577312,0.1712467,-0.105299465,0.07766876,0.02045223,0.17844363,-0.0037078182,-0.18055111,-0.13794374,0.010350149,0.3981541,-0.08520512,-0.19653565,-0.08293053,-0.199739,0.3488218,0.2519454,-0.27152926,0.43685657,-0.051447004,0.3976726,0.30613112,0.33592126,-0.25734076,0.17790976,0.20395404,0.5767302,-0.27127922,-0.07424922,-0.027143339,0.026692398,0.3020686},{0.23205583,-0.16241579,-0.00978797,-0.11685363,-0.6918761,0.123053044,-0.06748487,-0.19450766,-0.066304885,-0.29737252,0.19533464,0.25728774,0.054084726,-0.4787537,0.081084855,0.0019670748,0.008310418,0.06982599,-0.24601941,-0.054314602,-0.29139057,0.05308379,-0.17154613,0.18498392,0.1325083,-0.08160871,0.2169564,0.013454896,0.10413087,-0.095941074,-0.1292385,-0.02065916,-0.8072846,-0.103352405,-0.23447295,0.05872178,-0.12331533,-0.102797724,-0.14279462,0.072546996,0.059884578,0.14388035,0.13878271,0.086030364,-0.08038598,-0.07306697,0.28944314,0.4034055,0.08102586,0.2584843,-0.0011112588,-0.19926788,0.4886718,0.040368993,0.4073107,-0.25147435,-0.11078421,-0.06495903,-0.100048386,-0.09937156,-0.041003235,0.026142357,0.1050567,0.09912284},{-0.55945474,0.10879424,0.39850885,-0.15757138,0.13374518,-0.50288326,-0.039163772,0.5102986,0.6083263,-0.14746056,-0.27221256,-0.07569421,-0.41916424,0.41772732,0.18738131,-0.2413001,0.51259863,0.010587916,0.28224593,-0.11162491,0.29012993,-0.2225944,-0.20866744,0.53026116,0.35117596,0.11039365,-0.15282437,-0.1311144,0.64860344,-0.5059512,0.36945736,0.28098097,-0.15122251,0.27978826,0.08045777,-0.42796442,-0.248834,-0.5807034,0.59851706,0.037983526,-0.3012403,-0.60962784,-0.54443777,0.41430017,0.22862098,-0.07597751,-0.23071815,0.31206793,0.3771792,0.37838715,-0.31031635,0.28270102,-0.74504983,-0.35543743,-0.63077563,0.7029683,-0.84821427,0.49865803,-0.07853916,0.5600855,0.018206313,0.241621,-0.31984642,-0.33988127},{0.07907141,-0.07292675,0.03707309,-0.11218337,-0.19829541,0.53569716,0.3869384,0.04295279,0.09397611,0.024001326,-0.070171244,0.4676281,0.12011595,-0.063139655,-0.09934333,-0.02482778,-0.03667275,-0.14792116,0.0019409023,-0.07682093,0.55460083,0.11186649,0.18616064,-0.21878278,-0.11398873,0.014406276,0.2048961,-0.31680408,0.262607,0.053230803,-0.24037455,-0.012234395,0.18480723,0.2497264,-0.60943884,-0.20602998,0.1094357,0.318188,0.053735286,0.0060300417,-0.07625578,-0.16692024,-0.49669984,0.16625002,-0.031855788,-0.16121794,-0.0077605336,-0.46988928,-0.18574065,-0.088498905,0.058500454,-0.009311009,0.40135542,-0.046934407,0.14448039,-0.08108925,0.13442047,-0.41683304,-0.23680441,0.28066474,0.42974383,-0.2747406,0.065493405,-0.14932221},{-0.34853464,0.44828182,-0.04591398,0.21864213,0.2820212,-0.61770713,0.00011327893,-0.024227561,-0.34034112,-0.2027391,-0.20775561,0.006641384,-0.0870526,0.3691474,0.41633314,0.20140076,-0.21075028,0.24519837,-0.05066283,-0.10721825,-0.7081686,0.03284903,-0.003906278,0.23559195,0.007049441,-0.36910853,0.02846001,-0.047977835,0.21574637,-0.07166428,0.26223794,0.028416723,0.25267547,0.14441288,-0.5533085,-0.38346475,-0.6016042,0.09883559,0.10586587,-0.092681825,0.1785188,-0.1363799,-0.3067956,0.06430949,-0.023117175,0.29850855,-0.32358047,-0.4640246,0.36692277,-0.22648957,0.23410526,0.07488097,-0.15644884,-0.31388974,0.047317512,0.06909149,-0.3521652,0.4987253,0.61342436,0.25977615,-0.09310809,0.34482524,0.13053173,0.044761363},{-0.07599073,0.10332278,0.16054103,0.7812067,0.33632946,-0.625321,0.6738996,0.35057548,-0.015985725,0.39450127,0.215555,-0.14546284,-0.1713497,0.030678488,0.23644675,-0.40243968,0.056103405,0.35610703,1.0344573,-0.42939624,-0.014983941,-0.15537696,-0.06270077,-0.12893264,-0.07458651,1.2254658,0.91920376,-0.33037463,0.2677831,-0.14636089,0.1664046,0.1566157,-0.32461149,-0.22109817,0.27330205,-0.31908047,-0.058024287,0.21366945,0.38931257,0.11306066,-0.0643235,0.015847854,-0.5292552,-0.039008763,-0.10019576,0.21568298,0.18075733,0.29665047,0.30227536,0.21082538,0.18806091,-0.05240881,-0.45117635,0.10523443,0.01550657,-0.09044383,-0.41352376,0.30462605,0.19574893,0.17477767,0.13885498,-0.073969096,0.20833722,-0.20679179},{-0.30554816,-0.039011452,-0.034957666,-0.066088125,-0.3183267,-0.21875827,-0.018896172,0.16582459,-0.2035212,-0.07751015,0.18950385,-0.33410123,0.15462221,-0.21787752,-0.07046858,0.18205507,0.2225135,0.19961043,0.07832772,-0.12333795,0.013363731,0.07734891,0.30360255,0.005435685,0.018517882,0.023413813,0.30658683,-0.27709714,-0.073209606,0.0545259,0.10194262,0.22612749,-0.010304261,0.27497122,-0.2624421,-0.04014741,-0.40701324,0.084032886,0.37232256,-0.064889304,0.03226659,-0.111608244,-0.15430996,0.17145537,-0.4092617,0.26820117,-0.32898766,-0.1981425,0.0876414,-0.0481434,0.0077989753,-0.17427431,-0.113114715,-0.35931247,-0.19771318,-0.29649702,-0.043393087,0.07022788,0.3801141,0.16145283,0.10229452,-0.20048739,-0.32543555,-0.25297427},{-0.20747165,0.24892715,0.08413744,0.1260649,0.2587401,-0.57999986,-0.549487,0.59243506,0.076655194,0.036669698,-0.005195537,0.09243693,-0.052352667,0.019474754,0.4096997,-0.23420347,0.28579417,0.16728166,0.049531054,0.23269793,-0.08775218,-0.08336181,-0.15271436,0.27674535,0.17767994,0.08140184,-0.22997946,0.30626658,0.12931424,-0.20533903,0.4678437,-0.2573178,-0.3515113,0.2275874,-0.3657169,-0.25164112,-0.2324289,-0.49693647,0.32962942,-0.12552658,-0.4024416,-0.31982452,-0.4795257,0.24320008,-0.17313729,-0.019273296,-0.58097225,-0.2228501,0.1738271,-0.3150129,-0.21136075,-0.110547855,-0.23580639,-0.48191157,-0.10611567,0.039577264,-0.10969002,0.85867214,0.33772898,0.01290408,0.13952251,0.1147045,-0.31922904,-0.17938167},{-0.06257356,-0.33174706,-0.1534094,-0.56579643,-0.17830533,-0.0800979,0.27264193,-0.06018866,-0.102318674,-0.23506528,-0.12644622,0.19771557,-0.17640616,0.06467501,-0.117385924,-0.23667917,0.3348065,-0.094751716,-0.035823166,0.16924573,0.47383955,0.0104626985,-0.013701094,-0.24842158,0.15540507,-0.39477536,-0.048302058,0.12919973,-0.038310986,0.37966457,-0.08984435,0.0030601297,0.492579,-0.11396675,-0.25128856,0.14734697,-0.13855489,0.01916444,0.15191013,-0.3593083,-0.5232626,0.10992754,0.35361415,-0.0614982,0.34319714,-0.15054469,0.18366052,0.12679547,-0.11915035,-0.23042378,0.3573942,-0.326776,-0.0067847106,0.11397172,-0.1467774,-0.36639336,-0.17969535,0.22306453,-0.1019405,-0.032867845,0.29954574,0.043088652,0.11454109,-0.07260628},{0.09549849,0.18970725,0.24462658,0.14758496,0.40127084,0.22516102,-0.002540757,-0.023364926,-0.023782987,0.094839565,0.008932891,0.15905122,0.13192923,0.21138453,0.09563823,0.3662511,0.017061107,-0.384344,0.19165657,-0.007550948,-0.13344866,-0.19926275,0.015686648,-0.14050849,0.18873996,0.38449556,-0.31668526,0.050899826,-0.17960799,-0.34301147,-0.22008696,0.3333615,0.053501897,-0.20753697,-0.20094861,-0.22260515,0.056722865,0.023219122,-0.016585443,-0.12125172,0.31800276,0.3269366,0.33492818,-0.14839356,-0.34129602,-0.29377535,-0.04953386,0.4978887,-0.0716025,0.16786818,-0.19641396,-0.058233988,-0.008480221,0.16245702,0.14149159,0.06449957,-0.1518503,0.28020868,-0.21393567,-0.06126271,-0.23132697,-0.108363554,0.14752448,0.07201951},{0.04159589,0.052972868,-0.2367101,0.1392802,0.27377945,-0.2077197,-0.1525133,0.08072805,0.06546971,0.3098661,0.11656227,-0.091297016,-0.015206001,0.3208216,0.19034928,-0.0466955,-0.06725068,0.09783353,-0.056352623,0.06677511,-0.43580157,0.25685513,0.3498842,-0.19969994,0.06283986,-0.14790432,0.15219913,0.03464042,-0.13318925,-0.03375186,0.23737104,0.06678555,0.39217126,0.062066957,-0.49895883,-0.11268985,-0.25633052,-0.21435295,0.030989677,0.3109392,-0.06684159,-0.0157192,0.2035449,-0.06313708,0.09632499,0.15348063,-0.08854082,0.06725809,-0.14089362,0.17151335,-0.089854956,-0.048260026,-0.026036812,-0.27978987,0.07973442,-0.13453631,-0.33035234,0.135559,0.79474324,-0.12682503,0.019309772,0.07362436,-0.008125943,0.12509416},{-0.09594916,0.3522747,-0.046044458,0.057038937,0.4623357,0.043778826,0.081158556,-0.09691799,-0.15390673,0.09580985,-0.10492968,0.075756736,-0.027258392,0.40703115,-0.20278463,0.26954025,-0.4343858,0.1573325,0.28841764,-0.01197052,-0.3133531,0.08984556,0.0025291028,-0.15711369,0.08608994,0.29619116,0.041135825,0.2724411,-0.23967317,-0.061832022,-0.096896,0.112141944,0.4607276,0.12347862,-0.10170998,-0.29691556,0.25765294,0.34462705,-0.31958795,0.61186403,0.38621327,0.28186166,-0.32431972,-0.40466765,-0.032043375,-0.26790634,0.14316906,-0.12571573,-0.2129152,0.012032466,-0.30484742,0.12193679,-0.00038278307,-0.084171355,0.39755458,0.14960784,-0.03915874,0.04395063,0.1357326,-0.4233019,-0.20264316,0.1136261,-0.24433944,0.039045103},{0.44465432,-0.11568497,-0.20961124,-0.27633974,0.124697,-0.41469634,0.2569896,-0.10201201,-0.31815615,0.09561356,-0.12498568,0.022515606,-0.21174407,-0.19802174,0.19061096,0.26863155,0.14465283,-0.3685951,-0.426977,0.042614356,-0.10002493,-0.042999905,-0.34889838,-0.22711992,0.15605837,-0.106218986,0.19180426,0.24545908,0.15427753,0.0503585,0.008643149,-0.022031987,0.08678662,-0.06969151,0.10254279,-0.18015851,-0.072914965,0.14584778,-0.048805945,0.21077457,0.23050879,0.35840917,0.034285005,-0.4383678,0.30772,-0.071559034,0.12715335,-0.03407086,0.14809008,0.17835204,0.04223882,-0.15295829,0.030420583,-0.029653689,0.22669265,0.2538993,0.0050059366,0.31511924,0.25102445,0.036960457,0.40360832,0.1008507,0.28050646,0.09408624},{0.16120243,0.07827813,0.09939507,0.023430588,0.030781379,-0.39566496,-0.06532056,-0.18702397,0.317589,-0.36518848,0.17124009,0.2876387,-0.3180862,-0.265097,0.040825464,-0.31030467,0.09063894,-0.52205414,0.2956904,-0.3164709,0.3490611,0.5370533,0.33577248,-0.1270952,-0.24236502,0.53725827,0.06917748,0.15202047,0.60642636,-0.33828634,-0.2601657,0.06939465,-0.049984243,0.06919095,0.48511174,0.02343853,0.20800829,0.15748551,0.01289405,0.098194,-0.22647437,-0.3739084,0.00781462,-0.3444146,0.045253552,-0.13118596,0.01193897,-0.13658915,0.33720794,0.24586226,0.08293989,-0.330577,-0.56586665,0.34439412,0.7573013,0.46833268,-0.17333186,-0.21985807,-0.013737296,-0.33166507,-0.063408874,0.34151578,0.12769705,-0.23653696},{0.533167,-0.17295378,-0.26914856,0.19618735,-0.2853738,0.14113025,0.013824543,0.9350578,-0.17963067,-0.093871996,-0.1490923,0.07387961,-0.3365931,-0.70215267,0.28464893,-0.049984273,0.06580769,-0.07752444,-0.9847654,0.038192622,-0.070181996,-0.07686924,-0.58451265,0.102254346,0.84688157,0.030020487,-0.6669467,-0.013225664,0.22297676,-0.10985567,-0.16882426,-0.052765217,0.14504693,0.40625328,0.083991654,-0.19222863,0.12058205,-0.10035316,-0.17594595,-0.13973942,0.32849306,-0.32983458,0.567778,-0.12430895,0.6043803,0.18347435,0.048667096,-0.02314391,-0.2872975,-0.17768885,-0.34213233,0.27660167,0.21334761,-0.08247864,-0.14552799,-0.065112345,0.28614333,0.368588,-0.563605,-0.116428025,0.2954556,-0.3951176,-0.018617883,-0.13046607},{-0.08550349,-0.21665354,-0.22859183,0.34243813,-0.21762848,-0.1867873,-0.38241482,0.22799599,-0.020249791,-0.11836875,-0.4253991,-0.33734587,0.20227076,-0.2225528,0.48723575,0.034190632,-0.11881159,0.38808563,-0.02182924,-0.14863048,-0.3835573,-0.23650481,-0.07132994,-0.05821344,-0.1191258,0.05050237,-0.13432585,-0.06333003,0.24553618,0.06904597,0.14529552,0.045031987,-0.27485567,0.02398462,0.36042327,-0.19282319,-0.29943198,-0.047901914,-0.020430079,0.43438768,0.20215568,-0.27473888,-0.014861263,0.28550902,0.26497948,-0.14851867,-0.4758848,-0.7088601,0.04757224,-0.13980822,0.33455274,-0.08909309,0.036325507,-0.08081825,0.26419076,0.15854816,-0.24111202,0.43237808,0.60850006,0.09796575,-0.06436105,-0.16202314,0.16085918,-0.24017802},{0.051245857,0.08461763,-0.34178016,-0.16395986,0.47776562,-0.24880725,-0.08508419,-0.2752216,0.10610569,-0.050186664,0.14080426,-0.23529617,0.24797414,0.36316735,0.21787469,-0.37903425,0.1910519,0.55572784,0.12308689,-0.41536057,-0.6188212,-0.08656946,0.08279423,0.15664557,0.06804279,-0.044525225,0.17648254,-0.029771287,-0.17947477,0.04316208,0.281101,-0.22031409,-0.03169276,-0.08552274,-0.65652996,0.037196893,0.099303916,-0.27076235,-0.08618405,0.105815,0.08902655,-0.08821204,-0.5689242,0.040665995,0.057745386,0.08601185,0.03015972,-0.38120356,0.039524868,-0.12053757,0.23657775,-0.021181008,0.069678985,0.075169876,0.091988325,-0.14354822,-0.28966925,0.54960936,-0.037570447,0.23260441,0.17330573,0.09495291,0.20566957,-0.011588514},{-0.43789202,-0.52985835,0.030797075,-0.5331604,0.013970043,-0.32529855,0.38759202,0.009772666,0.38995904,0.25154567,0.28401333,-0.5740444,-0.22834757,0.12914734,-0.10061273,-0.5740394,0.08670196,0.020616101,0.10332568,-0.1530888,-0.30602142,0.03333263,0.054206986,0.11838788,-0.106201306,-0.010712994,-0.055071734,-0.0019305577,0.28991362,0.19076069,0.26583362,-0.4520272,0.053319823,0.5865012,0.0883954,0.4204374,-0.48383236,-0.62538475,0.14225893,-0.18472525,-0.41356283,-0.31881917,0.10651812,-0.30272514,-0.079749264,-0.24690603,0.20189585,0.3950536,0.00982887,0.123075865,0.23788384,0.3081916,-0.21076976,0.024362035,-0.44606572,0.21644536,0.09598803,0.7565145,0.15410261,0.03682304,0.19834928,0.12334276,0.3897331,0.16085623},{-0.07167734,0.25697833,-0.26050803,0.023782397,0.6881312,-0.20718482,0.3773187,0.07301894,-0.35043022,-0.22398463,-0.15136944,0.66438884,0.046192065,0.48718828,-0.17023832,-0.14652139,0.61673194,-0.37835073,-0.006060579,0.06861361,0.14685401,-0.29851976,0.17000045,0.17771761,0.103632994,-0.09015619,-0.004090191,-0.43676135,-0.07868599,0.10495224,0.15042944,-0.25584114,-0.0723749,0.112250686,-0.4015327,0.017756606,0.17117551,0.2844312,-0.00639652,-0.70410395,0.18010865,-0.12256098,-0.06125583,-0.05536993,0.25382736,-0.04235378,0.08740912,0.16408592,0.06795659,-0.081293955,0.056384597,-0.23619194,0.048274945,0.33024162,-0.1957587,-0.0057772314,-0.49785143,-0.96597123,-0.050441857,0.4720324,0.14351287,-0.4463223,-0.06199164,0.00050323096},{-0.24713564,0.12893227,0.20238304,-0.6267211,-0.19569647,0.07237342,0.2136094,-0.102848575,-0.11402944,-0.42502522,0.0625744,-0.18596321,-0.43379384,-0.13729408,0.30608097,0.07091111,-0.037710045,0.4337529,-0.20302008,0.37820292,0.35400245,-0.116622105,-0.67537045,0.11121524,-0.26255152,-0.038473483,0.14315659,0.17963697,0.53879094,0.31955045,0.22774394,-0.3958844,0.2274225,-0.53009254,0.26546592,0.10037928,-0.04497566,-0.26418126,-0.26646835,-0.24000147,0.00056624744,0.076477714,-0.18870865,0.30917215,0.029174866,0.029192256,-0.2938188,-0.36889887,0.46672013,-0.4305615,0.51152587,-0.14242816,0.34384444,0.2128736,-0.25058207,0.16965461,0.2471436,-0.39513576,0.072754525,-0.19264086,0.21227196,0.17223518,0.114154406,-0.15391941},{0.28969595,-0.032339226,-0.08703845,-0.12969479,0.25602856,1.0323352,0.39610034,0.48202682,-0.33763057,-0.49998406,0.11350897,0.57889456,-0.5580297,0.19139889,0.15457381,0.027335687,0.07127472,0.16782027,0.022318453,0.47964478,0.08665685,0.20189433,-0.36706835,0.31309408,0.72332484,-0.3091502,-0.5512629,0.060476348,-0.24328917,-1.0551023,0.5783068,0.46443126,0.31349224,0.3196429,0.05661753,0.072274745,-0.47338918,-0.527184,0.02693152,0.0068591326,0.42711753,-0.3359919,0.38840067,0.10066648,0.53820246,-0.37070394,0.48058572,-0.004610618,-0.09835579,0.593173,-0.28772044,-0.06642521,-0.7183639,-0.3003457,-1.1044681,0.9488809,-0.16970399,0.647035,0.0063878894,-0.11794511,0.5181713,1.4061396,0.09505983,0.11341326},{-0.08182409,0.1612051,0.002365401,-0.13251033,-0.5084709,0.4804343,-0.121952385,-0.31597605,-0.37095678,-0.06497735,0.14199838,-0.24833803,0.25459248,-0.32012722,-0.41408017,0.16136724,-0.24202345,-0.1097581,0.28730226,0.1519485,0.078708135,0.0073984694,-0.26274282,-0.16363679,-0.27546456,0.14242098,0.117593296,0.019139191,-0.064725526,0.57247555,0.34780538,0.16236195,-0.03596401,-0.15097485,-0.17188713,-0.13179103,-0.19565786,-0.07636446,0.16641417,0.40867406,0.07451964,0.15063564,-0.5294857,0.40565526,-0.26226097,0.3626112,0.6661375,0.12905349,-0.10104988,-0.22678493,0.28422487,-0.17684188,0.74249446,0.35209447,0.8095701,-0.5095687,0.3669038,-0.213251,0.1742809,-0.08160057,-0.34133798,0.2143196,-0.11886319,0.07172995},{-0.1529629,0.33648172,0.31444028,-0.60011566,-0.0991227,0.7788637,-0.6412359,0.51024145,-0.27960926,-0.20757571,0.14535947,0.42863742,0.35874063,-0.011322506,0.07833315,-0.13624412,0.85435635,0.04073081,0.28673267,0.24498029,0.18389587,0.073426545,-0.29262063,0.33700493,0.40359566,-0.06999031,-0.24224901,0.04436191,0.2453165,-0.0062909545,0.09890296,-0.16045572,-0.08342225,-0.13800743,-0.53004014,-0.32328302,-0.26863983,-0.27460906,0.41590378,-0.6568152,-0.41010237,-0.3703035,0.17371902,0.60447717,0.048777156,0.17410254,-0.36276534,0.68387145,0.48240817,0.07509076,-0.4664134,-0.04847736,-0.50414395,-0.5693582,-0.7172194,0.41535643,-0.4345095,-0.09164399,-0.14287487,-0.05169761,0.14532332,-0.68947524,-0.42428067,-0.15613945},{-0.29753855,0.28260702,0.13194938,-0.6313466,-0.48052534,0.1301996,0.37835702,-0.047066122,-0.2731867,-0.1611563,-0.06194928,0.17622787,-0.009409615,-0.2364356,0.07100189,-0.12344314,0.078117944,-0.13704006,-0.25576767,0.051382013,0.50633943,-0.030592121,-0.05332627,0.08852228,-0.36740687,0.3019332,0.15815848,-0.23177306,-0.1925854,0.023637453,-0.32499608,0.19850704,0.14087774,-0.29570404,0.42951307,0.090158895,0.3928094,-0.06887767,-0.12995827,0.23363975,0.26774845,-0.003098119,-0.55198747,-0.0590625,0.118842736,-0.08553186,0.29227045,-0.013664008,-0.053436175,0.27765617,0.08128254,-0.08750388,0.3225351,0.529129,-0.07321644,0.014341635,-0.15218021,-0.53769857,-0.5149478,-0.18639228,0.101333626,-0.20303237,0.48026758,-0.0883691},{-0.19816564,0.14793618,0.14918329,-0.03568634,0.085887276,-0.27038172,0.42574075,-0.0380777,0.07109736,-0.34939414,-0.26056635,-0.052404284,0.25697812,-0.13741685,-0.4164826,-0.11813905,0.38029212,-0.34062567,-0.13527945,-0.11383806,0.79669446,-0.026802706,0.097206004,-0.21159567,0.18522573,0.025136227,0.12343492,-0.21590206,0.2646191,0.31609038,0.074632466,-0.14044859,-0.3145438,-0.00029195027,-0.3474622,0.10603657,0.13476731,-0.01694049,0.3289109,-0.34462398,-0.28134617,-0.26955476,-0.08335704,-0.098039895,0.1166391,-0.14738518,0.19817644,-0.13297628,-0.013784526,-0.024838923,0.33110023,0.120053515,0.4044754,-0.04756551,0.059670508,-0.32124066,0.23636205,-0.41372636,-0.11012141,0.16652957,0.33516392,-0.342426,-0.06873524,0.08142461},{0.0467441,-0.047068205,-0.28178746,0.15246502,0.2648595,0.13454825,-0.18702395,-0.19348945,-0.058569252,0.05114319,0.3371245,0.13665546,0.37097603,-0.15365013,-0.4341279,0.1361498,-0.5506799,-0.44167075,-0.12866142,0.25184834,-0.18183276,-0.4070784,0.019503437,-0.26395833,0.27714825,-0.35329115,-0.09604663,0.22689782,-0.33766657,0.46947923,-0.25864077,-0.29296553,0.5556803,-0.6301849,-0.3051388,0.60780007,-0.038423624,-0.05276626,-0.13438392,0.30906814,-0.08346295,0.027957931,1.0594943,0.022150055,0.0017007288,-0.2980716,0.043977622,0.46834013,-0.11356401,0.14521192,0.38815582,0.17099035,0.67365414,0.13240077,0.3220674,-0.5722899,-0.031096546,0.75235355,-0.07087005,-0.38107386,-0.096042566,0.36005136,0.16166058,0.23126991},{0.015364249,0.18802127,-0.073545,0.0030008662,0.499791,-0.30952367,-0.20717819,-0.06591836,0.14966932,-0.019062726,0.103345655,0.19886284,0.13851951,0.09044318,0.057583,0.28955805,0.32391793,-0.51028806,0.063263744,0.107941665,0.17077115,-0.016631009,-0.26187867,0.0091810385,-0.047823597,-0.27810803,-0.04530702,-0.17940308,-0.21425919,0.11239535,-0.024905114,0.28611612,0.7429998,-0.23925237,-0.22531751,0.16929226,-0.3035624,0.05135596,0.14600803,-0.16618325,-0.21360362,0.059718233,-0.38860357,0.074167036,0.017221713,0.0073858285,-0.2777347,-0.19460498,0.24743758,-0.17459686,-0.08189695,-0.0019998013,0.031719334,-0.35904157,0.018209502,-0.19137596,0.1266614,0.2206991,0.18375078,0.07312168,-0.3330899,0.36114195,-0.3171983,-0.3498824}};
static const float layer_2_weight[64][4] = {{-0.15446179,-0.18254611,0.17615467,-0.15929034},{-0.16711234,-0.36490902,0.19529374,0.12290781},{-0.11132487,0.040322993,0.047956098,0.02167169},{-0.06973933,-0.034979984,-0.17600016,0.24427195},{-0.30596632,-0.3041247,0.24157567,-0.09210066},{0.09744796,0.09978865,0.3286435,0.1867145},{-0.15213786,-0.19665721,-0.033504773,-0.41525784},{-0.20708486,-0.36988524,-0.33575147,-0.029797306},{-0.15520516,0.19949879,0.05088094,0.19550909},{0.009908338,0.12564805,0.14645311,-0.24114358},{0.21234846,0.19736962,0.0819232,0.17245479},{0.08426708,-0.1569136,0.11487112,0.3347602},{-0.15318553,0.048099946,-0.044344682,0.06900075},{0.2593869,-0.21278334,0.1555497,-0.18456024},{0.22268555,0.13741472,-0.2988483,-0.16042927},{-0.12951516,-0.2602967,0.21775621,0.27771577},{0.15739998,-0.40927842,-0.1371492,0.13618113},{-0.33187932,0.3137093,-0.15257287,-0.30380177},{0.22903986,0.22814655,0.3818547,0.36947054},{0.02371981,0.10203808,0.001638725,-0.16553232},{-0.22639108,-0.33446264,0.14285395,0.27247414},{-0.079727426,0.20882928,-0.03645782,-0.0743526},{0.097445704,0.09520517,0.42182636,-0.15736519},{0.47718865,0.075359255,-0.20535807,-0.12572223},{-0.27855676,-0.28139567,0.097914435,-0.12174848},{-0.19974482,0.012851276,-0.16658215,-0.23662119},{-0.029476989,-0.20175412,0.20079331,0.40421468},{-0.2660717,0.39326137,0.1252463,-0.05152959},{0.1577737,0.025677146,-0.38819772,0.079559244},{-0.23715046,-0.012219545,-0.14835443,-0.048776526},{0.3443682,-0.35308442,-0.24838793,-0.19643302},{0.18352535,-0.07570614,0.4124324,0.049220085},{-0.2149847,-0.18856548,-0.1191086,0.36093992},{0.21979043,-0.11490145,0.07312173,-0.17890455},{0.07065094,0.29769003,0.047585532,-0.33014518},{0.14919314,0.15313649,0.23715922,0.0779491},{-0.45346627,0.030329285,0.1272774,-0.07740407},{-0.27907687,-0.42732382,0.3919347,0.19035456},{0.3444688,-0.23157716,-0.07834941,0.38049576},{-0.3129331,0.42003712,0.2563633,-0.071909994},{-0.14293176,-0.14786594,0.4984178,-0.42904803},{0.08685088,0.043448437,0.37359247,0.23248224},{0.26772156,0.27950004,0.16133173,0.07937394},{0.120220356,0.07025228,-0.15625043,0.2880948},{-0.1588033,-0.26972893,-0.23450893,-0.34838346},{0.13466679,-0.029277625,-0.028149286,-0.005397775},{-0.31093416,0.12884931,0.015650855,-0.18945032},{0.29079616,0.1715853,0.33543256,-0.2221827},{0.13583133,-0.1373334,-0.033790596,-0.061613295},{0.1447894,0.14033729,0.045403734,-0.055184606},{0.14198688,-0.3704013,-0.17023261,-0.1465469},{-0.11792104,0.112159334,0.054038312,-0.28082114},{-0.27621594,0.09475426,-0.14289226,0.15065683},{-0.26754868,0.018963689,0.006063396,-0.32439163},{-0.15332556,-0.018136952,-0.08064231,0.10050683},{0.271024,-0.044731613,0.094804235,-0.15860921},{-0.42675954,0.18550691,0.25758326,0.08635333},{0.48504612,0.2752215,0.14834683,-0.044196084},{0.13569456,-0.009523697,-0.09010437,-0.1111138},{-0.14891104,-0.30056077,-0.115120664,0.16395581},{-0.033889953,0.060669772,-0.06979703,-0.20743315},{0.15542248,0.15640429,0.10670584,0.24187912},{-0.03153047,0.21791421,-0.22412612,-0.15454425},{0.011259177,0.26657704,0.08671147,-0.29247683}};
static const float layer_0_bias[64] = {0.5885322,-0.28463984,0.16647337,-0.098371975,0.12711015,-0.08105428,0.339856,-0.63402563,0.18085426,0.11263211,-0.052385077,0.021855142,0.06866261,0.17569757,-0.021022145,-0.04560442,-0.4011642,0.13101228,0.11704935,-0.063217126,0.20741051,-0.32079107,-0.09906853,-0.056710206,-0.060104936,-0.23035817,0.049370594,0.060850944,-0.15065731,0.20700744,-0.2132865,0.32287732,0.22356425,-0.14475445,0.3861398,-0.11563524,0.24518164,-0.22425184,0.047475807,0.0042644897,0.23462287,0.4350055,0.48343337,0.18431999,0.122450404,-0.35728952,-0.05943942,0.4874139,-0.05748337,0.029296478,0.0016151154,-0.13752648,0.5070982,1.0724187,-0.09409826,0.07699579,0.09772538,-0.15775257,0.04503233,-0.032646332,0.58777666,-0.5947047,0.0808678,0.5989669};
static const float layer_1_bias[64] = {-0.06077086,0.04636234,-0.038017605,-0.058531385,0.33030888,0.011796725,-0.1271225,0.00619491,-0.026661107,0.05033683,-0.00788778,0.18059166,0.35700166,-0.0076723765,0.10812292,-0.15730041,0.042124193,0.41540185,-0.043451913,-0.27920845,-0.64887905,-0.044220805,0.0538741,-0.04003175,0.018993678,0.038470566,0.15036759,-0.15360482,-0.020825949,-0.182696,0.14424302,-0.1019691,0.36625355,0.003319553,-0.59339345,-0.03304711,0.06489457,-0.014558081,0.06262102,-0.104766525,-0.026986418,-0.089653075,-0.40774938,0.18600892,0.09880162,-0.02158902,0.025995722,-0.34473774,-0.0017780219,0.028236944,0.14428474,0.07159654,0.11811546,0.13774471,0.12380401,-0.15602827,-0.23184718,0.102489576,-0.17153345,0.23525733,0.09847211,0.00413648,-0.014184715,-0.04491281};
static const float layer_2_bias[4] = {-0.048559893,-0.03574503,-0.08029863,0.048751153};

	void networkEvaluate(struct control_t_n *control_n, float *state_array) {
	
		for (int i = 0; i < structure[0][1]; i++) {
			output_0[i] = 0;
			for (int j = 0; j < structure[0][0]; j++) {
				output_0[i] += state_array[j] * layer_0_weight[j][i];
			}
			output_0[i] += layer_0_bias[i];
			output_0[i] = tanhf(output_0[i]);
		}
	
		for (int i = 0; i < structure[1][1]; i++) {
			output_1[i] = 0;
			for (int j = 0; j < structure[1][0]; j++) {
				output_1[i] += output_0[j] * layer_1_weight[j][i];
			}
			output_1[i] += layer_1_bias[i];
			output_1[i] = tanhf(output_1[i]);
		}
		
		for (int i = 0; i < structure[2][1]; i++) {
			output_2[i] = 0;
			for (int j = 0; j < structure[2][0]; j++) {
				output_2[i] += output_1[j] * layer_2_weight[j][i];
			}
			output_2[i] += layer_2_bias[i];
		}
		
		control_n->thrust_0 = output_2[0];
		control_n->thrust_1 = output_2[1];
		control_n->thrust_2 = output_2[2];
		control_n->thrust_3 = output_2[3];	
	
	}
	