//#include "network_evaluate.h"
//#include "debug.h"

#include <math.h>
#include <random>
#include <vector>
#include <iostream>
#include <algorithm>
#include <string.h>

#define NEIGHBORS 1
#define NUM_OBS 6

/*
 * since the network outputs thrust on each motor,
 * we need to define a struct which stores the values
*/
typedef struct control_t_n {
    float thrust_0;
    float thrust_1;
    float thrust_2;
    float thrust_3;
} control_t_n;

void networkEvaluate(control_t_n *control_n, const float *state_array);
void neighborEmbeddings(const float neighbor_array[NEIGHBORS][NUM_OBS]);

float linear(float num) {
  return num;
}



float sigmoid(float num) {
  return 1 / (1 + exp(-num));
}



float relu(float num) {
  if (num > 0) {
    return num;
  } else {
    return 0;
  }
}

//static const int structure [6][2] = {{6, 16},{16, 16},{18, 32},{32, 32},{48, 64},{64, 4}};
static const int structure [6][2] = {{18, 32},{32, 32},{6, 16},{16, 16},{48, 64},{64,4}};
static float output_0[32];
//static float output_1[16];
static float output_2[16];
static float output_3[16];
static float output_4[64];
static float output_5[4];
static float neighbor_embeds[16];
static float embedding_array[48] = {0};
static const float actor_encoder_neighbor_encoder_embedding_mlp_0_weight[6][16] = {{0.08927992731332779,0.043199572712183,0.9255574345588684,-0.5689399242401123,-0.23206453025341034,-0.722912073135376,0.006061458960175514,0.6659789085388184,0.7534545063972473,0.8422378301620483,-0.6472642421722412,0.4577277600765228,0.36040735244750977,-0.1475328654050827,-0.9667116403579712,-0.44840407371520996},{-0.6342780590057373,-0.6190709471702576,0.49896931648254395,-0.051259737461805344,-0.15596655011177063,0.23642054200172424,0.25597938895225525,-0.1731431633234024,-0.9539972543716431,-0.7964287996292114,0.9128268361091614,1.2021875381469727,-0.9550765752792358,-0.47191089391708374,-0.9802669882774353,0.22132636606693268},{0.1658061146736145,0.37948593497276306,-0.670770525932312,0.533613920211792,0.20707345008850098,0.7520405054092407,-0.16720432043075562,-0.7790956497192383,0.5217360854148865,0.5408565998077393,-0.01375310868024826,-0.5889840126037598,0.46193039417266846,0.45234814286231995,0.6422111988067627,-0.08846758306026459},{0.6398890614509583,0.4419995844364166,0.5920529961585999,-0.007625336293131113,-0.20203599333763123,0.24176886677742004,-0.360094279050827,0.1066538542509079,0.29381707310676575,-0.3150017261505127,0.45475339889526367,-0.11060788482427597,0.07585428655147552,-0.46750104427337646,-0.33050230145454407,0.08230223506689072},{-0.4046483039855957,0.11533473432064056,0.06403812766075134,0.056771501898765564,0.3144894540309906,0.15002305805683136,-0.012782294303178787,0.36774152517318726,-0.027629565447568893,0.3292158246040344,0.6607769131660461,-0.09743853658437729,-0.2992854714393616,-0.517619788646698,-0.2828478217124939,-0.3148578703403473},{0.4386456310749054,0.004791755694895983,-0.4203214645385742,0.31588149070739746,0.41141611337661743,0.46374523639678955,-0.016765713691711426,-0.2534210681915283,0.5100287199020386,-0.3630034029483795,0.30095863342285156,-0.057520732283592224,-0.056892216205596924,-0.16171474754810333,-0.4444982707500458,0.12126301974058151}};
static const float actor_encoder_neighbor_encoder_embedding_mlp_2_weight[16][16] = {{-0.08203419297933578,-0.29718270897865295,-0.009426463395357132,0.06722934544086456,0.16456782817840576,-0.08155912160873413,-0.3918866217136383,-0.33317330479621887,0.05601566657423973,0.3287825584411621,0.16555126011371613,0.07810027152299881,0.4461340010166168,0.6931802034378052,-0.2491137683391571,0.08389642089605331},{0.28476962447166443,0.05920950323343277,0.207521453499794,-0.27413278818130493,0.05938348174095154,-0.08734665811061859,-0.11138349026441574,0.3574085831642151,-0.2870555818080902,0.11271104961633682,0.2735232710838318,0.04444921016693115,0.0032716102432459593,0.325578510761261,0.35794490575790405,0.02689244970679283},{-0.06965918093919754,0.30780506134033203,-0.08164418488740921,0.19462473690509796,-0.4700913429260254,0.2525385022163391,-0.5144386291503906,-0.09171858429908752,-0.19193267822265625,0.31219610571861267,-0.0334627665579319,-0.3847896158695221,-0.9266509413719177,-0.2714720368385315,-0.3534470200538635,-0.9778677225112915},{0.017489349469542503,-0.3791393041610718,-0.42294663190841675,0.1481868177652359,-0.36918532848358154,0.23842284083366394,0.4535084664821625,-0.4244396388530731,-0.06360497325658798,-0.14046527445316315,-0.09312207251787186,-0.35260453820228577,0.6818149089813232,-0.44993340969085693,-0.3035639524459839,0.8117470145225525},{0.1471862941980362,-0.2740508019924164,-0.33027610182762146,-0.01964476704597473,0.35365426540374756,0.48024672269821167,0.05087905004620552,-0.17826052010059357,-0.05801433324813843,0.2742028832435608,-0.08722654730081558,-0.40770649909973145,0.04439307376742363,-0.24842345714569092,-0.25607022643089294,0.398977130651474},{0.1197332888841629,0.11148188263177872,-0.07233279943466187,-0.30676037073135376,-0.08239714056253433,0.19264215230941772,-0.31338417530059814,-0.4962151348590851,-0.11898425966501236,0.1767338216304779,0.12996706366539001,-0.11294730007648468,0.5945565104484558,-0.6271321177482605,-0.13196560740470886,0.5212327241897583},{-0.09260435402393341,0.5015416145324707,0.2393520474433899,-0.3508036136627197,-0.3546752333641052,0.17442063987255096,0.34238895773887634,0.266849547624588,-0.1133054718375206,-0.03624742850661278,0.022401608526706696,-0.16611997783184052,-0.050009921193122864,-0.007628461811691523,-0.055873602628707886,-0.280993789434433},{0.13582298159599304,0.26310598850250244,0.10737013071775436,-0.45815977454185486,-0.21332253515720367,-0.4478331506252289,-0.10409703850746155,-0.21608108282089233,0.1317669302225113,0.2019060254096985,0.10121452808380127,-0.2468094378709793,-0.40698185563087463,0.006561520043760538,-0.3250725567340851,-0.5686457753181458},{0.09555287659168243,0.004621220286935568,0.16810208559036255,-0.3530203700065613,0.019164666533470154,0.39685168862342834,-0.018380997702479362,0.1492072194814682,-0.09928316622972488,0.09120120853185654,-0.05910453200340271,-0.24765339493751526,0.4066852927207947,0.9374200105667114,0.0736880823969841,-0.3824688792228699},{-0.3066970705986023,0.20904237031936646,-0.15644387900829315,0.18149544298648834,-0.2782100439071655,0.1705172061920166,0.2516646385192871,-0.08494777232408524,-0.1889670044183731,-0.2542899549007416,-0.24264542758464813,0.16106858849525452,0.5432582497596741,0.5720141530036926,-0.17626699805259705,-0.42813271284103394},{0.3419114351272583,-0.015575826168060303,-0.09397978335618973,0.16248109936714172,-0.24375459551811218,-0.26991382241249084,-0.20059698820114136,0.24922220408916473,-0.08052781969308853,-0.32934731245040894,-0.09147003293037415,-0.06438866257667542,-0.14729714393615723,-0.932531476020813,-0.1854356974363327,0.4898393154144287},{0.08404258638620377,0.2825874090194702,0.10645171999931335,-0.00842171348631382,-0.42513954639434814,0.04955260083079338,0.0205671526491642,-0.007244466803967953,-0.140904501080513,-0.01240787748247385,0.3012944161891937,0.08215174078941345,-0.6088646054267883,-0.6591882705688477,0.002228885656222701,-0.5824942588806152},{-0.34099796414375305,0.13045959174633026,-0.6202048659324646,-0.12456254661083221,0.3944324254989624,0.09514304995536804,-0.39939820766448975,-0.19495275616645813,0.01583925075829029,0.1342422068119049,-0.04779839143157005,-0.13682010769844055,0.7255235314369202,1.1641818284988403,0.3501082956790924,-0.20556695759296417},{0.03730166703462601,-0.4356130361557007,-0.5188358426094055,-0.3638145625591278,-0.0884900912642479,-0.004737635143101215,0.16363243758678436,0.2637222111225128,-0.4468170404434204,0.06525278836488724,0.144991934299469,0.17867758870124817,0.6503375172615051,0.41949379444122314,-0.3046901822090149,0.49885767698287964},{0.20867176353931427,0.029609525576233864,-0.018160445615649223,0.03641132265329361,-0.36484894156455994,0.016255266964435577,0.22624801099300385,-0.34547388553619385,0.22395950555801392,0.2927597165107727,0.22568468749523163,0.16383115947246552,0.7751288414001465,0.16490764915943146,0.16063439846038818,0.828056812286377},{-0.3249931335449219,0.22067546844482422,0.15347640216350555,-0.09190496802330017,0.12955516576766968,-0.02988094836473465,0.442501425743103,-0.2582327723503113,-0.22549918293952942,-0.15801319479942322,-0.1856040358543396,-0.1257571578025818,0.1462186872959137,-0.21122314035892487,-0.2652570903301239,0.11044155061244965}};
static const float actor_encoder_self_encoder_0_weight[18][32] = {{0.23029610514640808,-0.11588405072689056,-0.24343684315681458,-0.22603042423725128,0.21415604650974274,-0.19300512969493866,-0.1182018369436264,0.22269093990325928,0.36389508843421936,-0.015465532429516315,0.06924700736999512,-0.12765172123908997,-0.016053710132837296,-0.3806411921977997,-0.018537607043981552,-0.19819609820842743,-0.3522939383983612,-0.06653301417827606,-0.24949687719345093,-0.009385780431330204,-0.0012461511651054025,-0.23762519657611847,0.02726775035262108,0.003438870422542095,0.15578150749206543,0.06803693622350693,-0.42597901821136475,-0.07872702181339264,-0.31011128425598145,-0.1647161990404129,-0.04113670811057091,-0.1908561736345291},{-0.16405531764030457,0.14299321174621582,0.03133176267147064,-0.040084075182676315,0.14677350223064423,0.2061900794506073,0.0818546786904335,-0.10818328708410263,0.11889899522066116,0.10199763625860214,0.10752928256988525,0.008102383464574814,0.31193798780441284,-0.19409345090389252,-0.3025694191455841,-0.37094900012016296,-0.051415182650089264,0.0338553860783577,0.02577069215476513,0.066175177693367,0.2097562700510025,-0.41418227553367615,-0.4258250892162323,0.13951840996742249,0.11271451413631439,-0.5419962406158447,0.1126505583524704,-0.31367623805999756,-0.13536392152309418,0.2756359577178955,0.017598988488316536,0.05803832784295082},{-0.4020485281944275,0.08437415957450867,-0.014631950296461582,0.5509451627731323,0.13951276242733002,-0.3726695477962494,-0.010736409574747086,-0.3681604266166687,-0.24660411477088928,-0.0850415751338005,-0.020606108009815216,0.15476375818252563,0.03863399475812912,-0.0047892015427351,0.31989577412605286,-0.20959825813770294,-0.2466576099395752,-0.5787926912307739,0.48006269335746765,0.16772717237472534,-0.5548445582389832,0.22979171574115753,0.3554735481739044,0.36986276507377625,-0.03258613124489784,-0.2867770791053772,-0.2386268973350525,0.3522154986858368,-0.4717642366886139,-0.2594373822212219,-0.12404761463403702,0.1886407434940338},{0.2516947388648987,0.019812943413853645,-0.13555333018302917,0.04704912379384041,0.2601015269756317,-0.03590134158730507,-0.1800248622894287,0.1438218653202057,0.22793181240558624,0.029981615021824837,-0.23258955776691437,-0.058766841888427734,0.014533950947225094,-0.21033546328544617,0.21096622943878174,-0.18914943933486938,-0.3131117522716522,-0.06719651073217392,-0.29757440090179443,0.025328809395432472,-0.1851918250322342,-0.22531862556934357,0.15278388559818268,0.15591537952423096,-0.14240233600139618,-0.03545138239860535,-0.055482037365436554,-0.0037412962410598993,0.056566283106803894,0.3264840245246887,0.0649247094988823,-0.15694013237953186},{0.04822026193141937,-0.1419997364282608,0.2963995039463043,0.34096741676330566,-0.10951323062181473,0.1428479254245758,0.06028509885072708,-0.12845803797245026,0.07705551385879517,0.030742449685931206,-0.013452415354549885,-0.1547570675611496,-0.0044232518412172794,0.030516240745782852,-0.07749919593334198,-0.315218448638916,0.06920448690652847,-0.0544174388051033,-0.14017947018146515,-0.1231708750128746,0.08418917655944824,0.09550710022449493,-0.3803936243057251,0.2240331768989563,-0.10394206643104553,-0.26795125007629395,-0.24757447838783264,-0.061173755675554276,-0.06391438841819763,0.040481891483068466,0.10659763216972351,-0.13894890248775482},{0.1918269842863083,0.05793975293636322,-0.20028181374073029,0.2664160430431366,-0.05238254368305206,-0.25862011313438416,0.09614000469446182,-0.11189685016870499,-0.018842604011297226,-0.020104896277189255,-0.009303880855441093,0.05266863852739334,0.08245585858821869,-0.16110292077064514,0.10425315797328949,0.1358819305896759,-0.008255671709775925,0.008914012461900711,0.2696627676486969,0.019523510709404945,-0.4703247845172882,0.3893698751926422,0.13796983659267426,0.20856869220733643,-0.09806792438030243,-0.27746474742889404,0.26665037870407104,0.33829158544540405,-0.2848728597164154,0.1302744299173355,0.01220318116247654,-0.031963594257831573},{0.1788088083267212,0.19914543628692627,-0.35687386989593506,0.18723894655704498,-0.28072622418403625,0.07263994961977005,0.22689585387706757,0.24061107635498047,-0.13971422612667084,-0.08639506250619888,-0.3020939528942108,-0.29057326912879944,-0.060669757425785065,0.32805776596069336,0.011841150932013988,0.28404155373573303,0.26016563177108765,-0.30238255858421326,-0.007517634425312281,0.043507520109415054,0.015517373569309711,-0.032216738909482956,0.198384627699852,-0.2716269791126251,0.003986477851867676,-0.1657957285642624,-0.30726292729377747,-0.26396074891090393,0.07679295539855957,-0.2887687385082245,-0.3624473214149475,0.1744249016046524},{0.03464731574058533,-0.4375642240047455,-0.11738146841526031,-0.0874057337641716,-0.24749618768692017,-0.2441321760416031,-0.17220552265644073,-0.24819862842559814,0.14630421996116638,0.1766878068447113,-0.1361791044473648,0.07866007089614868,-0.1154865026473999,-0.210204616189003,-0.28759801387786865,0.21008850634098053,-0.4983360469341278,-0.30146822333335876,0.3059278726577759,0.7428380846977234,0.16076865792274475,-0.2399987280368805,-0.16626764833927155,-0.2641286253929138,0.4630952775478363,0.2024066001176834,0.09309554845094681,0.03567315265536308,-0.0372372604906559,0.36635297536849976,-0.11619623005390167,0.23665852844715118},{-0.1853160858154297,-0.12020223587751389,-0.17287835478782654,0.34745922684669495,-0.23513485491275787,-0.3926387131214142,-0.18626663088798523,-0.21451440453529358,0.901106059551239,-0.6807919144630432,-0.43366384506225586,-0.15777495503425598,-0.009683232754468918,-0.034632131457328796,0.431901752948761,0.19206875562667847,0.10015828907489777,-0.028230465948581696,0.1666382998228073,-0.01405077800154686,0.1674635261297226,0.43839311599731445,-0.16797374188899994,0.1431501805782318,0.6135549545288086,0.08968573808670044,-0.3028874397277832,0.015410142950713634,0.041138261556625366,-0.32214775681495667,-0.22019173204898834,0.23343154788017273},{0.26720261573791504,0.3800038993358612,0.05767984315752983,-0.131459578871727,0.21581292152404785,0.266592800617218,0.2756298780441284,-0.06705991923809052,0.03734569251537323,-0.05851802974939346,0.0954342931509018,-0.2920747697353363,0.36991849541664124,-0.0013345854822546244,0.06693635880947113,0.07205906510353088,0.0758226066827774,-0.1132534071803093,-0.3526335060596466,-0.2038298100233078,-0.07121989876031876,0.024594571441411972,-0.15459439158439636,0.1718546450138092,0.04854406788945198,0.27654752135276794,-0.11548975855112076,-0.13637606799602509,-0.0924532413482666,-0.5007662773132324,0.23719428479671478,-0.07138216495513916},{-0.1653299480676651,-0.26944300532341003,-0.2056187093257904,-0.2352084219455719,-0.35568100214004517,0.12463293224573135,-0.2329268902540207,0.13820680975914001,-0.4167816638946533,-0.015534999780356884,0.06677569448947906,-0.10225684195756912,0.25402337312698364,-0.3596574366092682,-0.1159697026014328,0.26587167382240295,0.3767482340335846,-0.049878302961587906,-0.11439540237188339,0.2794451415538788,-0.07713799178600311,-0.2630067765712738,-0.284335196018219,-0.03463493287563324,-0.28387248516082764,0.2585504353046417,0.31748443841934204,-0.16046516597270966,0.025639891624450684,0.27532723546028137,-0.6426602602005005,-0.05515461042523384},{-0.4909183979034424,0.12226627767086029,0.7945154309272766,-0.1276555210351944,0.2272939682006836,-0.34762540459632874,0.45811378955841064,0.20159101486206055,0.19747503101825714,0.09492418169975281,0.3764733672142029,0.3204342722892761,-0.28312423825263977,-0.23119841516017914,0.12337937206029892,-0.5696796178817749,-0.26165875792503357,0.09756725281476974,-0.10907312482595444,-0.3468914031982422,-0.3673110604286194,0.214653879404068,-0.3644086718559265,0.5556196570396423,-0.11270409822463989,-0.12518449127674103,-0.4632740318775177,0.2869563400745392,-0.06689202785491943,0.5285755395889282,-0.9384353160858154,-0.7142653465270996},{-0.0100162448361516,0.11045356839895248,-0.01967393420636654,-0.3526610732078552,0.2369556725025177,0.07622625678777695,0.5416567325592041,-0.04147469997406006,-0.5667385458946228,0.7519075274467468,0.2937428653240204,-0.05041294917464256,-0.10482776165008545,0.01735350862145424,0.4822545051574707,0.416212797164917,0.004632730968296528,-0.7033565044403076,-0.1257423758506775,-0.22736026346683502,0.039673928171396255,-0.31293800473213196,0.23423722386360168,-0.45336949825286865,-0.5329689383506775,0.11889610439538956,0.5511135458946228,0.3734985589981079,-0.11713310331106186,0.15987084805965424,0.6723530888557434,0.15709243714809418},{0.16323092579841614,0.2644069790840149,-0.8144983053207397,-0.0824294239282608,0.048817556351423264,-0.11903270334005356,-0.6067106127738953,0.10054673999547958,-0.26658308506011963,-0.2804393172264099,-0.24990439414978027,-0.7667996883392334,0.12244883924722672,0.13534320890903473,0.1960851401090622,0.5701215267181396,-0.36559945344924927,0.4454428553581238,-0.2390967309474945,0.30692216753959656,-0.12176176905632019,-0.27388685941696167,-0.020901266485452652,0.0031522198114544153,0.2501292824745178,-0.05098557472229004,0.09951227158308029,-0.16927319765090942,-0.3779350817203522,-0.36886897683143616,0.828576385974884,0.34753212332725525},{0.35077354311943054,0.13193398714065552,0.06680306047201157,0.13600456714630127,0.3294720947742462,0.05830424278974533,-0.14502844214439392,-0.1931539624929428,0.20253516733646393,-0.08056486397981644,0.14565391838550568,-0.25712642073631287,-0.20703427493572235,-0.23161111772060394,0.2245877981185913,0.16267110407352448,-0.007311535067856312,0.32160815596580505,0.021219225600361824,-0.18681852519512177,-0.04588833451271057,0.3372438848018646,-0.1424645185470581,0.16689838469028473,-0.27225008606910706,-0.10433825105428696,-0.1611042320728302,0.21618610620498657,-0.16977819800376892,0.25206977128982544,-0.47077473998069763,0.20596449077129364},{0.060364797711372375,0.21326705813407898,-0.2404826581478119,-0.2883658707141876,-0.050244513899087906,-0.27118968963623047,-0.028307458385825157,-0.053214073181152344,-0.09740340709686279,-0.09297993779182434,0.06481529027223587,-0.16035722196102142,-0.29708561301231384,0.015330134890973568,-0.21238063275814056,-0.013433410786092281,-0.2686977684497833,-0.11502347141504288,-0.1504177749156952,0.00540364533662796,0.11359969526529312,0.03668467700481415,0.07216407358646393,-0.045239098370075226,-0.06594260036945343,0.09126392751932144,0.1227070540189743,0.007720301393419504,-0.11856256425380707,-0.08872497081756592,0.05106974393129349,0.22476080060005188},{-0.028540385887026787,-0.0751752257347107,-0.03216719999909401,0.041807014495134354,0.18079231679439545,-0.10257146507501602,-0.08598126471042633,0.04078406095504761,0.13260842859745026,-0.12308342009782791,-0.312328040599823,-0.08251083642244339,0.28848913311958313,-0.041993845254182816,-0.22966733574867249,-0.11044055223464966,0.15480351448059082,0.11727515608072281,-0.06924804300069809,0.13105210661888123,-0.20356662571430206,0.192304790019989,0.16745905578136444,0.19021330773830414,0.14960722625255585,0.28612813353538513,-0.22069035470485687,-0.1698130965232849,0.09434600919485092,0.07669905573129654,-0.014840129762887955,-0.1507912576198578},{0.19581352174282074,0.340555876493454,-0.0032923216931521893,0.0782303437590599,0.2890216112136841,-0.2469591349363327,0.1502484828233719,0.1802738904953003,-0.12288861721754074,-0.03114626370370388,-0.2259065955877304,-0.29465582966804504,-0.01841973513364792,-0.4480486810207367,0.3905266225337982,-0.2820139527320862,0.22107672691345215,-0.14034391939640045,-0.4266282916069031,-0.2545625567436218,-0.01764656789600849,0.03444042056798935,0.16939638555049896,0.09440688788890839,-0.1674450933933258,-0.14895254373550415,-0.13238124549388885,0.07695990800857544,0.32772597670555115,-0.2821347713470459,0.12287573516368866,-0.2579919993877411}};
static const float actor_encoder_self_encoder_2_weight[32][32] = {{-0.016823338344693184,-0.11666594445705414,-0.11087997257709503,-0.2774844765663147,-0.0965619906783104,-0.06703635305166245,0.03652222082018852,-0.13040216267108917,-0.24465686082839966,0.10427363961935043,0.23694059252738953,0.09687405824661255,0.2766939699649811,0.022792596369981766,-0.04008818790316582,0.211618110537529,-0.1713530421257019,-0.21301531791687012,0.046287041157484055,0.09182631969451904,-0.20328763127326965,0.23213538527488708,0.2436150461435318,-0.2169421911239624,-0.27684473991394043,0.27127766609191895,-0.28000184893608093,-0.06345465034246445,0.16532737016677856,0.05445954203605652,0.2340402454137802,0.011599520221352577},{0.08791553974151611,-0.04015409201383591,-0.08431660383939743,-0.22096864879131317,0.08237385749816895,-0.17619481682777405,0.18702559173107147,0.1917545199394226,-0.22326044738292694,0.08975918591022491,0.18922863900661469,0.14018939435482025,0.1671150177717209,0.2300500124692917,-0.207134410738945,-0.12520544230937958,-0.03598834201693535,0.21247205138206482,-0.0026085851714015007,0.11583635210990906,0.12732048332691193,-0.08017650991678238,-0.11113594472408295,0.1508985459804535,-0.2592715322971344,-0.2369510680437088,-0.0697905421257019,0.18877606093883514,-0.1220521479845047,-0.1226060763001442,-0.16904522478580475,0.18542538583278656},{-0.30911654233932495,-0.06740346550941467,-0.14330841600894928,0.223513662815094,-0.18299730122089386,-0.29469722509384155,0.11670633405447006,-0.08500123769044876,0.28334373235702515,-0.2172648012638092,0.13757213950157166,-0.04099158197641373,-0.12581339478492737,-0.2244560569524765,0.005322482902556658,0.08218791335821152,-0.03911802917718887,-0.14141243696212769,0.16038286685943604,-0.12511825561523438,0.08715077489614487,0.03258227929472923,-0.34776803851127625,0.12077828496694565,-0.18690824508666992,-0.06983952969312668,0.2056151181459427,0.194016695022583,0.099012590944767,-0.005137436557561159,-0.09315036237239838,-0.037684015929698944},{0.223152756690979,-0.16299189627170563,0.02367817983031273,0.14162677526474,-0.13097864389419556,0.1309296190738678,0.2705080807209015,-0.042974334210157394,-0.2048952728509903,0.005321642383933067,0.3825201094150543,0.2221476435661316,-0.356609582901001,0.1486361175775528,0.22061927616596222,-0.20565736293792725,0.01378970593214035,0.12569785118103027,-0.028302298858761787,0.2612193524837494,-0.0731523260474205,-0.20280830562114716,-0.30091148614883423,-0.03953850641846657,0.08626463264226913,0.07262786477804184,-0.16516871750354767,0.010333708487451077,-0.10810216516256332,0.009991880506277084,-0.3351200520992279,0.20704084634780884},{-0.07862512767314911,0.17317713797092438,0.0767241045832634,-0.2686777114868164,0.08172590285539627,-0.12956051528453827,0.03179823234677315,0.14364203810691833,-0.08037719130516052,-0.14281204342842102,0.1489052176475525,0.24910642206668854,-0.05156485363841057,-0.2684131860733032,-0.014032413251698017,0.16109612584114075,0.08478595316410065,0.06713344156742096,0.25542154908180237,-0.2443503737449646,-0.12000831216573715,0.2760440707206726,-0.12615995109081268,0.12635810673236847,0.055181749165058136,-0.04830659180879593,0.09814498573541641,0.03570247441530228,-0.29960694909095764,-0.09659171104431152,0.27040502429008484,-0.3144727051258087},{-0.08189161121845245,0.07590892165899277,0.19189617037773132,0.032604943960905075,0.19319890439510345,0.11491995304822922,-0.1547747254371643,-0.04326196759939194,-0.038924116641283035,-0.21443627774715424,0.009747144766151905,-0.1610700637102127,0.16933633387088776,-0.2578425407409668,-0.000201817907509394,-0.10734865814447403,-0.2813661992549896,-0.16249705851078033,-0.007580150384455919,-0.14758659899234772,0.4115186631679535,0.15753746032714844,0.12662002444267273,-0.09326927363872528,-0.07571858167648315,-0.17349562048912048,-0.2712809443473816,0.08273907005786896,-0.25583532452583313,-0.08873506635427475,0.21490609645843506,-0.34613072872161865},{-0.07209046185016632,-0.03676846623420715,-0.20163525640964508,0.14012028276920319,0.005393462721258402,0.07254055887460709,0.22911641001701355,0.18458735942840576,0.09793267399072647,-0.19037027657032013,-0.18316711485385895,0.27648088335990906,-0.17112469673156738,-0.0718093290925026,-0.11675544828176498,0.15123629570007324,-0.18667951226234436,0.24783767759799957,-0.2571713328361511,-0.0900285542011261,-0.2577071487903595,-0.21871712803840637,-0.09228674322366714,-0.2573813199996948,0.19241756200790405,-0.07649430632591248,-0.2249099463224411,0.1951502412557602,-0.44832730293273926,0.07828468829393387,-0.2044459730386734,-0.14831331372261047},{0.21495987474918365,-0.22245079278945923,-0.05173416808247566,0.2117324322462082,-0.12830406427383423,-0.0035869076382368803,0.05046737194061279,0.033697377890348434,-0.10001586377620697,-0.11903989315032959,-0.2289094477891922,0.012193230912089348,-0.03766467794775963,0.1652144342660904,-0.22340768575668335,-0.13216961920261383,-0.2822745144367218,0.2614130675792694,-0.17969484627246857,-0.1781402826309204,0.08682113885879517,0.049976274371147156,-0.19248880445957184,0.0030840623658150434,-0.3497004806995392,-0.034415002912282944,-0.05458652228116989,0.17960183322429657,-0.07948990166187286,-0.09267564862966537,0.18561387062072754,-0.20463767647743225},{-0.08781875669956207,0.06104139983654022,0.07227412611246109,0.27032122015953064,-0.14468537271022797,-0.1900615692138672,-0.052113138139247894,-0.2969079315662384,0.24589136242866516,0.04675702005624771,0.024986740201711655,0.17495842278003693,0.04550768435001373,0.3008401393890381,-0.10355598479509354,0.3428899645805359,-0.04114031419157982,0.2635520100593567,0.20382234454154968,-0.24708649516105652,0.212309792637825,0.07964928448200226,0.11905097216367722,-0.2555956542491913,0.009907234460115433,0.16189341247081757,0.15938220918178558,-0.26283010840415955,0.08737481385469437,-0.19096249341964722,0.33863264322280884,0.057009998708963394},{-0.24442405998706818,0.3379252851009369,-0.3244009017944336,-0.00034733960637822747,-0.3602869212627411,-0.10015635192394257,0.27452796697616577,0.13577336072921753,-0.09204240888357162,0.15728192031383514,-0.11837378144264221,-0.28639355301856995,-0.07613667845726013,-0.26013508439064026,0.07539236545562744,-0.4287894368171692,0.23469239473342896,-0.0751134380698204,-0.4393221139907837,-0.3022954761981964,-0.18214602768421173,-0.15811271965503693,-0.2447458654642105,0.028397349640727043,0.020221395418047905,0.09828682988882065,-0.22925174236297607,-0.12432217597961426,-0.03517591208219528,-0.04744468629360199,0.13189944624900818,0.14380492269992828},{-0.13926634192466736,-0.0900239646434784,-0.08204025775194168,-0.1430114060640335,0.1546383798122406,0.0560118593275547,0.18775242567062378,-0.12042762339115143,-0.26214519143104553,-0.11426488310098648,-0.12646916508674622,0.16427938640117645,-0.031048791483044624,-0.2939348816871643,0.24846598505973816,-0.34116971492767334,-0.03959321975708008,0.24852345883846283,-0.03400495648384094,0.03402140364050865,-0.01809573546051979,0.2958153188228607,-0.06280297040939331,0.01256769523024559,-0.08994278311729431,0.08093204349279404,0.07215295732021332,-0.26108407974243164,-0.19725573062896729,0.12474335730075836,-0.04993841052055359,0.2752712666988373},{-0.0032667540945112705,-0.022960297763347626,0.07949160784482956,0.166887566447258,-0.27394023537635803,-0.045274075120687485,0.2333793342113495,-0.2871302366256714,0.11104405671358109,-0.13816195726394653,-0.17174018919467926,0.02201439067721367,-0.1930016130208969,-0.2033437192440033,-0.2176237404346466,0.059334512799978256,0.048478297889232635,0.19416525959968567,0.10612937062978745,0.10069184005260468,-0.3884021043777466,-0.0020247495267540216,-0.2672267556190491,-0.2429615706205368,-0.022475969046354294,0.054057128727436066,0.050219327211380005,0.22641386091709137,-0.09639659523963928,0.3001191020011902,0.13548307120800018,0.1905311495065689},{-0.19776888191699982,-0.13284167647361755,0.10434938967227936,-0.10001685470342636,0.17760483920574188,-0.1270677149295807,0.01502032857388258,-0.27932411432266235,-0.13580046594142914,-0.056245531886816025,0.15106429159641266,0.06965196132659912,-0.04069076478481293,-0.056973591446876526,0.23747804760932922,0.11112572997808456,-0.13213787972927094,0.24406316876411438,-0.22744564712047577,-0.12361451983451843,-0.21720197796821594,-0.09327108412981033,0.13047724962234497,0.09210873395204544,0.10118565708398819,-0.22841481864452362,-0.22586044669151306,0.17116738855838776,0.11352560669183731,0.19594337046146393,-0.1412174105644226,-0.028154198080301285},{0.033755820244550705,0.03024185821413994,-0.17044033110141754,0.022134672850370407,0.06862037628889084,0.09841053932905197,0.02442012168467045,0.1773102730512619,-0.31465640664100647,0.1427118480205536,-0.19760622084140778,0.01641779951751232,0.2550605535507202,0.2501938045024872,0.14246448874473572,-0.2100224643945694,0.30196133255958557,-0.09390856325626373,0.04196435958147049,0.23645904660224915,0.2933381497859955,-0.264548122882843,0.2886676788330078,-0.037010304629802704,0.17615146934986115,-0.020093217492103577,-0.1283036172389984,0.21016106009483337,-0.0734623596072197,-0.026353079825639725,0.05204092338681221,-0.0396251380443573},{0.03847163915634155,-0.15138262510299683,0.024938715621829033,-0.008052036166191101,0.1430584192276001,0.1438012421131134,0.0363994762301445,0.22900815308094025,0.33449992537498474,0.10039754956960678,0.10495416820049286,0.18162690103054047,-0.26966002583503723,0.27245259284973145,0.140354722738266,-0.19223657250404358,-0.2083052545785904,-0.22151140868663788,0.2146255224943161,0.21519780158996582,0.025687752291560173,-0.14111971855163574,0.19583863019943237,0.08351563662290573,0.10241002589464188,-0.029017191380262375,0.06488107144832611,0.18781214952468872,0.09843367338180542,-0.03711088374257088,0.20749406516551971,0.11736184358596802},{0.19224220514297485,0.03395029529929161,-0.20218081772327423,-0.13757885992527008,-0.31683456897735596,-0.2789040803909302,-0.01790740340948105,-0.014418993145227432,-0.2902625799179077,-0.02852710522711277,-0.11067550629377365,0.03430795297026634,0.29370102286338806,-0.11235026270151138,0.09682086110115051,0.0382716991007328,-0.03787006810307503,0.06516464054584503,0.20286963880062103,-0.07118827849626541,0.11915016174316406,-0.20940431952476501,0.051332611590623856,-0.026075704023241997,0.02410569041967392,0.012835255824029446,0.2730131149291992,-0.10749201476573944,-0.06379362940788269,0.03467828035354614,0.16633811593055725,0.13590623438358307},{-0.22801560163497925,0.0014869384467601776,-0.07399287819862366,-0.14982090890407562,0.17219901084899902,-0.095579594373703,-0.12533409893512726,0.06379099190235138,0.08258554339408875,0.09500660002231598,-0.11754263192415237,0.07482829689979553,-0.2808493375778198,0.1263141930103302,0.10507579147815704,-0.1804337501525879,-0.11298040300607681,0.08448575437068939,0.24436233937740326,0.0627342015504837,0.08650577813386917,0.22771061956882477,-0.017216801643371582,-0.13632188737392426,-0.12351629883050919,-0.22313714027404785,-0.16889820992946625,-0.1595371961593628,0.13283009827136993,-0.03690682724118233,-0.2858099043369293,0.12332416325807571},{-0.13297444581985474,0.24714718759059906,0.1274574249982834,-0.2553277313709259,0.23924921452999115,0.08607684075832367,0.13204839825630188,-0.10976478457450867,-0.08263958990573883,-0.02626224048435688,-0.2957676947116852,0.16625036299228668,0.10942589491605759,0.25132685899734497,0.05158798769116402,-0.11373820155858994,-0.13187305629253387,0.0015573602868244052,-0.2481151521205902,0.2502390742301941,0.1450127214193344,-0.2970891296863556,-0.12461792677640915,-0.31150728464126587,-0.3029172718524933,0.24576826393604279,0.1765715628862381,0.047286372631788254,0.08034568279981613,-0.08704661577939987,0.21367867290973663,0.20909766852855682},{0.20879651606082916,-0.03726361319422722,0.13350829482078552,0.10809444636106491,0.029793333262205124,0.018976541236042976,0.024760259315371513,0.1523733288049698,-0.15540258586406708,0.11954393237829208,-0.09206460416316986,-0.19376468658447266,0.08410977572202682,0.014293981716036797,-0.32632148265838623,-0.16339145600795746,-0.1900634914636612,-0.03415483981370926,0.13859796524047852,0.4664280414581299,-0.19580785930156708,0.23792807757854462,-0.1352708786725998,0.35466691851615906,0.24338014423847198,-0.18135064840316772,-0.11597618460655212,0.029869411140680313,-0.32663223147392273,0.1733527034521103,-0.3726441562175751,0.07190176099538803},{0.16655707359313965,0.13833557069301605,-0.0640404000878334,0.1207878440618515,-0.1876157969236374,-0.09252326190471649,-0.028275739401578903,0.07152930647134781,0.13964523375034332,0.20789839327335358,0.1362503468990326,0.1257091611623764,0.3331238925457001,-0.0872599333524704,0.06658715754747391,-0.18298053741455078,0.1478375941514969,-0.2713734805583954,0.030217308551073074,0.2300320416688919,-0.24932272732257843,0.35277166962623596,0.04485708475112915,-0.277241587638855,0.2573661208152771,0.24444296956062317,0.2249777466058731,0.31641387939453125,0.1500592678785324,-0.28182920813560486,-0.24046799540519714,0.12080751359462738},{-0.19917088747024536,0.08981568366289139,0.05544143170118332,0.12071191519498825,0.060831937938928604,0.09213598817586899,0.06113622710108757,-0.006109127774834633,-0.21305297315120697,0.05594733729958534,-0.060080233961343765,-0.21392682194709778,0.04519376531243324,0.23469626903533936,0.19963796436786652,-0.027698656544089317,0.09315000474452972,-0.2559583783149719,-0.17146825790405273,-0.3863801658153534,0.03795209899544716,0.0688333809375763,-0.25626543164253235,-0.2602936029434204,0.14158107340335846,-0.1798451989889145,-0.31021571159362793,0.150497168302536,-0.07369617372751236,0.2364230901002884,-0.1775962859392166,-0.016607176512479782},{-0.1880197525024414,0.10538800060749054,-0.18947140872478485,-0.09226571023464203,0.22866137325763702,0.07603727281093597,-0.02719513326883316,0.28764474391937256,0.03014792874455452,0.0029298849403858185,-0.08209168165922165,-0.1250094622373581,-0.24602651596069336,0.23882071673870087,-0.028355486690998077,0.021501263603568077,0.008582521229982376,0.13384246826171875,0.1171625629067421,0.22570852935314178,-0.06303449720144272,0.1796301156282425,-0.0014397306367754936,0.19259269535541534,-0.22891445457935333,0.18218673765659332,0.19299454987049103,0.20648489892482758,-0.052399348467588425,-0.17839059233665466,0.2073172628879547,-0.22075548768043518},{-0.0772785097360611,0.14317014813423157,0.2917288839817047,-0.053194910287857056,-0.11172355711460114,0.1809798777103424,0.2001330703496933,-0.03305844962596893,-0.1841161549091339,-0.1549859344959259,0.07571274787187576,-0.18550555408000946,0.024815086275339127,0.1842188537120819,0.017777057364583015,0.06338691711425781,0.27875053882598877,-0.3104039132595062,0.028147846460342407,-0.08588121086359024,-0.3430519104003906,-0.11797566711902618,0.0016668549505993724,0.2562650144100189,0.2431948035955429,0.11402932554483414,-0.15795518457889557,0.05023103207349777,0.23979543149471283,-0.24554166197776794,-0.1499873399734497,0.1397142857313156},{-0.03520139679312706,-0.05464460328221321,0.2746196985244751,0.3379741609096527,0.15636849403381348,-0.006622449494898319,0.2980884313583374,0.14786610007286072,-0.10992290824651718,-0.23962940275669098,0.290347695350647,-0.2397095412015915,0.21683292090892792,-0.03857274353504181,0.022483857348561287,0.08648848533630371,-0.20793017745018005,0.07810041308403015,0.038520172238349915,0.3590776026248932,-0.2929248511791229,-0.2513391077518463,-0.1438383162021637,0.17477858066558838,0.24558742344379425,-0.22956906259059906,-0.16840921342372894,-0.14448948204517365,0.08768101781606674,0.06009778752923012,0.023678366094827652,-0.261091947555542},{0.22584472596645355,-0.16134624183177948,-0.02039167657494545,-0.14203974604606628,0.07009418308734894,0.3374485373497009,-0.005612003616988659,0.16987541317939758,0.16055427491664886,0.29641520977020264,0.17484340071678162,-0.21317943930625916,0.24210959672927856,0.15305118262767792,-0.04303184151649475,-0.09911223500967026,0.13255353271961212,0.2165653109550476,0.14379526674747467,-0.17831309139728546,0.28065142035484314,0.059331610798835754,0.25225675106048584,0.011050055734813213,0.1580725461244583,0.2798306941986084,-0.05810527503490448,-0.026493743062019348,0.0999104306101799,0.014831336215138435,-0.1817159205675125,0.21007126569747925},{0.20492710173130035,-0.1725178360939026,0.274884968996048,-0.1910487860441208,0.16784347593784332,0.12921936810016632,0.1701790690422058,0.08587855100631714,-0.18189634382724762,0.06391695141792297,0.12810379266738892,0.3140021860599518,0.014065912924706936,-0.03070838190615177,0.04662790149450302,0.05974308028817177,-0.03592801094055176,-0.09530939906835556,0.07794305682182312,-0.24090223014354706,-0.08005714416503906,0.11653061956167221,0.1491689234972,-0.11356532573699951,-0.006368193309754133,-0.18723952770233154,0.15921910107135773,0.20994515717029572,0.061769403517246246,0.10518020391464233,0.13155387341976166,0.03151920065283775},{-0.17688670754432678,-0.13186535239219666,-0.06672043353319168,-0.22462111711502075,-0.21889612078666687,0.08284974098205566,-0.28413236141204834,0.18192137777805328,0.2054278701543808,-0.07352147996425629,-0.023984242230653763,-0.12403453141450882,0.18457557260990143,-0.010819489136338234,0.2685905694961548,0.15014958381652832,0.23844607174396515,-0.2652462124824524,0.10327567160129547,0.2229635864496231,0.20153209567070007,0.08114605396986008,0.12724675238132477,-0.13565057516098022,-0.17657840251922607,-0.11967065185308456,0.05153696984052658,0.16457150876522064,0.19582004845142365,0.1691494584083557,-0.22436247766017914,-0.20322982966899872},{0.05830279365181923,-0.05131034180521965,-0.013343431055545807,0.12396430969238281,0.3626398742198944,0.1159965842962265,-0.19438029825687408,-0.07970213890075684,-0.3125838339328766,0.10484324395656586,-0.0008791693253442645,-0.04578416794538498,-0.1235847994685173,-0.14012093842029572,-0.11021284013986588,-0.018429622054100037,0.2899365723133087,0.17060281336307526,-0.05493449419736862,0.11051793396472931,-0.3398768901824951,0.08645888417959213,0.18106618523597717,0.015387791208922863,0.10372687131166458,-0.2808207869529724,0.3178510367870331,0.06360186636447906,-0.07407470047473907,-0.25422218441963196,6.469870277214795e-05,-0.12401717901229858},{-0.05297381803393364,-0.029691701754927635,0.09459950774908066,-0.21892765164375305,-0.21682749688625336,-0.1253887563943863,-0.07575034350156784,0.15936279296875,-0.21059130132198334,0.03366776183247566,-0.3302576243877411,0.025106707587838173,-0.05914723873138428,-0.11077703535556793,-0.12527790665626526,0.03523870185017586,-0.21119482815265656,-0.3210095465183258,0.13886530697345734,-0.14451217651367188,0.2979331612586975,0.09666674584150314,0.19262926280498505,0.2525654733181,-0.16453412175178528,-0.21384862065315247,-0.2617100775241852,-0.1134890764951706,-0.2810441255569458,-0.12902365624904633,0.29856279492378235,0.11131129413843155},{-0.12848412990570068,0.023454610258340836,-0.1501072496175766,0.2281312495470047,-0.034269969910383224,0.22919459640979767,0.11922809481620789,-0.20016959309577942,0.12058646976947784,0.10738259553909302,-0.19715192914009094,-0.27691149711608887,0.26869696378707886,-0.32478904724121094,-0.01635119691491127,-0.2695169150829315,-0.08835204690694809,0.17735104262828827,-0.019816717132925987,-0.0927576869726181,-0.012502862140536308,0.3284043073654175,0.12315735220909119,0.06201508641242981,0.06488718837499619,-0.1144653782248497,0.0014438785146921873,0.03423614054918289,-0.33211034536361694,0.3558289110660553,-0.12830135226249695,0.3022661507129669},{0.28032800555229187,-0.12247312813997269,-0.22450527548789978,-0.13154254853725433,-0.22874747216701508,-0.08924617618322372,-0.21866372227668762,0.2239641398191452,-0.43233639001846313,0.03257415071129799,0.012082217261195183,0.052843306213617325,-0.07246818393468857,0.12851577997207642,0.1676136702299118,-0.1372765302658081,0.08122757077217102,-0.08331814408302307,0.12536408007144928,0.17629709839820862,0.16610680520534515,0.24338148534297943,0.110031858086586,0.08246410638093948,0.02608306333422661,-0.2027730494737625,0.06771284341812134,0.11279565840959549,0.0010749903740361333,0.06543034315109253,0.06875132024288177,0.03984920680522919},{0.266996294260025,0.08900798112154007,0.16285742819309235,-0.1059504896402359,-0.033221784979104996,-0.00656194519251585,0.25706979632377625,0.28855380415916443,-0.014381634071469307,-0.14774641394615173,-0.030256573110818863,-0.16060301661491394,-0.014688117429614067,-0.11784403771162033,-0.017367467284202576,0.09901025146245956,-0.031932681798934937,-0.10423300415277481,0.13309140503406525,0.17355188727378845,-0.033373117446899414,0.06281664222478867,0.08160186558961868,-0.04310649633407593,-0.19469688832759857,0.12039380520582199,0.23329131305217743,0.3683905303478241,0.18136264383792877,0.23608578741550446,0.24521808326244354,0.1150982528924942}};
static const float actor_encoder_feed_forward_0_weight[48][64] = {{-0.058389775454998016,0.07250777631998062,-0.21509085595607758,-0.12178546190261841,-0.023912547156214714,0.09710004925727844,-0.08932673186063766,-0.049590323120355606,0.0468059778213501,-0.001036937115713954,-0.17785105109214783,0.025387927889823914,0.21009209752082825,0.3260626792907715,-0.20656943321228027,-0.020861264318227768,-0.10233338922262192,-0.003410471836104989,-0.06632564216852188,-0.1839933693408966,-0.1455870270729065,-0.1303676962852478,-0.11587353050708771,-0.06023835390806198,-0.1740306168794632,-0.08694363385438919,-0.07795475423336029,0.010090788826346397,0.08406032621860504,0.25158238410949707,-0.14511139690876007,0.05209055170416832,-0.23520997166633606,-0.18587200343608856,-0.03727233409881592,0.1327301412820816,0.18211868405342102,-0.06941863149404526,0.10092297196388245,-0.08767504245042801,-0.17341145873069763,-0.03913657367229462,0.0858338251709938,-0.10865871608257294,0.023629751056432724,-0.2291686236858368,0.17656360566616058,-0.1933443397283554,-0.15923500061035156,0.24152256548404694,0.31172066926956177,-0.1816224306821823,-0.018227901309728622,-0.01450018398463726,0.15750035643577576,-0.01283840648829937,0.07692261040210724,-0.019498156383633614,-0.10110393911600113,0.13326765596866608,0.0659608468413353,-0.1957104206085205,0.06597785651683807,0.18165698647499084},{0.1895221620798111,-0.010908761993050575,-0.04710141196846962,0.014816372655332088,-0.012852462008595467,0.06266140192747116,0.1738940179347992,0.1443111151456833,-0.07121935486793518,-0.038170043379068375,-0.16815806925296783,0.1811259239912033,-0.10735499858856201,0.014301137998700142,-0.049885593354701996,-0.05400246009230614,-0.17399977147579193,-0.16463690996170044,0.08882798999547958,0.115970678627491,0.0027389167807996273,0.10514167696237564,-0.13130177557468414,-0.06772574782371521,-0.12075049430131912,0.004258199129253626,-0.15445861220359802,0.1307840645313263,-0.1728256344795227,0.15105266869068146,0.02922212891280651,-0.031013818457722664,-0.02086583711206913,-0.04513367637991905,0.07481371611356735,0.18061724305152893,0.1669435352087021,-0.03453691303730011,0.07091376185417175,0.1409645825624466,0.0012389963958412409,0.011121544055640697,-0.08742227405309677,-0.08414418250322342,0.11337012052536011,0.001135907950811088,-0.1443776935338974,0.01505358424037695,0.09639859199523926,-0.042850855737924576,-0.13595175743103027,0.22287015616893768,-0.10946878045797348,0.006125557702034712,0.07109341770410538,0.04692983627319336,-0.007523825857788324,-0.16174648702144623,-0.2058430165052414,-0.17356199026107788,-0.08163592964410782,-0.11378391832113266,0.1307130604982376,0.11891202628612518},{0.24059297144412994,0.11073514819145203,-0.14469395577907562,-0.1224096417427063,0.23264595866203308,0.018702339380979538,-0.249941885471344,0.19937030971050262,-0.005760739091783762,0.09604441374540329,0.062394071370363235,0.06952766329050064,-0.07787220180034637,0.023977864533662796,0.12324298173189163,-0.09232982248067856,0.15917065739631653,-0.033144474029541016,-0.18627218902111053,-0.12165474146604538,0.044570256024599075,-0.23912255465984344,-0.1873156577348709,0.17878597974777222,-0.04765107110142708,-0.14246037602424622,-0.17938891053199768,0.08582082390785217,-0.0627555400133133,-0.16664265096187592,0.12010393291711807,0.145649254322052,0.20371539890766144,-0.2253158688545227,0.054221261292696,0.23484200239181519,0.09369892627000809,0.2378334254026413,0.056108567863702774,-0.06273435056209564,-0.16375505924224854,-0.08744887262582779,-0.08326100558042526,-0.07586471736431122,-0.13281530141830444,0.19640323519706726,0.21254944801330566,-0.003838954959064722,0.02683732472360134,-0.1982269585132599,0.24209122359752655,-0.09597153216600418,0.1755724549293518,0.19590912759304047,0.08299673348665237,-0.11859234422445297,0.022117285057902336,-0.0157142486423254,-0.18159599602222443,-0.05110440403223038,0.184658944606781,-0.22772079706192017,-0.12728402018547058,0.17091317474842072},{0.15375134348869324,-0.05381090193986893,-0.18425340950489044,-0.16811542212963104,0.008263533934950829,0.0519532635807991,-0.032922789454460144,0.052705876529216766,-0.06799803674221039,-0.027824049815535545,0.17116756737232208,0.2825518250465393,-0.2264048159122467,-0.022472640499472618,0.03128325939178467,-0.009915619157254696,0.06477285921573639,0.14677704870700836,0.16660453379154205,-0.11618898063898087,-0.15486760437488556,0.16779138147830963,0.07990019768476486,0.04569479078054428,0.03829430416226387,0.0835084542632103,-0.1947290152311325,-0.03813710808753967,-0.026500243693590164,0.28874537348747253,0.22356417775154114,-0.15713055431842804,-0.12178778648376465,0.18855491280555725,-0.0031755517702549696,-0.10356063395738602,0.045126669108867645,-0.047448351979255676,-0.012269296683371067,0.08296551555395126,0.1154322698712349,0.0554409995675087,-0.20806868374347687,-0.21345877647399902,-0.07627204805612564,0.01837250031530857,0.18940520286560059,-0.0328797847032547,0.05906365439295769,0.2637516260147095,-0.042282942682504654,0.06081049516797066,-0.03562455624341965,-0.2563324272632599,0.01901787333190441,-0.20110982656478882,0.1437477171421051,-0.14733344316482544,-0.07128724455833435,-0.010199292562901974,-0.03378015756607056,-0.0012553042033687234,0.0648537129163742,0.07755163311958313},{-0.004087303765118122,0.10826924443244934,-0.08988703787326813,-0.15021857619285583,0.25224971771240234,0.100099116563797,-0.1764158457517624,0.12343554198741913,0.009140807203948498,0.22335714101791382,0.018118243664503098,0.20266740024089813,0.18828420341014862,-0.04053385555744171,0.06584132462739944,0.08241377770900726,-0.049821991473436356,-0.23231473565101624,0.139713853597641,0.24790920317173004,-0.019972633570432663,-0.04015101119875908,-0.010555100627243519,0.20821695029735565,-0.024500934407114983,0.09531326591968536,0.22949108481407166,-0.19825778901576996,-0.013905029743909836,0.09334279596805573,-0.13131171464920044,0.021013833582401276,-0.056333817541599274,0.21620503067970276,0.17315086722373962,-0.002523125847801566,0.043205611407756805,-0.06900879740715027,-0.032530635595321655,-0.05872239172458649,-0.017245110124349594,-0.13941551744937897,0.019247282296419144,-0.14222227036952972,-0.022432448342442513,0.17182831466197968,0.01157472375780344,-0.17461876571178436,-0.044111188501119614,-0.19952116906642914,-0.0565977580845356,-0.09861373156309128,-0.08311833441257477,0.011905046179890633,-0.09941188246011734,0.19938139617443085,0.2271449714899063,-0.022418035194277763,-0.13746389746665955,0.04822240024805069,0.20443293452262878,-0.15652616322040558,0.1613302230834961,-0.18604734539985657},{-0.10517995804548264,0.08517356961965561,0.1323489546775818,-0.10184980928897858,-0.1468849778175354,-0.09777670353651047,0.04165304824709892,-0.12998740375041962,0.028726451098918915,-0.09569316357374191,0.10875630378723145,-0.07154140621423721,-0.17982277274131775,0.18718674778938293,0.028751622885465622,0.09543762356042862,-0.1626022756099701,0.11639104783535004,-0.049255188554525375,-0.13736440241336823,0.17874570190906525,0.2052805870771408,0.07564280182123184,-0.09347936511039734,-0.08709773421287537,0.0905536413192749,0.10293686389923096,-0.08352379500865936,0.042947880923748016,-0.12416194379329681,-0.04632461443543434,0.08230999857187271,-0.23659870028495789,0.06428515166044235,0.022216133773326874,-0.06242511421442032,-0.3037577271461487,0.18574057519435883,0.0021860639099031687,0.14143557846546173,0.042067382484674454,-0.07211287319660187,-0.10310226678848267,0.162618026137352,-0.10847299546003342,-0.010332339443266392,-0.10420218110084534,-0.10013153403997421,0.041012637317180634,-0.16353805363178253,0.06881038844585419,-0.20585806667804718,-0.018908176571130753,-0.0004743939789477736,0.06600513309240341,0.09969876706600189,-0.09540680795907974,0.04284287616610527,-0.03158150613307953,-0.09617825597524643,-0.10455112904310226,0.19157038629055023,0.14118383824825287,-0.2512533962726593},{-0.17076486349105835,0.04160559922456741,-0.04191230982542038,-0.04308786615729332,0.02872624062001705,-0.051556628197431564,0.16729481518268585,-0.0956069603562355,0.09032253175973892,-0.22375455498695374,-0.03797256201505661,0.09753073751926422,0.04325827956199646,0.03855392709374428,-0.15891967713832855,-0.09157035499811172,0.1670067459344864,0.0482388399541378,0.10013801604509354,-0.01222763117402792,-0.052530162036418915,-0.12639948725700378,0.07564541697502136,-0.02648770436644554,0.14138108491897583,0.14057254791259766,-6.0345428209984675e-05,-0.13735276460647583,-0.17147919535636902,0.16702893376350403,-0.0969337597489357,-0.05530620366334915,0.08090279996395111,-0.1291145384311676,0.26895079016685486,0.06841245293617249,-0.043757520616054535,-0.1760149896144867,0.07308467477560043,-0.02009168267250061,-0.09028995782136917,-0.18715202808380127,0.1816268116235733,0.1744273155927658,0.034966323524713516,0.06866111606359482,0.04919714853167534,0.06586478650569916,0.16802598536014557,-0.21456575393676758,0.30665650963783264,0.19888876378536224,0.029888318851590157,0.08204236626625061,0.03224913403391838,-0.09923272579908371,0.1362392157316208,0.03811261057853699,-0.25502151250839233,0.20392994582653046,0.191013902425766,0.0730431005358696,-0.022333836182951927,-0.21273885667324066},{-0.16425934433937073,0.16211967170238495,-0.027815639972686768,0.3131228983402252,-0.22981810569763184,-0.07760504633188248,-0.03602489084005356,-0.2973179519176483,0.026022501289844513,-0.020546717569231987,0.037756845355033875,-0.09168131649494171,-0.029754869639873505,-0.1246783584356308,0.011766619049012661,0.0328281968832016,-0.025811562314629555,-0.11287418752908707,-0.024830646812915802,-0.01564698852598667,-0.17548325657844543,-0.12733444571495056,0.013189323246479034,0.1120525449514389,0.1462521255016327,-0.0036861884873360395,-0.004641064442694187,-0.08460285514593124,-0.01478876918554306,0.050168752670288086,-0.2392139583826065,-0.06487254053354263,0.1943446546792984,0.09717180579900742,-0.08739320188760757,-0.13117559254169464,0.10428997129201889,-0.1378479301929474,0.06298720091581345,0.19001680612564087,-0.055043525993824005,0.06763245165348053,-0.010566418059170246,-0.1907792091369629,0.23608936369419098,0.06728613376617432,-0.23547133803367615,-0.06572387367486954,0.12269385904073715,-0.26216766238212585,0.015625005587935448,0.08745291084051132,0.12722401320934296,-0.07037748396396637,0.05546504259109497,0.0429173968732357,-0.05550369620323181,0.08802124112844467,0.1419946551322937,-0.17050953209400177,-0.09307374060153961,-0.22896206378936768,-0.12564201653003693,-0.06255556643009186},{-0.14837610721588135,-0.08878295868635178,0.06838685274124146,0.11645302176475525,0.03473325073719025,-0.10404933243989944,-0.1768626868724823,0.07191354781389236,0.091213658452034,0.25320735573768616,-0.012285052798688412,0.039168767631053925,-0.23149609565734863,0.012157604098320007,-0.024769041687250137,0.10182755440473557,-0.05694580078125,0.2794524133205414,0.23864254355430603,-0.10673294961452484,-0.11338329315185547,-0.16383370757102966,0.2099430114030838,0.17526696622371674,0.18431755900382996,0.16098281741142273,0.0519726537168026,-0.3107137084007263,-0.2924714684486389,0.04896329715847969,0.16728317737579346,-0.205392986536026,0.24147598445415497,0.020825019106268883,-0.24451985955238342,-0.0623595267534256,0.2031196802854538,0.1363079845905304,-0.12166880816221237,-0.13910728693008423,0.07871539145708084,-0.1437767893075943,0.07254151254892349,0.08369412273168564,-0.14535784721374512,-0.10745808482170105,0.11457180976867676,0.20731978118419647,0.24251168966293335,0.10247302800416946,0.21041899919509888,-0.15332603454589844,-0.22094811499118805,0.2314125895500183,-0.05990123376250267,-0.03493707999587059,0.12060537189245224,-0.08408484607934952,-0.19608764350414276,0.035594817250967026,0.14659136533737183,-0.105461984872818,0.05277957394719124,-0.21978718042373657},{0.021911516785621643,0.04136517643928528,0.19248004257678986,-0.01702866330742836,-0.08194047957658768,-0.05303463712334633,0.08236463367938995,0.11081171035766602,-0.07947418838739395,-0.09905000776052475,-0.11455626785755157,-0.05997881665825844,-0.13253986835479736,-0.005977913271635771,-0.04866790771484375,-0.05880897119641304,-0.03698023408651352,-0.08222775906324387,-0.0768803060054779,-0.2767089605331421,-0.04253794625401497,0.154887393116951,0.01572750136256218,0.09274010360240936,0.19844110310077667,0.20444896817207336,0.1486789584159851,-0.15095487236976624,-0.08913636952638626,-0.06492894887924194,-0.23542144894599915,-0.022127751260995865,-0.009834703989326954,0.19703125953674316,-0.05154552310705185,0.11937987059354782,-0.10810359567403793,0.03387456014752388,0.1317153126001358,0.011144961230456829,-0.11987663060426712,-0.10437881946563721,0.043501995503902435,-0.15602236986160278,0.19504067301750183,-0.13373881578445435,0.11513645201921463,-0.06476849317550659,-0.1387534737586975,-0.2961547076702118,-0.3047490417957306,-0.2396836280822754,-0.03375673666596413,-0.059792742133140564,0.020747501403093338,-0.2594725787639618,0.06437338888645172,0.05928146839141846,0.06332240998744965,0.026734089478850365,-0.14814631640911102,0.15057648718357086,-0.11298207938671112,-0.041794758290052414},{-0.10145460814237595,0.1707351803779602,0.016670433804392815,0.07447600364685059,0.05089488998055458,-0.008800966665148735,-0.08301162719726562,-0.19797185063362122,0.0839061290025711,-0.12374068796634674,0.10137517005205154,-0.12869299948215485,-0.20436976850032806,-0.14485406875610352,0.23595020174980164,0.026030337437987328,-0.04552836716175079,-0.1121070384979248,0.11477825045585632,-0.09825240820646286,0.10046657919883728,0.17820557951927185,-0.08057983219623566,0.15000976622104645,-0.04634818062186241,-0.15256282687187195,0.23551535606384277,-0.06969999521970749,-0.01302527915686369,-0.06666833162307739,-0.21041283011436462,-0.06137295067310333,0.08821062743663788,0.08295964449644089,-0.010769540444016457,-0.16488488018512726,-0.16864043474197388,-0.2594703435897827,-0.004180488642305136,-0.030238239094614983,-0.030898934230208397,-0.06896938383579254,0.14605148136615753,-0.1580302119255066,-0.08884405344724655,0.09188975393772125,0.1492423266172409,0.27104470133781433,0.15077313780784607,-0.055646445602178574,0.22738835215568542,-0.007325701881200075,-0.05547437444329262,-0.2651815116405487,-0.12006527930498123,-0.15447601675987244,-0.13909435272216797,0.09789322316646576,0.12960202991962433,-0.016760237514972687,0.2152417004108429,0.22606080770492554,0.12387832999229431,-0.1157672181725502},{0.2025316208600998,0.0043364097364246845,-0.02085600607097149,0.01292660366743803,0.1286771446466446,0.06252739578485489,-0.19724085927009583,0.21617528796195984,-0.1022876501083374,-0.07553742825984955,0.16081656515598297,0.08562874048948288,0.20035752654075623,-0.10255169123411179,-0.1864011138677597,-0.06235668435692787,0.0026226050686091185,-0.13538505136966705,-0.011388666927814484,0.15242135524749756,-0.1680574268102646,0.05274251848459244,-0.16032929718494415,0.18024702370166779,-0.0746857225894928,0.09399880468845367,-0.16651014983654022,-0.09539985656738281,-0.09148766100406647,-0.24487727880477905,-0.03562726080417633,-0.20408593118190765,-0.09033556282520294,0.021495390683412552,-0.13104650378227234,0.011945283971726894,0.07647386938333511,-0.03592818230390549,0.1477573662996292,0.06723961234092712,0.1430107057094574,0.16099944710731506,-0.07912061363458633,0.18771874904632568,0.15625013411045074,-0.21010908484458923,-0.030692867934703827,0.11846712976694107,0.1293962448835373,0.04743718355894089,-0.12703216075897217,-0.18396808207035065,0.06011605262756348,0.1298692524433136,0.18070700764656067,-0.12108242511749268,-0.08670496940612793,-0.03146277740597725,-0.15232188999652863,0.14821654558181763,-0.06682765483856201,-0.08219863474369049,0.062194909900426865,0.0015270221047103405},{0.06490471959114075,-0.009756028652191162,-0.07791903614997864,0.028293054550886154,0.1822431981563568,0.11439218372106552,-0.06772937625646591,-0.0077463071793317795,-0.06599017977714539,0.0722346380352974,-0.1867111176252365,-0.1115364283323288,-0.24806556105613708,0.09114532172679901,-0.06039644405245781,-0.16040699183940887,0.08374866098165512,-0.009147439152002335,0.0418836884200573,-0.03665396198630333,0.004664118867367506,0.13287267088890076,-0.02926832064986229,-0.19907110929489136,-0.08708376437425613,0.04231446981430054,-0.03201405331492424,0.0837431326508522,0.02417350746691227,-0.05796637758612633,0.3154579997062683,0.04629282280802727,0.093033567070961,0.049055036157369614,0.07495100796222687,-0.08721331506967545,0.16272488236427307,0.20930464565753937,0.15700294077396393,0.11857500672340393,0.14454694092273712,-0.18705837428569794,-0.07372348010540009,-0.17960497736930847,-0.03357875347137451,-0.05625350773334503,0.05761248618364334,0.2259301096200943,-0.24714934825897217,0.17069801688194275,-0.08581798523664474,-0.06621253490447998,-0.0681760162115097,-0.16222915053367615,0.026638001203536987,0.3149721324443817,-0.11717785894870758,-0.19932354986667633,0.10282117873430252,0.008705062791705132,-0.12704946100711823,0.22649531066417694,-0.13991935551166534,0.0019037775928154588},{0.23221126198768616,0.11988040804862976,0.0641447901725769,0.10072210431098938,0.10467448085546494,-0.12201108038425446,0.127272367477417,0.10155018419027328,-0.03324941545724869,-0.1987181156873703,-0.028854958713054657,-0.11660784482955933,-0.18948552012443542,0.20569472014904022,0.0355464443564415,0.08327162265777588,0.17110218107700348,-0.17587311565876007,-0.22889910638332367,0.2043818235397339,-0.0930720791220665,0.1622793823480606,-0.054184187203645706,0.1209762692451477,0.001358881127089262,0.21000921726226807,0.3030134439468384,0.1409648060798645,-0.1168949082493782,0.016462069004774094,-0.10733014345169067,0.1569000631570816,-0.07494664937257767,-0.02666194923222065,0.09897345304489136,-0.17539846897125244,0.1735985428094864,-0.15450917184352875,-0.01177647989243269,0.03252385929226875,-0.09539192169904709,-0.18015128374099731,-0.25550389289855957,0.07362695783376694,-0.08818570524454117,-0.1643057018518448,0.2076263129711151,0.168023943901062,0.11550351977348328,-0.19464799761772156,-0.026014233008027077,-0.22520673274993896,-0.06117498129606247,0.17781628668308258,-0.05745050683617592,-0.09472402930259705,-0.05065782368183136,0.2202187329530716,0.029981564730405807,-0.14891183376312256,-0.2265060842037201,-0.1897352933883667,-0.15681836009025574,0.12836457788944244},{0.02361973188817501,-0.048610832542181015,-0.19921229779720306,-0.174120232462883,-0.10824374109506607,-0.022855127230286598,-0.07417579740285873,-0.1977209895849228,0.012278766371309757,0.032244689762592316,-0.12341269105672836,-0.08940521627664566,0.024912765249609947,-0.15406057238578796,0.04682204872369766,-0.2219381034374237,-0.02264118380844593,-0.010915626771748066,0.08854993432760239,-0.0182369165122509,-0.05658593773841858,-0.13423708081245422,-0.12195099890232086,-0.15395349264144897,0.12944740056991577,-0.16953259706497192,0.022924372926354408,0.03545292466878891,0.1333775520324707,0.18448999524116516,0.14185191690921783,-0.18994539976119995,0.026998667046427727,-0.14172685146331787,-0.06665768474340439,0.05822966620326042,0.11715786904096603,-0.15930990874767303,0.036263979971408844,0.14988133311271667,-0.18130682408809662,-0.1326466053724289,-0.0869983434677124,0.11175135523080826,-0.085004061460495,0.16789719462394714,0.18761207163333893,-0.11405768990516663,0.09343650192022324,-0.18416209518909454,0.14967072010040283,-0.11889392137527466,-0.08532366901636124,0.034216973930597305,0.11254540830850601,0.009629636071622372,0.0012895462568849325,-0.09350918978452682,0.024990826845169067,-0.0862431675195694,-0.042075760662555695,-0.20048034191131592,-0.2018170803785324,0.06021279841661453},{0.06703431904315948,-0.08393606543540955,0.010360842570662498,0.0738719180226326,-0.14475491642951965,-0.007004453334957361,-0.13436222076416016,0.10457512736320496,0.017374413087964058,0.1539449840784073,-0.12835027277469635,0.14635489881038666,-0.037847355008125305,0.07714146375656128,-0.010485444217920303,0.07970744371414185,-0.2497795671224594,0.03827526420354843,-0.11746349930763245,0.07415054738521576,-0.185666024684906,0.11437509953975677,0.21550877392292023,0.13420222699642181,0.24157492816448212,-0.05983510985970497,-0.03279423713684082,-0.15990647673606873,0.14934532344341278,-0.11341623961925507,0.20164382457733154,0.11743360757827759,-0.06559820473194122,-0.09649777412414551,-0.22258105874061584,0.0390285961329937,0.20394018292427063,-0.19453562796115875,-0.18254454433918,0.02503722906112671,0.11119299381971359,0.13976947963237762,-0.22837762534618378,0.17145177721977234,0.17761242389678955,0.21012386679649353,-0.12096340209245682,0.08788534998893738,0.06410545110702515,-0.004010912962257862,0.04045148566365242,0.14878414571285248,-0.20882198214530945,-0.00835297629237175,0.03920889273285866,-0.1767820119857788,-0.13086934387683868,-0.044205475598573685,0.12071090191602707,-0.1531553566455841,-0.15038013458251953,-0.16196808218955994,0.20937608182430267,-0.12030717730522156},{0.17809346318244934,-0.028731422498822212,0.036365196108818054,-0.2130100280046463,0.2021998018026352,0.09460070729255676,0.18878793716430664,-0.23818877339363098,-0.08068384230136871,0.16113828122615814,-0.052732326090335846,-0.10035768151283264,0.04316595196723938,0.03503792732954025,0.14970940351486206,0.09547979384660721,-0.08446141332387924,0.043099403381347656,-0.06674216687679291,0.04309937357902527,0.014007550664246082,-0.1257963925600052,-0.17219646275043488,-0.08852516859769821,-0.00213916739448905,-0.0813177302479744,-0.1305878907442093,0.14359150826931,-0.02446722984313965,-0.14686861634254456,-0.08221612870693207,-0.01116704661399126,-0.015008016489446163,0.11327867954969406,0.16209855675697327,0.0744042843580246,-8.358716877410188e-05,-0.024228250607848167,0.04276606813073158,-0.14007996022701263,-0.14064811170101166,0.186013326048851,-0.23817569017410278,0.17491614818572998,-0.19840045273303986,-0.12361481785774231,-0.057157088071107864,0.021655360236763954,0.009245638735592365,-0.1263556033372879,0.22506745159626007,-0.20017161965370178,-0.07996819913387299,-0.005720215849578381,-0.038113947957754135,-0.12356486171483994,-0.22727809846401215,0.18669672310352325,-0.0868133082985878,0.02278006635606289,0.2637718915939331,-0.0739690288901329,-0.19610105454921722,-0.1663118153810501},{-0.0073310439474880695,0.17201171815395355,-0.10514293611049652,-0.07647823542356491,-0.08730138838291168,0.03144348785281181,-0.004270853940397501,0.0007793321856297553,0.0631064623594284,0.04263123497366905,0.24517643451690674,0.019737806171178818,-0.1973457783460617,0.21096737682819366,-0.17275743186473846,0.01894935593008995,-0.1346716582775116,0.05402266979217529,0.006729245651513338,-0.0009619554621167481,0.1440081149339676,0.22029390931129456,0.15370194613933563,-0.17407213151454926,-0.09447997063398361,0.2404201179742813,0.180271178483963,0.15028175711631775,-0.12399480491876602,0.12762844562530518,0.21331672370433807,-0.06174999475479126,0.16006910800933838,0.10340999811887741,0.022104423493146896,-0.049708813428878784,0.17837825417518616,0.1256173998117447,-0.0874943658709526,0.024313155561685562,-0.0574004165828228,0.15569578111171722,-0.04717811942100525,0.15531019866466522,0.1152525320649147,0.038250748068094254,-0.10505501925945282,-0.008202510885894299,0.19147105515003204,0.11873389780521393,-0.038199588656425476,0.07925598323345184,-0.0571497417986393,-0.027957631275057793,0.004554511047899723,0.05910830572247505,-0.1794152408838272,0.18585112690925598,0.10039344429969788,-0.07272986322641373,0.23520340025424957,-0.036703839898109436,0.2246200293302536,0.10303936153650284},{-0.2025831788778305,0.15258504450321198,-0.09116780012845993,-0.11187633126974106,-0.1251332014799118,0.10653696209192276,-0.019017143175005913,0.1137142926454544,-0.16693565249443054,-0.12609702348709106,-0.2675354480743408,-0.10286624729633331,-0.13693267107009888,0.1255059838294983,0.1681237667798996,0.2123066931962967,-0.07474618405103683,0.029033800587058067,0.028237421065568924,-0.18571026623249054,0.08825547993183136,-0.1551252007484436,-0.01584564708173275,-0.018387915566563606,-0.24203617870807648,-0.24810482561588287,0.07149724662303925,-0.08924711495637894,-0.0769280344247818,0.06726853549480438,0.06678156554698944,-0.1405000537633896,-0.0903288945555687,-0.05219496786594391,-0.161190003156662,-0.004533224273473024,0.2264718860387802,-0.11022026091814041,0.05938209220767021,-0.009495718404650688,-0.08658807724714279,0.03582027554512024,-0.22907958924770355,-0.09769546985626221,0.22120103240013123,0.1709183156490326,-5.374648389988579e-05,-0.010165785439312458,0.0554870143532753,-0.20892536640167236,0.12676821649074554,-0.1820702850818634,-0.08357124775648117,0.11435599625110626,0.14800909161567688,-0.13127779960632324,0.041503071784973145,-0.08005286753177643,-0.11975586414337158,-0.13221468031406403,-0.18041947484016418,-0.09436411410570145,0.01895035244524479,0.09366407990455627},{0.25349920988082886,0.05829167366027832,-0.08799836784601212,-0.04368669539690018,-0.1793910562992096,-0.01655968837440014,-0.1427452564239502,0.07900164276361465,-0.01523958146572113,-0.04738817363977432,0.11758106201887131,0.09525188058614731,-0.11345264315605164,0.09897364675998688,0.16058190166950226,0.0658126026391983,0.011218341998755932,-0.06669279932975769,-0.15954162180423737,0.08346036076545715,-0.19191628694534302,-0.22927676141262054,-0.02886801026761532,0.19904106855392456,0.17214038968086243,0.038751859217882156,-0.22139222919940948,0.20765267312526703,0.07985839247703552,-0.08908084779977798,0.03420357406139374,-0.12870311737060547,0.20624883472919464,-0.15455669164657593,0.07186640053987503,0.22480948269367218,0.08706071972846985,-0.11103449016809464,0.04842659831047058,-0.12017419189214706,-0.056017741560935974,0.19247324764728546,0.007819619961082935,0.17399068176746368,-0.0010066709946841002,-0.13253994286060333,0.21496056020259857,-0.21566744148731232,-0.1376836597919464,0.13208746910095215,-0.09578398615121841,0.026625918224453926,0.1444140523672104,-0.1502756029367447,0.0682724118232727,-0.008086515590548515,-0.18614113330841064,0.010642802342772484,-0.11392460018396378,0.09530352801084518,0.2073320597410202,-0.03242650628089905,0.1391657292842865,-0.02228429540991783},{-0.22222423553466797,0.18136684596538544,0.10244154930114746,-0.18362562358379364,-0.1106332540512085,0.1012757197022438,0.20901818573474884,-0.03196677565574646,0.11524920165538788,-0.11325060576200485,0.15589682757854462,0.12644870579242706,0.04289167374372482,0.06323753297328949,-0.18039637804031372,-0.07301165163516998,-0.006340977735817432,0.06388277560472488,0.23513779044151306,0.0802667886018753,0.1827080100774765,-0.09638157486915588,0.049946293234825134,-0.19081267714500427,0.20760130882263184,0.15818987786769867,-0.09251561760902405,0.09996500611305237,0.17235901951789856,-0.1323981136083603,0.26361143589019775,-0.026694467291235924,0.1704428344964981,-0.18040449917316437,0.03411150351166725,0.11066237092018127,0.04256504774093628,-0.18691416084766388,-0.024280469864606857,-0.07852206379175186,0.12428446114063263,-0.23334936797618866,0.06729082763195038,0.09596157819032669,-0.117866650223732,-0.07329272478818893,0.1524377465248108,0.041274651885032654,0.13495680689811707,-0.049549348652362823,-0.02724718116223812,-0.011325105093419552,0.1650286614894867,0.2781313359737396,-0.052317921072244644,0.012662374414503574,-0.006497400812804699,-0.17728674411773682,-0.08120011538267136,0.1948205828666687,-0.07327523082494736,0.08537731319665909,-0.18941959738731384,0.15957583487033844},{-0.07828625291585922,-0.04546678066253662,-0.2579682767391205,-0.022762581706047058,-0.25285354256629944,-0.16629846394062042,-0.23518522083759308,0.09517945349216461,0.004078628029674292,-0.23355014622211456,0.08472428470849991,-0.11793448030948639,0.04821441322565079,0.12419293820858002,-0.19282659888267517,-0.024793600663542747,0.17758001387119293,0.1140948086977005,-0.021793659776449203,-0.11824499815702438,0.11719632893800735,0.03725730627775192,-0.275361031293869,-0.14104627072811127,-0.11474540829658508,0.15902914106845856,0.15407884120941162,-0.04709818586707115,0.13926784694194794,-0.06803147494792938,-0.12481842935085297,-0.0875103548169136,-0.06563040614128113,-0.08495873957872391,-0.22339200973510742,0.08089372515678406,-0.11973609030246735,-0.14076578617095947,-0.08197496831417084,-0.16434498131275177,-0.02493816427886486,-0.16489356756210327,0.08216104656457901,-0.16908016800880432,0.24361717700958252,0.010082121007144451,0.14196781814098358,-0.09843849390745163,-0.14063139259815216,0.193028524518013,-0.12367697805166245,-0.0387505441904068,-0.005674268119037151,-0.12726184725761414,-0.029594281688332558,0.25606629252433777,-0.19960805773735046,-0.07614804059267044,0.1384640485048294,-0.104777991771698,-0.011833084747195244,-0.08085524290800095,-0.20804038643836975,0.018596114590764046},{-0.13621005415916443,0.07784690707921982,-0.00629906402900815,-0.0034145580139011145,-0.11251350492238998,-0.01149936206638813,0.20823155343532562,0.041692204773426056,0.17989589273929596,-0.05289459228515625,-0.29112401604652405,-0.21482785046100616,0.02672439254820347,0.1121101826429367,-0.044000670313835144,-0.06139739602804184,0.04100031033158302,-0.2118302285671234,-0.011292902752757072,0.21618877351284027,0.10143271833658218,0.13205677270889282,0.06118204444646835,0.16631251573562622,0.2304244488477707,-0.26455506682395935,0.011158277280628681,0.1871744990348816,-0.08596313744783401,-0.14364060759544373,-0.14314673840999603,-0.13493934273719788,-0.2188669741153717,-0.07571515440940857,0.14921146631240845,0.03548538684844971,-0.14232873916625977,0.17271532118320465,-0.21528561413288116,0.009346893057227135,-0.008657198399305344,-0.15866388380527496,-0.05857648700475693,0.22153490781784058,-0.2669426202774048,-0.051863085478544235,0.1083424836397171,-0.0896613821387291,0.21036642789840698,0.04720727726817131,-0.2422005832195282,0.02715335227549076,0.10871221125125885,-0.2022174596786499,-0.09124961495399475,-0.04172740504145622,-0.12788909673690796,0.12803247570991516,-0.21732965111732483,-0.014177870936691761,0.16477777063846588,0.10039293766021729,0.08037281781435013,-0.036646366119384766},{0.12754729390144348,0.16378042101860046,0.09921704977750778,0.1866605132818222,-0.2046455591917038,0.19697421789169312,0.045976459980010986,-0.07170966267585754,-0.12117559462785721,-0.06519421190023422,0.1263023167848587,0.07456503063440323,0.03238024190068245,-0.05160795897245407,0.2589423358440399,-0.15006646513938904,0.1352122724056244,-0.04020586982369423,0.14578552544116974,-0.16217952966690063,-0.29483917355537415,-0.23306700587272644,-0.018881097435951233,0.05004023388028145,-0.17880314588546753,-0.05751084163784981,0.19028733670711517,0.21818286180496216,0.18150220811367035,-0.12751778960227966,-0.14676931500434875,-0.010053025558590889,0.20744383335113525,-0.01879001595079899,-0.0663565844297409,0.10814503580331802,0.15675266087055206,0.05401097983121872,0.02588728629052639,0.05358618125319481,0.1820889264345169,0.10053058713674545,-0.1262587457895279,0.2297014445066452,-0.07895722985267639,-0.13467958569526672,-0.010005402378737926,-0.10783759504556656,0.18361888825893402,0.072268545627594,-0.020771140232682228,0.12355579435825348,-0.08110944926738739,-0.18268190324306488,-0.05378754436969757,-0.17009946703910828,-0.053294986486434937,0.16733630001544952,0.08285700529813766,0.004550877492874861,0.16854120790958405,-0.2630126178264618,-0.04502835124731064,-0.0297078937292099},{0.2203560769557953,-0.17692440748214722,0.1325446218252182,0.2285151183605194,-0.2048652470111847,-0.180641308426857,0.18007871508598328,-0.09793363511562347,0.04646677151322365,-0.16186001896858215,0.06327038258314133,0.13882271945476532,-0.1943473070859909,0.23982612788677216,-0.04682397469878197,0.16866621375083923,-0.02283788099884987,0.0638425201177597,0.08329005539417267,-0.07151531428098679,-0.23576737940311432,0.14312194287776947,0.16727706789970398,-0.050361864268779755,-0.24222326278686523,-0.10159984230995178,0.18356721103191376,-0.1677265465259552,-0.036777690052986145,0.2572323679924011,-0.2892589271068573,-0.14920954406261444,-0.13842447102069855,0.12093396484851837,0.10094685107469559,-0.04956986755132675,-0.05697787180542946,-0.03388332575559616,-0.10832522809505463,-0.055810969322919846,-0.08992920070886612,0.033393047749996185,0.1595003455877304,0.08255846798419952,0.18257172405719757,0.10721883177757263,0.10552456974983215,0.19570167362689972,0.05902445688843727,-0.027300642803311348,-0.01732902228832245,-0.16498446464538574,-0.06993710249662399,-0.2144189476966858,-0.0710480809211731,-0.1648559719324112,-0.03848356008529663,-0.004876239690929651,-0.05724348500370979,0.1311047524213791,0.17505566775798798,0.1337679624557495,-0.14338093996047974,-0.2011742889881134},{-0.20901615917682648,-0.11281999200582504,0.2153165638446808,0.09607955813407898,-0.077517069876194,0.02312188223004341,-0.11566996574401855,-0.013373317196965218,-0.033821169286966324,-0.05197715759277344,-0.04730925336480141,-0.057599447667598724,-0.1463497430086136,-0.11871687322854996,-0.17077721655368805,-0.1726599484682083,0.0643780305981636,-0.08440008014440536,-0.023607823997735977,0.03151349350810051,0.20248118042945862,-0.19995608925819397,-0.19091637432575226,-0.11170095950365067,-0.18018795549869537,0.011140158399939537,-0.0429009273648262,-0.20401790738105774,-0.04501489922404289,-0.02787753939628601,-0.12540270388126373,-0.04904735088348389,0.08610306680202484,-0.126120924949646,0.13005521893501282,0.012071753852069378,0.043710142374038696,-0.11965244263410568,-0.028242066502571106,0.11420831084251404,-0.054571010172367096,-0.06771084666252136,-0.054629333317279816,-0.1783798485994339,0.07840453833341599,0.09860307723283768,0.021997708827257156,0.23952774703502655,0.02049960009753704,0.2049984186887741,0.010680213570594788,0.15172185003757477,0.14211024343967438,0.12240390479564667,0.1741863191127777,0.043241553008556366,-0.11893396824598312,-0.00722641171887517,-0.06647699326276779,-0.017935020849108696,0.017873205244541168,0.20214737951755524,-0.11039318144321442,-0.05065423250198364},{0.12748663127422333,-0.07568532973527908,-0.1577347218990326,0.09510727971792221,-0.07517404109239578,0.04328097775578499,-0.2546776831150055,-0.009729715995490551,0.10535959899425507,0.15849222242832184,0.11175352334976196,0.07350239157676697,-0.19553302228450775,0.12815722823143005,-0.08025327324867249,-0.001490371534600854,0.1593620628118515,0.011857367120683193,0.09570803493261337,0.07991287857294083,0.09246207028627396,-0.21532411873340607,0.17689022421836853,0.24375073611736298,0.045695506036281586,0.002522008027881384,-0.0810818150639534,-0.06458590179681778,0.0002522223221603781,0.25196152925491333,0.0027956704143434763,-6.371140625560656e-05,-0.002195848850533366,-0.22896364331245422,-0.15685442090034485,-0.16540101170539856,-0.1328354924917221,-0.04651518538594246,0.13035447895526886,-0.007742547430098057,0.17328079044818878,-0.009978593327105045,-0.07603831589221954,-0.14565540850162506,-0.16337324678897858,-0.04581676051020622,0.014035279862582684,-0.1963854730129242,0.19035549461841583,0.0316554456949234,0.09238433837890625,-0.2065538614988327,-0.23480640351772308,-0.018170688301324844,-0.13034774363040924,-0.09126700460910797,-0.24489925801753998,-0.07784515619277954,0.07973071932792664,0.039835747331380844,0.2051292061805725,0.048597853630781174,-0.1993522197008133,-0.2588927745819092},{-0.15624015033245087,-0.10268287360668182,-0.11509276926517487,0.07159234583377838,0.1994546502828598,-0.08719947189092636,0.11134334653615952,-0.08198357373476028,0.04250910133123398,0.10436198860406876,-0.17460127174854279,0.21333597600460052,-0.031611647456884384,0.09769011288881302,0.165914848446846,0.09027593582868576,-0.10779958963394165,0.033711619675159454,0.10909147560596466,0.024495990946888924,-0.12589724361896515,-0.24683339893817902,-0.1427769660949707,0.16167762875556946,0.06314527988433838,-0.10741402208805084,-0.056212302297353745,0.21588249504566193,-0.00932207703590393,0.15653227269649506,0.13598185777664185,-0.21342220902442932,-0.21072863042354584,0.17663371562957764,0.08990432322025299,-0.13592588901519775,-0.0041609047912061214,-0.14011570811271667,-0.14360490441322327,0.1061977818608284,0.07409455627202988,-0.15243136882781982,0.003307313658297062,0.03540809452533722,-0.04934842139482498,-0.00709344120696187,0.1495073288679123,-0.1816992610692978,-0.17397452890872955,-0.09177368879318237,0.14837031066417694,0.11458342522382736,0.16369740664958954,0.10215150564908981,0.06483103334903717,-0.06746812909841537,-0.17798922955989838,-0.2229110300540924,0.12037200480699539,0.0860113874077797,-0.04916224256157875,0.17734025418758392,-0.21838103234767914,0.11551396548748016},{0.23564273118972778,-0.08109742403030396,0.041761614382267,0.022440841421484947,-0.00171918876003474,-0.11512155085802078,-0.016290627419948578,0.16814130544662476,-0.09490279108285904,0.05842664837837219,0.06297539174556732,-0.006888466887176037,0.18070641160011292,0.1938239187002182,0.008178126998245716,-0.24355749785900116,0.04264983907341957,0.07736189663410187,0.06315204501152039,0.1458723098039627,0.12746316194534302,0.07696057111024857,0.10946346074342728,0.1250324696302414,0.17018641531467438,-0.05571221932768822,-0.05636579543352127,0.06879672408103943,-0.04192844778299332,-0.09749956429004669,-0.01699787750840187,0.1059034988284111,-0.22746840119361877,0.07252095639705658,-0.056889694184064865,-0.09999161958694458,-0.10308343917131424,-0.09308735281229019,-0.045566219836473465,-0.10416807979345322,0.08712812513113022,0.19055218994617462,-0.0832778811454773,-0.08521857112646103,-0.16294795274734497,-0.01735273376107216,0.06429766863584518,0.19940224289894104,0.21619941294193268,-0.05457634478807449,-0.22438468039035797,0.17212603986263275,-0.13875891268253326,-0.1822839081287384,-0.11249348521232605,0.13561585545539856,-0.10224956274032593,0.17735998332500458,0.17523795366287231,0.17021766304969788,0.18297632038593292,0.08990655839443207,0.041908882558345795,-0.09700267761945724},{0.031034719198942184,-0.044896144419908524,-0.12214260548353195,0.17616119980812073,-0.04150395095348358,-0.045623164623975754,0.15661916136741638,-0.07562132179737091,-0.22342611849308014,-0.09074167907238007,0.1456678956747055,-0.010151545517146587,0.15719637274742126,-0.223947212100029,0.13320231437683105,0.03889872506260872,0.19256293773651123,0.1912931650876999,-0.10925376415252686,-0.1037362664937973,-0.14989982545375824,-0.05842896178364754,0.2577471137046814,0.1620568037033081,0.09285958856344223,-0.1194523274898529,-0.066839799284935,0.08799631893634796,-0.11669357866048813,0.0043402970768511295,0.13601483404636383,-0.08859768509864807,0.03059576079249382,-0.12455159425735474,-0.06342005729675293,0.07269337773323059,-0.07988417893648148,0.22960616648197174,-0.09762591868638992,-0.12780892848968506,0.1040259301662445,0.05948374792933464,0.07506285607814789,0.008918799459934235,-0.0008110468043014407,-0.011006401851773262,-0.051710039377212524,-0.11751056462526321,-0.188944011926651,0.20979827642440796,-0.14132751524448395,-0.04306139796972275,-0.07680952548980713,-0.20044495165348053,0.044384367763996124,0.13184234499931335,-0.032011762261390686,-0.05713498219847679,0.17933477461338043,-0.22403088212013245,-0.01768132485449314,0.2428777515888214,-0.06022154912352562,-0.07964936643838882},{-0.1919996738433838,0.03212546929717064,0.09436976909637451,0.022807562723755836,0.1493373066186905,0.024153782054781914,-0.2140483409166336,0.17487753927707672,-0.042424608021974564,0.17042896151542664,0.08780959993600845,-0.014611411839723587,0.2385396510362625,0.024083442986011505,-0.11333441734313965,0.07535150647163391,-0.05861140415072441,-0.1080668643116951,-0.06501851975917816,-0.06759033352136612,0.056177183985710144,0.11773098260164261,0.1577792465686798,0.05935397371649742,0.1422240287065506,-0.029216868802905083,-0.12115097790956497,0.05224130302667618,-0.1452537328004837,-0.16700060665607452,0.1477321833372116,-0.06108748912811279,0.20913493633270264,-0.17541339993476868,-0.2604147791862488,0.10146704316139221,0.07612017542123795,-0.12616081535816193,0.1130460724234581,-0.003200545674189925,0.1468973308801651,-0.05633363127708435,-0.16754429042339325,0.018965577706694603,0.07605951279401779,-0.09943664073944092,-0.21824757754802704,-0.2215038388967514,0.08312201499938965,0.1962253898382187,0.15111753344535828,0.11338076740503311,-0.0536365732550621,0.222293883562088,0.009520300664007664,0.1688147634267807,0.08095285296440125,0.09334777295589447,-0.15761840343475342,-0.022757472470402718,0.22076700627803802,-0.11528651416301727,-0.23137328028678894,0.13161073625087738},{-0.16513195633888245,0.018186962231993675,0.1205851212143898,-0.165141761302948,0.049872417002916336,0.2000148594379425,0.21162621676921844,-0.23737230896949768,0.03303853049874306,0.032527029514312744,-0.09526613354682922,0.07559844106435776,0.17622049152851105,-0.0005896043730899692,-0.07044180482625961,-0.054819416254758835,-0.26423460245132446,0.06970047205686569,-0.08648054301738739,-0.10878578573465347,0.07935252040624619,0.06456656754016876,0.09389039874076843,0.02640431560575962,0.1595105528831482,-0.15546932816505432,0.11359335482120514,-0.12543730437755585,0.05578244850039482,-0.046276140958070755,0.17461471259593964,0.14296455681324005,0.04516928270459175,-0.056164853274822235,0.22906182706356049,-0.06960924714803696,0.15844731032848358,0.14059258997440338,0.0270078144967556,0.2000640332698822,-0.1946912258863449,0.13692905008792877,-0.03877672180533409,-0.016606591641902924,0.13555675745010376,-0.10542087256908417,-0.10085815191268921,0.009277171455323696,-0.006094387266784906,-0.1783684492111206,0.020295102149248123,0.23869654536247253,-0.22396975755691528,-0.1853172928094864,-0.17377425730228424,-0.08838770538568497,0.20357616245746613,0.18962915241718292,-0.21021661162376404,0.09936601668596268,-0.13316552340984344,-0.13917876780033112,0.017497669905424118,-0.06443106383085251},{-0.0024114404805004597,0.16084571182727814,-0.09870954602956772,-0.10596305876970291,0.026101700961589813,-0.17015624046325684,0.1335841566324234,0.10458282381296158,0.00718051940202713,-0.16793839633464813,-0.1606658548116684,0.08621089905500412,-0.06840310245752335,-0.07511408627033234,0.0005456231301650405,-0.11519917845726013,0.06529240310192108,0.18121564388275146,0.1314854919910431,0.15757185220718384,-0.15552979707717896,-0.14644181728363037,-0.04266568645834923,0.2030331790447235,0.13776209950447083,-0.16175684332847595,0.20068293809890747,0.17257878184318542,0.24469369649887085,0.17542803287506104,0.22399665415287018,0.04432826116681099,-0.05516793206334114,0.02694827876985073,-0.23592010140419006,-0.07920316606760025,0.15322889387607574,-0.06056797504425049,0.021412143483757973,-0.1242082491517067,-0.06910865008831024,0.13542000949382782,0.10972317308187485,0.07835495471954346,-0.2366790771484375,-0.1090342178940773,-0.1437225043773651,-0.23382708430290222,-0.0950038954615593,0.20734058320522308,-0.06913560628890991,0.027998749166727066,-0.06899900734424591,0.33170148730278015,0.11103002727031708,0.1184515655040741,0.16301630437374115,0.10263872146606445,0.22692477703094482,-0.037867072969675064,0.057010017335414886,0.14688192307949066,0.014142720028758049,-0.00397945661097765},{0.07591484487056732,0.15368324518203735,-0.034131281077861786,0.22468246519565582,-0.18188053369522095,0.08670828491449356,-0.13968797028064728,-0.038093939423561096,-0.20444956421852112,-0.0536627396941185,-0.1307314932346344,-0.007434745319187641,0.008549179881811142,0.2196582406759262,0.28680092096328735,0.21594133973121643,0.06362518668174744,-0.1584663838148117,0.03990760073065758,-0.0012931657256558537,-0.28406211733818054,0.07484100759029388,0.02723013423383236,-0.2986503541469574,-0.14297246932983398,0.23047415912151337,-0.25030389428138733,0.08332217484712601,0.13883882761001587,0.02295561693608761,-0.01899215765297413,-0.1329534500837326,-0.03213690221309662,0.052679818123579025,0.13575491309165955,0.12935425341129303,-0.22487272322177887,-0.039469845592975616,0.21492257714271545,0.019729850813746452,0.16773056983947754,0.2503339350223541,-0.1731620728969574,-0.17464767396450043,-0.19820299744606018,-0.007359260227531195,-0.09682133793830872,0.024784263223409653,0.11706026643514633,-0.3043840527534485,0.048648763447999954,0.0769929438829422,0.11092940717935562,-0.08070959895849228,-0.05440296605229378,-0.225983127951622,0.07763966917991638,0.1905534267425537,0.04893658682703972,-0.027748800814151764,0.20972184836864471,-0.1756678819656372,-0.06339298188686371,-0.08711926639080048},{-0.21733225882053375,-0.058648720383644104,-0.001905318582430482,-0.01377240289002657,0.11215827614068985,-0.09636243432760239,-0.011955765075981617,0.139949768781662,0.06047862768173218,-0.1995881199836731,-0.1828649938106537,-0.24606402218341827,0.11109833419322968,0.20943643152713776,0.12095766514539719,0.027621937915682793,-0.06476139277219772,-0.22486117482185364,-0.11698663234710693,0.15901236236095428,-0.17774412035942078,0.15685614943504333,-0.0008053113706409931,-0.2557598054409027,0.017021842300891876,0.18048244714736938,-0.01856614090502262,-0.13273954391479492,-0.1006183922290802,0.16258785128593445,0.1579757034778595,0.12312380224466324,-0.05537284165620804,-0.11800304055213928,-0.033773865550756454,0.1680765151977539,0.0009257810888811946,0.04523598402738571,-0.07816023379564285,0.09710768610239029,0.12545561790466309,0.17474927008152008,-0.06366606056690216,0.015679510310292244,0.20982687175273895,-0.20807784795761108,0.02030811831355095,-0.051647987216711044,-0.24098843336105347,-0.04373834654688835,-0.2550067603588104,-0.1687835156917572,0.24034501612186432,0.10480749607086182,-0.09436860680580139,-0.15706972777843475,-0.04147563874721527,0.0018722045933827758,-0.1192123219370842,-0.08554268628358841,-0.08792561292648315,-0.16066975891590118,-0.1968604177236557,0.14965419471263885},{-0.1867152452468872,0.022034194320440292,-0.0722767636179924,-0.13929547369480133,0.09351860731840134,0.18838489055633545,-0.15652815997600555,-0.21115151047706604,-0.1252867579460144,-0.11201903969049454,-0.12660403549671173,0.04710434004664421,0.20036830008029938,0.18840420246124268,0.04349421709775925,-0.13268685340881348,0.22573889791965485,-0.15386632084846497,0.0901445597410202,0.006392315495759249,-0.20378895103931427,-0.08059795200824738,0.13545793294906616,-0.0029800792690366507,0.08105838298797607,-0.14304593205451965,0.09878558665513992,0.26290830969810486,0.28309378027915955,-0.01678631268441677,-0.11857142299413681,-0.16269348561763763,-0.14581574499607086,0.1854081004858017,0.20995327830314636,0.0916408896446228,0.04424525424838066,0.10304147005081177,0.25954732298851013,-0.15400952100753784,0.03164011612534523,0.005816374905407429,0.08879217505455017,-0.19140581786632538,0.08256001770496368,0.09418418258428574,0.0533047690987587,0.13660883903503418,-0.12531229853630066,-0.06671542674303055,-0.14424827694892883,0.14485210180282593,-0.011494863778352737,0.2492557168006897,0.16899465024471283,0.19988982379436493,0.04088473320007324,0.1420433670282364,0.060936104506254196,0.13811638951301575,0.2406211644411087,0.08986086398363113,0.07816113531589508,-0.26250308752059937},{0.0727337971329689,-0.04920312017202377,-0.03497035801410675,0.09817684441804886,0.1887616068124771,0.007156917825341225,-0.17683538794517517,0.15671613812446594,-0.048970211297273636,0.1544649302959442,-0.14362531900405884,-0.09184843301773071,0.07856187224388123,0.1401761919260025,-0.05952281132340431,-0.1317594349384308,-0.04470200836658478,-0.17246957123279572,6.916053098393604e-05,-0.16954325139522552,0.09789569675922394,0.14326117932796478,0.12566915154457092,-0.12052877992391586,0.1968855857849121,-0.11638060957193375,-0.027042414993047714,-0.0542994849383831,-0.03084559738636017,-0.11505910009145737,-0.08320019394159317,-0.022051122039556503,-0.004328027833253145,-0.02273641712963581,0.1614949256181717,-0.03963188827037811,0.14921127259731293,0.005566184408962727,-0.15799978375434875,-0.13302935659885406,0.06337765604257584,-0.051600970327854156,-0.06672937422990799,-0.1060270145535469,0.13344499468803406,0.14062340557575226,-0.03131731227040291,0.12015186250209808,0.012352618388831615,-0.0020961815025657415,0.08913056552410126,0.25159120559692383,0.1270761787891388,-0.008875376544892788,0.13388703763484955,0.12388114631175995,0.01520289946347475,-0.09954451024532318,0.01677555777132511,-0.19749407470226288,-0.22999852895736694,-0.038811881095170975,0.10791774094104767,0.10222942382097244},{-0.07907239347696304,0.1556319147348404,-0.025630025193095207,-0.06809081137180328,-0.0125108752399683,-0.09904550015926361,-0.10085558891296387,-0.13724733889102936,0.019281139597296715,0.17218507826328278,0.03202662616968155,0.12514346837997437,-0.17659637331962585,-0.010719586163759232,0.0821855217218399,-0.16204221546649933,0.07662513852119446,-0.17071108520030975,0.22192594408988953,0.02596818469464779,0.007367557846009731,-0.18746736645698547,0.18998289108276367,0.0022025597281754017,0.0627710297703743,0.14723725616931915,-0.1851440817117691,-0.21167755126953125,-0.1944246143102646,0.1842804104089737,-0.06283944100141525,0.09544581174850464,-0.05488995462656021,-0.04820040613412857,-0.09196241199970245,0.006870944984257221,0.14564953744411469,-0.04576167091727257,-0.12801127135753632,0.04984376206994057,-0.07025144249200821,-0.13158948719501495,-0.176286518573761,0.09095542877912521,-0.04859619587659836,0.10685998946428299,-0.16147102415561676,0.009263855405151844,0.1615351140499115,0.09332683682441711,-0.09703626483678818,0.032946228981018066,-0.18693140149116516,0.05077274888753891,-0.12555785477161407,-0.14941143989562988,-0.2328479290008545,-0.13311316072940826,-0.20824803411960602,0.08798711001873016,0.12993097305297852,0.050730932503938675,0.02313864603638649,0.1502295583486557},{0.129593625664711,0.1476203352212906,-0.022458136081695557,0.059598103165626526,0.13218893110752106,-0.1805187463760376,-0.19110697507858276,-0.17829109728336334,0.12866602838039398,0.09008321166038513,-0.261809766292572,0.14126065373420715,-0.23903700709342957,0.03283059597015381,-0.07591753453016281,-0.234939306974411,0.025405248627066612,-0.25145605206489563,-0.20246775448322296,-0.02265063486993313,0.10589465498924255,0.03526522219181061,-0.17614753544330597,-0.08200284838676453,0.07877039909362793,0.12339867651462555,0.2590295970439911,0.055811911821365356,-0.10674590617418289,0.06113065034151077,-0.2048913836479187,-0.12031274288892746,-0.015851689502596855,0.0012837060494348407,-0.2904200851917267,0.010955272242426872,0.20089714229106903,0.0641293153166771,0.09559345990419388,-0.10348652303218842,0.06145799160003662,0.043381791561841965,0.13349445164203644,0.05832112580537796,0.007825135253369808,0.1111474558711052,0.07512475550174713,-0.24415560066699982,0.06759475916624069,0.2508711516857147,-0.1658085435628891,-0.15463612973690033,-0.14957959949970245,0.08432747423648834,0.06452365219593048,-0.17799215018749237,0.05011427775025368,0.2339470237493515,-0.0635826513171196,-0.23100802302360535,-0.07703874260187149,0.009253093972802162,0.09189241379499435,-0.24881264567375183},{-0.06718875467777252,0.050181057304143906,0.16133946180343628,0.014191464520990849,0.14359965920448303,0.06273610144853592,-0.06964413821697235,0.059799935668706894,-0.07082285732030869,-0.09383352845907211,0.005665425211191177,-0.16414329409599304,0.10897819697856903,-0.00950817484408617,0.012129571288824081,0.17567329108715057,-0.03548985347151756,0.0022492597345262766,-0.245967298746109,0.030398251488804817,-0.19091102480888367,0.08277111500501633,-0.08614003658294678,-0.17672079801559448,-0.08212047815322876,-0.08577215671539307,-0.03768768906593323,0.07152710109949112,0.01746188849210739,0.14955838024616241,-0.054278936237096786,0.06235460937023163,0.21123799681663513,0.1342257261276245,0.14664548635482788,-0.03446311876177788,0.16396290063858032,0.008351941592991352,0.10382767021656036,0.13708053529262543,0.10094145685434341,0.04374004900455475,0.22039295732975006,0.18459190428256989,0.08885149657726288,-0.10436224937438965,0.1489548683166504,0.11211610585451126,-0.1901313215494156,-0.08886750787496567,0.06217215582728386,0.017345629632472992,0.11109574884176254,0.04698123037815094,0.0384751595556736,0.10657656937837601,-0.2225840836763382,-0.18135257065296173,0.062291450798511505,-0.05326536297798157,-0.0016231192275881767,0.17391856014728546,-0.14335750043392181,-0.07975078374147415},{0.024585837498307228,0.09306441992521286,-0.1774529069662094,0.007442423142492771,0.14549431204795837,0.054495278745889664,0.09738141298294067,0.1667904555797577,-0.005377426743507385,-0.12354322522878647,-0.04540203511714935,0.23502135276794434,-0.16625462472438812,-0.18680037558078766,0.05210435763001442,0.16591446101665497,0.0258143600076437,0.07121263444423676,-0.017157360911369324,-0.21055111289024353,0.05525486543774605,0.27064910531044006,0.022135481238365173,-0.10048738867044449,-0.20129434764385223,0.16151292622089386,-0.06090402230620384,-0.10507308691740036,-0.1809130311012268,0.13231663405895233,-0.07459025830030441,-0.11425995081663132,-0.14770294725894928,0.01919914036989212,-0.09057100862264633,-0.11256804317235947,0.11953055113554001,-0.2563006281852722,-0.11119700223207474,0.198020800948143,-0.009478661231696606,0.04424457997083664,0.17954391241073608,-0.008171751163899899,-0.17339453101158142,0.19592221081256866,-0.20634512603282928,0.09561555832624435,0.18137313425540924,-0.06710411608219147,0.13110849261283875,-0.011238541454076767,0.12347863614559174,0.21828386187553406,-0.1040678471326828,0.06934329122304916,0.15122418105602264,-0.08917173743247986,-0.06295600533485413,-0.21379950642585754,0.09405889362096786,-0.11800312995910645,-0.05863626301288605,0.17246544361114502},{0.12996582686901093,0.0726323127746582,0.19339647889137268,-0.26922428607940674,0.08354328572750092,-0.1097273975610733,-0.033228255808353424,0.20126491785049438,0.07968388497829437,0.19647258520126343,0.005182980559766293,0.22145773470401764,0.20789453387260437,-0.21294236183166504,0.10547737032175064,-0.04648799076676369,0.0897965058684349,0.13852624595165253,-0.14674222469329834,0.21723809838294983,0.24885907769203186,-0.0792839378118515,-0.12403833121061325,-0.1289018988609314,-0.11609993875026703,-0.002553500235080719,-0.11460687965154648,-0.06030756235122681,0.050878360867500305,-0.09659688919782639,-0.017575323581695557,-0.17264671623706818,-0.08674977719783783,0.07560356706380844,0.12224432080984116,0.1265389621257782,-0.03950418159365654,0.0248839370906353,0.22574998438358307,0.04820944741368294,-0.05693305283784866,-0.03520458564162254,0.1019548550248146,0.1504935920238495,-0.22264614701271057,0.0405346155166626,-0.13341973721981049,0.012097735889256,-0.053230635821819305,-0.13303105533123016,-0.12490838766098022,-0.16572517156600952,0.013415554538369179,-0.15015003085136414,0.042073555290699005,0.005736199673265219,-0.06858304888010025,0.13819043338298798,0.03638090938329697,0.19010688364505768,-0.15102893114089966,-0.08124005049467087,0.2422107458114624,0.26080161333084106},{0.05771324038505554,0.26322659850120544,-0.11592812091112137,-0.0103446114808321,0.22250470519065857,0.20925773680210114,0.14792121946811676,-0.042205408215522766,-0.09563452750444412,0.1594306081533432,0.17352764308452606,-0.08702781796455383,-0.12101336568593979,-0.1521386057138443,-0.12040956318378448,-0.10147545486688614,0.04681096225976944,-0.051991917192935944,0.14031203091144562,-0.10417703539133072,-0.014885824173688889,-0.08051953464746475,-0.11690295487642288,0.17183983325958252,0.021518366411328316,0.0556083582341671,-0.12695135176181793,-0.21600376069545746,-0.03194510564208031,0.18797558546066284,-0.2885398268699646,0.2689868211746216,0.09325432777404785,-0.2144351750612259,-0.08753784000873566,-0.05481050908565521,-0.0011668511433526874,-0.21326150000095367,-0.0670986995100975,0.13693131506443024,0.08805780857801437,-0.15793301165103912,0.09679308533668518,-0.2160118818283081,-0.08178489655256271,0.11416547000408173,0.1537919044494629,-0.2059023082256317,-0.030981341376900673,0.12792694568634033,-0.07489866018295288,-0.09105457365512848,-0.013110344298183918,-0.10730204731225967,-0.041869230568408966,0.012879680842161179,-0.027194365859031677,-0.16078220307826996,-0.009818623773753643,-0.17298640310764313,-0.06210198253393173,0.09046719968318939,0.22924144566059113,-0.21022197604179382},{0.03794890642166138,-0.10284765064716339,0.061577312648296356,0.17419525980949402,-0.006476713810116053,-0.06333645433187485,0.009348401799798012,-0.008167200721800327,-0.01227639615535736,0.18284857273101807,-0.13900218904018402,0.22635053098201752,-0.05008619278669357,-0.03978875279426575,0.10281655937433243,0.06335295736789703,0.016235439106822014,0.17364248633384705,0.051155488938093185,-0.19271664321422577,-0.12775090336799622,-0.042609408497810364,-0.10794652253389359,-0.14228901267051697,0.07884460687637329,-0.16355225443840027,0.09734100848436356,0.16768477857112885,-0.12044019997119904,-0.025496404618024826,-0.35769444704055786,0.02452591061592102,-0.043285220861434937,0.06455535441637039,0.1692166030406952,0.16027018427848816,0.02940245345234871,-0.05614330619573593,-0.2767520844936371,-0.07687818259000778,-0.06707023829221725,0.0872562825679779,-0.1208210214972496,0.17903292179107666,0.18656526505947113,0.2249099165201187,-0.0904231071472168,-0.10361872613430023,-0.10705685615539551,-0.02193978801369667,0.14223504066467285,-0.09723876416683197,-0.17127931118011475,-0.10562131553888321,0.14092430472373962,0.09543132036924362,-0.04121585562825203,0.043671004474163055,-0.17368192970752716,0.17315417528152466,0.0441015362739563,0.25989457964897156,0.00838305801153183,0.12042339146137238},{0.07070405036211014,0.12790612876415253,-0.08855602890253067,0.276140421628952,-0.006575683131814003,0.22654782235622406,-0.04822249710559845,-0.35830560326576233,-0.13302314281463623,-0.14640067517757416,0.007009927649050951,0.13979646563529968,0.12518003582954407,-0.08112899214029312,0.16149723529815674,-0.10407935827970505,-0.09980135411024094,-0.367195725440979,0.06622140109539032,0.07757910341024399,-0.3378292918205261,-0.21105952560901642,-0.23102079331874847,-0.17677301168441772,-0.10021137446165085,-0.14843428134918213,0.07608510553836823,0.1580636203289032,0.23775242269039154,0.1077260822057724,0.15074054896831512,-0.07247671484947205,0.006281557958573103,-0.03860308602452278,0.1452580690383911,0.035792671144008636,-0.025767812505364418,0.10633362829685211,0.2988168001174927,0.03651529923081398,